weights3 [64][64][3][3]=
{{{{0.0020627, -0.1094633, 0.0385204}, {0.4105083, 0.3858959, 0.067575}, {-0.2096234, -0.3496517, -0.1356252}},{{0.0071609, -0.0454984, 0.0754832}, {-0.024753, -0.0437792, -0.0150036}, {-0.081231, -0.0566987, 0.0753035}},{{0.0248714, -0.0142235, 0.0324624}, {0.0550818, -0.0005827, -0.0542571}, {0.0698665, 0.0322835, 0.0151942}},{{-0.0200134, -0.0779859, 0.0073825}, {0.0192733, -0.0004589, -0.0051721}, {0.0355195, -0.0712862, 0.0118527}},{{-0.0822727, 0.042255, 0.0620684}, {-0.0812047, -0.0971204, -0.0982755}, {0.017766, -0.0212567, 0.0488921}},{{-0.1164172, 0.0116709, -0.1819617}, {-0.1390576, -0.2063742, -0.0654166}, {-0.2297067, -0.2081378, -0.1528691}},{{-0.0483132, -0.0369069, -0.2102877}, {0.0081887, -0.0732422, -0.1883597}, {-0.2247111, -0.1532906, -0.0558052}},{{-0.0788727, -0.0483203, 0.0464768}, {0.0681489, 0.0351165, -0.0028433}, {0.009621, 0.007734, -0.0211347}},{{-0.0470335, -0.0671313, 0.0084968}, {-0.0327229, 0.0268194, 0.0310763}, {-0.1035493, 0.0016841, -0.0362195}},{{0.0496961, 0.0061421, 0.0067586}, {0.0333606, 0.0926119, -0.0444884}, {0.041257, 0.0894299, 0.0146565}},{{0.0441081, -0.0719514, -0.0040828}, {-0.0595525, -0.0288517, 0.0758518}, {-0.0993722, -0.0551561, -0.0266899}},{{-0.0675994, -0.0028571, -0.0131637}, {-0.0501373, -0.0660295, -0.0370836}, {-0.0620624, 0.0533539, -0.0632996}},{{-0.0615822, 0.0565417, -0.0289317}, {-0.1074457, -0.0112489, 0.0658533}, {-0.0205368, 0.01867, 0.0082736}},{{0.2230245, -0.0782992, 0.0289345}, {0.0346505, -0.0269772, 0.2456079}, {-0.2138892, -0.0346082, -0.173627}},{{-0.040735, 0.1332297, -0.0518565}, {-0.0589107, 0.0868107, -0.0834181}, {-0.3565797, -0.524132, -0.3689323}},{{0.0119815, 0.0491923, -0.0717873}, {-0.0487865, -0.0599644, -0.0166014}, {0.0483007, -0.054829, 0.0459531}},{{-0.0501418, 0.0062475, 0.0478801}, {0.1740432, 0.0087357, -0.0015714}, {-0.040466, 0.0417527, -0.0324272}},{{0.0928152, -0.0379738, 0.0476366}, {0.0575782, 0.0359265, 0.0518904}, {0.0434293, -0.0052667, 0.1144949}},{{-0.0248075, 0.061469, -0.0539983}, {0.0366627, 0.0971238, 0.0284135}, {-0.3786744, -0.3409385, -0.1967857}},{{0.0071049, 0.0203278, -0.0134835}, {0.0466002, 0.0056559, -0.0205406}, {-0.0544485, -0.0382283, 0.0149902}},{{-0.0751714, -0.0587463, -0.1770375}, {0.0443933, 0.1311495, 0.0254818}, {0.033393, -0.065764, -0.146216}},{{-0.2843052, -0.0910852, 0.0176856}, {-0.1024722, -0.0453552, -0.0115498}, {0.0809218, 0.0733545, -0.0080926}},{{-0.0504864, -0.0974635, -0.1215858}, {-0.0817388, -0.2510785, -0.3737537}, {-0.1847754, -0.0634828, -0.036422}},{{0.0489196, -0.0455448, 0.0154636}, {0.0201042, -0.0269217, 0.0246615}, {0.0721644, 0.0293459, -0.09866}},{{0.011187, 0.1019563, 0.0309692}, {-0.0885244, 0.0839025, -0.0289676}, {-0.0488286, 0.0180079, 0.0216361}},{{-0.1190026, -0.0421257, 0.0030282}, {-0.1250428, -0.1685099, -0.0694523}, {-0.0756342, -0.1512102, -0.2638982}},{{-0.0655584, -0.3796466, -0.4042785}, {-0.1735256, -0.1908765, -0.1015588}, {-0.06913, -0.0157217, -0.2007816}},{{-0.0682078, 0.0156143, 0.0459948}, {0.0044481, 0.0148118, -0.021902}, {-0.0250458, -0.0518725, 0.0138076}},{{-0.040462, -0.0604585, -0.0504675}, {-0.0939141, 0.0005637, -0.0294764}, {-0.0631968, -0.0228687, 0.0199251}},{{-0.0597622, -0.1001089, -0.089824}, {-0.0492522, -0.0205632, 0.0123343}, {-0.0141555, 0.0258363, -0.0698715}},{{-0.0252753, 0.0003141, -0.1146929}, {-0.0262449, -0.0269495, -0.0056005}, {-0.0215366, -0.0604462, 0.064583}},{{-0.1899081, -0.0868897, -0.0734073}, {-0.0869147, -0.0141138, -0.0236192}, {0.0143379, 0.0013639, -0.0699081}},{{-0.1045585, -0.115797, 0.0235032}, {-0.085886, -0.2195421, -0.1182085}, {-0.2712813, -0.5421491, -0.3111006}},{{-0.0790076, -0.1330227, 0.0299408}, {-0.0825214, 0.0048554, 0.097365}, {-0.1170613, -0.1044056, -0.089111}},{{-0.1349452, -0.0277461, -0.1670208}, {-0.0106765, -0.0656341, -0.1049907}, {-0.2291079, -0.121553, -0.0763395}},{{-0.0720466, 0.0478775, 0.0716893}, {0.0099932, -0.0406579, -0.0185935}, {-0.0868106, -0.0452718, 0.0254142}},{{-0.05235, -0.0083407, 0.0755787}, {0.0148064, -0.0691813, -0.0067581}, {0.0586447, -0.0265292, -0.0216583}},{{-0.0050414, -0.0193506, 0.0089942}, {-0.0546498, -0.0224384, -0.0641022}, {0.0224996, -0.0299997, 0.024015}},{{0.1748023, 0.079664, 0.1453528}, {0.0856657, -0.0251655, -0.0499608}, {-0.1138468, -0.173781, -0.3339054}},{{0.019159, -0.0403597, -0.1326632}, {-0.0404033, 0.0236312, -0.0324993}, {0.0165568, 0.0698695, 0.0270832}},{{0.135326, -0.1097309, 0.0124048}, {0.1060036, 0.2095025, 0.2360339}, {-0.167779, 0.0334508, -0.1023638}},{{-0.2075494, -0.0274587, -0.0045635}, {-0.0676808, -0.1224265, -0.0174719}, {-0.0010746, -0.1133427, -0.0992218}},{{-0.122967, -0.2227059, -0.1917013}, {-0.1519837, 0.0149851, -0.0480256}, {0.0207641, 0.1487183, 0.0152063}},{{-0.0904018, 0.0749819, -0.0939819}, {-0.2006554, 0.0656258, -0.1428214}, {-0.2677769, -0.0691068, -0.1001323}},{{-0.2485618, -0.1709719, 0.0363617}, {-0.1544938, 0.0088006, -0.107194}, {-0.0231095, 0.2317649, -0.1686285}},{{-0.2447659, 0.0003194, 0.0751946}, {-0.240361, 0.0134742, -0.040189}, {-0.0488289, -0.0531348, -0.1492349}},{{0.0315792, -0.1433353, -0.1097745}, {0.0356341, -0.047965, -0.0407843}, {0.0531698, 0.005494, 0.0125644}},{{-0.029331, -0.0635529, 0.0401477}, {-0.0567102, -0.0155097, -0.0668539}, {-0.0185525, -0.0624641, -0.0345719}},{{-0.1977583, -0.0737096, -0.0315316}, {-0.0363633, -0.0835909, -0.107348}, {0.0387562, -0.0519332, 0.0618814}},{{-0.0584912, -0.0693695, 0.0319338}, {-0.0254934, 0.0367783, -0.1192129}, {-0.0425192, 0.0331495, -0.0415935}},{{0.041914, -0.0830321, -0.0349956}, {-0.0107744, -0.036798, -0.07247}, {-0.0440161, -0.0461404, 0.0143092}},{{0.0114796, 0.068918, -0.0083373}, {0.0138219, 0.0573061, 0.0107991}, {0.0460368, -0.0727043, -0.0033264}},{{0.0033385, -0.0639718, -0.3868749}, {-0.1181067, -0.0285213, 0.0545728}, {-0.0482014, -0.1854747, -0.1742717}},{{0.0399508, 0.0039624, 0.0041987}, {-0.1427618, -0.0701493, 0.1690167}, {-0.0512887, -0.0300514, -0.2593448}},{{0.0300138, 0.0094748, -0.1085486}, {0.014364, 0.00222, 0.0370812}, {-0.0480101, -0.020613, -0.014385}},{{0.0245624, -0.2168929, -0.2252381}, {0.1201194, 0.1812087, -0.1241485}, {-0.3005932, -0.2560602, -0.5006208}},{{0.0827204, -0.0166782, -0.0626091}, {-0.1188587, -0.1086167, -0.0466165}, {-0.095498, -0.044481, 0.0072787}},{{0.0690208, -0.0296508, -0.0033707}, {-0.1478845, -0.1995887, -0.1807988}, {-0.2794566, -0.1601905, -0.1176957}},{{-0.0352627, -0.1484385, -0.1221131}, {0.0761594, -0.035278, -0.0540659}, {-0.1260552, -0.0115179, -0.0115212}},{{0.0756714, 0.0524865, 0.0846651}, {-0.0039332, -0.103133, 0.0140628}, {-0.0973872, -0.0539382, -0.0516471}},{{0.012132, 0.0542384, 0.0165744}, {0.0908289, 0.0625993, 0.1181802}, {-0.024546, -0.0998951, -0.0845793}},{{0.0622446, 9.97e-05, -0.0672858}, {-0.0045241, -0.0726381, -0.069809}, {-0.0744976, -0.0389424, -0.1179238}},{{-0.0865466, -0.0879352, -0.0929906}, {0.1790768, 0.0166437, -0.2834948}, {-0.0920035, -0.2072746, -0.2528712}},{{-0.1061655, 0.0037171, 0.0965435}, {-0.1345383, 0.0377035, -0.0132665}, {-0.0690311, -0.2659442, -0.0724043}}}
{{{0.0873418, -0.1377239, -0.1910325}, {-0.0335087, 0.2870842, -0.2554704}, {0.0362039, 0.2989567, 0.003352}},{{-0.0328442, 0.1378511, 0.2899745}, {-0.1776553, -0.1521464, 0.2052729}, {-0.1952829, -0.05317, 0.1232586}},{{-0.0742216, -0.0574263, -0.0541404}, {-0.0303997, -0.0160525, -0.0417383}, {0.047771, 0.0418189, 0.0560426}},{{0.0627135, -0.0224157, -0.0450038}, {0.0150716, -0.046503, -0.0092815}, {-0.0023932, -0.0431115, 0.0485181}},{{-0.0796488, 0.0844578, 0.0005824}, {-0.0990873, 0.0257651, 0.0168736}, {0.0911577, 0.0662244, 0.0471778}},{{0.0952647, 0.2066007, -0.1356958}, {-0.0297405, 0.052391, -0.2890809}, {-0.1017983, -0.2800909, -0.3183405}},{{-0.0826939, 0.1672169, 0.0455312}, {-0.0805979, -0.1654108, 0.0128393}, {-0.0660775, 0.027435, -0.0153711}},{{-0.0454687, 0.058698, 0.0504902}, {-0.06145, -0.0037164, 0.0245178}, {0.0401512, 0.0279989, -0.1153083}},{{0.1129181, -0.1381841, -0.0038296}, {-0.1349434, -0.0050656, -0.0684433}, {-0.0256584, -0.0250908, -0.0710831}},{{-0.0751442, 0.0142521, -0.0388608}, {-0.022907, -0.0611439, -0.0055022}, {-0.0330711, 0.0820189, 0.0631955}},{{-0.1277943, 0.1125163, -0.0653571}, {-0.1624423, 0.0042477, 0.045174}, {-0.036961, -0.0344201, 0.0047264}},{{-0.0138118, 0.008995, -0.0317367}, {0.0508995, -0.0173523, 0.0185758}, {-0.033022, 0.0318021, -0.0155517}},{{-0.0212935, 0.0844266, 0.1361277}, {-0.1464582, -0.1830945, -0.0559653}, {-0.0303824, -0.083071, 0.120452}},{{-0.1410421, 0.0003003, 0.1110538}, {-0.0624717, 0.0048889, 0.096006}, {-0.2609068, -0.0893641, 0.1586038}},{{-0.2431041, -0.227183, -0.0897467}, {-0.0393628, 0.0832015, -0.0098781}, {0.0765627, 0.0749508, -0.1024345}},{{0.0935681, 0.016265, -0.0599326}, {0.0712208, 0.0630347, -0.0209566}, {0.1089529, 0.0140126, -0.0376204}},{{-0.0092332, -0.0748168, 0.0333179}, {0.0286692, -0.1436097, 0.0173375}, {-0.0463936, -0.0404442, -0.0406318}},{{-0.0294421, -0.0838084, -0.0408308}, {0.1369654, -0.0227282, 0.0601896}, {-0.1638856, -0.0146834, -0.0763204}},{{-0.2453512, -0.4231372, -0.1956721}, {-0.1819416, 0.1119965, -0.097065}, {0.0560817, 0.1345459, -0.0771164}},{{0.0633844, -0.018231, 0.0425756}, {0.0295809, 0.0459746, -0.006027}, {0.0483027, -0.0320491, -0.0419506}},{{0.0186192, -0.0380606, 0.0242213}, {-0.0258752, -0.0202909, 0.0217953}, {-0.0295194, 0.0306595, -0.0724643}},{{-0.0206358, -0.0848804, -0.0321745}, {-0.0323079, 0.0197032, -0.0279774}, {-0.1052737, 0.0429984, 0.0060422}},{{0.0488978, 0.1559941, -0.3134973}, {-0.2383187, 0.003208, -0.2431805}, {-0.0717061, -0.098186, -0.1385402}},{{0.1043828, -0.007692, 0.0296525}, {-0.0912496, -0.1070358, -0.1214527}, {-0.0895963, -0.1308855, -0.1122847}},{{0.0025254, 0.0091815, 0.0560381}, {-0.0367716, -0.0231207, -0.0535559}, {0.0696681, 0.1073474, -0.0171489}},{{-0.0192418, 0.1280464, -0.0500685}, {-0.03841, 0.095647, -0.0863616}, {-0.324819, -0.2068253, -0.2402083}},{{0.1239274, -0.1043916, -0.2807939}, {-0.0138058, -0.1056351, -0.3203555}, {-0.206752, -0.1343802, -0.2930934}},{{-0.0880882, 0.0341421, 0.0649668}, {-0.0306309, 0.0290708, 0.0483312}, {0.0393, -0.0734011, -0.0480214}},{{0.1472603, 0.218903, -0.0439927}, {0.082826, -0.0329508, -0.0647713}, {-0.0770378, -0.0287856, -0.2375449}},{{-0.007096, -0.1244838, -0.0243194}, {-0.2192076, 0.0222808, 0.0411048}, {-0.0582694, -0.0586438, -0.0575695}},{{0.0031813, -0.1344397, -0.0236572}, {0.1141357, 0.0409974, 0.0596619}, {0.0042397, -0.0611141, 0.0301845}},{{0.1075713, -0.0301256, -0.0236904}, {-0.0031998, 0.1541798, -0.1737539}, {0.1319938, 0.0780322, -0.0567491}},{{-0.1628648, -0.1188586, 0.1291358}, {0.0822389, -0.0461476, -0.0582283}, {0.0823365, 0.0723409, -0.1032395}},{{0.1298195, -0.0104706, 0.0802048}, {-0.2140545, -0.0411697, 0.0476732}, {-0.0504675, -0.0458814, -0.0227206}},{{0.108214, -0.2457752, -0.0359716}, {0.0030002, -0.296094, -0.0792748}, {0.03121, -0.1678938, -0.2667093}},{{0.1039187, 0.0709819, 0.0112763}, {-0.0700976, 0.0499028, 0.0553252}, {0.0114387, -0.0318999, 0.0589899}},{{0.0813146, -0.0367866, -0.0268114}, {-0.0817928, -0.0093128, -0.000921}, {-0.0666237, -0.0607437, 0.0167071}},{{-0.0359217, -0.0157167, -0.0544328}, {-0.0252887, -0.0606596, -0.0239707}, {-0.0643986, -0.009231, 0.0679453}},{{0.008392, -0.0452989, -0.0785763}, {-0.2299806, 0.280018, -0.3109653}, {-0.0786309, 0.119486, -0.0254928}},{{-0.0069718, -0.0070602, 0.0689335}, {0.0206916, -0.0354385, 0.1241103}, {0.0688499, -0.0553722, -0.2760485}},{{-0.1110095, 0.045357, 0.1860684}, {-0.1172209, 0.1038892, 0.2127111}, {0.0436927, 0.1823606, 0.2540647}},{{0.135613, -0.0337985, -0.0201246}, {-0.0813589, -0.067878, 0.2059548}, {-0.1314898, 0.111413, 0.0852866}},{{-0.0095925, -0.3625364, -0.1808342}, {-0.2536324, -0.3400446, -0.1310108}, {-0.1866629, 0.00049, -0.0221527}},{{-0.114777, -0.3487433, -0.1811931}, {-0.0531349, -0.0626469, 0.1425923}, {-0.0376351, -0.0360878, 0.0697178}},{{0.2033203, -0.3938061, -0.2314958}, {0.1001367, -0.4341637, -0.3519956}, {-0.3289239, -0.2352945, -0.536263}},{{-0.0954809, -0.066682, 0.3185571}, {-0.202585, -0.0624697, 0.0127508}, {-0.5580325, -0.182048, -0.1860764}},{{0.2004645, -0.1507622, -0.0692289}, {-0.0122034, -0.2320267, -0.259042}, {0.0986492, -0.0264699, -0.1712768}},{{-0.045988, -0.063189, -0.0343471}, {0.0431269, 0.0479575, -0.0532686}, {0.0401469, -0.0326993, 0.0122308}},{{0.1960609, -0.128715, 0.0247697}, {-0.0336316, -0.0226764, -0.0095341}, {0.1868568, -0.0087436, 0.0770746}},{{-0.0708263, -0.0381578, -0.0463396}, {-0.0529251, -0.0821853, 0.0738966}, {-0.0305491, 0.0191635, 0.0345923}},{{-0.0189094, 0.0165176, -0.0623338}, {0.0112399, -0.0830818, -0.0111189}, {-0.0359779, -0.0353253, -0.0335502}},{{0.0284999, -0.1279982, -0.0449296}, {-0.0313478, -0.1124268, -0.0559477}, {0.0285415, -0.0023487, 0.0343496}},{{-0.0256569, 0.2952405, -0.096932}, {-0.0240896, -0.0729073, -0.2020785}, {-0.4739306, -0.0448435, -0.2903454}},{{-0.0146552, 0.1424913, -0.2826256}, {-0.2017269, -0.1135422, -0.2051469}, {0.1388429, 0.0397963, 0.0110094}},{{-0.0423342, 0.0183334, -0.129185}, {0.0225521, 0.050168, 0.0331426}, {0.0707401, -0.1147376, -0.0258522}},{{-0.0018097, -0.2023364, -0.3077424}, {0.0256598, 0.2075128, -0.2230967}, {0.0820205, -0.0511346, -0.0379103}},{{0.1180606, 0.2492297, -0.1980165}, {-0.021026, 0.158933, -0.0146706}, {0.1206302, 0.1502365, 0.1326862}},{{0.1015878, 0.2217967, 0.1771125}, {0.1364043, 0.0252893, -0.0320666}, {-0.4827605, -0.2791306, -0.3198447}},{{0.1360045, -0.041744, -0.0960541}, {-0.0044689, -0.1010035, 0.1693788}, {0.1122211, 0.0392987, -0.0088226}},{{-0.0640881, -0.0188174, -0.0526838}, {-0.1255045, 0.0349142, -0.0772469}, {0.1076111, -0.083629, -0.2379796}},{{-0.2746997, 0.217726, 0.1036224}, {-0.1898766, 0.0388669, -0.2846618}, {-0.0780749, -0.2313559, -0.0832542}},{{-0.0519861, -0.0555208, -0.1517383}, {-0.0665472, 0.0121532, -0.0553433}, {-0.0207318, -0.002563, -0.0982084}},{{-0.1695035, -0.2516166, -0.4545293}, {-0.1204731, -0.2368467, -0.1667691}, {0.0308485, 0.109559, -0.1620835}},{{-0.0013341, 0.0322527, 0.2905972}, {-0.2860859, -0.0955034, -0.1074297}, {0.1903424, 0.1612322, -0.1480109}}}
{{{0.0148805, -0.1637225, -0.0370378}, {-0.1851729, -0.1371381, 0.0693559}, {0.0607177, 0.067584, 0.0470696}},{{-0.076919, 0.040359, -0.0519472}, {0.0032665, 0.0782461, -0.1309547}, {0.081562, 0.0612789, -0.0243298}},{{-0.0104602, -0.040652, -0.0626718}, {-0.0803429, 0.0191446, -0.0780706}, {0.0492127, 0.0730128, 0.0308647}},{{0.010472, -0.0641434, -0.043277}, {-0.0520377, -0.0396624, -0.0115303}, {0.0393706, 0.0313105, 0.0120305}},{{-0.0095046, 0.0412396, 0.0636483}, {0.0364034, 0.0863327, -0.0420854}, {0.0389883, 0.0359913, 0.0499083}},{{-0.2397594, -0.0533483, 0.0653008}, {-0.083417, 0.0032123, -0.0690135}, {-0.0081019, 0.0334832, 0.0225697}},{{0.0389236, -0.065786, -0.027066}, {0.0639313, -0.104751, -0.0412485}, {0.0397529, -0.0595322, -0.0013059}},{{-0.0917688, -0.0708551, -0.0242213}, {-0.0364347, -0.0256427, 0.0291332}, {-0.0897758, -0.0771717, -0.038633}},{{-0.0689579, -0.1144283, 0.0322222}, {-0.174563, 0.020778, 0.0248489}, {0.0260711, -0.0839993, -0.0511749}},{{-0.0658032, -0.0227045, -0.0019552}, {-0.0472199, -0.0349081, -0.080651}, {0.0407301, -0.0951387, -0.0123993}},{{0.0412685, -0.0879741, -0.1439526}, {0.0051047, -0.1203815, -0.1379447}, {-0.0279657, -0.0179657, -0.1177916}},{{-0.0162129, -0.0442456, 0.0071553}, {0.0616156, 0.0091404, -0.02809}, {0.0316539, 0.0427439, -0.0201353}},{{0.0771038, -0.0918362, -0.0287878}, {-0.0672004, 0.0522197, 0.1361483}, {-0.0516404, -0.1048148, -0.0817309}},{{-0.0677867, 0.0288405, -0.1688311}, {-0.0789912, -0.2998213, -0.1347536}, {-0.0645772, -0.2685178, -0.1382802}},{{-0.0515256, -0.1020424, -0.0117143}, {-0.090415, -0.1320796, -0.0807716}, {-0.259921, -0.0399141, -0.1256427}},{{-0.0657223, 0.0666727, 0.0492872}, {-0.0368699, -0.0517679, 0.0245458}, {-0.0324236, -0.0677275, -0.0162253}},{{0.072877, -0.015339, -0.0425505}, {0.0967713, 0.0604417, -0.0035737}, {0.1111921, 0.012179, -0.0065985}},{{-0.02431, -0.0771537, -0.0299053}, {0.0425978, -0.2083663, -0.0662392}, {0.0068667, -0.0284973, -0.0218489}},{{0.1366577, -0.0301164, -0.1504645}, {-0.0871276, -0.074503, -0.0105968}, {-0.2066605, -0.0315083, -0.2035094}},{{0.0176071, -0.0227928, -0.0443808}, {0.0231208, -0.0329458, 0.0221326}, {-0.009112, 0.050684, 0.0721302}},{{0.1319939, -0.0145401, -0.0470085}, {0.0783528, -0.1376342, -0.0197481}, {0.0802713, 0.0125466, 0.1272507}},{{0.1537841, -0.0227923, -0.2372114}, {0.2652079, 0.2967279, 0.1832379}, {-0.1385986, 0.0142922, 0.1861105}},{{-0.0705586, -0.1372755, -0.1284399}, {-0.0850406, -0.2859512, -0.1549769}, {-0.0198443, -0.2170981, -0.0874964}},{{0.023116, -0.1467711, -0.0018521}, {-0.089651, -0.1042032, -0.0720975}, {0.1988655, -0.1176459, 0.0220345}},{{0.0343752, 0.0173336, -0.0611085}, {-0.0606275, 0.0252037, -0.0154287}, {-0.0458802, -0.0479122, 0.0392287}},{{-0.0784955, 0.0503808, -0.2702982}, {-0.1398748, 0.0006677, -0.114983}, {-0.2113193, 0.1530957, -0.1619287}},{{0.0253311, -0.2779781, -0.0580511}, {-0.0214149, -0.0571131, -0.0422286}, {0.1032234, -0.0643089, -0.2536751}},{{0.0026626, 0.0032925, 0.027267}, {0.0338613, -0.0091759, 0.0265593}, {-0.0323223, -0.0430468, -0.089597}},{{0.006561, -0.0352656, -0.0460229}, {-0.0755997, -0.0360103, 0.0475367}, {0.0640434, -0.0297274, -0.0607703}},{{0.1037542, 0.1197751, 0.213036}, {-0.0220238, -0.0285085, -0.0818669}, {-0.0024975, -0.0642574, -0.0167341}},{{0.0676758, -0.0249858, -0.0610573}, {0.1728693, -0.0383182, -0.0272834}, {0.0715903, 0.0169323, 4.63e-05}},{{0.1033291, -0.0417767, -0.068359}, {0.0563024, -0.1245817, -0.2030703}, {-0.1736428, -0.1071133, -0.0096825}},{{0.0875799, -0.2044127, 0.0582182}, {-0.0353046, -0.3142133, -0.0593231}, {-0.1298035, -0.1344572, -0.1262872}},{{-0.0890558, -0.1370323, -0.0643134}, {-0.0637718, -0.1408563, -0.1595665}, {-0.16965, -0.0749429, -0.2823623}},{{-0.0747856, -0.0797282, -0.1018762}, {-0.0899854, -0.0604982, 0.0402831}, {-0.0661609, 0.0349338, -0.1244665}},{{0.0592144, 0.1146255, -0.0119004}, {-0.0309708, -0.0292937, 0.0444776}, {-0.0102471, 0.052598, 0.0464765}},{{-0.0583743, 0.0196048, 0.0123773}, {0.0200482, -0.0081174, -0.0211937}, {-0.0174345, 0.0972079, -0.0438868}},{{-0.0349683, 0.0554589, 0.0743438}, {0.0718624, -0.0699175, -0.0172852}, {-0.0276497, 0.0120119, 0.0378638}},{{-0.0305952, 0.1171457, -0.1444205}, {0.107376, -0.027036, -0.112185}, {0.1357732, -0.0075008, -0.0259389}},{{-0.0398049, 0.0916866, -0.1031515}, {-0.0934684, 0.0860047, -0.010979}, {-0.004934, 0.0015473, -0.0633136}},{{0.0280727, 0.0198996, 0.0868608}, {0.085717, -0.082118, 0.0389295}, {-0.1212633, -0.1076335, -0.2074962}},{{0.0694627, -0.0499497, -0.1226145}, {0.030577, -0.0683377, -0.1033887}, {0.0853342, -0.0913167, -0.1003005}},{{0.0391935, -0.0234459, -0.0913417}, {-0.068451, 0.0467968, -0.0409863}, {-0.2090247, -0.0619486, -0.0230968}},{{-0.0229069, -0.113951, -0.1892065}, {-0.0956028, -0.1367845, 0.0103416}, {-0.0357725, -0.2516572, -0.0469704}},{{-0.1460144, 0.0374489, -0.3120966}, {-0.242687, -0.2177773, -0.0621098}, {-0.0167425, 0.0693426, -0.1488868}},{{0.0090649, -0.0095682, -0.1539839}, {-0.0457739, -0.1405848, -0.3191564}, {-0.0861301, -0.0138239, -0.1141627}},{{0.016944, 0.1282933, 0.0179738}, {0.0232111, -0.0012701, -0.0482684}, {-0.0026526, 0.0276984, 0.0159859}},{{0.0064552, -0.0013947, 0.0119524}, {-0.0330506, -0.0809497, -0.001872}, {-0.0043035, 0.0094317, 0.0582179}},{{-0.0751989, -0.0632423, 0.1161279}, {-0.0410743, -0.0254982, -0.0889448}, {0.0184145, -0.0701234, -0.0422012}},{{-0.0103822, -0.06083, -0.1241885}, {0.0504277, -0.0578919, 0.0377346}, {-0.0138804, -0.097471, -0.0287444}},{{0.0477449, 0.037451, 0.086384}, {0.0089132, -0.0026782, -0.0495636}, {-0.091239, -0.0584312, -0.0942401}},{{0.0768027, -0.0546596, -0.0259039}, {0.0380684, -0.005869, 0.0404966}, {-0.0499961, -0.0265308, 0.0081351}},{{-0.0828477, 0.1837197, 0.0193537}, {-0.1421853, -0.1251597, 0.0182819}, {-0.1489219, 0.0087169, -0.0511572}},{{-0.336194, -0.4578781, -0.0769877}, {-0.1600363, -0.108198, -0.0809779}, {-0.039631, -0.1422801, -0.1286759}},{{0.0199946, -0.0033341, 0.0673574}, {-0.0065673, -0.0642065, 0.0979344}, {-0.085429, -0.0387883, 0.0885978}},{{0.0155503, -0.1417344, -0.0851033}, {-0.0478907, -0.0341424, -0.0657995}, {-0.0746204, -0.2303856, -0.2740273}},{{-0.1184976, 0.0369886, 0.3474588}, {-0.2429853, -0.0347586, 0.0876144}, {-0.063144, 0.0073824, -0.0802151}},{{-0.3379314, -0.2107636, 0.0749008}, {-0.1229013, -0.1383154, -0.027597}, {-0.1656336, -0.2115193, -0.0285475}},{{-0.0593839, -0.0548251, 0.2401402}, {0.13579, 0.0766206, 0.1985188}, {-0.0089772, -0.0086712, 0.2166932}},{{-0.0306804, -0.0785191, -0.0389673}, {-0.0873709, -0.0360502, -0.0942692}, {-0.0294162, -0.052077, -0.0450465}},{{-0.1171522, -0.2219243, 0.0304112}, {-0.1608748, -0.3299627, -0.0893874}, {-0.1249489, 0.0647641, 0.0211934}},{{0.0049955, -0.0919359, -0.1203768}, {0.0494581, -0.0978087, -0.0679946}, {0.0410192, 0.0565448, 0.064215}},{{-0.0470107, -0.0802769, -0.0509832}, {-0.0506726, -0.0717281, 0.0494786}, {-0.1213896, -0.0679076, 0.0163844}},{{-0.0995363, 0.0569035, -0.1395467}, {-0.0236693, -0.1559211, -0.0022047}, {-0.0984722, -0.0634456, -0.0135429}}}
{{{-0.0601423, -0.3781728, 0.002469}, {-0.2386377, -0.1793308, -0.0745325}, {-0.2119175, 0.108626, -0.0664107}},{{-0.0016621, 0.1082665, 0.0395674}, {0.0638321, 0.1116987, -0.0383235}, {0.0267958, 0.0651002, -0.0723315}},{{-0.0259887, 0.0587907, 0.032147}, {-0.0065189, -0.028, 0.0395084}, {-0.0702772, -0.0561804, -0.0064783}},{{-0.0515797, -0.0538072, 0.0035266}, {-0.0221432, -0.1148197, -0.0668617}, {-0.018109, -0.0677832, -0.0007287}},{{-0.1291502, -0.0349808, 0.1199394}, {-0.0022141, -0.0866124, 0.0004068}, {0.0551893, 0.1045856, -0.0079488}},{{-0.0254842, -0.2124349, -0.0004797}, {0.0826733, -0.239691, -0.1389084}, {0.1929155, -0.0799808, -0.1639877}},{{-0.1196066, -0.0198157, 0.1345169}, {-0.1245726, -0.0266369, 0.1360289}, {0.0069756, -0.1132089, 0.0310634}},{{-0.0007021, -0.0387918, -0.0541071}, {0.0610496, 0.059705, -0.1220211}, {-0.0276081, -0.0325009, -0.0667596}},{{-0.1529031, 0.0540111, 0.0318786}, {-0.081259, 0.2361073, 0.0368474}, {0.1082159, -0.0469174, -0.3686729}},{{-0.0234387, 0.0201469, -0.0252768}, {-0.0452895, 0.0246616, 0.0049046}, {0.0226171, 0.1162014, -0.0709235}},{{0.0785594, 0.0262799, 0.0667574}, {0.1103159, -0.1430141, -0.0082272}, {0.1560136, -0.0351042, 0.3000501}},{{-0.0061708, -0.042338, 0.0599059}, {-0.0220294, 0.0678878, 0.0595857}, {-0.0911436, -0.023591, -0.0384998}},{{-0.1950687, 0.1856876, -0.0522247}, {-0.0568874, 0.0017173, -0.0748879}, {0.0597123, -0.0265898, -0.1377212}},{{0.0286075, -0.3195083, -0.0195688}, {0.2019752, -0.1303719, -0.1250299}, {0.0539887, 0.1131178, 0.0585627}},{{-0.0505906, -0.1149442, -0.4514047}, {-0.1054531, -0.1550047, -0.1640908}, {-0.0809521, -0.0326388, -0.0790481}},{{0.0378914, -0.0096626, 0.073695}, {-0.0019961, 0.0111217, 0.0130952}, {0.0853941, 0.0604694, 0.0018063}},{{-0.2080829, -0.0355178, -0.1625997}, {-0.1010866, -0.0188637, -0.0669989}, {-0.0517943, -0.0633444, 0.0444549}},{{-0.0356634, -0.177109, -0.066355}, {0.1630483, -0.125937, -0.0828245}, {-0.0353561, 0.0197926, 0.1505351}},{{0.0362007, -0.1707235, -0.2918848}, {0.0186847, -0.1127083, -0.2025536}, {-0.0559318, -0.2583767, -0.3432834}},{{-0.0132377, -0.0549811, -0.0322149}, {-0.0234957, 0.027569, -0.0045198}, {0.0130819, -0.0236012, -0.0836088}},{{-0.0453656, 0.0005029, -0.0863874}, {-0.0180917, 0.1175772, 0.008446}, {-0.0368174, -0.0318287, 0.1268408}},{{-0.0604447, -0.0823224, 0.0966804}, {0.07862, -0.1803425, -0.1828741}, {0.1685189, -0.14884, -0.2552641}},{{-0.0203455, 0.0833426, -0.0719083}, {-0.1486689, -0.032316, 0.0687188}, {-0.0409316, -0.0106174, 0.1597561}},{{-0.0665009, -0.063743, 0.1085089}, {-0.1107382, -0.1988164, 0.0199251}, {-0.1448044, -0.0991653, 0.0317635}},{{0.0649184, 0.0713458, 0.0444999}, {0.038247, 0.0238914, -0.0127425}, {-0.0602785, 0.043395, -0.0535788}},{{-0.1073858, -0.1389624, -0.054156}, {0.0304777, -0.0338707, 0.1437953}, {-0.1185806, 0.0779207, 0.0765272}},{{0.0381751, -0.1501282, -0.1631337}, {0.0473484, 0.2044004, -0.19216}, {0.0405187, 0.1940941, -0.0687737}},{{-0.0189112, -0.0427984, -0.0559484}, {-0.0404841, 0.0256788, 0.0136362}, {-0.0796955, 0.0420344, -0.0499348}},{{0.0156922, -0.1236729, 0.1544602}, {0.1777755, -0.0338247, 0.0505502}, {0.0173218, 0.0608988, 0.0403864}},{{-0.0513492, 0.2397873, 0.234126}, {-0.0570269, 0.0154257, -0.0177037}, {-0.094199, -0.0893811, -0.1035412}},{{-0.0348405, -0.1783774, -0.0417835}, {0.1501385, 0.0716495, -0.1620227}, {0.0770127, -0.0673968, -0.3011906}},{{-0.0070866, -0.0352571, -0.0626463}, {0.0867646, -0.2308723, -0.0542213}, {0.1059925, -0.0878117, 0.0632734}},{{-0.0229885, -0.0902109, -0.0596746}, {-0.0883901, -0.4787834, -0.0900662}, {-0.1144174, -0.6064807, -0.3756621}},{{-0.1083405, -0.1054044, -0.085045}, {-0.0520456, 0.1942929, 0.083369}, {-0.3648687, 0.0690164, 0.1377276}},{{-0.1945368, 0.1802169, 0.0691673}, {-0.261251, 0.0221914, 0.1983458}, {-0.1677253, 0.0373543, 0.0515344}},{{-0.0429098, 0.04182, 0.0112598}, {-0.0854859, 0.0868742, -0.0460353}, {-0.0153598, -0.0557238, 0.0205214}},{{0.022694, 0.0217798, -0.0418404}, {-0.0333506, -0.030057, -0.0678258}, {0.0239057, -0.0045764, -0.0031305}},{{0.0169923, -0.0322748, 0.0509637}, {0.0189891, -0.0553559, -0.0528612}, {0.0057882, -0.081043, 0.0328283}},{{-0.1046045, -0.2795338, -0.1000738}, {-0.0392584, -0.1172329, -0.0192153}, {-0.0333633, -0.2272008, -0.0052776}},{{-0.1070792, 0.0432853, 0.0479245}, {0.0413694, 0.0198501, 0.0905123}, {0.1184514, 0.029809, -0.1266449}},{{0.0374681, -0.2320037, -0.0106689}, {-0.1835223, -0.2056053, -0.0942436}, {-0.2240125, -0.1011776, -0.0737145}},{{-0.1017428, 0.1335162, -0.0967133}, {0.1201577, 0.0084172, -0.201421}, {0.2484392, 0.2768803, -0.2329865}},{{-0.3234572, 0.1175434, 0.0393566}, {-0.070992, 0.0545098, -0.1563764}, {-0.022091, 0.0614458, 0.0734285}},{{-0.1846192, 0.0886321, 0.059008}, {-0.0276698, 0.0917589, 0.1969019}, {-0.1596879, -0.0143348, 0.0730477}},{{-0.0322641, -0.1420783, 0.255336}, {-0.2054816, -0.1284962, -0.0872555}, {0.1120357, -0.124558, -0.1633328}},{{-0.2332262, 0.1521509, -0.2131306}, {-0.1709892, 0.1199656, -0.1061637}, {-0.19238, -0.0688258, -0.0941642}},{{-0.0671811, -0.0406349, -0.0574602}, {-0.1305819, 0.0077649, 0.0408625}, {-0.1519507, -0.0156106, -0.153908}},{{-0.0257844, -0.0378185, -0.0780841}, {0.017594, 0.0296032, 0.0244224}, {-0.0217656, 0.0121284, 0.0038109}},{{-0.2942101, 0.1719493, 0.3387678}, {-0.2046018, -0.2120154, -0.0942033}, {-0.0801065, -0.0678099, 0.0171755}},{{-0.0051344, 0.0007024, -0.0598895}, {-0.0262656, -0.1237926, -0.1278635}, {0.0231698, 0.0080006, 0.0212171}},{{0.0452563, -0.0731159, 0.1574354}, {0.0688458, 0.0063664, 0.009251}, {-0.0429524, -0.0850501, -0.0281086}},{{-0.0108499, -0.098169, 0.018059}, {0.0460898, 0.0175462, 0.0338229}, {0.0273687, -0.0437525, 0.0132335}},{{-0.0540826, -0.0867818, -0.0812963}, {0.1648391, 0.0440342, -0.0699102}, {0.0205626, -0.2776152, 0.1466156}},{{-0.0459857, -0.1545214, 0.1940733}, {-0.222613, -0.1114817, 0.1503169}, {-0.1544018, -0.090976, -0.0424805}},{{-0.0097608, -0.0213354, 0.0985112}, {-0.0913021, 0.0999577, -0.0033841}, {0.0107925, 0.0484359, 0.056372}},{{-0.1655555, -0.0201782, 0.0076776}, {0.0767493, -0.1084459, -0.2284962}, {0.0619443, -0.2178156, -0.3095591}},{{-0.1051388, -0.035347, 0.0226949}, {0.0559061, 0.081438, -0.1054122}, {0.1305654, -0.2112739, -0.112808}},{{0.0902553, 0.0457255, -0.0273601}, {0.259709, -0.0970196, -0.3499114}, {0.1750524, 0.1882393, -0.314225}},{{0.0385137, -0.2158672, -0.217251}, {-0.0102969, -0.0380874, -0.055927}, {0.01533, -0.3075627, -0.1158357}},{{-0.1586486, -0.0050903, 0.0830872}, {-0.1003687, -0.1971603, -0.05572}, {-0.1236141, -0.136631, 0.072068}},{{-0.3303925, 0.012814, -0.1527293}, {-0.4091553, 0.0616796, 0.0672904}, {-0.2478181, 0.0149958, 0.1784461}},{{-0.0131464, -0.0100972, -0.0862008}, {-0.0728791, -0.1176636, -0.0502653}, {0.1020291, -0.0094173, -0.0496791}},{{-0.1846204, -0.0948361, -0.2391726}, {0.0516912, -0.0941431, -0.0895312}, {0.1859944, -0.0705762, -0.1343882}},{{0.1899658, 0.0326488, -0.0657617}, {-0.0841675, -0.1045663, 0.0305758}, {-0.0606755, 0.0065013, 0.0270245}}}
{{{-0.1530085, -0.1589503, -0.0730173}, {0.1385168, -0.0662912, -0.361461}, {-0.0525101, 0.1477804, 0.1423536}},{{-0.0238839, 0.0114072, -0.1807339}, {0.0609001, 0.061059, -0.0440163}, {0.1364789, -0.0774043, 0.1522976}},{{0.0391771, 0.0083424, 0.00783}, {0.0647983, -0.0044741, -0.0126508}, {0.0207918, 0.0180899, -0.0577227}},{{0.0049087, -0.019961, 0.0585029}, {0.0409806, -0.0310698, 0.0529385}, {0.0457676, -0.0039657, 0.0747656}},{{0.0611474, 0.1232353, -0.0226792}, {-0.005905, -0.0956902, 0.044385}, {0.0345085, -0.038454, -0.0788416}},{{-0.0287545, -0.0568392, -0.2415044}, {0.1432129, 0.0577804, -0.085573}, {0.0787242, -0.3269168, 0.1647762}},{{-0.0991654, -0.0307858, 0.029399}, {-0.0056616, 0.0831388, 0.0066653}, {-0.1326337, -0.0194344, 0.0099662}},{{-0.0148292, -0.0139729, -0.0400272}, {0.0166205, -0.0775793, -0.0655231}, {-0.0097825, 0.0006874, 0.0015634}},{{-0.2032371, 0.0391707, 0.027735}, {-0.183346, -0.0519402, 0.0450165}, {-0.166873, 0.1380729, 0.1793752}},{{-0.0322528, -0.0045049, -0.0370222}, {-0.0289162, -0.0579307, -0.0955276}, {-0.0289928, 0.0210227, -0.0704038}},{{0.001195, -0.0430519, -0.0042095}, {0.0904779, -0.0958976, 0.0028666}, {0.0164053, 0.0089183, 0.0406852}},{{-0.0238933, -0.0490733, -0.060776}, {-0.0461547, 0.036575, -0.0048124}, {0.0115871, 0.019689, 0.0070291}},{{0.0623671, 0.0758392, -0.1474886}, {-0.0164273, 0.0690783, -0.1147605}, {0.0761607, 0.1161652, -0.0227687}},{{-0.0786154, -0.0745141, -0.2149016}, {0.0179104, -0.0884096, 0.063923}, {-0.2860574, 0.0344698, 0.1106165}},{{-0.187525, -0.3212599, -0.017454}, {-0.3005336, -0.0421714, -0.1327384}, {-0.1269467, 0.1429877, 0.0924595}},{{-0.0702219, -0.0363608, -0.0470798}, {-0.0114177, -0.0281316, -0.022079}, {0.0357291, -0.0232773, -0.018035}},{{-0.0407118, -0.0538127, 0.0137126}, {0.0357939, -0.0710407, 0.004375}, {-0.0711013, -0.0518263, -0.0648115}},{{0.089986, 0.0067489, 0.0484231}, {-0.091447, -0.0738031, 0.055492}, {-0.0642608, -0.0443007, 0.0738101}},{{-0.2395389, -0.5737998, -0.115884}, {0.0584327, -0.0881911, -0.1240707}, {-0.0460965, 0.1129437, -0.0300949}},{{-0.0042257, 0.019664, -0.0223807}, {-0.0058325, -0.0308762, -0.0147402}, {0.0306253, 0.0004487, -0.061483}},{{-0.0646165, 0.0444151, -0.0835277}, {-0.0763185, -0.0008264, -0.1093766}, {0.017888, -0.1145716, -0.003944}},{{-0.0691664, -0.1691209, -0.2145131}, {-0.0526112, -0.0628352, -0.1430114}, {0.0436629, -0.0093645, -0.050233}},{{0.1732273, -0.0014356, -0.1208388}, {0.1262459, -0.357328, -0.0730273}, {-0.1506636, -0.3700225, -0.0668893}},{{0.022781, 0.0469385, 0.1562719}, {0.0415292, 0.0780136, 0.2161378}, {-0.0973175, -0.0543713, -0.0030509}},{{0.0118445, 0.0612482, -0.007205}, {0.0420671, -2.41e-05, -0.0716668}, {-0.0181804, 0.028241, 0.0118271}},{{0.0441289, -0.0880594, -0.1161005}, {-0.2259574, 0.0644934, 0.0178309}, {-0.4829294, 0.018627, 0.0163295}},{{0.0785532, -0.0530144, -0.137554}, {-0.2407907, -0.1998776, 0.0494383}, {-0.4619311, 0.2225691, 0.1442614}},{{-0.0177384, -0.0698063, -0.0615177}, {-0.0050816, 0.0719554, 0.0101948}, {-0.0374843, -0.0277957, -0.0512936}},{{-0.1353181, -0.2388666, -0.0554227}, {0.0274829, 0.1192455, -0.1080387}, {0.1377999, -0.1047503, -0.0799579}},{{0.0604533, -0.0889021, -0.1519592}, {0.0088913, -0.0183147, 0.104032}, {-0.1183352, 0.1911353, 0.1298472}},{{-0.1135565, 0.1553972, -0.1543221}, {0.0656631, -0.01142, 0.2366373}, {-0.2520761, 0.0232614, 0.1401625}},{{-0.0172097, -0.1319953, 0.0482186}, {0.0560174, -0.2650321, -0.0997727}, {0.0836363, 0.147065, 0.206175}},{{-0.098424, -0.1414695, -0.0607496}, {-0.2698183, -0.0312577, -0.1126244}, {-0.2558127, -0.0565744, -0.0841143}},{{0.0424026, -0.3195848, -0.0936376}, {-0.3553378, -0.1908437, 0.1086403}, {-0.1702888, 0.1378728, 0.0779704}},{{-0.1436538, -0.1819959, -0.1092454}, {-0.0848128, -0.2986899, 0.0737838}, {0.1676633, -0.0177287, 0.1596492}},{{0.043677, 0.017593, 0.0242039}, {-0.0406297, 0.0456792, -0.1070682}, {0.053369, 0.0646215, 0.0082462}},{{-0.0558605, 0.0169417, -0.0295668}, {-0.0808259, -0.0597883, 0.0586625}, {-0.0401679, 0.0368321, 0.0429419}},{{0.0544071, -0.0699623, -0.0864479}, {0.0592446, 0.0403954, -0.0232114}, {-0.023399, -0.0760043, 0.0499479}},{{-0.1526569, -0.0607363, -0.16539}, {-0.1616775, -0.1063559, 0.0585864}, {-0.1218299, 0.1199861, 0.0354149}},{{-0.1423395, 0.0041331, -0.1483988}, {0.1923703, -0.0165582, -0.1045253}, {0.0857943, -0.2309116, -0.1047021}},{{-0.2815751, -0.2478224, 0.0426194}, {-0.2975211, -0.1078018, -0.1935355}, {-0.1098499, 0.2455806, 0.2620112}},{{0.0084785, -0.0639524, 0.0505871}, {-0.2065916, -0.180832, -0.1995009}, {-0.113826, -0.0196903, -0.1494282}},{{-0.0606527, 0.1374357, -0.039726}, {0.0295476, -0.1192794, -0.1064354}, {0.0009537, -0.1064975, -0.0288646}},{{-0.1434537, -0.2470371, -0.185689}, {0.0504874, -0.5276257, 0.0355315}, {0.0234802, -0.4258368, 0.1423614}},{{-0.2013594, -0.0382081, -0.025068}, {0.0982281, 0.025946, 0.1299421}, {-0.3447334, -0.1953142, -0.0283415}},{{0.0053023, -0.1783202, -0.1016303}, {-0.078775, 0.1528086, 0.0674155}, {-0.127526, 0.0959996, 0.0169163}},{{-0.0602481, -0.1051444, 0.0602832}, {-0.0828406, -0.0697686, 0.0100123}, {-0.2347482, -0.0712498, 0.0549565}},{{-0.0582894, 0.0399063, 0.0012907}, {0.0179546, -0.0942888, -0.033968}, {-0.0214431, -0.0285824, -0.0676298}},{{-0.2380326, -0.2096316, -0.1454918}, {-0.1351303, 0.209147, 0.0228851}, {0.1266862, -0.0091863, -0.0958774}},{{0.023018, 0.0411682, -0.0752618}, {-0.1012807, 0.0242178, -0.0908882}, {-0.1232975, 0.0020617, 0.0058862}},{{0.0137966, -0.0469686, -0.0698191}, {-0.0664327, -0.0512259, -0.0498446}, {-0.0255506, 0.0001663, 0.0414559}},{{-0.0352713, -0.0682004, -0.0286852}, {0.0427363, -0.0660037, -0.0511293}, {0.0676847, 0.0382122, -0.0555006}},{{-0.0200982, -0.0338249, 0.085258}, {0.0693764, -0.0966253, 0.0068721}, {0.0945106, -0.1283273, -0.005751}},{{-0.0232325, -0.2072596, -0.2817936}, {-0.0860258, -0.2690856, 0.0431973}, {-0.2030402, 0.0749457, -0.1056338}},{{-0.0762437, -0.0691649, 0.0029177}, {-0.0065329, -0.0431713, 0.048626}, {0.0324334, 0.0336327, 0.0034052}},{{0.2085681, -0.0334399, -0.0977657}, {-0.3418224, -0.1827614, 0.0543247}, {0.1087646, -0.2472122, -0.3304566}},{{-0.0907037, -0.1310373, -0.2042341}, {0.238483, 0.1548568, -0.0655789}, {-0.0383704, 0.1288099, -0.0467139}},{{-0.2271977, -0.1551976, -0.040808}, {0.0328152, 0.1731569, -0.4302523}, {0.2067793, -0.007672, -0.318905}},{{0.1207524, 0.0333386, 0.0570479}, {0.1269287, -0.0624392, -0.0168723}, {0.0294789, -0.0659771, -0.092479}},{{-0.0877598, -0.1036521, -0.0100558}, {0.0272574, -0.2469811, -0.0288135}, {0.1107802, -0.1514241, -0.0406195}},{{0.0564086, -0.0478591, -0.0698041}, {0.0017013, 0.0148677, -0.0531106}, {-0.1242152, 0.1788807, 0.067206}},{{-0.0522596, -0.0656064, -0.1004985}, {-0.0577304, 0.0049075, 0.0092168}, {-0.0661261, -0.0103944, -0.0759757}},{{-0.2190004, -0.4009426, 0.2439517}, {-0.2971301, -0.2643417, -0.1625769}, {0.1109216, -0.0058079, -0.1954608}},{{-0.0609961, 0.1261309, 0.0079972}, {-0.0928778, 0.1597968, 0.2883222}, {0.1345304, -0.1142928, 0.0038877}}}
{{{0.055461, -0.2092697, -0.1111099}, {0.0829069, -0.3212916, -0.3141492}, {-0.1101146, -0.1191584, -0.3291762}},{{-0.0403119, -0.0249972, -0.0765572}, {-0.255443, -0.2757693, 0.0917605}, {-0.1228932, -0.0488487, 0.0166544}},{{-0.0639206, 0.0554169, -0.0413038}, {0.032475, -0.0627022, -0.0814011}, {-0.0342338, 0.0536605, 0.0528472}},{{-0.0955892, -0.0883294, -0.009163}, {-0.0217674, 0.0130026, 0.0008901}, {-0.0064581, 0.0203171, -0.0571484}},{{0.0513085, -0.0356923, 0.0550696}, {-0.119566, 0.0438358, -0.0173561}, {-0.0174678, 0.1383319, 0.0817139}},{{0.1786624, -0.1223733, -0.2729406}, {0.0196718, -0.5229738, -0.6008011}, {-0.3908236, -0.2599764, -0.1969713}},{{0.0877425, -0.0337167, -0.0171308}, {-0.15378, -0.0575391, 0.0458658}, {0.0737801, -0.0864799, 0.2342012}},{{-0.0600567, 0.0093953, -0.0836007}, {-0.0510027, 0.0621669, 0.027362}, {0.000694, 0.0188643, 0.0217438}},{{0.1600558, 0.128461, 0.0364748}, {0.0983569, 0.1269361, 0.1161398}, {-0.0795279, 0.1850215, -0.018309}},{{0.0096508, -0.0512244, 0.0639368}, {-0.0798048, 0.0431628, -0.0842356}, {-0.0027628, -0.0164921, -0.0520288}},{{-0.0357845, 0.0948874, 0.084344}, {-0.0805874, -0.097167, 0.0925936}, {-0.2595375, -0.0305748, 0.0751676}},{{-0.0178446, -0.0477675, -0.0231646}, {0.0050073, -0.0210338, -0.0014857}, {-0.0823282, 0.0626366, 0.0257294}},{{0.1465773, -0.0188931, -0.0881119}, {-0.2956251, -0.0632101, 0.0282791}, {-0.0556858, 0.0521989, -0.0955076}},{{0.0948772, 0.0700053, 0.0889158}, {0.1355045, 0.0202359, -0.1557349}, {-0.0764985, -0.0211771, 0.0946804}},{{-0.0916443, -0.0484757, -0.0536703}, {-0.2125893, -0.0534584, 0.0219395}, {-0.0758815, -0.1184002, -0.4064372}},{{0.0536941, 0.0576151, -0.0052913}, {0.0044841, 0.0368854, 0.0426593}, {0.0056717, 0.0671381, 0.0895996}},{{0.0168904, 0.0267128, 0.0466308}, {0.0465108, -0.0489133, 0.003771}, {-0.1056015, -0.1134585, -0.0910461}},{{0.0116281, -0.1548892, 0.153609}, {-0.0530922, -0.0744358, 0.1057158}, {0.0310996, -0.0209651, -0.132111}},{{-0.2070054, -0.1033782, -0.0111372}, {-0.1512424, -0.3065095, -0.2943652}, {-0.3642187, -0.2257256, -0.4308157}},{{-0.0298003, 0.0336889, -0.0027087}, {0.0078624, 0.0741355, 0.0148519}, {-0.0380244, 0.014129, -0.083556}},{{-0.0184843, -0.1295166, 0.0237688}, {-0.0713276, -0.0899883, -0.0183884}, {0.0724908, -0.0779995, -0.0265008}},{{0.0089146, 0.0729321, 0.1291714}, {-0.0435726, 0.0046653, 0.0080075}, {-0.0514805, -0.0920546, 0.0848219}},{{-0.114354, -0.4067614, -0.0997037}, {0.0643914, -0.3835311, -0.034314}, {0.1855567, -0.2017782, 0.0590121}},{{-0.0072317, -0.2146161, 0.0023833}, {0.0411943, -0.1344877, -0.092673}, {0.0355659, -0.1061506, 0.1202058}},{{-0.0403917, 0.0823185, 0.0725302}, {0.0837993, 0.0073652, 0.0125457}, {0.059367, 0.0664364, 0.0439882}},{{0.0695359, -0.4239564, 0.0665398}, {-0.1858239, -0.2502122, -0.100691}, {0.0132202, -0.1656522, -0.0222148}},{{-0.120328, 0.0330469, -0.0032316}, {-0.2918426, 0.1028314, 0.0878543}, {-0.3904706, -0.0444456, 0.1272364}},{{-0.0402736, 0.0009746, -0.0156386}, {-0.0632559, 0.0090925, -0.0344343}, {0.037865, 0.0253752, -0.0404163}},{{-0.171656, -0.1398688, 0.0235322}, {0.1152919, -0.1435855, 0.1082738}, {-0.0780263, -0.0911102, -0.0211311}},{{-0.1399444, -0.1439559, -0.0121585}, {-0.0609126, 0.0763395, 0.0365234}, {0.1688478, 0.0744192, -0.1268684}},{{-0.1190574, 0.2490148, -0.1782022}, {-0.4025683, 0.0148457, -0.1440959}, {0.0105817, 0.1838904, 0.119342}},{{-0.06173, -0.0597677, 0.170104}, {-0.06372, -0.0815992, -0.2656305}, {-0.0839505, 0.0518364, 0.1170583}},{{0.0193514, -0.154712, -0.2870782}, {-0.0983917, -0.0920995, -0.1068575}, {-0.006845, -0.1354462, -0.3233711}},{{-0.2918181, -0.1789639, -0.0282064}, {-0.3677211, -0.0321752, 0.0645818}, {-0.1748671, -0.0956875, -0.2532331}},{{0.0517762, -0.2893651, -0.0607514}, {0.181318, -0.2503922, -0.0328707}, {0.1766112, -0.1173421, 0.0531039}},{{-0.0116947, 0.0533017, -0.0664271}, {-0.0459933, -0.0721812, -0.1004927}, {-0.1519054, -0.0093123, -0.1082812}},{{-0.0058624, 0.0272897, -0.0288492}, {0.007361, -0.0221797, 0.1070053}, {0.0155665, 0.0190916, -0.0721586}},{{0.0208164, -0.0548075, 0.1018602}, {0.0878276, -0.0228631, 0.0001799}, {-0.0333822, 0.0216184, 0.0380244}},{{0.0152966, -0.0714702, 0.1333283}, {0.149617, -0.0968035, -0.0232918}, {-0.1939324, -0.1690618, -0.0507737}},{{0.0042521, -0.0655123, -0.1648365}, {-0.0903933, -0.1742038, -0.0219381}, {-0.065503, 0.0912845, 0.1204358}},{{-0.1473295, -0.0622838, 0.0329685}, {0.1868834, -0.0372955, -0.1528087}, {-0.1114613, 0.0695949, 0.0023782}},{{0.0515175, 0.0668536, -0.0479047}, {-0.0125512, 0.3128939, -0.0799344}, {-0.0644658, 0.1540295, 0.1627392}},{{-0.0768333, 0.2250256, -0.0990928}, {-0.1631062, 0.0907955, 0.0067076}, {-0.0720414, -0.1008635, 0.0827254}},{{0.0486668, -0.2050243, -0.0931706}, {0.0984577, -0.2838544, 0.0401841}, {0.1609642, 0.0231308, 0.0418112}},{{-0.1199309, -0.2613688, 0.0392144}, {-0.0815343, -0.0674041, -0.1591694}, {-0.0278117, -0.1556257, -0.0403251}},{{-0.3669953, 0.0107967, -0.1859389}, {0.0175585, 0.0314877, -0.2029984}, {-0.0360093, -0.1286844, -0.2414151}},{{0.0353651, -0.0766243, -0.0681987}, {0.0967774, -0.0784927, 0.0575122}, {0.0957133, 0.0868553, 0.0822377}},{{0.0013771, -0.0285589, 0.0805485}, {0.0420653, 0.0014351, 0.0439408}, {0.0533783, 0.0026999, -0.019823}},{{0.0107737, 0.1889382, 0.0511426}, {-0.2883312, -0.1509598, -0.0378331}, {-0.1516817, 0.0377399, 0.1508183}},{{-0.0600145, 0.0302419, 0.0274782}, {-0.0457401, -0.0229004, 0.0262759}, {0.0318771, -0.0835571, 0.0354049}},{{0.0659131, 0.0204801, -0.0130945}, {0.0490466, 0.0027291, -0.0584662}, {0.0072853, -0.0403501, -0.1362445}},{{-0.011823, 0.0126362, 0.051362}, {0.0190132, -0.0677453, -0.047217}, {0.0051333, 0.0016609, 0.0069836}},{{-0.0321832, 0.3638614, -0.0096004}, {-0.0208553, -0.0520998, -0.2466258}, {-0.0696315, -0.0090588, -0.1375584}},{{-0.2355813, -0.2799392, 0.1732995}, {-0.2316205, -0.0105812, 0.114287}, {-0.1055819, 0.0526404, -0.1089729}},{{-0.0191011, 0.1153594, 0.035891}, {-0.0042776, -0.1094617, 0.03957}, {-0.1159618, 0.0348849, 0.1423882}},{{-0.0007342, -0.1146274, -0.0919179}, {0.0075125, 0.0608773, -0.2200193}, {-0.1764259, -0.0640548, -0.0141302}},{{-0.0903079, -0.0280655, 0.248783}, {-0.0579046, -0.0047963, -0.004318}, {-0.1117827, -0.2452711, -0.2606472}},{{-0.0077726, 0.2405674, -0.0630967}, {0.1299861, 0.0563208, -0.5012946}, {-0.0591767, -0.1322447, -0.0377061}},{{-0.0389399, 0.1363015, 0.0895908}, {0.0015362, 0.0024572, 0.2368836}, {-0.2491633, 0.02522, 0.0555203}},{{0.1324321, -0.1697524, -0.0283477}, {-0.209497, -0.204599, 0.0967055}, {-0.0723917, -0.0599006, 0.0752387}},{{0.2718228, -0.2031056, 0.0776459}, {0.0986618, -0.3186215, 0.0286467}, {0.0412824, -0.1693649, -0.0993611}},{{-0.0486446, -0.1008926, -0.1200326}, {-0.1157392, -0.0165552, 0.0321388}, {-0.0287434, -0.1093455, -0.0265848}},{{-0.0139833, 0.1307756, 0.0987534}, {-0.1207903, -0.013588, 0.1353346}, {-0.1243004, -0.4217466, 0.0730514}},{{-0.1373739, 0.0749893, 0.0074704}, {-0.0931233, -0.2068171, -0.0471243}, {-0.4289282, -0.2291701, -0.1217798}}}
{{{0.0336275, 0.0415448, -0.0612038}, {0.0838276, -0.1204575, 0.0596173}, {0.1171079, -0.081825, -0.0102892}},{{-0.1193523, -0.0855416, -0.1307657}, {-0.1483843, -0.0847939, -0.2611594}, {-0.0518271, -0.0020303, -0.0704639}},{{0.0114256, -0.0204118, -0.0790358}, {0.0111577, -0.0668083, 0.0259498}, {0.0073986, 0.0554782, -0.0691153}},{{0.0374576, 0.0443865, 0.0115255}, {0.0239464, 0.013176, 0.0164984}, {0.0200381, 0.0185775, -0.0335488}},{{0.0601395, 0.0059208, -0.057115}, {-0.0948195, -0.0957189, -0.1412914}, {-0.0137814, 0.0431756, 0.0381849}},{{-0.1596103, -0.4079766, -0.1219819}, {-0.2446743, -0.2385208, 0.0477096}, {-0.2180545, -0.1500604, -0.0992761}},{{-0.0620352, 0.1464874, -0.2234728}, {-0.1296349, 0.0068781, 0.0689047}, {-0.1757489, -0.0496801, 0.0701636}},{{0.0491746, -0.0333137, -0.0639771}, {-0.0596172, -0.0990281, -0.0037231}, {0.0381759, -0.0297312, -0.0978442}},{{-0.087465, 0.1150876, -0.1792574}, {0.0429796, -0.0320012, -0.2872867}, {-0.061778, -0.042238, -0.1388558}},{{0.0385574, 0.0150442, -0.0398392}, {0.0513753, -0.1087722, -0.0660827}, {-0.0003448, -0.0232098, -0.0472208}},{{-0.1718029, -0.0277786, -0.0774003}, {-0.1382957, 0.0188771, -0.0448649}, {-0.2074083, -0.160638, -0.1120269}},{{0.0056156, 0.0052328, -0.0348072}, {-0.0518655, -0.0213844, 0.0089637}, {-0.05054, 0.0261675, -0.000118}},{{-0.1670847, -0.0558542, 0.0547545}, {-0.0025456, -0.03533, -0.0669722}, {0.1644579, -0.1330863, -0.1222821}},{{-0.0136052, -0.0679089, -0.2672062}, {0.0274875, 0.3765702, 0.0121974}, {0.2303288, 0.2286531, -0.2806474}},{{0.0941139, -0.194726, -0.2722504}, {0.1855541, -0.0586042, 0.0448982}, {0.0181259, 0.1188742, 0.0906921}},{{-0.0293148, -0.0709431, 0.0534709}, {0.0662489, -0.068385, -0.0653438}, {0.0519491, 0.0648204, -0.0511347}},{{0.0063713, -0.0956809, -0.0454906}, {-0.0605632, 0.0099479, 0.0282569}, {0.0426384, 0.0039852, 0.0199875}},{{-0.1852818, -0.0900403, 0.1674869}, {-0.0841652, -0.0622879, 0.0273197}, {0.0842544, -0.0542008, -0.0587299}},{{-0.3348613, -0.3165834, -0.2536842}, {-0.1235333, -0.1539954, -0.2051371}, {0.0130747, -0.063549, 0.088855}},{{-0.0171268, 0.053731, -0.0261754}, {-0.0237552, -0.0899487, -0.0253961}, {-0.0821852, -0.0513866, -0.0277125}},{{0.0003356, -0.0731621, -0.0984296}, {-0.0144286, 0.0363235, -0.0284841}, {-0.0673376, 0.0121839, 0.0288048}},{{0.0138518, 0.0373697, 0.0521494}, {0.1367942, 0.1420573, -0.0457204}, {-0.0210452, -0.1100176, 0.0791649}},{{-0.0768876, -0.1030554, -0.3183874}, {-0.035374, 0.0220211, -0.2554852}, {0.1002422, 0.0582768, -0.1295815}},{{-0.0029202, -0.248478, -0.0386219}, {-0.1328042, -0.1735229, 0.0003408}, {-0.11108, -0.1085195, -0.0170784}},{{-0.0425488, -0.0340619, -0.0081876}, {0.073788, -0.0232627, 0.00786}, {0.0211751, 0.0025458, -0.0464201}},{{-0.3011976, -0.2106087, -0.0866731}, {-0.0742977, 0.1324297, -0.143441}, {-0.1658959, -0.2353047, -0.3122892}},{{-0.0129985, -0.0783803, -0.2135155}, {-0.0865934, -0.1586455, -0.0983317}, {0.0205189, -0.2100255, -0.0919495}},{{0.0197594, 0.0757892, 0.052514}, {0.0236, 0.0179746, 0.0236764}, {0.0121009, -0.0307331, 0.0590412}},{{-0.1677446, -0.1455221, 0.0314079}, {0.0909355, 0.0303703, -0.0225993}, {0.1727158, -0.060375, 0.0654421}},{{-0.0616687, -0.0851879, -0.0789229}, {-0.0154566, 0.0211874, -0.1086797}, {-0.0760566, -0.1211355, -0.1624417}},{{0.2226974, 0.0776258, 0.0249625}, {0.0681011, 0.0752188, -0.029475}, {-0.1501537, -0.0957889, -0.0171872}},{{0.115077, -0.0559719, 0.1684501}, {0.0122891, -0.0530063, -0.0664106}, {-0.13532, 0.071053, -0.0227124}},{{-0.3137075, 0.1033305, 0.0170553}, {-0.0911186, -0.3736735, -0.1919741}, {-0.0477317, -0.1424498, -0.1440663}},{{0.0439884, -0.1170364, -0.1266583}, {-0.0138523, -0.0307368, -0.079479}, {-0.1029973, -0.075671, 0.2474474}},{{0.0108911, -0.0585848, -0.144147}, {-0.0452084, -0.162165, -0.2002733}, {-0.1203697, -0.1487644, -0.1588294}},{{-0.0412568, -0.0648549, -0.0663464}, {0.0017915, 0.0293151, 0.0411612}, {0.0112403, 0.0768587, -0.0103983}},{{-0.0482947, 0.0439296, 0.017886}, {-0.0313992, 0.0696876, 0.0136421}, {-0.0404069, -0.0132913, -0.0113303}},{{-0.0499013, -0.0460014, 0.0614536}, {0.0004946, -0.0870372, -0.0230778}, {-0.0504654, 0.0559443, -0.0114157}},{{0.1728577, -0.1537346, -0.088692}, {-0.0889077, -0.239899, 0.0073497}, {0.1175179, -0.0213295, -0.0123666}},{{0.0501175, 0.042779, 0.0981066}, {0.0283479, -0.0307314, -0.1089876}, {0.0502978, 0.0221578, -0.0590858}},{{-0.2256241, -0.058729, -0.1962756}, {0.0992457, 0.2621044, 0.0412406}, {0.1042723, 0.0477564, 0.0746577}},{{0.0221454, -0.0302493, 0.0944721}, {-0.0863816, -0.089215, -0.0324436}, {0.0065122, -0.1121018, -0.0794272}},{{-0.0264801, 0.0326515, -0.0955258}, {-0.1291521, -0.0451513, -0.1318273}, {-0.0278576, -0.0942438, -0.1760702}},{{0.2145372, -0.0549816, -0.1877351}, {-0.0252821, -0.0957769, -0.0737101}, {0.0302135, -0.5157007, -0.195452}},{{0.1936479, -0.0845707, 0.4210593}, {-0.2292346, -0.0784888, 0.1585732}, {-0.030959, -0.1403999, 0.0665655}},{{0.1179207, 0.0980869, 0.0788042}, {0.0019923, -0.0269064, 0.1212713}, {-0.0814664, 0.0639436, 0.2840194}},{{-0.0404183, -0.0396685, -0.0565394}, {-0.0852239, 0.0386676, -0.2152471}, {-0.0536821, -0.0069048, -0.0825033}},{{-0.0604818, -0.0375636, 0.006195}, {-0.0433532, 0.0272593, -0.037957}, {-0.043437, -0.024564, -0.0322247}},{{0.3613893, 0.1139593, 0.4530445}, {0.0144724, 0.1017657, 0.1009852}, {-0.0370185, -0.0289577, -0.0433466}},{{-0.0673932, 0.0538947, 0.0046278}, {-0.0467569, 0.0866856, -0.0156307}, {0.1453923, -0.0264367, -0.100369}},{{-0.0165972, -0.0447987, -0.0191955}, {0.0406425, 0.0246269, -0.045724}, {0.0043408, 0.0257229, -0.0890441}},{{0.0550823, 0.0224503, -0.0062452}, {0.0680041, -0.0161363, -0.015357}, {-0.0307957, -0.0097077, 0.0532968}},{{-0.1883113, -0.3052103, -0.2256969}, {0.1507491, 0.0989967, -0.3179924}, {0.0190086, -0.0418706, -0.3043627}},{{-0.0581768, 0.0636334, 0.0852534}, {-0.0570297, 0.0027773, -0.098274}, {-0.0557607, -0.2102802, 0.0274271}},{{0.0364032, 0.0354009, -0.0028257}, {-0.0341013, -0.0044129, 0.0154953}, {-0.0004026, -0.0184603, -0.0397912}},{{0.1586562, 0.0315992, 0.1303826}, {0.0929192, -0.0837671, -0.0533928}, {0.090057, 0.064996, 0.0908317}},{{0.1579729, 0.0473314, -0.0162782}, {-0.089054, -0.0242667, -0.0275675}, {0.0490105, -0.0761285, 0.0501069}},{{-0.0167458, -0.3991509, -0.2290659}, {-0.0985078, -0.4074214, -0.2533846}, {-0.0745311, -0.3078404, -0.4432606}},{{0.022593, -0.0575108, -0.0910839}, {0.058348, 0.0557704, -0.0660154}, {-0.0536729, -0.0047077, 0.0929814}},{{0.1129882, -0.1047176, -0.0139376}, {-0.1110155, -0.0772814, 0.00116}, {0.0366345, -0.0555188, -0.1347389}},{{-0.0388391, -0.0259704, -0.1806662}, {0.067456, -0.0775814, -0.1696987}, {-0.1092637, -0.291605, -0.3789829}},{{-0.0243744, -0.1137352, 0.0119425}, {0.0098797, -0.1370635, 0.025778}, {0.0202722, 0.0503797, -0.0860462}},{{-0.2188614, 0.0908055, -0.2004802}, {-0.4852821, -0.0125186, -0.0430649}, {-0.139427, -0.1786597, -0.1486495}},{{-0.0256943, -0.0899896, -0.0191202}, {0.0221813, 0.076976, -0.0787795}, {-0.0278242, -0.1693474, 0.1137997}}}
{{{-0.0026177, 0.019009, -0.0270907}, {0.0252634, -0.0586241, 0.0180966}, {0.0455124, -0.0309339, -0.0561972}},{{-0.0033407, 0.0135716, 0.0507824}, {0.0172717, -0.0487553, 0.0245765}, {0.0618835, -0.0732276, -0.0767439}},{{-0.0090693, -0.0031179, -0.0407704}, {0.0659206, -0.0384749, 0.0203584}, {0.0005411, -0.0221343, 0.0704767}},{{-0.0347168, -0.002685, -0.0915644}, {-0.0465029, 0.1069393, -0.1111309}, {0.0013856, -0.0767323, -0.1295201}},{{0.0451814, 0.012265, -0.0330875}, {0.0375325, -0.0321904, -0.0141474}, {0.0789912, -0.0069639, -0.0307186}},{{-0.1411983, -0.0364607, -0.0519715}, {-0.0917411, -0.1020946, -0.0979349}, {-0.0996237, -0.0527183, -0.092669}},{{-0.0261254, -0.0715076, -0.0282201}, {-0.0865997, -0.0108714, 0.0229085}, {0.0954131, 0.0193308, -0.0833612}},{{-0.0193069, -0.074089, 0.0561681}, {0.0374655, -0.0766271, 0.0536985}, {0.0435441, -0.0295593, -0.0532249}},{{0.0121325, -0.0370356, -0.0259933}, {-0.0903034, -0.0942558, 0.041636}, {0.0528048, -0.0707575, -0.1058898}},{{-0.0782901, 0.0402177, 0.043074}, {0.0115944, -0.0759069, -0.032935}, {-0.0482365, -0.002208, 0.028578}},{{-0.0109327, -0.1081562, 0.0077989}, {-0.0918482, 0.0097333, 0.0283127}, {-0.0605451, -0.0886526, -0.0473418}},{{0.0644345, 0.0433112, -0.0015427}, {-0.0134243, -0.0460903, -0.0089311}, {-0.0116602, -0.0198947, 0.0123236}},{{0.044742, -0.0414433, 0.0600519}, {-0.0224396, 0.0115261, -0.0233563}, {-0.0723856, 0.0125011, -0.0141094}},{{-0.0270325, -0.0740899, -0.104933}, {-0.0282778, -0.0672823, 0.0435256}, {0.0426801, 0.0094052, 0.0234319}},{{-0.0960881, -0.0152135, 0.0082143}, {-0.1160299, -0.0428573, -0.0957588}, {-0.1262741, -0.0170005, -0.0692735}},{{-0.0035117, -0.0237861, 0.0280327}, {0.0372337, -0.0079202, 0.0211001}, {0.0486491, 0.0147121, -0.0685083}},{{-0.0204447, -0.0140539, -0.0428835}, {-0.0012647, -0.1265629, -0.1068371}, {-0.002833, -0.1078962, -0.0864627}},{{0.0221023, -0.0775319, -0.0333403}, {-0.0661454, 0.0030555, -0.0990987}, {0.0205483, -0.0635283, -0.0005265}},{{-0.0866754, -0.0805042, -0.0496113}, {-0.0551757, -0.1339658, -0.0316287}, {-0.0193288, -0.0785176, -0.0807222}},{{0.007682, 0.0264509, 0.0221545}, {0.0361668, 0.0095376, 0.0295336}, {-0.0789195, -0.088666, -0.0384925}},{{0.042855, 0.0299129, 0.0285814}, {0.044563, -0.0691126, 0.0359955}, {0.048554, 0.0083983, -0.001633}},{{0.0418322, -0.0042032, -0.1336637}, {-0.1311183, -0.0651498, 0.0777726}, {-0.0490864, -0.0630547, -0.041205}},{{0.0080009, 0.0213277, -0.0443971}, {0.0102409, 0.0260738, -0.0177298}, {-0.0365966, 0.0006787, -0.1001729}},{{-0.0577633, 0.0001284, -0.0394185}, {-0.0824882, -0.1054903, 0.0182704}, {-0.0075332, -0.0636825, -0.0401842}},{{-0.0339238, -0.0289342, 0.0160656}, {0.0410806, -0.0344516, 0.0299662}, {-0.0656204, 0.0414829, 0.0298705}},{{-0.0920835, -0.0445181, -0.0025624}, {-0.0219302, -0.0549954, -0.0556769}, {0.047544, -0.0804744, 0.0058079}},{{-0.0332618, -0.0639551, -0.0671481}, {0.0402046, -0.1223836, 0.0534313}, {-0.0745659, -0.0931304, 0.0401689}},{{0.0407397, 0.0056457, -0.0063095}, {-0.0631469, 0.0510717, 0.0571899}, {-0.0477742, -0.0045902, -0.0122769}},{{-0.0640552, 0.0688908, 0.0695358}, {-0.0368471, 0.0966315, -0.0640934}, {0.0672707, -0.0191518, 0.1575099}},{{0.04121, 0.0143744, 0.0012558}, {0.0282249, -0.0766045, 0.034195}, {-0.0766342, -0.0616779, -0.0784657}},{{-0.0592866, -0.0438192, 0.0542519}, {0.0311058, -0.0155359, 0.0333731}, {-0.0910262, -0.0540426, -0.0121522}},{{0.0169094, 0.0249269, -0.063019}, {-0.0287999, -0.0653383, 0.0765609}, {-0.1452717, -0.1073221, 0.065511}},{{-0.0111128, -0.0903815, 0.0701833}, {-0.0050183, -0.1103608, -0.0095287}, {-0.0900667, -0.1065997, -0.0028553}},{{-0.0127869, -0.0703942, -0.1417044}, {0.0402632, -0.0027399, -0.0407716}, {-0.0292588, 0.0205729, -0.035586}},{{-0.0520227, 0.017764, -0.0263751}, {-0.002848, 0.0580281, 0.0624875}, {-0.0958396, -0.0615286, -0.0515096}},{{0.0186873, 0.0219292, -0.0317069}, {-0.0097672, -0.0136259, -0.0496467}, {-0.0059113, 0.040865, -0.0134533}},{{-0.0276742, -0.0418204, 0.045579}, {0.0631214, -0.0484555, 0.034424}, {-0.0367619, 0.0499779, 0.0625893}},{{0.0659097, 0.0456907, -0.075032}, {-0.0280932, 0.0205243, -0.0820284}, {-0.017937, 0.0221443, 0.0620273}},{{-0.014579, -0.0502605, -0.0412045}, {-0.0837237, 0.0359736, 0.0236752}, {-0.0701877, -0.0715161, -0.0629945}},{{0.011019, -0.049733, -0.0323065}, {-0.0404123, -0.111436, 0.0263782}, {0.0766054, 0.0442462, 0.0867956}},{{-0.0503965, -0.0439282, -0.0197211}, {0.0153148, -0.1097219, -0.0291409}, {-0.0097622, 0.0218586, 0.0053585}},{{-0.0418497, -0.0370181, -0.1338294}, {0.0113822, -0.0846424, -0.0322813}, {-0.1276296, -0.0328525, 0.0652491}},{{-0.093574, -0.0841402, -0.1062646}, {0.0359135, -0.0623469, 0.0388343}, {-0.0576412, -0.0562801, -0.0946269}},{{0.0307744, -0.0151143, -0.0679522}, {0.0650003, 0.0124383, -0.0625588}, {0.1264074, 0.0552963, -0.0868146}},{{0.0564241, -0.0579883, 0.0508978}, {-0.0373513, -0.0475897, -0.1032422}, {-0.0076707, 0.0483177, -0.0567664}},{{0.0294819, 0.0635989, -0.0553225}, {-0.0423336, 0.0281601, 0.0466673}, {0.0062881, 0.0139762, -0.0579865}},{{-0.1040765, -0.0625464, -0.0855697}, {0.0421394, 0.0141544, 0.0161281}, {-0.0194509, -0.125367, -0.1224063}},{{-0.0665744, -0.0696693, -0.0594782}, {-0.0381292, 0.069226, 0.0527782}, {0.0343336, -0.0510438, 0.0275021}},{{-0.0157441, -0.055906, 0.0268243}, {-0.0869612, -9.6e-05, -0.0238576}, {0.0018905, 0.0228785, -0.0537693}},{{-0.053604, -0.0628096, -0.005366}, {0.045624, -0.0501275, -0.0187709}, {0.0232292, -0.0460758, -0.102839}},{{0.0568154, 0.0299254, 0.0599709}, {-0.0098118, -0.0426526, -0.0490408}, {-0.0115152, -0.0300943, -0.0568815}},{{0.0345842, -0.0356423, -0.075626}, {-0.0665666, 0.0046135, -0.0212114}, {-0.0217802, -0.014148, 0.0039426}},{{0.0287388, -0.047893, 0.0392041}, {0.0441662, 0.0386001, 0.0262563}, {-0.0329832, -0.0300013, -0.0330582}},{{-0.0698621, 0.0582302, -0.013895}, {0.0361883, 0.0548696, 0.0893501}, {-0.0031576, -0.0075571, -0.0638164}},{{-0.0139161, -0.0118083, 0.0718551}, {0.0202967, -0.0590356, 0.0265305}, {-0.0387267, -0.0518753, 0.0101513}},{{0.0199233, -0.0117405, 0.009894}, {-0.0451008, 0.0498073, 0.0327935}, {-0.0192054, -0.0949685, 0.0171444}},{{-0.0787301, -0.0081778, -0.0018551}, {-0.0347864, 0.0612236, -0.0017396}, {-0.0696302, 0.0090171, -0.0535499}},{{-0.0750305, -0.1051432, -0.0937624}, {-0.0614876, -0.0281121, -0.145391}, {0.0192572, -0.1038705, -0.1439141}},{{-0.0306246, 0.1205266, 0.0483093}, {-0.0257026, 0.0313433, 0.0432608}, {-0.0342579, 0.0850516, 0.1005949}},{{0.0055432, -0.0069573, -0.0203902}, {-0.0612735, 0.018764, -0.0662789}, {0.0340846, 0.0178953, -0.0300425}},{{-0.0226042, 0.0258083, -0.0121798}, {-0.0836806, 0.0436309, -0.0164855}, {0.0302664, -0.0903737, 0.0502622}},{{-0.0606889, 0.0368219, -0.055574}, {-0.0572286, -0.0902771, 0.0349267}, {-0.0622021, -0.0749958, 0.0238336}},{{0.0178263, -0.0277653, 0.0353715}, {-0.046562, -0.1151179, -0.0652928}, {-0.1194725, -0.0282166, -0.0956323}},{{0.0662864, 0.0370011, 0.0679611}, {0.0593257, 0.0048916, 0.0383803}, {0.0198178, 0.091786, 0.0408591}}}
{{{-0.12971, -0.2755902, -0.0880893}, {0.0813027, 0.1889492, 0.1209991}, {0.1062425, 0.0316208, -0.0682595}},{{-0.2515553, -0.1311543, -0.0494138}, {-0.0001421, -0.0196772, -0.0793409}, {0.1286327, 0.0544876, -0.2149989}},{{0.0369763, -0.0339295, 0.0392964}, {0.0681145, 0.0456571, -0.0182431}, {0.0589925, -0.010986, 0.004188}},{{-0.0443761, 0.0259812, -0.0073728}, {0.0039521, 0.0834144, -0.0108758}, {0.0046716, 0.0134639, -0.0387218}},{{-0.0319251, 0.0635906, 0.0602537}, {0.0204202, -0.0690232, 0.0288919}, {0.0399105, 0.0921558, -0.0128173}},{{-0.0892649, -0.0628096, 0.1749971}, {-0.0253419, -0.2899109, -0.3123966}, {-0.0348752, -0.09279, -0.3674548}},{{-0.0599528, -0.1467168, 0.0314877}, {-0.0338202, -0.03271, -0.0322911}, {-0.1492776, -0.0526546, -0.0299396}},{{-0.0654231, -0.0073422, -0.0604841}, {-0.0776895, 0.0351967, -0.0023514}, {-0.0968506, -0.005048, -0.0750342}},{{0.0077276, -0.0304644, -0.0774041}, {0.0923357, -0.0051732, 0.0303619}, {0.0900998, -0.0174054, -0.0697085}},{{-0.0558027, -0.0717765, 0.023286}, {-0.0792719, -0.0747083, -0.0820926}, {0.0566221, -0.0161886, -0.0164586}},{{-0.0200057, -0.060357, 0.031458}, {-0.0256243, -0.0488586, 0.0744847}, {0.0336798, -0.0668848, 0.1627063}},{{-0.072983, -0.0138181, -0.0457497}, {-0.0294247, -0.0537526, 0.0508344}, {-0.0953958, -0.0637449, -0.040635}},{{-0.0887092, -0.1114263, -0.3696079}, {-0.0486009, 0.0472445, -0.1766193}, {0.0438696, -0.1276894, -0.0636863}},{{0.2851491, 0.3262096, -0.1505289}, {-0.2382644, 0.0060264, -0.0934274}, {0.0520389, -0.0381779, -0.068377}},{{-0.0362858, -0.1026347, -0.2005164}, {-0.0752905, 0.0483851, 0.171799}, {-0.0714219, -0.0489562, -0.1219094}},{{0.0102662, 0.0039848, 0.0143099}, {0.0639957, 0.0457545, 0.0490274}, {0.0028292, 0.0491863, -0.0301113}},{{-0.03158, 0.0052961, -0.1138415}, {-0.0423834, -0.1231106, -0.0220576}, {0.0307113, -0.0487791, -0.0622331}},{{-0.0738474, -0.1142384, -0.0440605}, {0.0084966, -0.0707414, -0.0481053}, {0.0392826, -0.0489487, 0.1561812}},{{-0.0927344, -0.305705, -0.1065894}, {-0.0673581, -0.1117151, -0.0439351}, {-0.1719996, -0.1031056, 0.0341616}},{{0.0424342, 0.0609527, -0.0587677}, {-0.0701295, 0.0396657, -0.0065841}, {0.0235686, 0.0615112, 0.0407893}},{{-0.0522744, 7.12e-05, -0.0403985}, {0.0761309, -0.0303474, -0.0811881}, {-0.0149974, -0.0775393, -0.036331}},{{-0.1262649, -0.1081814, -0.1627534}, {-0.0986462, -0.0300258, -0.1121516}, {-0.1563865, -0.2136926, -0.1394006}},{{-0.0436188, 0.0307777, 0.0211461}, {-0.3812323, -0.3482553, -0.2733729}, {-0.2095568, -0.2281257, -0.0696802}},{{-0.0715759, -0.0571358, 0.0660549}, {-0.1520148, -0.2195038, -0.1308939}, {-0.0169185, -0.0140572, 0.0750157}},{{-0.0582204, 0.0425402, -0.0820342}, {0.0028877, 0.0405149, 0.0349356}, {0.0559096, -0.0701154, -0.0120856}},{{0.1233672, 0.175771, 0.1474108}, {-0.1757179, -0.3394484, -0.4077069}, {-0.2146397, -0.153008, -0.1168271}},{{-0.5243783, -0.1002685, 0.0850535}, {-0.1329849, -0.0654509, 0.0775052}, {-0.1671056, -0.0313555, 0.0301297}},{{-0.0818608, -0.0642279, 0.0666495}, {-0.0491772, 0.0356557, 0.0142039}, {-0.0600165, 0.0776943, 0.0452285}},{{0.0464616, -0.0289188, 0.105422}, {0.1068513, 0.0440098, 0.1113034}, {0.0485303, 0.1255739, 0.087243}},{{0.0324705, 0.0275413, -0.2175819}, {-0.0346811, -0.1113997, 0.0657856}, {-0.0766056, -0.1735837, -0.00712}},{{-0.1227077, -0.1018192, 0.1349275}, {-0.0032005, -0.1520389, 0.0282278}, {-0.004639, 0.0479752, 0.0097674}},{{-0.204997, -0.0567105, -0.1618273}, {-0.1051427, -0.0527276, -0.0505025}, {-0.0633888, 0.0333271, -0.0397096}},{{-0.1395109, -0.2098517, -0.0749362}, {-0.2948536, -0.1207744, -0.0060503}, {0.0283536, 0.0529917, 0.1706407}},{{-0.061181, -0.0621241, -0.0641587}, {-0.2085222, -0.2733802, 0.0080135}, {-0.3076224, -0.1464167, -0.0623061}},{{-0.0815485, -0.2084778, -0.1318165}, {-0.1368127, -0.2022856, 0.0094012}, {-0.1810488, -0.0821225, -0.2016654}},{{-0.0050032, 0.0433408, 0.0085586}, {0.0472559, 0.0197243, 0.0131283}, {-0.0409306, 0.0255466, 0.047984}},{{-0.0498894, -0.1167, -0.0708743}, {-0.0874676, -0.0926928, -0.0025124}, {0.0310147, -0.0593634, 0.0316809}},{{0.0054438, -0.0192622, -0.0360241}, {0.0071334, 0.0041896, -0.0764425}, {0.0201307, -0.0025746, -0.0286257}},{{-0.1706237, 0.0309989, -0.1187892}, {-0.1256171, -0.2268723, -0.1231323}, {0.000947, 0.0682614, -0.1063584}},{{0.0256837, -0.1221618, -0.0224108}, {-0.0352488, -0.0016408, -0.0414784}, {-0.1387987, 0.0855833, -0.0233968}},{{-0.0420779, 0.0398183, -0.1120643}, {0.0915891, 0.1617917, -0.0395971}, {-0.0664131, -0.0688517, -0.0366147}},{{-0.0439882, 0.1016789, 0.1476481}, {-0.0691568, 0.0482325, -0.0286868}, {-0.0009784, -0.0264742, -0.0329802}},{{0.092626, -0.2055812, -0.3228728}, {0.0033978, -0.160315, -0.2175122}, {-0.033049, -0.0304018, -0.3024023}},{{0.1036419, -0.0626897, -0.1298203}, {0.0308172, -0.0390184, 0.0984578}, {0.1149196, -0.0837491, -0.0119624}},{{0.1494796, -0.10963, -0.1246927}, {0.0762648, 0.0358833, -0.1278266}, {0.0570829, -0.1309999, -0.107294}},{{-0.1988291, -0.3373037, -0.033448}, {-0.1214457, -0.0612983, -0.104198}, {-0.042125, -0.1629259, 0.0029094}},{{0.0474352, 0.0273264, -0.0642261}, {-0.0128254, -0.1136111, 0.031341}, {0.0065431, 0.006192, 0.0229774}},{{0.0422915, 0.0468842, -0.0047305}, {0.0102659, 0.0164293, -0.0025503}, {-0.0246497, 0.0672769, -0.0162103}},{{0.1903881, 0.0219905, 0.0832473}, {-0.2096384, -0.0101095, -0.0250071}, {-0.0692928, 0.1436958, 0.0402868}},{{-0.1039419, -0.0002469, 0.002702}, {0.0114365, -0.014278, -0.0218693}, {0.0075525, -0.0461767, -0.0498362}},{{-0.0584418, 0.0333408, -0.0516648}, {-0.0324185, -0.1017677, -0.0902659}, {-0.0761934, 0.0260896, 0.0058122}},{{-0.0770338, 0.012243, 0.0473897}, {0.0590398, -0.0139336, 0.0405917}, {-0.0742282, 0.0282066, -0.0600927}},{{-0.0219338, 0.156958, 0.0460633}, {-0.3208871, -0.083413, 0.0073644}, {-0.2968082, -0.0556135, -0.023822}},{{-0.2023301, -0.2830521, -0.3208455}, {-0.1189065, -0.245733, 0.015938}, {-0.0519502, 0.0346494, 0.0456029}},{{0.0801878, -0.0618444, -0.0591276}, {0.1018199, -0.0065026, 4.66e-05}, {0.068816, -0.0680359, 0.0772481}},{{0.003586, -0.0970169, -0.0904962}, {0.0945588, -0.0058529, -0.1264034}, {-0.1326233, -0.0208679, -0.0185985}},{{-0.0559559, 0.0954444, 0.2222529}, {0.0201218, 0.0461888, -0.1688756}, {-0.1895254, -0.2025413, -0.0953383}},{{0.0045999, -0.0781028, 0.218791}, {-0.1075943, 0.1080435, -0.0189421}, {-0.2519324, -0.2381549, -0.4084218}},{{-0.1093531, -0.1812421, -0.1470911}, {0.0826946, -0.0741063, 0.0412646}, {0.0461175, 0.0459502, -0.030587}},{{0.0276157, 0.0691143, -0.1303776}, {-0.0062951, -0.1566283, 0.0127568}, {0.1948691, 0.0119134, 0.0869652}},{{0.0465263, -0.1257772, 0.178659}, {0.0840157, -0.2507649, 0.0978108}, {0.0035205, -0.3321229, -0.167329}},{{-0.0607031, 0.0355306, -0.0067587}, {0.0035443, -0.0690429, 0.0653582}, {-0.0424884, -0.0291836, -0.0084985}},{{-0.3342949, -0.0635297, -0.1422496}, {-0.0134626, 0.0644013, -0.3517251}, {0.0230349, 0.0367164, -0.1942213}},{{0.139679, 0.1814692, 0.3346745}, {0.1014682, -0.1562536, 0.0443767}, {-0.2221964, -0.4144372, -0.0269335}}}
{{{0.0024235, -0.069517, 0.1039212}, {-0.001057, -0.0023359, -0.0385783}, {-0.0022847, -0.0677865, -0.1993044}},{{0.1608959, -0.0340478, 0.0253667}, {0.0140467, -0.1194213, -0.0706621}, {0.0054993, -0.0634553, -0.0300631}},{{-0.0475788, 0.0334878, -0.0439423}, {-0.0127449, 0.038614, -0.039976}, {-0.0341965, -0.0483809, -0.061655}},{{0.0434926, -0.0271727, 0.0744923}, {-0.0232883, -0.046362, 0.0035882}, {0.0063346, 0.0225174, -0.0487146}},{{-0.0213475, -0.0073482, -0.0748632}, {0.013728, -0.0428551, -0.0847016}, {0.0261371, -0.0326858, -0.076428}},{{-0.1010605, -0.0965082, 0.0240426}, {-0.0267213, 0.0580859, -0.0553136}, {-0.1066954, -0.0071244, -0.0320099}},{{-0.2167575, -0.0860088, -0.1557991}, {-0.1946485, 0.0465598, 0.0684697}, {-0.147139, -0.0181085, 0.0461956}},{{-0.0367903, 0.0484494, 0.0137609}, {-0.0883555, 0.0046103, -0.0265937}, {-0.0605015, -0.07304, 0.006017}},{{-0.0810584, -0.0367594, 0.0311485}, {0.130065, 0.0214127, -0.0741573}, {-0.0517939, -0.1369907, -0.0387775}},{{0.024854, -0.0321246, -0.0485347}, {0.0283794, -0.083513, -0.0310875}, {0.0195058, -0.0855897, -0.0276128}},{{-0.0281133, 0.012967, 0.0118735}, {-0.0033171, 0.004306, -0.0960363}, {-0.0776424, 0.0351919, -0.0550093}},{{0.0691744, 0.0141881, -0.026838}, {0.0521802, 0.0342672, 0.0020083}, {-0.0596526, 0.0286213, -0.0437792}},{{0.0272294, 0.0086664, 0.0124676}, {-0.0498149, -0.0198408, -0.0445856}, {-0.0340224, -0.0717909, 0.0079685}},{{-0.1351071, -0.0249975, 0.026242}, {-0.115182, -0.0115344, 0.0445318}, {0.0181624, -0.0317248, -0.0613997}},{{-0.1093209, -0.0235129, -0.1233206}, {-0.2660083, -0.1899975, -0.1205538}, {-0.1989844, -0.0947229, -0.0267375}},{{-0.0043651, 0.0211466, -0.0508568}, {-0.0024164, 0.0215437, -0.0370363}, {-0.0143083, 0.014304, 0.0041177}},{{-0.0935067, -0.0439023, 0.0104053}, {0.0513023, -0.0597348, -0.0051958}, {0.0383582, -0.0683674, 0.0065377}},{{0.1124482, 0.0403144, -0.0415969}, {0.0008466, 0.0478249, -0.1037618}, {0.0611558, -0.0706443, -0.0906949}},{{-0.0215837, -0.0869455, -0.0168215}, {0.1075194, -0.149269, -0.1043699}, {0.0086345, -0.2111013, 0.0098247}},{{-0.0466006, -0.0224757, 0.0543402}, {-0.0184052, -0.0594031, 0.0538232}, {0.0102312, -0.0120395, -0.0876809}},{{-0.0207958, -0.0406509, -0.0193976}, {0.0427158, -0.0187693, -0.0629285}, {0.0472745, 0.0506483, 0.0541494}},{{-0.1339035, 0.0019114, -0.0613872}, {0.0440071, 0.0251541, -0.1059187}, {-0.0634373, -0.0341371, 0.0240326}},{{-0.0372954, -0.0405461, -0.0793016}, {-0.0173769, -0.010109, -0.0110431}, {-0.0492772, -0.2202662, -0.0928774}},{{-0.0463001, 0.0152947, -0.1115095}, {0.1011914, 0.0183008, 0.0041428}, {0.0415711, 0.0385421, 0.0307043}},{{-0.008507, -0.0052236, -0.0567481}, {-0.0301467, -0.0489285, 0.0170238}, {-0.085147, -0.0131345, 0.0525811}},{{-0.2571435, -0.0029471, -0.0560407}, {-0.0932385, -0.1112918, -0.0430922}, {-0.066035, -0.1104945, -0.063648}},{{0.0391925, -0.1877162, -0.2528654}, {0.0342169, -0.1456792, -0.1047356}, {-0.0870313, -0.0478555, 0.0459019}},{{0.0062795, 0.0698545, -0.0163053}, {-0.0204907, -0.0048886, -0.0315934}, {-0.1003254, 0.02086, 0.0590262}},{{0.1083549, 0.0523448, 0.05482}, {0.0501113, -0.0124041, 0.0480639}, {-0.080566, 0.0142113, 0.079821}},{{0.0094332, 0.0288499, -0.1240465}, {0.0115252, -0.0088137, -0.0310271}, {0.0986586, 0.0071836, -0.0829218}},{{0.0691245, -0.038372, -0.0524798}, {-0.0772191, -0.0722777, 0.0246423}, {-0.0308995, -0.0357566, 0.0557818}},{{0.0686432, -0.0962253, -0.0086827}, {-0.0249837, -0.0604274, -0.0537518}, {0.0483158, -0.0552834, -0.0501238}},{{0.0100182, -0.2393584, -0.0694501}, {-0.1125886, -0.2284902, -0.0372184}, {-0.1724055, 0.0056578, -0.0471101}},{{-0.0052043, -0.0669852, -0.1499644}, {-0.0631131, -0.0146488, -0.0705362}, {-0.0249412, -0.2445912, -0.1000273}},{{0.0414247, -0.1142818, -0.0918655}, {-0.1138237, -0.1672916, 0.0227395}, {-0.073463, -0.140003, -0.1104035}},{{-0.0201988, -0.0185766, -0.0593034}, {0.0627096, -0.0605823, 0.0164851}, {0.0592781, -0.0215927, 0.075065}},{{-0.0399288, 0.0241129, -0.0273804}, {-0.0495097, -0.0097409, 0.057509}, {0.0004302, -0.0308127, 0.0494903}},{{-0.0533044, 0.0403333, -0.0739992}, {0.0389569, 0.0278512, 0.0084819}, {-0.0276775, 0.0096349, 0.0050022}},{{-0.10932, -0.0135019, 0.0565855}, {-0.1373447, -0.1026941, -0.0823738}, {-0.0179839, -0.1020039, -0.0616189}},{{-0.132192, -0.0331013, -0.1018275}, {-0.0194366, -0.0384238, 0.0129219}, {-0.021496, 0.0441503, -0.0591078}},{{-0.0050373, -0.1220518, -0.1041228}, {-0.0745448, -0.1455536, -0.0054352}, {0.0143877, -0.0321411, -0.0342702}},{{0.1394819, -0.178042, 0.0754861}, {0.0755585, 0.0066771, 0.0298875}, {0.0471407, -0.0080632, 0.0046354}},{{0.0774895, -0.0948021, -0.0207678}, {0.0862064, -0.1150151, 0.001357}, {-0.0080111, 0.0613067, -0.074241}},{{-0.1783532, -0.0210807, -0.1165682}, {0.0229449, -0.083832, 0.0034328}, {-0.2018004, -0.1937519, -0.090097}},{{-0.0892452, 0.0843023, -0.0484695}, {-0.1209205, 0.0667269, -0.0480818}, {-0.0602288, -0.1317517, -0.0469746}},{{-0.0241505, -0.1667138, -0.0580308}, {0.0042678, -0.1712682, -0.1304579}, {0.0282498, -0.04215, -0.115996}},{{-0.0693786, 0.0177569, -0.090075}, {-0.0600523, 0.0418009, -0.0858064}, {-0.0358021, -0.13047, -0.0259106}},{{0.0490041, -0.0203568, 0.0374625}, {0.0049369, 0.0472373, 0.1130137}, {-0.0460919, -0.0065216, -0.0188206}},{{-0.1398396, 0.1057559, -0.1384455}, {-0.1561395, -0.1572223, -0.1091858}, {-0.0898346, -0.1076807, -0.0848536}},{{-0.1085814, -0.1205715, -0.0664818}, {-0.0686979, -0.0165833, -0.0281978}, {-0.0149955, -0.0843421, 0.0496817}},{{-0.0196473, 0.0632295, -0.0372923}, {0.0723575, 0.058973, 0.0319652}, {0.0836961, -0.0376125, -7.34e-05}},{{0.0157906, -0.0090082, -0.0923447}, {-0.0142569, 0.025115, 0.0042514}, {0.1011326, 0.0153851, -0.0005253}},{{-0.1056335, 0.02179, -0.0633446}, {-0.0968958, -0.0148707, -0.0578146}, {0.0545985, 0.0404147, -0.0489726}},{{0.0725804, -0.1469541, 0.0207287}, {-0.013684, -0.0094384, -0.1866036}, {-0.2006054, -0.1505817, 0.217876}},{{0.0170587, -0.0666181, 0.0346584}, {-0.0159001, 0.0144058, 0.123258}, {-0.0572794, -0.0552906, -0.0196955}},{{-0.031568, -0.0430382, -0.0441909}, {-0.1553726, -0.2023977, -0.1186894}, {-0.1563537, -0.0187473, -0.03304}},{{-0.0080195, -0.1572328, -0.1668419}, {-0.0979324, -0.1560273, -0.1756298}, {0.0171097, 0.057084, 0.0869369}},{{-0.1449212, -0.206454, -0.1519191}, {-0.2118815, -0.0460722, -0.0410516}, {-0.0273368, -0.0926151, 0.0036449}},{{-0.0334049, -0.0448742, -0.0206167}, {0.0767483, -0.0068412, 0.0216806}, {-0.0280366, -0.0541938, 0.0905175}},{{-0.0278776, -0.0428653, -0.0717575}, {-0.0925499, 0.165929, -0.0539461}, {-0.0730718, -0.0617321, 0.0120612}},{{-0.0642073, -0.0153947, -0.0741786}, {-0.0117041, 0.0018429, -0.0622434}, {-0.0229386, -0.1204413, -0.0915329}},{{0.0055612, -0.1102267, -0.0895919}, {-0.1095813, -0.0244652, -0.0954157}, {-0.0386334, -0.0974782, -0.116276}},{{-0.0336282, 0.0211757, -0.0988756}, {-0.0993287, -0.1439865, -0.1198039}, {-0.0529386, -0.0212611, 0.0437821}},{{-0.0138367, -0.058164, 0.0014568}, {-0.2093581, 0.0537832, 0.0695377}, {0.0428536, 0.2876409, 0.1389312}}}
{{{-0.008701, -0.0681322, -0.0525923}, {-0.0509262, -0.005581, -0.030098}, {-0.0220978, -0.0614736, -0.0409822}},{{0.0086181, -0.0319208, -0.0409132}, {-0.1310829, -0.0575314, -0.1507576}, {0.1206841, -0.0256113, 0.005625}},{{-0.0616801, 0.046478, -0.0434769}, {-0.0057618, 0.0551481, -0.00997}, {-0.0305091, 0.0384525, 0.0738044}},{{0.004982, 0.0651023, -0.0141474}, {-0.0093295, 0.0283646, 0.035811}, {0.0076867, -0.0582674, 0.0610632}},{{0.0691474, -0.0484567, 0.0609081}, {0.0291491, -0.0005666, -0.0497577}, {-0.04251, -0.0059841, 0.0478921}},{{0.0437478, -0.0598793, -0.0200333}, {-0.07161, -0.1806089, -0.0225562}, {-0.0367328, 0.0314502, 0.0218661}},{{0.0440379, -0.039787, -0.0212503}, {0.0633592, -0.0060611, 0.015976}, {0.0601272, -0.1133088, 0.0306959}},{{-0.0675768, -0.0836458, 0.0477456}, {-0.0676209, 0.0403664, 0.0046218}, {-0.073265, -0.0208487, 0.0215861}},{{0.0217621, -0.0114081, -0.0396326}, {0.0034866, -0.0718798, -0.0726819}, {-0.0254733, -0.1278648, -0.0995645}},{{-0.0481615, 0.0342453, -0.0789477}, {-0.0887287, -0.0930948, -0.0061979}, {-0.008076, 0.0092285, -0.0480203}},{{0.0892883, -0.01873, -0.0670765}, {0.0497471, -0.0482414, -0.0562025}, {-0.0383028, -0.0483883, 0.0708368}},{{0.013044, 0.0616015, -0.0111158}, {0.025773, 0.0653263, -0.0111827}, {-0.0655281, -0.0619582, -0.040252}},{{6.89e-05, -0.0867018, -0.0870521}, {0.0175235, 0.0170359, 0.0350535}, {-0.0941994, -0.0269971, 0.0277489}},{{-0.0295094, -0.1003799, 0.0303725}, {0.0587485, -0.0295096, -0.0793968}, {0.1373429, -0.0161671, -0.0388859}},{{-0.0945762, 0.0043953, -0.1029086}, {-0.1260391, -0.0711316, -0.0802763}, {-0.0496348, -0.1190958, -0.1035937}},{{-0.0166687, 0.0497366, -0.0387039}, {0.0175261, -0.0407269, -0.0106065}, {0.0095442, -0.0010508, 0.0666151}},{{-0.1043003, -0.0029184, -0.0050228}, {-0.1097754, -0.0958775, 0.0584166}, {-0.0710714, 0.0067141, -0.0442661}},{{0.0844116, -0.0148995, -0.0674194}, {0.0507042, 0.0908502, 0.0248159}, {-0.0492136, -0.0180631, -0.0034106}},{{0.0045983, -0.1444074, -0.0954889}, {-0.0241998, 0.0023148, -0.0961303}, {-0.0059743, -0.0897169, -0.0976848}},{{-0.031668, -0.0701544, 0.0433622}, {-0.0722268, -0.0514941, 0.0127968}, {-0.0602676, -0.0211444, 0.0104958}},{{-0.0488182, -0.0208183, -0.0481404}, {-0.0024898, 0.0345004, -0.0407781}, {-0.041496, -0.0252825, -0.0129815}},{{-0.069928, -0.0034736, -0.0214276}, {0.0358346, -0.0769803, 0.0009897}, {0.0212404, 0.0348286, 0.0386715}},{{-0.0379163, 0.0196519, -0.1522967}, {-0.0753318, -0.0310847, -0.1811904}, {-0.1054144, -0.0827087, -0.2468334}},{{0.0295475, 0.0166617, 0.0931378}, {-0.0354553, 0.0055381, 0.0134781}, {-0.0470356, 0.1186618, 0.0765134}},{{-0.0019174, 0.015079, 0.0983927}, {-0.0054514, -0.011543, 0.0758828}, {0.0415962, 0.0498953, 0.07224}},{{0.0036876, -0.1067026, -0.0279926}, {-0.12117, -0.127787, -0.2480013}, {-0.1059925, -0.1076394, -0.0915701}},{{-0.0645249, -0.0741323, -0.1218629}, {-0.0258659, -0.0790226, -0.0210988}, {0.0507054, -0.1718453, -0.0389326}},{{-0.0517588, -0.0720592, -0.0066932}, {0.0160942, -0.0248206, 0.0063934}, {0.0007474, 0.0230134, 0.04203}},{{-0.0220742, -0.0348472, -0.0617892}, {-0.0232552, 0.015864, 0.0457118}, {0.0147037, 0.0285902, 0.0417242}},{{0.0111617, -0.1456673, -0.0242667}, {-0.070465, -0.0314384, 0.0425728}, {0.0530447, 0.0441926, 0.0161468}},{{-0.1416544, -0.1081467, 0.0003313}, {0.0971413, -0.2082385, -0.1914356}, {-0.0808438, 0.0039096, -0.095471}},{{-0.0460848, -0.0877412, 0.1164503}, {-0.0967193, -0.0159681, -0.0841539}, {-0.0811285, -0.0241231, 0.0294093}},{{-0.0718272, -0.0736393, -0.0624273}, {-0.0380141, -0.0581915, -0.1240322}, {-0.0885876, -0.0157426, -0.0420495}},{{-0.0321285, -0.0502114, -0.0696805}, {-0.1798115, -0.0120435, -0.0122926}, {-0.1886019, -0.0892151, -0.0269984}},{{0.0331259, -0.1171035, -0.0493815}, {0.0762077, 0.0805888, 0.0034118}, {0.1448537, 0.0229689, 0.0071157}},{{-0.0370456, 0.0007997, -0.0980057}, {-0.0847529, -0.0026369, -0.0271004}, {-0.0728937, -0.0032958, -0.0050536}},{{0.0166577, 0.0190623, -0.0471887}, {0.0423082, -0.0732271, -0.0424096}, {-0.0294733, 0.0159443, -0.0735912}},{{-0.0584802, 0.0434336, -0.0292216}, {0.0229875, -0.0157092, 0.0105749}, {-0.0125756, -0.0293483, 0.0367466}},{{-0.0373541, 0.000543, -0.0386371}, {0.0263502, -0.0065333, -0.0550432}, {0.0389074, -0.0806475, 0.004496}},{{-0.0379813, -0.0836388, -0.0146167}, {-0.0722982, -0.1011789, -0.0173182}, {-0.0014796, -0.0356318, -0.0746503}},{{0.0049719, -0.0769987, 0.0013857}, {0.0338357, -0.0365878, -0.0991234}, {0.0057844, 0.0403838, 0.0196058}},{{-0.0987086, 0.065418, -0.0770258}, {0.0206486, -0.0435427, -0.0259977}, {0.0005286, -0.1239272, -0.0719385}},{{-0.0748444, -0.1471142, -0.0858262}, {0.0457801, -0.1120745, 0.0367273}, {-0.0180147, -0.0703625, -0.0466607}},{{0.0081835, -0.1295599, -0.137047}, {0.0824526, -0.1205136, -0.0395778}, {0.011909, -0.0784097, 0.0300356}},{{-0.077655, -0.0268464, -0.0333025}, {-0.039663, -0.1158079, -0.1033238}, {-0.0173378, -0.1131113, -0.0346269}},{{-0.0583776, 0.0156567, -0.0686677}, {-0.1122107, 0.0139389, -0.0144555}, {-0.0538779, -0.1933596, -0.0252485}},{{-0.0271666, 4.36e-05, 0.009681}, {-0.0666491, -0.0226489, -0.1639393}, {-0.0483492, -0.0115249, -0.0824091}},{{0.0231661, 0.056605, 0.0529828}, {-0.0459929, -0.0558957, -0.0230218}, {0.0263113, -0.0220461, 0.0201352}},{{-0.006438, -0.1217107, -0.098902}, {-0.0505799, -0.0979107, -0.0217229}, {-0.0276562, -0.0364529, 0.0103812}},{{-0.0599264, -0.0077675, -0.0182805}, {-0.0517241, 0.0374567, -0.0411485}, {-0.1031214, -0.0182566, -0.0518107}},{{0.0141315, -0.0672256, -0.023705}, {-0.0399902, -0.0471861, 0.0265971}, {0.0008399, 0.0598679, -0.0872546}},{{0.0343585, 0.0660595, -0.0294952}, {-0.0687162, -0.0626911, 0.0035753}, {0.0313128, 0.0179876, 0.0298004}},{{0.0096178, -0.0347727, 0.1524449}, {-0.0163019, 0.0113164, -0.0706976}, {-0.0086228, -0.1437005, 0.0786467}},{{0.0117618, -0.0236974, -0.0754397}, {-0.1414596, -0.0279295, -0.0672763}, {-0.058185, -0.1810698, -0.0874664}},{{-0.0161693, 0.071789, -0.051932}, {-0.0330658, 0.0472823, 0.0265646}, {-0.0690985, -0.0814804, -0.0043198}},{{-0.1307782, -0.1439291, -0.0298987}, {0.1342203, -0.055842, 0.0132952}, {-0.1032252, 0.0935061, 0.0998837}},{{0.0769248, 0.0651754, -0.1004159}, {-0.0798601, -0.0750429, 0.046822}, {-0.0398543, -0.0728669, -0.0899479}},{{-0.0306312, -0.1598176, -0.050631}, {0.0079584, -0.3137013, -0.0714321}, {-0.121445, -0.3245713, -0.0531755}},{{-0.0716108, -0.1003307, -0.0512902}, {-0.0237849, 0.0190776, 0.0059319}, {-0.1094586, -0.0417735, 0.0620653}},{{-0.0675827, -0.083997, 0.0589464}, {-0.0495708, 0.0386789, -0.1120577}, {-0.0965739, 0.0120951, -0.0427725}},{{0.0061534, -0.0207884, -0.099389}, {-0.0970906, 0.014934, -0.0899648}, {-0.2773884, -0.1796953, -0.1626941}},{{0.0495505, -0.0259342, -0.1102556}, {0.0101307, 0.0650363, -0.0065412}, {-0.0119682, -0.0344256, -0.00895}},{{-0.2295396, -0.0697235, -0.3345218}, {-0.1155299, -0.1054821, -0.1596035}, {-0.1325467, -0.0812468, -0.1300858}},{{0.0121067, 0.0651431, -0.0079589}, {-0.062604, -0.0014869, 0.1085811}, {-0.1482638, 0.033255, -0.0859409}}}
{{{-0.0077418, 0.0017944, -0.0516135}, {-0.020978, -0.0339092, -0.0624455}, {-0.0167344, -0.0296314, -0.0502064}},{{0.0390748, -0.027743, -0.0407205}, {-0.0743724, -0.0469885, -0.0500099}, {0.0252136, 0.0154915, 0.0015197}},{{0.0276641, 0.0605151, -0.0504106}, {0.0553723, -0.0057424, 0.0425792}, {0.0083838, 0.00407, -0.0183945}},{{0.025719, 0.063872, 0.0216359}, {0.0173874, 0.0391988, 0.0262436}, {-0.0646948, -0.005865, -0.0818374}},{{0.0025648, 0.0286906, -0.0257729}, {0.0131866, 0.0181765, -0.0346354}, {0.04805, 0.0501657, -0.0077852}},{{-0.0450297, -0.0895113, -0.0869005}, {-0.0197354, -0.1237544, -0.0192776}, {-0.0265823, -0.0671426, -0.011687}},{{-0.0805227, -0.0882777, -0.0085381}, {-0.0364276, -0.0649914, -0.0555377}, {0.0017224, -0.0993728, -0.0460492}},{{-0.0590427, -0.0304868, 0.0530182}, {-0.0540879, 0.0515519, -0.0682514}, {0.0142924, -0.065614, 0.0137362}},{{-0.039099, 0.0186178, 0.002494}, {0.0205508, -0.0624542, -0.0291379}, {0.0067493, -0.0059147, -0.0439617}},{{-0.0559878, -0.0770535, -0.0333634}, {-0.0532279, -0.0252012, -0.0447165}, {-0.0148645, 0.0194279, -0.0515048}},{{-0.0609847, -0.062111, 0.0590328}, {0.000495, -0.0369427, -0.0688107}, {-0.0617505, 0.0340957, -0.0014828}},{{0.0479337, 0.0582009, -0.0487247}, {-0.0347842, 0.0595071, -0.0439743}, {0.0298981, -0.0486771, 0.0530253}},{{-0.0797845, -0.0005399, 0.0409836}, {-0.0153094, 0.0031412, -0.0823959}, {-0.0489134, -0.0168138, -0.0802647}},{{0.0545414, -0.0850485, -0.0026248}, {0.0548234, 0.0747275, 0.0399409}, {-0.0804041, 0.0260447, -0.0425544}},{{-0.0149385, -0.064678, -0.0115247}, {-0.0217233, -0.005806, -0.0549113}, {-0.0208933, -0.120226, -0.0596794}},{{-0.070628, -0.0571391, 0.0510097}, {-0.0775325, -0.0019421, 0.0312515}, {0.0132054, -0.0534363, -0.0696351}},{{-0.0351365, -0.0421994, 0.0207522}, {0.0506959, -0.050437, -0.0355685}, {-0.0201473, -0.0587335, -0.0517268}},{{-0.0172397, -0.0631455, -0.0788825}, {0.0300814, -0.0084634, -0.0814333}, {-0.0655769, 0.0250925, -0.0159365}},{{0.0135165, -0.1198977, -0.0619133}, {-0.0263158, -0.0541188, -0.0291917}, {0.0437278, -0.0113541, 0.0093447}},{{0.0069795, -0.0288759, -0.0206631}, {0.0462793, -0.0395741, 0.0258087}, {0.0558248, 0.0089656, 0.0654332}},{{-0.0626439, -0.005366, 0.0338315}, {-0.005923, -0.0436393, -0.0135916}, {-0.0347602, -0.0445452, 0.0625362}},{{-0.0655265, -0.0866529, -0.031156}, {-0.0649898, 0.0130258, -0.0610612}, {-0.0540367, -0.0482931, -0.033834}},{{0.0362231, 0.0392232, -0.0602831}, {-0.0303276, -0.045347, -0.0776498}, {-0.0203418, -0.0792183, -0.0008025}},{{-0.0718145, -0.0217126, 0.0092113}, {0.016783, 0.0059913, -0.0207473}, {-0.064235, -0.0887928, -0.0792532}},{{0.0159232, -0.0181049, -0.0687512}, {0.0188202, 0.0586855, 0.0536461}, {0.0468006, -0.0328051, 0.0315848}},{{-0.075913, -0.0677211, -0.062257}, {-0.0384967, -0.1086694, -0.0817816}, {-0.0347228, -0.0461847, -0.0233657}},{{-0.1093153, -0.0179087, 0.0499094}, {0.0243853, -0.0883675, -0.0308684}, {-0.0688342, 0.0442662, 0.0226875}},{{0.0390604, -0.0232655, 0.0422082}, {-0.0424596, 0.0561265, -0.0624782}, {-0.0369451, 0.0461315, -0.038759}},{{-0.0172317, 0.0228289, -0.0244359}, {-0.0296898, -0.0435847, 0.0525677}, {-0.0158517, 0.0564337, 0.0529398}},{{-0.0548126, -0.0136388, -0.0669427}, {-0.0229988, -0.0230214, -0.1028838}, {-0.0584861, -0.0635694, -0.0772907}},{{0.0401766, 0.034863, -0.0425031}, {0.0059084, -0.019919, -0.0616154}, {-0.091124, 0.0044633, -0.0152519}},{{-0.0758079, 0.0255493, 0.0569029}, {-0.0463197, -0.0052263, -0.0639841}, {0.0421468, -0.0795839, -0.0603006}},{{-0.0619846, -0.0103125, -0.0414532}, {-0.030441, 0.0155868, -0.1295224}, {0.0237598, -0.0731282, -0.0403944}},{{-0.0118079, -0.0496939, -0.0069398}, {-0.064079, 0.0189983, -0.0869233}, {-0.014787, 0.0293305, -0.0438259}},{{-0.0334194, -0.0131097, -0.0437726}, {0.0187354, 0.0428652, -0.0384624}, {-0.024225, 0.0169118, -0.0820153}},{{0.0081212, -0.0540379, -0.0248761}, {0.0551545, 0.0295965, -0.0116733}, {-0.0591126, -0.0250079, 0.0197377}},{{-0.0457774, -0.0787385, 0.0052226}, {0.0344305, 0.0173786, -0.0615368}, {0.066958, 0.0351956, -0.0384572}},{{-0.0040988, 0.0704578, -0.0188555}, {0.049412, -0.0160271, -0.0129435}, {-0.0214777, 0.0497301, -0.0683306}},{{0.0609155, -0.0145689, -0.0906582}, {0.0468659, -0.0398812, -0.0307316}, {0.0629373, 0.0116297, -0.0680134}},{{0.015463, -0.0312959, -0.0329196}, {-0.0045467, 0.0428032, -0.0707479}, {-0.1041465, 0.0153079, -0.0994965}},{{-0.0088502, -0.1056765, 0.0215422}, {-0.0359153, -0.0942265, -0.0427596}, {0.0458626, -0.0867496, -0.0101059}},{{-0.0317213, 0.0578328, 0.011796}, {-0.0751451, 0.0232578, 0.0275361}, {0.0053615, 0.0027662, 0.0012418}},{{-0.061605, -0.0159996, -0.0409042}, {0.0466897, -0.0549981, -0.0783157}, {0.034061, -0.0644976, 0.0471955}},{{0.0108769, -0.0844446, -0.0687118}, {0.0697502, -0.0863928, -0.0607038}, {-0.0211709, -0.0245138, -0.0546945}},{{0.0555341, 0.0512172, -0.038106}, {0.0090343, 0.029984, 0.0073476}, {-0.0051113, -0.0252706, 0.0045406}},{{-0.0706459, -0.0396047, 0.0017524}, {-0.0111269, 0.0280401, 0.0022009}, {0.0309961, 0.0046863, -0.0120246}},{{-0.1194059, -0.0036184, -0.0749965}, {-0.052654, -0.021973, 0.0253856}, {-0.1075821, -0.0855156, -0.0245753}},{{-0.0509102, 0.0554956, -0.0392767}, {-0.0223642, -0.0663742, -0.0198506}, {0.0582442, 0.0481648, -0.0215114}},{{0.0428467, -0.0420981, 0.0691141}, {-0.0694247, -0.0142217, 0.0083834}, {-0.0010586, -0.0502322, 0.0100691}},{{-0.0719934, 0.0408675, -0.0923287}, {-0.0537488, 0.0276609, -0.0810594}, {-0.0722696, 0.023988, -0.0691505}},{{-0.1192765, 0.0417008, 0.0475626}, {0.01808, -0.0593551, 0.0197522}, {-0.0151455, -0.0527509, -0.0791548}},{{0.0290827, -0.0366096, 0.0191862}, {-0.0744315, -0.0054053, 0.0166005}, {0.0310173, -0.033953, -0.0095875}},{{-0.0661774, -0.088562, 0.0449279}, {-0.0277959, -0.0295763, -0.0668879}, {-0.1072887, 0.0211396, -0.0393935}},{{-0.0003009, 0.0138152, -0.0698307}, {0.0422431, -0.0810182, 0.0351083}, {-0.0909848, -0.0022586, 0.0006028}},{{0.0309172, 0.0043651, 0.0072155}, {-0.033188, -0.0280619, 0.0162264}, {0.0720784, -0.0477831, -0.001662}},{{-0.0669711, -0.0892664, 0.0433081}, {-0.0091102, 0.0336107, 0.0419616}, {-0.0511735, -0.0066879, -0.0322253}},{{-0.0978024, -0.0883672, -0.0155884}, {-0.0626961, -0.073598, -0.040606}, {-0.0765953, -0.0485636, -0.0808949}},{{0.0566685, -0.0105377, -0.068374}, {-0.0113986, -0.0608874, -0.0477211}, {-0.0460542, -0.0326683, -0.0896183}},{{0.0141702, 0.0392745, -0.0451997}, {0.0148527, -0.0331794, -0.007772}, {0.0319863, 0.0949911, 0.0482446}},{{-0.0630204, -0.0219285, 0.0075399}, {-0.0671955, -0.0979295, 0.0312986}, {-0.076294, -0.1223972, -0.1110994}},{{-0.0387764, 0.0154115, 0.0183626}, {-0.0890426, -0.0374835, 0.0610432}, {0.0080282, -0.0613938, -0.0632844}},{{0.029587, -0.0620972, -0.0107696}, {-0.0647157, 0.0580137, -0.0400785}, {-0.0201059, 0.0269556, 0.0588258}},{{0.0308884, -0.0620599, -0.0665294}, {-0.053857, 0.0018207, 0.0176038}, {-0.0824267, -0.0393231, -0.0836392}},{{0.0220543, 0.0347288, -0.0471969}, {0.0451637, -0.0296057, 0.0203234}, {-0.0368376, 0.0425311, 0.0093396}}}
{{{0.0210058, -0.035276, -0.0349183}, {0.006416, -0.0652896, -0.0149061}, {0.0509942, -0.0751879, -0.0720107}},{{-0.0261833, -0.0245851, 0.0173615}, {0.0122047, -0.0151595, -0.0435298}, {0.032109, 0.0398283, -0.0028661}},{{-0.0166494, 0.0418446, -0.0105609}, {-0.0365411, 0.0116757, -0.0240735}, {-0.0406884, -0.0528668, 0.0573185}},{{-0.0403594, -0.048102, -0.019825}, {-0.0513146, -0.0175091, 0.0401522}, {-0.0362096, -0.0546316, -0.0009162}},{{0.0608232, 0.0263517, -0.0035791}, {0.0474528, 0.035925, 0.0281474}, {0.0364812, -0.0081698, 0.0107052}},{{-0.0702898, -0.131582, -0.1014821}, {-0.0560769, -0.1220472, -0.0853854}, {-0.0232895, -0.1124547, -0.0306412}},{{0.0074603, -0.0087292, -0.066513}, {-0.0181987, -0.0239263, -0.1121942}, {0.0437984, -0.0865743, -0.0236146}},{{-0.0408589, 0.0209685, -0.0438745}, {-0.0019736, 0.0332892, -0.0515518}, {-0.042026, -0.0730093, 0.0499242}},{{-0.0219561, 0.0207672, 0.050766}, {0.0128775, -0.0201363, -0.0196205}, {-0.0730153, -0.0750052, -0.0398582}},{{0.0259779, -0.046188, -0.0709131}, {-0.0858304, -0.0553645, -0.0216364}, {-0.0901007, 0.0447865, -0.0752189}},{{-0.0462928, 0.0241309, -0.1178086}, {-0.0635917, -0.0804239, 0.0079459}, {0.0315633, -0.0518587, -0.0226749}},{{-0.0202772, 0.0219713, -0.0730348}, {-0.0265995, 0.0582883, 0.0171898}, {-0.0679581, -0.0225731, 0.027066}},{{0.0071362, -0.0237377, -0.002594}, {-0.0852321, -0.0334927, -0.078628}, {0.047342, 0.0247978, -0.0527508}},{{-0.0193054, -0.0028145, 0.0337538}, {-0.0215191, -0.0367816, -0.0050702}, {-0.0665522, 0.014839, -0.0828653}},{{-0.1789833, -0.0640777, -0.038665}, {-0.1189959, -0.0526907, -0.0043523}, {-0.1098941, -0.0066405, -0.0225053}},{{-0.0640135, 0.0495991, 0.0562113}, {-0.0269898, 0.0174945, 0.0014665}, {-0.0188781, -0.0443705, -0.0505452}},{{-0.066995, -0.0672951, 0.0462465}, {-0.0192618, -0.0338152, 0.0496843}, {-0.0387302, -0.0127884, 0.0562721}},{{0.0184612, -0.0544133, -0.0547426}, {0.0456965, 0.0246946, -0.0988488}, {-0.0120099, -0.0090819, -0.0494546}},{{-0.0631762, -0.0462995, -0.0146625}, {-0.0258063, -0.0788988, -0.0486595}, {0.0107719, 0.0389023, -0.0949003}},{{0.0360711, -0.0708204, -0.0339058}, {0.0360362, -0.0266408, -0.0435056}, {0.0160444, 0.052118, 0.0396858}},{{0.0056148, -0.0211099, 0.0394997}, {-0.0884052, 0.0119308, 0.0041463}, {0.0378102, 0.0516242, -0.003991}},{{-0.0163606, -0.0818668, -0.0488316}, {-0.0272699, -0.0042697, 0.0559664}, {-0.0013791, -0.0759762, -0.0467931}},{{-0.0502178, -0.0856418, 0.0179778}, {-0.1143774, -0.006267, -0.0531564}, {-0.0259978, -0.0215477, -0.0195364}},{{0.0128521, -0.0632252, 0.0142663}, {-0.0234763, -0.1185503, -0.0809973}, {0.00459, -0.1198447, -0.0462823}},{{0.0438507, -0.0482873, -0.072743}, {-0.0354194, -0.047975, -0.0590934}, {-0.0420448, -0.013596, 0.0325026}},{{0.0048808, -0.0454175, -0.0273486}, {-0.0521824, 0.0130664, -0.0597334}, {-0.0095119, -0.0551018, -0.0259005}},{{-0.0827606, -0.0268023, -0.1102237}, {-0.0931832, 0.0154826, -0.1265652}, {-0.1082818, -0.0424057, -0.0676291}},{{-0.0184704, -0.0311237, 0.0503905}, {-0.0181095, -0.0611824, -0.040576}, {-0.00157, 0.0434, 0.01453}},{{-0.0353234, 0.031041, -0.0131059}, {-0.0119797, 0.0183476, -0.0699751}, {-0.0167987, 0.0687621, 0.0390006}},{{0.0540691, 0.0022326, -0.0950234}, {0.0453792, -0.0760168, -0.0641798}, {-0.0469576, -0.0299323, -0.0062481}},{{9.8e-05, 0.0115664, -0.0878427}, {0.0566037, -0.0008313, -0.1194814}, {-0.0545514, 0.0074164, 0.0305431}},{{-0.0652983, -0.043619, -0.0752414}, {0.0593566, -0.0609848, 0.0380859}, {-0.0306345, -0.1054317, 0.0002829}},{{-0.0676776, -0.0946802, -0.0018073}, {0.0221707, -0.0744396, -0.006709}, {0.0070353, 0.0280027, -0.0876315}},{{-0.0544515, 0.0611827, -0.0983129}, {0.012073, 0.0055907, -0.1702211}, {-0.0034448, -0.1329512, -0.1450106}},{{-0.0390301, -0.011849, -0.0243363}, {-0.0337807, 0.0363497, -0.1152895}, {-0.0046999, 0.0186199, -0.1174717}},{{0.0197781, 0.0205102, 0.0103634}, {0.0355404, -0.0399138, 0.0058065}, {0.0585087, -0.0144945, -0.0622292}},{{-0.0289791, -0.015802, 0.0583639}, {0.0495559, 0.0723755, 0.0699292}, {-0.0022227, -0.0548115, -0.04388}},{{-0.0581464, 0.023662, 0.0312322}, {-0.035818, -0.0338591, -0.000512}, {0.0315445, 0.0262243, -0.026111}},{{0.0363614, -0.0641415, -0.0442948}, {-0.0414359, -0.0914633, -0.0018462}, {-0.0400628, -0.036478, -0.0234656}},{{0.0567976, -0.0445703, 0.0192882}, {-0.0678111, 0.0296864, 0.0084757}, {0.0385594, -0.02357, 0.0350696}},{{-0.0824272, -0.0768123, 0.0369022}, {-0.0329386, -0.028188, -0.0346939}, {0.0277887, 0.028617, -0.0113621}},{{0.0156304, 0.0767072, -0.0068622}, {-0.0449212, -0.0117743, -0.0454937}, {0.0370675, -0.0737827, -0.0509112}},{{-0.0126423, -0.0794702, -0.098834}, {-0.1473632, -0.0127627, -0.1465421}, {0.0172474, -0.0027116, 0.0092541}},{{0.0444004, 0.0108421, -0.0638155}, {0.0366719, 0.0299574, 0.0258539}, {-0.004018, 0.0177921, -0.104168}},{{-0.0387241, -0.0515549, -0.027545}, {-0.061084, -0.016683, -0.1611419}, {-0.1163859, -0.1917872, 0.002452}},{{0.0420452, -0.0159241, 0.0076097}, {-0.0829446, -0.0014887, 0.04185}, {-0.0870167, -0.0512026, -0.0064262}},{{-0.0452168, 0.063928, 0.0164685}, {-0.0307334, 0.0010948, -0.0466909}, {-0.003415, -0.0140017, 0.0627672}},{{-0.0013454, -0.0050342, 0.0636595}, {0.0199123, -0.0033994, -0.0657904}, {-0.0253598, -0.0440917, -0.0453485}},{{0.0121841, 0.0246348, -0.071203}, {0.0105731, -0.0266676, 0.0140712}, {-0.0935851, -0.028536, -0.0395979}},{{-0.0589025, 0.011852, 0.0485129}, {0.0354441, -0.0198276, -0.0142027}, {-0.0703265, -0.0224886, 0.0596376}},{{0.0588243, -0.0557254, -0.026665}, {0.052622, 0.0469783, -0.0598941}, {0.0099691, 0.0227336, 0.0095012}},{{0.0024282, 0.070953, -0.0185681}, {-0.0179491, -0.0595756, -0.0055613}, {0.0264563, -0.0537677, -0.0600969}},{{-0.0049006, -0.0698491, 0.0034843}, {-0.0789036, -9.28e-05, -0.0231449}, {0.0591432, -0.0534783, -0.0619591}},{{-0.1364994, 0.0065909, -0.054748}, {-0.0438144, -0.0581284, -0.0476122}, {-0.0493637, -0.0364189, -0.1203236}},{{0.0467568, -0.0448236, -0.0539563}, {-0.0216942, 0.0792947, -0.0331314}, {0.0473201, 0.0590493, -0.064465}},{{0.0320875, 0.0082634, -0.0334601}, {0.0350499, -0.0777186, -0.0855371}, {-0.0284001, -0.007183, -0.0884864}},{{-0.001541, -0.0679166, -0.0258746}, {-0.0014037, -0.0005568, 0.0088583}, {-0.044627, -0.0281337, 0.0443043}},{{-0.1167259, -0.0414784, -0.032125}, {-0.1601422, -0.1471089, -0.0342789}, {-0.0671157, -0.1387921, -0.063788}},{{0.0564005, -0.0446265, 0.0007893}, {-0.0325137, -0.0593091, -0.0279554}, {0.0658885, 0.0870754, 0.146326}},{{-0.0547116, 0.016646, 0.0281091}, {0.0435923, -0.0180621, -0.0192708}, {-0.0401321, -0.0046369, 0.0087767}},{{-0.1394082, -0.1241496, -0.0768959}, {-0.1145295, -0.0499588, 0.0090648}, {-0.1090718, -0.0688998, -0.0946025}},{{-0.0284505, -0.0905272, -0.066901}, {-0.0599983, -0.0606406, -0.0502886}, {-0.0574753, 0.0317355, 0.0028012}},{{-0.0147985, -0.0445288, 0.0082686}, {-0.0206125, -0.0530041, -0.1025368}, {-0.0583369, -0.0447994, -0.1354416}},{{0.0358834, 0.0246062, 0.0881405}, {-0.0008874, 0.1040531, -0.0319666}, {0.0100413, 0.0076412, 0.0995731}}}
{{{-0.1754434, -0.0308021, 0.1144476}, {-0.0227167, 0.0721102, 0.1305351}, {-0.0542196, 0.1154213, -0.0384813}},{{-0.1291703, -0.1210932, -0.0601979}, {-0.210387, -0.0062845, -0.0826419}, {-0.1688365, -0.0689113, -0.0455927}},{{-0.045678, -0.0053091, -0.0100295}, {0.0351115, -0.049955, 0.0453426}, {0.0447284, 5.8e-05, 0.0350899}},{{-0.0277701, -0.0190476, 0.0594836}, {0.0092286, 0.0643821, -0.0198659}, {-0.0522956, 0.041942, 0.0313615}},{{-0.0483794, -0.0740661, -0.0269142}, {-0.0154514, -0.1051119, -0.0603507}, {-0.0007729, -0.1015186, -0.0887098}},{{-0.0493636, -0.0121339, -0.0913724}, {-0.1251699, -0.1094322, -0.2110397}, {-0.0018837, -0.0886716, -0.1215518}},{{-0.061501, -0.011003, -0.1325081}, {0.0890043, 0.0441387, -0.1244358}, {0.0100739, 0.0072576, -0.0650353}},{{-0.0058771, -0.0653123, -0.0312832}, {-0.0328838, -0.0049215, 0.1066896}, {-0.0775032, 0.0326511, 0.058068}},{{0.0462256, -0.1162529, -0.01954}, {-0.0333447, -0.0198458, 0.0012271}, {0.0040342, -0.0092605, -0.089062}},{{0.0151271, -0.0510201, -0.0265033}, {0.04101, 0.0363379, 0.0153298}, {-0.0950339, 0.0136959, -0.0812388}},{{0.0675049, 0.0332546, -0.0535134}, {0.0013276, -0.0362149, -0.0125789}, {-0.0961178, -0.114989, -0.0039217}},{{-0.0099927, -0.0568853, -0.0692253}, {-0.0311847, 0.0429756, 0.0228905}, {0.061248, -0.0540537, -0.0151245}},{{0.0209166, -0.026802, -0.1046232}, {-0.0920855, 0.0295767, 0.0999548}, {0.0141165, 0.0181971, -0.039684}},{{0.067246, -0.0560317, -0.0326139}, {-0.1190655, -0.1785175, -0.0214751}, {0.1687919, -0.046537, 0.0781008}},{{-0.074304, -0.0123047, 0.0061462}, {-0.0522304, 0.0039121, -0.0572367}, {-0.2377281, -0.1801211, -0.2284029}},{{-0.0015546, -0.0134762, -0.0458281}, {0.011107, -0.0301798, -0.0238902}, {-0.0515155, -0.0342967, -0.0053683}},{{0.0644079, 0.0196406, -0.0012191}, {-0.0686579, -0.0630155, -0.0307402}, {0.0352317, -0.0496447, -0.1304668}},{{0.0449133, 0.1137171, 0.0840941}, {-0.0741781, 0.1604148, 0.0792447}, {-0.1054061, -0.0448957, -0.0041781}},{{-0.1938022, -0.1859002, -0.0857894}, {-0.118857, 0.0182515, -0.0838684}, {-0.1983031, -0.0772114, -0.2138385}},{{-0.0071486, -0.0236595, -0.0024581}, {0.0921347, 0.0500947, -0.066156}, {-0.0627032, -0.0076725, -0.041656}},{{-0.0274444, -0.0098276, 0.0096351}, {0.0096655, -0.0558858, -0.0472712}, {-0.120258, -0.0980193, 0.0089526}},{{0.0530535, 0.0365203, -0.040839}, {0.1039244, -0.0178251, -0.0262371}, {-0.1171925, -0.1387279, -0.0815704}},{{-0.25865, -0.177825, -0.1355315}, {-0.1563484, -0.1240935, -0.1775352}, {-0.1356117, -0.0769621, -0.0583919}},{{-0.0642718, -0.0931695, -0.0809976}, {0.0013951, -0.0725668, -0.0983549}, {-0.0414263, 0.1251398, -0.0271977}},{{0.0051413, -0.024714, -0.0582874}, {-0.0149443, 0.0484471, -0.0324954}, {0.0686517, -0.0006505, -0.0091206}},{{-0.0165317, -0.1020135, -0.0451088}, {-0.2005171, -0.1350417, -0.128277}, {-0.0340155, 0.0068249, -0.0265294}},{{-0.0056027, -0.0425553, -0.1291943}, {0.0932961, -0.0389745, -0.1302992}, {-0.0042467, -0.1087146, -0.2089798}},{{-0.063631, -0.0442749, 0.0071787}, {-0.0579728, -0.0457026, 0.0667188}, {0.0329164, -0.0589709, -0.0469695}},{{0.0428442, -0.0940469, -0.0918129}, {0.0619305, -0.1364832, -0.0700977}, {-0.0943397, 0.0222661, 0.0126113}},{{-0.0296694, -0.1248703, -0.112161}, {-0.0481813, -0.0903819, 0.0391884}, {0.0401117, -0.0837104, -0.0060753}},{{-0.1203751, 0.0164785, -0.125697}, {-0.0185509, -0.1164589, -0.0461908}, {0.0137273, -0.0144353, -0.03369}},{{0.0008842, -0.0835155, -0.0357118}, {-0.0988306, -0.1433331, -0.1259497}, {-0.1231062, -0.113203, -0.173119}},{{-0.0403258, -0.0225248, -0.0297025}, {-0.1292353, -0.0053097, -0.0987768}, {-0.1969962, -0.1987471, -0.1875855}},{{0.010929, 0.0435114, -0.0907324}, {-0.0448073, -0.1678445, 0.0555418}, {-0.0767069, -0.1255413, -0.1596689}},{{-0.1551193, -0.0070835, -0.2276748}, {-0.2460679, -0.1965869, -0.0231493}, {-0.1413185, -0.1702461, -0.0913953}},{{-0.0547524, 0.0313409, 0.0403162}, {-0.0629753, -0.0046645, -0.0467969}, {-0.0060608, -0.0237128, 0.0121233}},{{-0.034057, 0.0156344, 0.0092878}, {-0.0248862, -0.0191236, -0.0465877}, {0.0100176, 0.0146952, 0.0623943}},{{-0.078353, -0.0850881, 0.0247831}, {-0.0615909, 0.0375172, 0.0006757}, {-0.0054045, 0.0608315, 0.0919046}},{{-0.0851594, -0.0673475, -0.1336144}, {-0.1903072, -0.0191635, -0.1076731}, {0.0083464, -0.1924797, -0.0631079}},{{-0.0979044, -0.0694364, -0.0365645}, {0.1075252, 0.0214286, 0.0181728}, {-0.0282133, 0.0902942, -0.1253473}},{{0.1193148, -0.0898118, -0.0447969}, {0.0648189, -0.0147979, 0.0483662}, {-0.092984, 0.0134335, 0.0215242}},{{-0.0306799, -0.0743437, -0.0331946}, {0.0161035, 0.0013366, 0.02393}, {0.038245, -0.0780886, -0.0666018}},{{0.0315306, -0.0255499, -0.0393051}, {-0.0096103, -0.12142, -0.1223543}, {-0.0799062, -0.0427256, -0.05375}},{{-0.1577972, 0.0032132, -0.1346476}, {-0.2334143, -0.0322075, -0.1516499}, {-0.1349415, -0.1099341, -0.0095936}},{{-0.1280867, -0.0328685, -0.0434361}, {-0.0047958, -0.0671883, 0.0723254}, {0.2089952, 0.010677, 0.085956}},{{-0.1681114, 0.0582913, 0.0803398}, {-0.0876862, -0.101231, 0.1327674}, {0.0610148, 0.0562636, 0.0859739}},{{-0.0361825, -0.0465584, -0.0185742}, {-0.072709, -0.1025428, -0.1345993}, {-0.0519747, -0.0233439, -0.0114343}},{{-0.0279811, -0.11841, 0.0225592}, {0.0165166, -0.0321279, 0.0808726}, {-0.0107799, -0.0553333, 0.0197576}},{{-0.1462862, -0.1007662, -0.0470534}, {-0.1545252, -0.1364376, 0.0025784}, {-0.000456, 0.0376379, 0.0451665}},{{-0.0300471, 0.0600468, 0.0042079}, {0.0404263, 0.0247182, -0.0194256}, {-0.0832015, -0.0549458, -0.0461895}},{{-0.0664083, -0.0689218, 0.0553382}, {0.0076577, -0.0184375, -0.071573}, {0.0226622, 0.0594717, 0.0268561}},{{0.0378472, -0.0310307, -0.0649194}, {-0.075141, 0.033721, 0.0254772}, {0.0270778, -0.0257988, -0.0280821}},{{0.0473598, 0.0055972, -0.0248317}, {-0.1928954, -0.0630397, -0.0879412}, {-0.0121419, -0.0600473, 0.0076446}},{{0.0473047, -0.1111899, -0.1114148}, {-0.03041, 0.0367034, -0.0715028}, {-0.0504279, -0.1274898, -0.3130234}},{{0.0305469, 0.0359887, -0.0664598}, {-0.0274675, 0.0396038, -0.0365405}, {0.0579448, 0.0483804, 0.0382497}},{{-0.0690398, -0.1373224, -0.117869}, {0.1043704, 0.0063805, 0.0681851}, {-0.2532421, -0.071495, -0.0143799}},{{0.0827705, 0.1478229, 0.1065946}, {-0.0185672, -0.0417429, -0.0660642}, {0.026646, -0.0158507, 0.0032063}},{{-0.1381765, 0.0668763, -0.0822745}, {-0.1104668, -0.2260826, -0.0183972}, {-0.239708, -0.1284674, -0.0703019}},{{-0.1011574, -0.0434357, -0.0324352}, {0.0584401, 0.1857927, 0.0872897}, {-0.0605876, 0.0117609, -0.0921433}},{{-0.0817148, -0.089411, -0.0720107}, {-0.1530278, 0.0326561, -0.0999707}, {-0.0956317, 0.0754695, -0.0933739}},{{-0.0293294, -0.0856137, -0.1498557}, {-0.0092867, -0.0708838, -0.1229058}, {-0.085332, -0.0394019, -0.1508862}},{{0.0079034, 0.0276598, -0.0463572}, {-0.0243027, -0.0932106, -0.0064601}, {-0.0884568, -0.0512668, -0.0376374}},{{-0.1459967, -0.0583175, 0.0093015}, {-0.0779215, -0.0230202, -0.1000103}, {-0.1593765, -0.0971694, -0.0371199}},{{0.0108679, -0.0055061, 0.0725097}, {-0.001685, -0.0236979, 0.0456707}, {-0.2176209, 0.0567254, 0.0025972}}}
