float weights1[64][64][3][3]=
{{{{0.0046636, 0.0267824, -0.0629729}, {-0.0343467, 0.0164396, 0.0571512}, {-0.018278, 0.0246845, -0.0082736}},{{-0.0016823, 0.0064988, 0.0592297}, {-0.0583347, -0.014146, -0.0007527}, {0.0393518, -0.0166007, -0.0670461}},{{-0.0065108, -0.0532718, -0.016549}, {-0.079902, 0.0085283, -0.0457314}, {-0.1075335, -0.0080288, -0.0030352}},{{0.0236881, 0.0268765, 0.0266676}, {0.0230459, -0.0754285, -0.0052417}, {-0.0444547, 0.0688928, -0.0281724}},{{-0.0222909, -0.034724, -0.086932}, {-0.0477277, -0.0874273, -0.0512023}, {-0.0011461, -0.0079052, -0.0694218}},{{0.0450898, 0.0250533, -0.0095519}, {-0.0647315, -0.0475646, -0.0691867}, {0.0393625, -0.0815341, 0.008303}},{{0.0025286, 0.001853, -0.0358087}, {0.0107956, -0.000808, -0.081586}, {-0.0018306, -0.0618389, -0.0271078}},{{0.0462526, -0.0595006, -0.0636704}, {0.0281633, 0.0158174, -0.0883547}, {0.0230957, -0.0928797, -0.010875}},{{-0.0733527, 0.0250287, 0.0217945}, {-0.0533732, -0.009343, 0.000943}, {-0.0652186, 0.0355127, -0.0709439}},{{0.00983, -0.0163249, 0.0243902}, {0.0160722, 0.0256892, -0.0571133}, {-0.0253994, -0.0219199, 0.0099784}},{{-0.0425135, 0.0480774, 0.0152315}, {0.0533021, 0.0188911, -0.0452062}, {-0.0588614, -0.0046638, 0.0463941}},{{0.0187366, -0.1047629, -0.021809}, {-0.0586392, -0.1121984, 0.0346961}, {-0.0442688, -0.0480827, -0.0870209}},{{0.0246085, 0.0252894, 0.0319493}, {-0.0678476, -0.0484646, -0.0490197}, {0.0501863, -0.035442, 0.0288812}},{{0.0211655, 0.0591639, 0.0529801}, {-0.0641193, -0.086065, -0.0749545}, {-0.0698641, 0.0398954, 0.0326638}},{{-0.0534777, 0.0108407, 0.0149315}, {0.0280448, 0.0416354, -0.02031}, {-0.033153, -0.0196577, 0.0244532}},{{-0.0433339, -0.0436517, -0.0826255}, {0.0465335, 0.0200929, 0.0541561}, {-0.0355011, -0.0366509, -0.0131054}},{{0.0362506, -0.054604, -0.0551452}, {0.047045, 0.0124917, 0.0284792}, {0.0302879, -0.0612357, 0.0028045}},{{-0.0216946, -0.0011591, 0.0493036}, {-0.0450479, -0.1026231, 0.0485213}, {-0.0709464, -0.0909283, -0.0876288}},{{-0.1007766, -0.0414879, 0.0024293}, {-0.0375389, 0.0224538, 0.0135842}, {-0.0202945, -0.1079833, 0.0131508}},{{-0.0759396, -0.1055774, -0.1098421}, {-0.0849886, -0.072485, 0.033813}, {-0.0399305, -0.0303012, -0.0036225}},{{-0.0401979, -0.0434281, -0.0002406}, {-0.0532374, -0.0594499, -0.034455}, {-0.0568094, -0.0446408, -0.0009379}},{{0.0120823, -0.0116754, -0.0119849}, {0.0631676, 0.0197461, -0.0091705}, {-0.0104765, -0.0802768, -0.0452724}},{{-0.0762579, 0.0237545, 0.0473147}, {0.0347712, -0.0710667, -0.0498798}, {-0.0684364, -0.0350699, -0.039112}},{{0.0179303, 0.0019802, 0.0720107}, {0.0147234, -0.0155298, 0.0616938}, {-0.1231545, -0.0123407, -0.0141992}},{{0.0169104, -0.0500418, -0.0125889}, {-0.0176863, -0.0525784, 0.0164726}, {-0.0300352, -0.0162868, -0.0248287}},{{-0.0813344, -0.1421421, -0.1240865}, {0.0331713, -0.0782787, 0.0255333}, {0.0078462, -0.045782, 0.0815755}},{{0.0033441, -0.0546109, -0.0414693}, {-0.0017839, 0.0249743, 0.0520453}, {-0.0156719, 0.0074659, -0.0131959}},{{0.0174545, -0.0436171, 0.0189038}, {0.0031585, -0.0778995, -0.0740174}, {-0.0038544, 0.0346123, 0.0296909}},{{-0.032651, -0.0392317, 0.0176096}, {-0.0326441, -0.0810195, 0.0016167}, {0.0338634, -0.0258303, -0.0705967}},{{0.0424098, 0.0082164, -0.0147165}, {-0.0380992, -0.0167406, 0.0036995}, {-0.0537672, -0.0443992, -0.0599929}},{{-0.0085653, 0.0105373, -0.0540413}, {0.0137753, 0.0152706, -0.0411145}, {0.0206912, -0.0167061, 0.0173099}},{{-0.0185469, -0.0771079, 0.0210021}, {-0.0614306, -0.0986525, -0.0676144}, {0.0407566, -0.0227849, 0.0030185}},{{-0.0199213, -0.021539, 0.0328298}, {-0.0066266, -0.0518203, -0.0768715}, {-0.0639227, 0.0343308, 0.0064818}},{{0.0405819, 0.0479789, -0.0516785}, {-0.018518, 0.0348475, -0.0218062}, {0.0581061, 0.0523527, -0.0211865}},{{-0.0047941, -0.0243557, -0.0991116}, {-0.0564319, -0.0029769, -0.05997}, {0.0631748, -0.0967666, -0.0954176}},{{-0.0676361, -0.0557545, -0.0832677}, {-0.0894907, -0.0102876, -4.38e-05}, {-0.0682773, -0.0760734, -0.0784397}},{{-0.0287995, 0.0003877, 0.0391035}, {-0.0702107, -0.057527, -0.0617489}, {0.0009247, 0.0116088, -0.0661111}},{{-0.0424868, -0.0632191, -0.0918866}, {-0.0714098, 0.0502466, 0.0526683}, {0.0291096, -0.0297731, 0.0070211}},{{-0.0151071, 0.0052154, -0.0482379}, {-0.0226776, -0.0549805, 0.0297358}, {-0.0257793, 0.0472648, 0.0247767}},{{-0.0180121, -0.1037275, -0.0055152}, {-0.0337515, 0.0273788, 0.0086317}, {-0.0939252, -0.0236814, -0.0499093}},{{-0.0267107, -0.0544277, -0.0601235}, {-0.0940173, -0.0338672, -0.0274277}, {-0.0055089, -0.0562459, -0.1064196}},{{-0.05847, 0.0124814, -0.0136504}, {-0.0578465, -0.0751905, 0.0196871}, {-0.0440668, -0.0615343, 0.0862795}},{{-0.0105978, 0.0059276, -0.0975494}, {-0.0662788, 0.0050306, -0.099567}, {0.0517504, -0.0822739, -0.049547}},{{0.0561912, 0.0503121, -0.0725601}, {0.0552315, -0.0212679, 0.069455}, {-0.0145356, -0.0630675, 0.0246993}},{{0.0191549, -0.1019989, -0.0342154}, {0.0249516, -0.1175051, 0.022133}, {0.0001959, -0.0397435, 0.0195743}},{{0.0386596, 0.0766222, 0.0198034}, {-0.0757138, -0.0587711, -0.0741706}, {-0.0261144, -0.025782, -0.0466733}},{{-0.0339483, -0.0808384, -0.0299677}, {-0.0146887, -0.0830954, -0.0613777}, {-0.0449157, -0.1382536, 0.0278647}},{{0.0332868, 0.0244723, -0.0395795}, {-0.0502908, -0.0075434, 0.0261507}, {-0.0021179, 0.0091163, -0.0133246}},{{-0.0330593, -0.071037, -0.0250867}, {-0.0646691, -0.0039399, -0.0887909}, {-0.0527922, 0.0355525, 0.02767}},{{-0.066506, 0.0154586, -0.0723004}, {0.0371712, -0.0174448, -0.0799759}, {-0.0047677, 0.0265139, -0.0547773}},{{-0.0066582, 0.0263924, -0.0635404}, {-0.0799532, 0.0732043, 0.0343195}, {0.019175, -0.0713715, 0.0163404}},{{0.0345894, -0.0257281, -0.0237735}, {0.0313184, -0.0542705, 0.061353}, {-0.0607052, 0.0195487, 0.0451964}},{{0.0121321, -0.0065814, 0.0043045}, {0.0458255, 0.0196631, 0.0034028}, {0.0568945, -0.0272333, -0.0070666}},{{0.0042695, -0.0131734, -0.017766}, {-0.0967236, -0.0545069, 0.0070546}, {0.0001101, 0.0244698, -0.0722365}},{{-0.0020222, -0.0644274, 0.02201}, {-0.0372161, 0.020354, 0.0171615}, {0.0267854, 0.0075915, 0.0301834}},{{0.0788802, 0.0552375, -0.0239767}, {-0.0431753, 0.0361503, -0.0130234}, {-0.0224186, -0.0237551, -0.0363344}},{{-0.0495191, -0.1247989, -0.1005271}, {-0.0831466, -0.0478009, 0.0297057}, {-0.0143614, -0.0973928, -0.0085622}},{{0.0176875, 0.0504259, 0.0727}, {-0.0531819, -0.0753988, -0.0765257}, {0.0585479, -0.056196, 0.018158}},{{-0.0207471, -0.133996, -0.1154258}, {-0.0369089, -0.0383391, -0.1146042}, {-0.0682333, -0.0888618, -0.058504}},{{-0.1005739, -0.0403337, -0.0178892}, {0.0165731, -0.0213594, -0.0855271}, {-0.0603792, -0.0331248, -0.0675894}},{{-0.0853351, -0.0161692, 0.0405724}, {-0.007111, -0.0323541, 0.0438003}, {0.0475404, -0.0020353, 0.0357539}},{{-0.0802298, -0.0027161, -0.0158737}, {-0.0638974, -0.0631508, 0.0258284}, {0.028704, -0.019636, -0.0588441}},{{-0.0547713, 0.0097025, -0.0138172}, {0.0629446, 0.0350322, 0.0599192}, {-0.0490068, 0.0439787, 0.0397695}},{{0.0523298, -0.018201, 0.0154019}, {-0.0409585, -0.0593405, 0.0463086}, {-0.0450913, 0.0164667, -0.0724469}}}
{{{0.0398857, -0.222462, -0.2252854}, {-0.007723, -0.0328294, 0.1041532}, {0.0520436, 0.0646212, 0.1011676}},{{-0.0272543, -0.0474293, -0.0187511}, {0.0687038, -0.0252202, -0.0658214}, {0.0232043, 0.0135924, -0.1006191}},{{0.0173797, 0.0896542, -0.0631724}, {0.0473876, -0.1144027, -0.0445166}, {-0.1256119, -0.1087187, 0.0421735}},{{-0.0366505, -0.0053699, 0.0241288}, {0.0382662, -0.0159826, 0.0222209}, {0.0409342, 0.022813, -0.0325371}},{{-0.0573984, -0.2576315, -0.1202459}, {-0.0908673, -0.1855431, 0.0118954}, {-0.3552846, 0.2807851, 0.059311}},{{-0.0979694, -0.0734719, -0.0392434}, {-0.006893, -0.1418139, -0.0032683}, {-0.0323274, 0.0114103, -0.0286697}},{{-0.1642729, -0.1045248, -0.0361062}, {0.0357318, 0.0833434, -0.0348241}, {0.1216374, 0.1543352, 0.1422503}},{{-0.0611369, -0.0889536, -0.1888979}, {-0.0595274, 0.0081921, -0.2369992}, {0.0297462, -0.0511606, -0.0474854}},{{-0.0058068, -0.0411399, -0.0588876}, {-0.0097331, 0.0698995, 0.0543913}, {-0.0254124, 0.0330031, -0.0077375}},{{-0.4299895, -0.2185863, -0.2022814}, {-0.2217751, -0.0198929, -0.2044687}, {-0.1852143, 0.0448944, -0.1555582}},{{-0.0271083, -0.0708518, -0.0786184}, {-0.0202141, -0.1320519, -0.0145984}, {-0.0426759, -0.0569191, -0.0665604}},{{0.1904239, -0.1804151, 0.0047117}, {-0.276616, -0.2790388, 0.1555599}, {-0.222438, -0.0768356, -0.0023984}},{{-0.0553536, -0.0206645, -0.0551398}, {0.0733228, 0.0304422, -0.0426736}, {-0.0295048, 0.0694016, 0.0119096}},{{-0.0097148, -0.0372949, -0.0166782}, {0.005082, 0.0340628, -0.012786}, {0.0534469, 0.0275499, -0.0585406}},{{0.3035058, -0.2709337, -0.1043495}, {0.1727175, 0.1331499, -0.0713118}, {0.0068266, 0.1088775, -0.2088112}},{{-0.0017423, 0.1364257, -0.0068368}, {-0.0253479, -0.0119624, -3.25e-05}, {0.1073479, -0.0766458, 0.0259507}},{{-0.1028732, -0.1803899, 0.0238377}, {-0.0058716, -0.0334619, -0.0389587}, {-0.0661565, -0.0389299, -0.0307475}},{{-0.0286009, -0.030377, -0.0460813}, {-0.0102365, -0.0522646, -0.0594225}, {-0.0557978, 0.0013976, -0.0353451}},{{0.0155415, -0.3399898, -0.3961229}, {-0.1871922, -0.226429, -0.0130465}, {-0.0699206, -0.0493695, -0.0013253}},{{-0.1356423, -0.1670298, -0.1783254}, {-0.015857, 0.1375604, 0.1545236}, {-0.1945485, 0.0284747, -0.3249882}},{{0.1491926, -0.1358832, -0.1837929}, {0.1048922, -0.0102943, -0.1550733}, {-0.2391413, 0.1982311, 0.1814455}},{{-0.0486827, 0.0904365, -0.0479301}, {0.0006511, 0.0558369, -0.0750498}, {0.0432636, 0.003064, -0.0180974}},{{-0.1094244, -0.1014724, -0.0290315}, {-0.0967784, -0.0153999, -0.0479023}, {0.0021656, 0.0612223, 0.0025996}},{{-0.1838425, 0.155205, -0.2838028}, {0.0781451, -0.1307857, -0.1724668}, {0.1731918, -0.48718, 0.0524903}},{{-0.0539334, -0.0808612, -0.0535106}, {-0.0549917, -0.0673432, 0.0330895}, {-0.0611727, 0.0408196, 0.0310245}},{{-0.0944586, -0.1574429, -0.1464277}, {-0.0104426, -0.3635917, 0.0224301}, {-0.3232413, -0.1782143, 0.0419635}},{{0.0802589, -0.0662624, 0.0191135}, {-0.054377, -0.0487897, 0.0478234}, {-0.053435, -0.0005935, -0.069397}},{{-0.0706277, -0.2729715, -0.1068229}, {0.0924886, -0.1165777, -0.1147478}, {-0.0654376, 0.0130925, -0.0884682}},{{-0.0090322, -0.1099153, -0.1311135}, {-0.1791019, -0.087413, -0.1576909}, {-0.0796907, -0.1109766, 0.0137142}},{{-0.001003, 0.0304182, 0.03228}, {0.0225517, 0.0453152, -0.0308989}, {0.0244429, -0.0245639, 0.0621603}},{{-0.0656341, -0.0021269, -0.0455812}, {-0.0023565, -0.0357673, 0.0007708}, {-0.0281695, 0.0377615, 0.0037444}},{{0.03487, 0.099902, 0.0839847}, {0.0958021, -0.0444592, -0.1374928}, {-0.1129153, -0.0456335, -0.1753956}},{{-0.0819262, -0.0860207, -0.0001305}, {-0.0131465, 0.0307907, 0.0322566}, {-0.0668094, -0.0336614, -0.0665843}},{{0.0485412, 0.0480455, 0.0839839}, {0.0416238, 0.0534039, -0.0435729}, {-0.0091433, 0.0405324, 0.0219567}},{{-0.0760662, 0.0755648, -0.1557239}, {-0.0632851, -0.0587531, -0.12803}, {0.1067124, -0.0337857, 0.0706045}},{{-0.52823, 0.0059537, -0.3557531}, {-0.3653774, 0.0333838, -0.5260112}, {-0.2037649, -0.0578888, -0.3900333}},{{0.0336003, -0.0300879, -0.1295586}, {-0.1295945, 0.026491, -0.0257703}, {-0.0209374, 0.0765951, -0.0730021}},{{-0.0153846, -0.0705436, 0.0567861}, {0.0236411, 0.0206839, 0.0212979}, {0.0343115, 0.0952111, 0.032062}},{{-0.0753194, 0.0385131, 0.0145019}, {-0.0808162, -0.051071, -0.0634215}, {-0.0709588, -0.0297292, 0.0159786}},{{0.0585747, -0.1597707, -0.0186749}, {-0.2454962, -0.3550205, 0.0233826}, {-0.0074645, -0.0690706, -0.1820701}},{{0.0431712, -0.1917692, -0.1918964}, {-0.0321312, -0.1215886, -0.0345019}, {-0.1128754, -0.3169172, -0.1660443}},{{-0.0092198, -0.0387609, -0.2466321}, {0.1904109, 0.1365887, -0.087339}, {-0.1333949, -0.0202402, -0.0480666}},{{0.0295261, -0.0089909, -0.1453326}, {0.0685533, 0.0223836, -0.0722034}, {-0.0810408, -0.0369111, -0.0275259}},{{-0.0103235, -0.2109765, 0.1209911}, {-0.0387796, 0.1859883, -0.0188012}, {-0.0170741, 0.1359425, -0.0885283}},{{-0.0850706, 0.088007, -0.0126774}, {-0.0381529, -0.1160445, -0.0745515}, {-0.0779116, -0.0972966, 0.0362823}},{{-0.0110485, 0.1038297, 0.1941009}, {0.0547265, 0.0317098, 0.1119535}, {0.2598599, 0.3310048, 0.0501199}},{{0.0870503, -0.0954534, -0.0499381}, {0.17841, -0.0001804, -0.1384701}, {0.0977518, 0.0410741, -0.13789}},{{0.071103, -0.0173893, 0.0417907}, {-0.021627, 0.0371079, 0.0686228}, {0.0041435, 0.0109941, 0.0590894}},{{-0.0122759, 0.0289526, 0.028845}, {-0.0243638, -0.0252605, 0.0353116}, {0.0306139, -0.0592196, -0.074749}},{{0.1271191, -0.0279019, -0.1551367}, {0.0505987, -0.208187, 0.0304085}, {-0.0414838, 0.027309, -0.1031347}},{{0.1167213, -0.18303, -0.1204772}, {0.0321743, -0.0924722, 0.0100903}, {0.001416, -0.1053332, 0.088305}},{{-0.0751496, -0.0373533, -0.0612597}, {-0.0556187, 0.047223, -0.0537465}, {0.0921959, 0.0495377, -0.0655352}},{{-0.0005993, 0.0515238, 0.0464406}, {0.103667, 0.0687081, 0.0731465}, {-0.0311988, -0.0310887, 0.0437281}},{{-0.0860643, -0.0665802, 0.0012933}, {-0.2273828, -0.0671752, -0.0144574}, {-0.0888144, -0.0465576, -0.1406865}},{{-0.139311, -0.2372014, -0.3021173}, {0.1655944, 0.157412, -0.139716}, {0.0307712, -0.0964846, -0.1366189}},{{0.1229034, -0.0004473, 0.0316114}, {-0.0285209, -0.0368397, -0.1613737}, {-0.1587441, -0.3522321, -0.2057481}},{{0.3151865, -0.1565629, -0.010628}, {0.2800313, -0.1208758, -0.1033015}, {-0.0444313, -0.0644461, 0.2272047}},{{-0.0176, 0.0318468, 0.0238859}, {-0.0095978, -0.0036303, 0.0198028}, {-0.0752285, -0.0485891, 0.040484}},{{-0.2488305, -0.3177842, -0.0186972}, {-0.1683415, -0.2405286, 0.0143183}, {0.0438187, -0.1903513, -0.0811066}},{{-0.2319856, 0.084519, -0.1560827}, {0.0060082, 0.0237164, -0.0502789}, {0.0023753, 0.0547942, 0.0157182}},{{0.0231432, -0.0432029, -0.0807388}, {0.0052158, -0.0173736, -0.0131416}, {-0.0353244, 0.0100999, 0.0257901}},{{0.1320451, 0.1577673, 0.0921424}, {-0.110779, -0.0898657, -0.0519742}, {-0.1157002, -0.2508302, 0.1100428}},{{0.1631114, 0.1224033, -0.1014798}, {-0.0553256, 0.0521403, -0.0702193}, {-0.2239969, 0.0550442, -0.2183397}},{{-0.0476212, 0.0060852, 0.061064}, {-0.0070169, -0.0697882, 0.0892036}, {-0.0770191, -0.0875388, 0.0842755}}}
{{{0.2056954, -0.0744947, -0.170746}, {-0.2085775, -0.2467109, -0.1231838}, {-0.0890847, -0.1206745, 0.1428087}},{{0.0118553, -0.0544985, -0.0447383}, {-0.0671566, -0.0823114, -0.0144855}, {-0.0161645, -0.0901205, -0.0642171}},{{0.0405903, 0.1014265, -0.2881488}, {-0.1197576, -0.0239082, -0.1724478}, {-0.0341403, 0.0336246, -0.0864372}},{{-0.0409806, -0.013085, 0.0053678}, {0.093922, -0.0360433, -0.0531021}, {0.0703864, -0.023057, -0.0598413}},{{-0.0098043, -0.336443, -0.1338986}, {-0.2053915, -0.1791197, 0.1215778}, {0.1966487, 0.0950656, 0.0326641}},{{-0.0589981, 0.1291476, -0.2077682}, {0.081696, 0.0085091, -0.1243835}, {-0.2645058, -0.1669533, 0.1339268}},{{0.1219373, -0.0537527, -0.0433294}, {0.1444154, -0.0015044, -0.0369865}, {-0.0127229, 0.0581221, -0.075595}},{{-0.1169931, -0.0847163, 0.0944896}, {0.171918, 0.0586059, -0.038558}, {-0.0170825, -0.0820338, -0.1170136}},{{-0.0860284, -0.0608787, 0.0078693}, {-0.0104643, -0.0011298, -0.0890165}, {0.0005097, -0.0201982, -0.0379676}},{{-0.0184075, -0.1240806, -0.0213954}, {-0.1945671, -0.0527231, -0.085737}, {-0.1285032, -0.0136626, 0.1520469}},{{-0.0228605, -0.1210365, -0.0910677}, {-0.1308789, -0.097393, -0.040793}, {-0.040796, 0.003217, -0.0048763}},{{0.0607347, -0.1322627, -0.2744098}, {-0.3506766, -0.2859682, -0.0142203}, {0.0725467, 0.2095893, 0.1328368}},{{0.0592171, -0.0012989, -0.0244255}, {-0.0957643, 0.0298266, -0.0012368}, {-0.0911519, 0.0377458, 0.0385062}},{{-0.0084079, 0.0583139, 0.0138449}, {-0.0095008, 0.0641092, -0.1195623}, {-0.0300386, 0.0796266, -0.0323944}},{{-0.0263624, -0.0799081, -0.1499761}, {0.0730239, -0.1336295, -0.0010399}, {0.070108, -0.0625986, -0.1061152}},{{-0.000724, -0.1237967, -0.0510936}, {-0.0099816, -0.0642173, 0.00409}, {-0.0747216, 0.018286, -0.0042995}},{{-0.0796926, -0.0473651, 0.0011065}, {-0.0065842, -0.0377016, 0.0339172}, {0.0379549, -0.0186124, 0.0236115}},{{-0.0043781, -0.0942296, 0.0311847}, {0.0016321, -0.129772, -0.0600433}, {-0.035006, -0.0287301, 0.0302908}},{{-0.2383749, -0.2388344, -0.310712}, {-0.1455421, -0.349516, -0.0056509}, {0.028971, 0.177989, 0.2038569}},{{0.3802771, 0.012707, 0.1487688}, {-0.1620439, -0.0180235, -0.0842091}, {0.002026, 0.2497158, 0.202599}},{{-0.3502688, -0.2052164, -0.2879095}, {-0.1997876, -0.04645, -0.2230884}, {-0.0309815, -0.0573766, -0.2574993}},{{-0.0524777, -0.0233973, 0.025404}, {-0.0517459, -0.0079699, -0.0787896}, {-0.0752981, 0.0282369, 0.0477616}},{{-0.0730114, 0.0551311, -0.0234362}, {-0.0476145, -0.0401166, -0.0835774}, {0.0508891, 0.0299962, -0.1187952}},{{-0.184222, 0.0205002, -0.1512276}, {-0.1872923, -0.1744135, 0.0504043}, {-0.0190695, -0.138388, -0.141377}},{{0.0062167, -0.0592927, -0.0506022}, {-0.0206649, -0.0776453, 0.0110695}, {-0.0488243, -0.1079091, 0.0328301}},{{-0.1841121, -0.2557507, -0.2621014}, {-0.0728077, -0.3777814, -0.044158}, {-0.2043793, 0.3092502, 0.1747677}},{{-0.1598469, -0.048984, -0.0537748}, {-0.0179194, 0.0630398, -0.0391762}, {-0.0434038, 0.0399841, -0.02291}},{{-0.1677384, -0.2622608, 0.1242025}, {-0.3290866, -0.1777332, -0.1807557}, {-0.1872475, -0.0582854, -0.1372838}},{{-0.041688, -0.0694538, -0.1934612}, {-0.0660764, 0.0375315, -0.0750797}, {-0.0550252, -0.0939594, -0.1304063}},{{-0.0113504, 0.0150426, -0.1265969}, {-0.061662, -0.0419555, 0.0589523}, {-0.0683843, -0.1057709, -0.0058459}},{{0.0170092, -0.0769837, 0.0315663}, {-0.0461138, -0.0818449, 0.0692767}, {-0.0328434, 0.0223724, 0.1042104}},{{0.0122898, -0.0454951, -0.0196728}, {-0.0797495, -0.0750677, -0.2645203}, {-0.0901952, 0.0202849, -0.0128691}},{{0.0438638, -0.0355672, -0.0796315}, {-0.0043941, 0.0057387, 0.0115259}, {-0.0268982, -0.0038466, 0.0261469}},{{-0.0051352, 0.0562513, -0.0107759}, {-0.0311191, -0.0639621, -0.0408555}, {-0.0624916, -0.0324216, -0.0108159}},{{0.0818511, 0.0523207, -0.1384216}, {-0.0376324, -0.1689348, -0.1215041}, {0.0115372, -0.1509008, -0.0440316}},{{-0.1963581, -0.0886563, -0.2351364}, {-0.1524971, -0.1075125, -0.3281004}, {-0.0689776, -0.0649383, -0.2220979}},{{-0.0601681, -0.0724169, -0.0293354}, {-0.0201288, 0.008539, -0.0850237}, {0.0120428, -0.0586385, -0.1388084}},{{0.0071875, 0.0480214, -0.0460862}, {-0.0795609, -0.0532826, -0.0913574}, {0.066451, 0.0701929, -0.0347217}},{{-0.0251674, -0.052738, -0.0016312}, {-0.1167308, 0.0520052, -0.1151587}, {-0.0853992, 0.0680716, -0.0977549}},{{0.0112548, -0.389748, -0.2663443}, {-0.3942812, -0.1793505, -0.0440798}, {0.1603236, 0.0237285, 0.0654795}},{{-0.1412276, -0.198432, -0.188607}, {0.0833546, -0.1253792, -0.1026149}, {-0.0236442, -0.0781559, 0.0131015}},{{0.023703, -0.155744, 0.0526853}, {-0.0587207, 0.0574161, -0.0666655}, {-0.0922293, 0.0224521, 0.0005285}},{{-0.13495, -0.113087, -0.2545432}, {-0.2759666, -0.0390068, -0.1608322}, {-0.1044565, -0.0253842, -0.112431}},{{-0.1680052, -0.0332539, -0.0049978}, {0.0189679, 0.0476039, -0.059292}, {-0.1279694, -0.0773597, -0.1869787}},{{0.0063788, -0.0966145, -0.2093845}, {-0.1913462, -0.0859322, -0.1625291}, {-0.1195326, 0.0475539, -0.0755837}},{{-0.0278291, -0.2867437, 0.2893062}, {-0.1241517, 0.1139404, 0.0051956}, {0.0255441, 0.022581, -0.2133022}},{{0.0387875, -0.0808788, 0.0299945}, {-0.0208386, 0.1293316, 0.1354517}, {0.1009122, 0.1136757, -0.0018656}},{{-0.0300419, 0.0373758, -0.0389257}, {-0.0666634, 0.0003896, -0.0226204}, {0.0051694, -0.0689944, -0.0492936}},{{0.0313855, 0.0179862, -0.0289656}, {-0.056755, 0.0339785, -0.0301253}, {0.0435725, 0.0225456, -0.0552521}},{{-0.1852129, -0.3154365, -0.2947462}, {-0.2447572, -0.226492, -0.1866016}, {-0.1460843, -0.1334133, -0.1579596}},{{-0.0596425, -0.0380068, -0.0887327}, {-0.0033663, -0.0529597, 0.0160386}, {0.0986225, 0.123275, 0.0442243}},{{0.0810336, 0.0023556, -0.0035555}, {-0.0082416, 0.0481023, -0.0189065}, {0.0046263, -0.0615454, -0.0128197}},{{0.0902328, 0.0279983, 0.0403125}, {0.0861795, 0.0130471, 0.035844}, {-0.0547231, -0.0272704, -0.0064835}},{{-0.1101468, 0.0813993, -0.1242934}, {0.0281221, -0.1686394, -0.1326834}, {-0.1462639, -0.2324544, -0.0519294}},{{0.3967513, 0.2464558, 0.180489}, {-0.1897471, -0.0843764, -0.0666791}, {0.0035769, 0.1160904, 0.0706607}},{{-0.1094832, 0.0356646, 0.1278005}, {0.2119451, 0.1556157, -0.0368257}, {-0.1193099, 0.0392097, -0.119787}},{{-0.0618661, -0.017501, -0.233067}, {-0.1997378, -0.2224545, -0.0647021}, {-0.0466147, -0.2542994, -0.1346419}},{{-0.1564692, -0.167056, -0.0517325}, {0.0116388, -0.0653317, -0.1655176}, {-0.0016693, 0.0425045, 0.0607419}},{{0.0408009, 0.1713755, -0.2135117}, {-0.1528231, 0.0056355, -0.1651064}, {-0.0708534, -0.1056231, 0.163136}},{{-0.2864093, -0.3117089, -0.0699072}, {-0.0937084, -0.1464602, -0.1379744}, {-0.1162304, -0.1621509, -0.1279288}},{{-0.0579759, 0.0413305, 0.0574002}, {0.0479923, -0.0199229, 0.1090561}, {0.0531829, -0.0138451, 0.0605471}},{{-0.0984109, -0.1248075, 0.1049108}, {0.0149188, 0.179012, -0.0039235}, {-0.1578021, -0.1434552, -0.239035}},{{-0.0978844, -0.189332, 0.0242606}, {-0.0164519, 0.1477176, -0.16816}, {0.0125335, 0.050754, 0.0381392}},{{0.0352971, -0.0589052, -0.0401991}, {0.1387827, 0.066268, 0.048241}, {0.0160575, 0.0205662, -0.1167697}}}
{{{-0.0321704, 0.0529958, -0.2005012}, {-0.1201696, -0.1188116, -0.0421164}, {-0.1085761, -0.0624249, 0.14426}},{{-0.1159973, -0.0413663, -0.0596035}, {-0.0087565, -0.0294715, 0.0419761}, {0.0067411, 0.0147182, 0.0504603}},{{0.015464, -0.0018473, 0.0027706}, {-0.0320742, -0.0022211, 0.0138182}, {0.009705, 0.0736992, -0.0032298}},{{-0.098163, -0.0561881, -0.1295087}, {0.0183213, -0.0828651, -0.0896188}, {0.0479697, -0.0456588, 0.0262933}},{{-0.0909802, -0.0813725, 0.0316945}, {-0.1424225, -0.0180821, 0.0235278}, {-0.0289161, -0.0901578, 0.0180433}},{{-0.1709698, -0.0683046, -0.000654}, {-0.1371584, -0.1010576, -0.0556005}, {0.0278271, -0.05071, 0.0155935}},{{0.015464, -0.1246346, -0.0045183}, {-0.0922556, 0.022096, -0.0503613}, {-0.0294099, 0.0351621, 0.0455683}},{{-0.0045616, 0.0229875, -0.1130321}, {-0.0959941, -0.085243, -0.0299763}, {-0.182486, -0.0256454, -0.1003589}},{{-0.0036715, 0.0132142, -0.0920394}, {-0.065094, 0.0272327, -0.0602364}, {-0.0214285, -0.0311083, 0.052698}},{{0.0539347, -0.0151782, -0.0519378}, {-0.0197748, 0.0080331, -0.0531369}, {-0.0257567, 0.0983882, 0.0688315}},{{0.0212478, 0.0119039, 0.0745353}, {-0.029214, -0.0003521, 0.0430812}, {0.0124295, -0.0892663, 0.1024559}},{{-0.1375322, -0.0880963, -0.0901044}, {-0.1043372, -0.0865698, -0.0578668}, {0.0152523, -0.103253, -0.0123978}},{{0.0280309, 0.0331295, 0.0701892}, {0.0080155, 0.0386431, 0.0569581}, {0.015586, 0.0396227, -0.0524624}},{{-0.064593, -0.0953937, 0.0152682}, {-0.0220549, 0.0522863, -0.0929557}, {-0.0713488, 0.0276304, 0.0492466}},{{0.1151756, -0.0038283, 0.094266}, {0.032128, 0.0199725, 0.0602477}, {0.0855834, 0.0312605, 0.0130579}},{{-0.1145914, 0.0093575, -0.0722222}, {-0.2247377, -0.2009349, -0.0981705}, {-0.0743809, -0.0243047, 0.0324779}},{{0.0977194, 0.034685, 0.0273472}, {-0.0271923, 0.0601723, 0.0133093}, {-0.0433558, 0.0965791, 0.0137334}},{{-0.037189, -0.1008002, 0.0591606}, {-0.0221816, -0.1289013, 0.0338791}, {0.0635702, -0.0949649, 0.0037344}},{{0.0193975, -0.1083636, -0.0535951}, {0.0147934, -0.1311347, -0.0780111}, {0.0645639, -0.092351, -0.0410688}},{{-0.0853637, -0.0753067, 0.0026903}, {-0.1682369, -0.1052378, 0.0070012}, {-0.1654614, -0.0179617, 0.0212797}},{{0.055116, 0.0280884, -0.0144125}, {0.0653451, -0.0141718, -0.0347423}, {-0.0176634, 0.1823909, 0.0649825}},{{0.0094657, 0.0347644, 0.0219325}, {-0.0015964, -0.0372756, 0.0334334}, {-0.0397942, -0.0720229, 0.0140199}},{{0.0089585, 0.0429677, 0.0089187}, {-0.0540859, 0.0678342, 0.0147063}, {-0.0460344, 0.0822937, -0.0487007}},{{-0.1176277, 0.061054, 0.1625695}, {-0.0901449, 0.1075855, -0.0738176}, {-0.0104396, 0.137497, 0.0524067}},{{-0.0748255, -0.0135145, -0.0473155}, {0.0095343, -0.0301155, -0.0165557}, {0.0518055, 0.0302115, -0.0628394}},{{-0.011419, 0.1237264, -0.0246678}, {-0.1072532, 0.0343374, 0.0844915}, {-0.1067551, -0.0130297, 0.0397507}},{{0.0012043, 0.0489358, 0.0849055}, {0.014702, -0.0268402, 0.0025599}, {-0.0454525, 0.0906989, 0.0414104}},{{-0.0875883, -0.0397002, 0.0410704}, {-0.1029872, -0.0907565, 0.0533126}, {0.0205889, -0.0174119, 0.0219719}},{{0.1124991, -0.0486767, 0.0293758}, {-0.0232934, -0.0950888, 0.0180212}, {0.1180309, 0.0219934, -0.0416452}},{{0.0049483, 0.0528321, -0.0457002}, {-0.0711446, -0.0333403, -0.0023099}, {0.0247422, -0.0264184, -0.0476832}},{{-0.1051887, -0.0251473, -0.0806076}, {-0.0987752, -0.0396404, -0.0667979}, {0.0532827, -0.0139063, 0.0571072}},{{0.0846381, -0.0327006, 0.0508999}, {0.0314963, -0.001617, -0.1088796}, {0.0038704, -0.0620748, 0.0631931}},{{0.0255524, -0.0064789, -0.0664169}, {-0.0187956, -0.0233412, -0.0260997}, {-0.0425152, -0.0130298, 0.035222}},{{0.0826142, 0.0338762, 0.0370562}, {-0.0182307, 0.0669816, 0.0313137}, {0.0724082, -0.0594835, -0.0429408}},{{-0.0877851, -0.0632461, -0.018231}, {-0.0046772, -0.0838423, -0.068102}, {-0.0812012, 0.0006641, 0.0736107}},{{0.0566392, -0.1519323, -0.2371544}, {-0.0810788, -0.0403919, -0.218066}, {-0.0416734, 0.0173769, -0.0873292}},{{-0.035446, -0.1239005, -0.0651116}, {0.0292682, 0.0114718, -0.0631082}, {-0.0409442, -0.1167265, -0.1078989}},{{-0.0767005, -0.0700514, -0.0147686}, {-0.0491247, 0.0072571, -0.0353215}, {-0.0588897, 0.0559312, 0.0154923}},{{-0.0209397, -0.0663438, 0.0258397}, {-0.0254401, -0.0015987, 0.0236235}, {0.0034619, -0.0317542, -0.0583331}},{{-0.1648351, -0.1463151, -0.0975064}, {-0.0753004, -0.1106853, -0.0512805}, {-0.0367393, -0.1116245, -0.1239963}},{{-0.0862891, -0.1406839, -0.0715968}, {-0.0076537, 0.0247346, 0.0447079}, {0.1093918, -0.0197122, 0.0952725}},{{-0.1215863, 0.0882519, -0.0111581}, {-0.164268, 0.0125379, 0.0449052}, {0.0549792, 0.081896, 0.0642623}},{{0.0954128, -0.0062535, -0.0856695}, {0.0043365, -0.1435671, -0.0825559}, {-0.0365365, -0.009743, -0.0853788}},{{-0.0357212, -0.0623241, 0.0204288}, {0.0774131, -0.1103973, -0.0122481}, {0.0494035, 0.0365962, 0.0154909}},{{0.0872737, -0.052529, 0.0864401}, {-0.0330027, -0.0810913, 0.0037246}, {-0.0026081, -0.0846493, 0.0654537}},{{-0.0833075, -0.0827502, -0.1133989}, {-0.0572656, 0.0117391, -0.0372078}, {-0.0772864, -0.0070542, -0.0698093}},{{-0.1765237, 0.0645234, 0.0440113}, {-0.2381368, 0.0070728, -0.0193177}, {-0.1725798, -0.1326502, -0.0493508}},{{0.0360533, -0.0275248, -0.0306781}, {0.0612638, 0.0606164, 0.0217539}, {-0.0513798, 0.0472659, 0.0124469}},{{-0.0971107, -0.1115351, 0.0240431}, {-0.0932451, 0.0400955, -0.0316454}, {-0.0606602, 0.0242772, -0.0775096}},{{0.1162234, 0.0551568, -0.0175903}, {0.0706305, -0.0434352, -0.1203039}, {-0.0060457, -0.019692, 0.019012}},{{-0.0264041, 0.0832165, 0.0110535}, {0.0732075, 0.0775511, 0.110174}, {0.1021262, -0.0879675, 0.0056622}},{{-0.0378519, -0.0283013, -0.0262191}, {-0.0374264, 0.0781025, -0.0244148}, {-0.0267014, -0.0208779, -0.0010708}},{{0.0505531, -0.0070554, 0.0424604}, {-0.0573969, -0.0286807, -0.0288344}, {0.0226006, 0.008644, 0.0468176}},{{-0.0504793, 0.0573326, -0.0334307}, {-0.0087346, -0.0461749, -0.0280081}, {-0.0385303, 0.0870987, 0.0462086}},{{0.0382963, 0.0692164, -0.0059333}, {-0.1826567, -0.0835788, -0.0124232}, {-0.1303059, 0.1055619, 0.056979}},{{0.0218528, 0.0226266, -0.0531502}, {-0.0646739, -0.0109666, -0.0153221}, {-0.0763097, 0.067042, -0.0060545}},{{-0.171105, -0.1109526, -0.0168156}, {-0.0551787, -0.1354381, -0.0482655}, {0.0349825, 0.0159777, 0.131153}},{{0.0528123, -0.0372288, 0.0643099}, {-0.0009363, -0.0323105, 0.0786642}, {-0.0452679, -0.0531681, 0.0077901}},{{0.0317615, 0.0100268, 0.0881989}, {-0.1246373, 0.0270483, 0.0486933}, {-0.0167707, -0.0782076, -0.0155699}},{{-0.0924568, -0.0711026, -0.1716656}, {-0.011323, -0.0782844, -0.0385924}, {-0.0756814, -0.0552817, 0.0256367}},{{-0.077505, -0.0117577, -0.0642656}, {-0.0581236, -0.0655316, 0.0547452}, {-0.0513992, 0.0503226, -0.0399783}},{{-0.0908328, -0.1239417, -0.0908046}, {-0.1097345, -0.1599908, -0.0181012}, {-0.1101121, -0.1002142, -0.1402234}},{{-0.0326509, -0.0477388, 0.0099351}, {0.0180684, -0.0215052, -0.0245373}, {-0.0226599, -0.0165458, -0.1437429}},{{-0.1364788, -0.1108276, -0.0746901}, {0.0262207, -0.0206553, -0.0063727}, {-0.0942081, -0.0434046, 0.0099413}}}
{{{-0.1038337, -0.1355032, -0.0845048}, {0.0068874, -0.0338093, -0.0446097}, {-0.040898, -0.1474064, -0.0862946}},{{0.0460289, -0.0092589, 0.0805074}, {0.0826987, 0.059372, -0.0346476}, {-0.0032686, 0.0649256, 0.0429553}},{{-0.014874, -0.0116345, 0.0048737}, {-0.0317975, 0.0065711, 0.0198826}, {-0.089272, -0.0723747, -0.0084125}},{{-0.0289349, 0.0272839, -0.0276174}, {-0.0543625, -0.001634, -0.0489776}, {-0.0295312, -0.0330647, -0.0272455}},{{0.0196333, -0.0351807, 0.030016}, {0.0330212, -0.0339821, 0.1177887}, {-0.0276041, -0.0230813, 0.1007404}},{{-0.1189127, 0.0472078, -0.0768876}, {-0.1053445, 0.0368797, -0.1159522}, {-0.0159155, 0.0078534, -0.0474133}},{{-0.0736294, -0.0504341, -0.079783}, {-0.055126, -0.0095897, -0.0296145}, {0.0573257, -0.0604204, -0.0907457}},{{-0.061405, -0.105053, -0.1149496}, {-0.1331891, -0.1582875, -0.0661625}, {-0.0398159, -0.112414, -0.1874211}},{{-0.0351319, -0.0121697, 0.0076115}, {-0.0722914, -0.0642861, 0.0286429}, {-0.0503588, -0.0292774, -0.040152}},{{-0.056229, -0.0448735, -0.0011583}, {-0.0845106, -0.09383, -0.0277049}, {-0.0911976, -0.0784324, 0.0236171}},{{0.0216165, 0.0324697, 0.0328586}, {0.0502744, -0.0588425, -0.0617844}, {-0.0588837, -0.0546056, -0.0370541}},{{-0.1480962, -0.0682408, -0.0802268}, {-0.0167234, -0.1360031, -0.0207349}, {-0.0709195, 0.0067492, -0.0555386}},{{-0.075497, 0.0140945, 0.0168712}, {0.0621225, 0.1133642, 0.0214614}, {0.0368103, 0.0026491, 0.0264783}},{{-0.028219, -0.1036219, 0.0751346}, {-0.0006358, -0.0606469, -0.0446702}, {-0.0879206, 0.0120837, -0.0245553}},{{0.0736129, 0.0122521, 0.0828586}, {0.0387209, 0.0220906, -0.0295968}, {0.0718201, 0.0629706, -0.0480531}},{{0.0237938, -0.0725939, -0.0702294}, {0.0008571, -0.038713, -0.0119424}, {-0.1271978, -0.0862365, -0.0132407}},{{-0.0058893, -0.0808661, 0.0763645}, {0.0257556, -0.0157822, 0.0623627}, {0.0576792, -0.0032695, 0.0488182}},{{0.0722547, -0.0447323, -0.0522774}, {0.0816493, -0.0384002, -0.0769608}, {0.0199685, -0.0327508, 0.0399317}},{{-0.0717067, -0.0944013, -0.1525671}, {-0.0417873, -0.171445, -0.1100174}, {-0.0886831, 0.0035706, -0.0271506}},{{0.0052047, 0.0578048, 0.0064552}, {-0.0833101, -0.0375073, 0.0440629}, {-0.1105272, -0.1081817, -0.0631794}},{{-0.0652963, -0.0989282, -0.0876684}, {-0.0589155, -0.0085604, 0.0150713}, {-0.1487137, 0.0022758, 0.0610956}},{{0.0772811, -0.0580237, 0.0014612}, {0.0081543, -0.0360861, 0.0062693}, {0.0251121, 0.0340971, 0.0256866}},{{0.0027065, -0.047615, 0.0253321}, {-0.0014232, -0.0486187, -0.0064024}, {-0.1019286, -0.0231718, 0.0272523}},{{0.0248348, -0.0478391, 0.0340674}, {0.0638011, 0.0197731, -0.0989917}, {0.1085178, -0.0093825, 0.018533}},{{0.0515336, 0.014304, 0.0536963}, {-0.0353733, 0.0083851, 0.0141542}, {-0.0341407, -0.008948, 0.020231}},{{0.0132585, 0.0304748, -0.1140047}, {-0.0724347, -0.1786373, 0.0030683}, {0.0585424, -0.1879805, -0.0510234}},{{-0.0584224, -0.074012, 0.0692346}, {-0.013581, -0.0574472, -0.0254976}, {0.0134506, 0.0206282, -0.0557889}},{{-0.0714661, -0.0330529, -0.0065298}, {-0.1340283, -0.0574773, 0.0149156}, {-0.0358804, 0.0632889, -0.0448347}},{{0.0267836, 0.1234368, 0.0385269}, {-0.0633947, 0.010358, -0.0719986}, {0.0152035, 0.1155054, -0.0520066}},{{-0.0630696, -0.0400505, -0.0496348}, {-0.0090647, 0.0758677, -0.084283}, {0.0384796, -0.0090249, 0.0004405}},{{0.0562545, 0.0341052, -0.0272037}, {-0.0522785, 0.0584128, -0.0589342}, {0.0109091, -0.0309529, -0.0079046}},{{0.1331439, 0.0676318, 0.072024}, {-0.0021706, 0.0804921, 0.0167388}, {0.0854196, 0.0992925, -0.0970618}},{{-0.0419538, 0.0327002, -0.0549031}, {-0.0629709, 0.0042549, -0.0833716}, {-0.0054878, -0.0127225, 0.0076823}},{{0.0406272, 0.0754179, 0.0056967}, {0.11518, 0.0932141, -0.0715238}, {0.0476157, 0.0412428, -0.0890196}},{{0.0634726, -0.0936998, -0.1405394}, {0.0443362, -0.1403718, -0.0797718}, {0.0338702, -0.0402684, -0.0385655}},{{-0.1570255, -0.1895176, -0.0271707}, {-0.1595473, -0.0593293, 0.0011049}, {-0.0985162, -0.0191154, -0.1589313}},{{0.0072978, -0.0935658, 0.0062392}, {0.0184501, -0.0064838, -0.0823115}, {0.0033746, 0.0395177, 0.0070839}},{{-0.0008518, -0.0042041, 0.0430053}, {0.0328272, -0.0924546, 0.0226175}, {-0.0558897, -0.0108098, -0.0857226}},{{-0.0002806, 0.0428488, 0.0837959}, {0.0112839, 0.0044952, -0.0375577}, {-0.0023316, -0.0165771, -0.0347046}},{{-0.2153061, -0.1446579, -0.1278582}, {-0.097173, 0.012797, -0.0349086}, {-0.0772234, -0.0079515, 0.0532016}},{{-0.0603246, 0.0154214, -0.0688407}, {-0.1053329, 0.0368182, -0.1003166}, {-0.0015773, -0.009268, 0.0956589}},{{0.0343602, 0.0281132, -0.0689494}, {-0.0317741, -0.0659977, -0.0844868}, {0.0404188, 0.0856681, -0.0507453}},{{0.0141238, 0.0644153, 0.0596299}, {0.0601101, -0.0485266, -0.04028}, {-0.1121152, -0.1522487, -0.1200477}},{{-0.0895148, -0.0773886, 0.0525073}, {-0.0944116, -0.0054321, 0.0327035}, {0.0273546, -0.048373, -0.0521395}},{{0.0385447, 0.0087558, 0.0568883}, {-0.0728413, -0.1003812, -0.1362439}, {-0.0122718, 0.0331382, 0.0107841}},{{0.1118013, 0.0469229, 0.0104165}, {-0.0470257, 0.0724105, 0.0266189}, {0.0275621, 0.0497637, 0.0159726}},{{-0.0446683, -0.0358619, -0.0468476}, {-0.1241884, -0.1061058, -0.0686692}, {0.0512754, -0.0651794, -0.1238772}},{{-0.0723333, -0.022577, 0.0083907}, {-0.065034, -0.0135824, -0.0425012}, {-0.0412411, -0.0779725, -0.0501718}},{{-0.0418317, -0.0637717, -0.1004749}, {0.0035412, -0.0604653, 0.0480304}, {0.0208201, -0.0201538, -0.0108999}},{{0.0572707, 0.0643011, 0.0265244}, {0.0499058, 0.0017378, -0.0833645}, {-0.07736, -0.0935918, -0.1072356}},{{0.0430839, 0.0534369, -0.0248383}, {0.0168926, 0.0450245, 0.0970453}, {-0.0231853, 0.0343973, -0.001905}},{{-0.0290755, 0.0127175, 0.0232592}, {-0.0318984, -0.0460131, -0.0311903}, {0.0672637, -0.0107804, -0.0280381}},{{-0.0375137, 0.0718973, 0.0105918}, {0.0565984, 0.0218133, 0.0719241}, {0.0559121, 0.0204299, -0.0229169}},{{0.0177908, -0.0024074, 0.0730894}, {0.0402391, -0.096693, -0.1148833}, {0.0196523, -0.0458148, -0.012249}},{{-0.0464266, -0.0353273, 0.0126177}, {-0.0817068, -0.2368192, -0.0824735}, {-0.0228727, -0.0850078, -0.0979734}},{{0.0156471, 0.0220541, -0.0293966}, {-0.0862369, 0.0390305, -0.0861853}, {-0.0620425, -0.0397276, -0.1134845}},{{-0.084266, -0.1067247, -0.2230388}, {0.0377309, 0.0182082, 0.1341669}, {-0.0897975, 0.0446222, 0.1625169}},{{0.0347179, -0.0216615, 0.0608438}, {0.0274614, -0.0465323, -0.0310578}, {0.0397135, 0.0451967, -0.0848976}},{{0.1063285, 0.0144109, -0.0594405}, {-0.0885081, -0.1006034, -0.0691724}, {0.0307568, -0.1077681, -0.1494389}},{{-0.0627851, -0.0546819, -0.0792588}, {-0.0690338, -0.0433609, -0.0250866}, {-0.113311, -0.0371947, -0.0777583}},{{0.006462, -0.0372089, 0.0529746}, {0.0026812, -0.0638254, -0.0162651}, {0.0037002, -0.0371509, 0.0174944}},{{-0.046642, -0.1030776, -0.0337037}, {-0.0282446, 0.0079961, -0.0671771}, {0.072833, 0.1895287, 0.0109018}},{{0.0094844, 0.0104013, -0.041152}, {0.0564324, 0.0230545, -0.026578}, {-0.0555104, -0.0291946, -0.0189181}},{{-0.0025915, -0.0632346, 0.0067712}, {-0.0977695, 0.0306945, 0.004373}, {-0.0175938, 0.0024361, -0.0261518}}}
{{{-0.3067778, -0.173515, 0.1489171}, {-0.1800413, 0.1004597, -0.1494567}, {-0.1394015, -0.066741, -0.1298959}},{{-0.0958156, 0.0860091, 0.0027142}, {0.0328727, -0.122467, 0.1120303}, {0.0011853, 0.0397566, -0.0057008}},{{0.1313592, 0.1537604, -0.0090154}, {-0.1505007, 0.1109499, 0.1426694}, {-0.0647677, -0.0539326, -0.0511632}},{{0.0747839, 0.0936098, -0.02203}, {0.0649333, 0.0566215, 0.0096571}, {0.0429219, -0.0540784, 0.0021112}},{{-0.3800461, 0.0225558, 0.0556591}, {-0.0793009, 0.2389746, 0.0253739}, {-0.1892366, -0.1655596, -0.0936631}},{{-0.168732, -0.0773999, -0.0489091}, {-0.1492047, -0.084468, 0.1034482}, {0.0528462, 0.0570017, 0.1737059}},{{0.0936743, 0.1021, -0.0090845}, {-0.1224504, -0.0797156, -0.1307615}, {0.089252, 0.0734771, 0.0933366}},{{-0.1682467, -0.064877, -0.3447536}, {0.0366096, -0.0857988, -0.3264767}, {0.0961609, 0.0259701, -0.1078158}},{{0.0041903, -0.0051101, 0.0463332}, {0.0482415, 0.0126434, 0.0051504}, {-0.0110283, 0.0271563, 0.0768687}},{{-0.3148704, -0.1703555, 0.0298931}, {-0.2209801, -0.1438902, 0.1337447}, {-0.3143522, -0.0877452, 7.66e-05}},{{0.0941596, -0.0352438, 0.0330286}, {-0.0126694, -0.0120438, -0.0369291}, {0.0456703, 0.0090177, 0.0612322}},{{-0.277086, -0.1589743, 0.1643946}, {-0.0665287, -0.01858, 0.136412}, {-0.2400676, -0.254989, -0.0736539}},{{0.1758054, 0.1268421, -0.0754679}, {0.0439353, 0.0380299, 0.0735669}, {0.0938357, 0.0314288, 0.0054323}},{{0.0046345, -0.0546519, 0.0040371}, {-0.0656945, 0.1053466, 0.0184014}, {-0.024062, 0.0693726, -0.0252014}},{{-0.3851196, 0.0293393, -0.0374031}, {-0.1598144, 0.0284594, 0.1161587}, {-0.252186, -0.070229, 0.0022866}},{{0.1377796, -0.0930835, 0.0464999}, {0.1244729, -0.0293912, -0.1054377}, {-0.2265182, -0.0225197, 0.0533798}},{{-0.0665409, 0.0130723, 0.050706}, {0.0163799, -0.016233, -0.0222161}, {-0.0253277, -0.0603195, 0.0365298}},{{0.0116847, -0.0865365, -0.0864328}, {0.0305505, 0.0196839, -0.0037029}, {-0.0611124, 0.0499722, 0.0380716}},{{-0.4816691, -0.21865, 0.1491727}, {-0.1960648, -0.0421431, 0.1598309}, {-0.2344535, -0.2441849, -0.0459997}},{{-0.0220685, 0.0373709, -0.1337866}, {-0.1301098, 0.0932092, -0.1247448}, {-0.1438741, -0.0280162, 0.0661945}},{{-0.3932617, -0.3611087, 0.2349736}, {-0.0152249, -0.0204472, -0.1025296}, {-0.3501072, -0.0601357, -0.13683}},{{0.0789856, 0.0617495, -0.04883}, {-0.0304771, 0.0195618, 0.1149727}, {-0.0254912, 0.0505432, 0.0158464}},{{0.0149611, 0.0081168, 0.0207362}, {0.0293563, -0.0181629, -0.0788592}, {0.0600018, 0.0608395, -0.0792961}},{{-0.037917, -0.080916, -0.175011}, {-0.281518, -0.0326759, -0.2325826}, {-0.0554812, -0.087275, 0.1886586}},{{-0.0299652, -0.0769681, -0.0640311}, {0.0235558, -0.103115, -0.0348509}, {0.030388, -0.0362786, 0.0260646}},{{-0.0074121, -0.0196799, 0.1120329}, {-0.1988289, 0.1786124, 0.1136775}, {-0.1896428, -0.0979021, -0.1287886}},{{-0.052562, 0.0382372, 0.0091638}, {0.0130316, 0.0291516, 0.0063963}, {-0.0052967, 0.076767, 0.0615122}},{{-0.0921034, -0.0122122, -0.1274187}, {-0.1343912, 0.0395893, -0.2489319}, {-0.2088462, 0.0144973, -0.0500257}},{{0.0045795, -0.1376813, -0.0884642}, {-0.0509823, -0.0135694, 0.0553766}, {0.096771, -0.0564272, 0.0041219}},{{-0.0473563, -0.0005536, 0.0710052}, {-0.1387762, -0.1200987, 0.0159354}, {0.0113599, -0.0413643, -0.0838378}},{{-0.0291361, -0.0360781, 0.1312608}, {-0.0498393, -0.0223357, 0.0237417}, {-0.0635313, -0.0243077, 0.0245267}},{{-0.1381275, -0.3594438, -0.2068698}, {-0.1765051, -0.1199375, -0.0844205}, {-0.095438, -0.0410902, 0.2161971}},{{-0.0219478, 0.12639, 0.0710954}, {-0.0092314, 0.0089635, -0.0483533}, {0.0700414, -0.0637279, 0.024831}},{{-0.0113991, -0.027708, -0.0591885}, {-0.0675039, 0.0153753, -0.0266968}, {0.0806831, 0.0252605, 0.1243641}},{{-0.1523459, -0.0523185, -0.1260538}, {-0.053361, 0.0988667, -0.0516809}, {-0.0819012, -0.0688666, -0.1500855}},{{-0.1484425, 0.0791315, -0.0423467}, {-0.2135213, -0.0520474, -0.16879}, {-0.2070851, -0.0354142, -0.2008477}},{{-0.0355018, 0.0171952, -0.0791118}, {0.132755, 0.0530728, -0.0273378}, {0.0553322, 0.0156918, -0.012091}},{{-0.0295548, -0.0344635, 0.0376966}, {-0.0319081, -0.045275, -0.0780731}, {0.0255513, 0.052935, -0.015977}},{{0.0439643, -0.0780919, -0.0644892}, {-0.1169533, -0.0418592, -0.0442477}, {0.0485458, 0.0803972, -0.0034646}},{{-0.0735004, -0.0279622, 0.0415742}, {-0.146882, -0.1198431, 0.087267}, {-0.2273945, -0.3241378, -0.1730523}},{{-0.388094, 0.0299206, -0.0085411}, {-0.1785243, 0.0874696, 0.2217953}, {-0.3986349, 0.0005289, 0.0316992}},{{0.0227128, -0.0385555, -0.0382606}, {0.0317403, 0.0072849, -0.0384291}, {0.0347408, -0.1017808, -0.0487231}},{{-0.0692753, -0.3450529, -0.2731548}, {-0.1376873, -0.0226607, -0.0730539}, {0.0144988, 0.120071, 0.1423367}},{{0.0669555, 0.058352, -0.168525}, {0.0650363, -0.0431107, -0.0626175}, {-0.0171032, -0.0370571, 0.0815208}},{{-0.0259269, -0.1813751, -0.0753913}, {-0.0041563, 0.0606675, -0.0015018}, {0.0202015, -0.04363, 0.0248316}},{{-0.1224117, 0.0219261, 0.094308}, {0.2751048, -0.0300485, -0.1278161}, {0.046388, 0.0319175, 0.0304008}},{{0.0773454, 0.0154919, -0.0759955}, {0.0463453, 0.0177573, -0.0320931}, {0.0268463, 0.0975715, 0.0288257}},{{0.0427369, -0.0486262, -0.0441225}, {0.0119876, -0.056185, -0.0532922}, {0.0135479, 0.0097738, -0.030018}},{{-0.0092487, -0.0656883, 0.0583702}, {0.0200655, 0.0119752, 0.018541}, {-0.0042538, -0.0504973, -0.079758}},{{-0.3902143, -0.3827315, -0.2054331}, {-0.1866114, 0.0154218, 0.1189976}, {-0.2168909, -0.002725, 0.1365763}},{{-0.0281606, -0.0545914, 0.1004352}, {0.0586881, -0.0512709, -0.0152178}, {-0.0519293, -0.0618094, 0.0740038}},{{0.03558, 0.0230069, -0.1539205}, {0.0315881, 0.0634342, -0.0434568}, {-0.0616358, -0.0426766, 0.0921083}},{{-0.0956546, 0.0194595, 0.0469781}, {-0.0953563, 0.0187246, -0.0197991}, {-0.0492141, -0.0397421, 0.0427729}},{{-0.3022331, -0.2573306, -0.036739}, {-0.2097641, -0.0151539, 0.1627866}, {-0.168221, -0.0091444, 0.0463487}},{{0.0139129, -0.0914502, -0.060851}, {0.003455, -0.0334787, -0.0176531}, {-0.002732, -0.0316709, -0.0107874}},{{-0.0312205, -0.0794655, -0.0803132}, {-0.0408654, -0.1405155, -0.2366794}, {-0.0608818, 0.0572562, -0.0684521}},{{-0.1097974, -0.228868, -0.0324826}, {-0.2740911, -0.3215028, -0.1188875}, {-0.1023794, 0.1444286, -0.0821688}},{{0.1554305, 0.0288409, -0.0363373}, {0.0512927, 0.0375368, -0.0061616}, {-0.0680444, 0.0407191, 0.0732696}},{{-0.2469599, -0.0632631, 0.1873226}, {-0.150178, -0.000718, 0.2163533}, {-0.1970284, -0.1014714, -0.1655929}},{{-0.2027331, -0.0812429, -0.0193667}, {-0.2170225, -0.041461, 0.0125252}, {-0.2428389, -0.0740715, 0.102671}},{{0.0431476, -0.0074916, 0.0410334}, {0.1362208, -0.018651, 0.0080947}, {0.0401607, -0.0244829, -0.0462596}},{{-0.0412604, 0.2318571, 0.0618518}, {0.378989, 0.2096043, 0.0254695}, {-0.0892529, 0.0704047, 0.1202567}},{{0.1793586, -0.1776038, -0.070107}, {-0.0129932, -0.0112473, 0.0161249}, {-0.2145363, -0.0808084, -0.1251183}},{{0.1267463, -0.1067349, 0.0877193}, {0.0010124, -0.2047809, -0.0327997}, {0.0257073, -0.0923043, 0.135399}}}
{{{-0.0370583, -0.0733827, -0.0041682}, {0.0504408, -0.1073395, -0.19504}, {0.0590607, -0.0895735, 0.1437675}},{{-0.1137419, -0.0571392, -0.0673086}, {-0.0878468, -0.0666366, -0.0323516}, {0.1856852, -0.1751286, -0.1117625}},{{0.0908747, -0.0896718, -0.1534144}, {-0.0107298, -0.0751467, -0.2007313}, {-0.0765877, -0.089878, -0.1268947}},{{0.0383939, 0.0543414, -0.0405029}, {0.0085057, -0.0728701, -0.1203153}, {0.0064477, -0.0816242, -0.1368505}},{{-0.3449635, -0.2119458, -0.159708}, {-0.1438596, -0.0110967, -0.1958164}, {0.1463015, -0.132533, -0.1990379}},{{0.071379, -0.2038484, -0.2551928}, {-0.1006723, 0.0216219, -0.0270226}, {0.0913467, -0.2874706, -0.2768186}},{{-0.1262775, -0.0597124, -0.1630303}, {0.0380566, -0.1380302, 0.045427}, {0.0851245, 0.1126568, 0.0456367}},{{0.1017989, -0.2376523, -0.1718269}, {0.1309554, -0.176243, -0.1663949}, {0.0918206, -0.1507709, -0.2531251}},{{-0.0072336, -0.0693015, -0.0790809}, {-0.030078, -0.021969, -0.159384}, {-0.0797587, -0.0488161, -0.1820229}},{{0.0783283, -0.1206871, -0.1840379}, {-0.0188443, -0.1326727, 0.0279969}, {-0.3373609, -0.1688713, -0.0269829}},{{0.0183952, -0.1553609, -0.1048903}, {0.0828416, -0.1105177, -0.0743343}, {0.1029555, -0.0056664, -0.1010535}},{{-0.1192287, -0.2718339, 0.0555618}, {-0.0811892, -0.1674014, 0.0446544}, {-0.0077617, -0.1559291, -0.1557708}},{{0.1040868, -0.0554537, -0.0287859}, {-0.0284597, -0.1322383, -0.091761}, {-0.0914786, -0.1160526, -0.1228582}},{{-0.0772447, -0.0564804, -0.1037056}, {-0.0075542, -0.0837761, -0.0210209}, {0.0338143, -0.0129383, -0.0419076}},{{-0.1866307, -0.1022194, -0.0642406}, {-0.0860686, -0.0672795, -0.1130022}, {0.1407355, -0.0197609, -0.0950614}},{{0.0967045, -0.2215083, -0.0243643}, {0.0553019, -0.0429533, -0.1422627}, {0.0145865, 0.0667211, -0.1871002}},{{-0.0253025, -0.0032193, 0.0142253}, {0.0562914, -0.154723, -0.1930559}, {0.0750461, -0.1458448, -0.0388592}},{{0.0200847, -0.0931323, -0.0178894}, {0.0653771, -0.0008773, -0.0716756}, {-0.0412256, 0.0793419, -0.0432508}},{{-0.1175171, -0.3678444, -0.119085}, {-0.0314954, -0.0869366, -0.0881613}, {0.0463788, -0.0216412, -0.0464113}},{{0.1226906, -0.0468082, 0.0408303}, {0.185936, -0.1193709, -0.0960512}, {0.1005631, 0.0592568, -0.0194051}},{{-0.1632124, 0.070659, -0.3355698}, {-0.2237393, -0.0927715, -0.4146999}, {-0.0438868, -0.1522913, -0.2164386}},{{0.0371293, -0.095232, -0.0508462}, {0.0675745, 0.0012208, -0.1280693}, {-0.0510561, -0.0319166, -0.0736012}},{{-0.0892793, -0.1724955, -0.0226963}, {0.001066, -0.0579111, -0.0670158}, {0.0814707, 0.1521845, -0.0248758}},{{0.0851689, 0.0125085, 0.1545761}, {-0.0688481, -0.1791902, 0.1398771}, {-0.0500189, -0.3477833, 0.0522839}},{{-0.0344371, -0.0018234, -0.0896571}, {-0.0134891, -0.1193541, -0.132823}, {-0.0783899, -0.0507421, -0.1789492}},{{-0.2032998, -0.3081195, -0.2543184}, {-0.0827359, -0.1118276, -0.1991431}, {0.1132178, -0.0099033, -0.0715351}},{{0.0254246, -0.1702729, -0.0920586}, {0.0240497, -0.019164, -0.0831855}, {-0.0689837, -0.1162014, -0.0435852}},{{0.0272033, -0.2282503, -0.2662044}, {0.022742, -0.1208973, -0.2225485}, {0.0463533, -0.1253735, -0.0185449}},{{0.1111389, -0.1105748, -0.0385423}, {0.0626249, -0.0993801, -0.1323945}, {0.0393859, -0.0664563, -0.0417267}},{{-0.058118, -0.0138337, 0.0216385}, {0.0281195, 0.0697733, 0.035681}, {0.0612278, -0.0816175, -0.0580249}},{{-0.0062607, -0.0566972, 0.0030449}, {-0.0084615, -0.0660334, -0.118085}, {-0.0221075, -0.1316595, -0.1263058}},{{0.2509114, -0.0068731, -0.1388987}, {0.0516466, -0.1080966, -0.1923584}, {-0.0968684, -0.213397, -0.1507645}},{{0.081096, -0.022512, -0.1425703}, {-0.0546403, 0.0333495, -0.0268248}, {0.0145185, -0.0836706, 0.0131233}},{{-0.0181972, 0.0368191, -0.0597552}, {0.0263566, -0.0030866, -0.0457161}, {-0.0405779, -0.1247534, -0.1147299}},{{-0.1915114, -0.154573, -0.1536203}, {0.0514312, -0.127263, -0.09339}, {0.0347276, 0.028357, -0.0910835}},{{-0.3916449, -0.1032208, -0.1502235}, {-0.451072, -0.1304353, -0.2678985}, {-0.3246081, -0.215042, -0.2266295}},{{0.0752502, -0.1452955, -0.219951}, {-0.0470058, -0.1190429, -0.1755441}, {0.0446153, -0.1899044, -0.2056676}},{{-0.0724843, -0.063294, -0.0894395}, {-0.0179121, -0.0403414, 0.0003932}, {-2.8e-05, -0.0621482, -0.0406952}},{{0.0777102, -0.0636751, -0.0954281}, {-0.0832357, 0.0510473, -0.0682012}, {-0.077259, -0.0680795, -0.0710478}},{{0.0365644, -0.2163541, 0.0718738}, {0.1547458, -0.1572981, 0.1229965}, {0.2589505, -0.0093366, -0.0037901}},{{-0.1853794, -0.1680888, -0.0378463}, {-0.0598325, -0.1555706, -0.0851051}, {-0.0683287, -0.1855593, -0.145042}},{{-0.097784, -0.032861, 0.0386419}, {-0.043473, -0.2189302, -0.0864552}, {0.1667239, 0.0842893, -0.0619179}},{{0.3021059, -0.1020259, -0.2261705}, {0.1081831, -0.0152724, -0.0861766}, {-0.196606, -0.2164919, -0.1401895}},{{0.0582912, -0.0705577, -0.0143109}, {-0.0842298, -0.0298633, -0.0378761}, {-0.0553903, -0.1774604, -0.1484863}},{{0.144034, -0.1955039, -0.1342429}, {0.1274325, -0.095125, -0.0537142}, {0.0370553, -0.0352973, -0.1055439}},{{-0.0174468, -0.352169, -0.1765961}, {0.1185471, -0.0620456, -0.0427417}, {0.1854359, -0.2813856, 0.0850393}},{{0.0635835, -0.2155343, -0.0780693}, {0.0835044, -0.2004095, -0.0649159}, {0.0792454, -0.172675, -0.1432299}},{{-0.061298, -0.0764736, -0.0518022}, {0.0412027, -0.0014194, 0.0135098}, {-0.0317732, 0.0067757, -0.0134382}},{{0.0296586, 0.0231531, -0.0717679}, {-0.0389022, -0.0549475, -0.1427621}, {-0.0450003, -0.1356419, -0.177621}},{{-0.2145256, -0.002753, -0.1433564}, {-0.0317049, -0.0198807, -0.188549}, {0.0118619, -0.0502422, -0.1395086}},{{0.006693, -0.2213736, -0.0929621}, {0.054397, -0.1799449, 0.0278789}, {0.0784059, 0.067553, 0.0476389}},{{0.0795515, 0.0097346, -0.0717592}, {0.1064698, -0.0488521, -0.0879304}, {0.0632743, -0.0159226, -0.0023519}},{{0.0142945, -0.0155059, -0.0733682}, {-0.0391872, -0.0580186, -0.0676434}, {0.1040696, -0.0450467, -0.0050099}},{{-0.0001849, -0.1183576, -0.1237859}, {-0.1535131, -0.1026808, -0.0993564}, {-0.1046807, -0.0676493, 0.0333033}},{{-0.1575374, -0.1657016, -0.0664579}, {-0.0160787, -0.020225, -0.1304456}, {0.241617, 0.0022478, -0.1813914}},{{0.0505468, 0.00729, -0.0366113}, {-0.0550139, 0.1279537, -0.1565711}, {-0.0192683, -0.09492, -0.0569606}},{{-0.218789, -0.1537613, 0.0395304}, {-0.106334, -0.084507, -0.2819126}, {0.022521, 0.0745991, -0.1035688}},{{0.1932599, -0.0612697, -0.0118479}, {0.1286554, 0.0055072, -0.140323}, {-0.0928411, -0.0425788, -0.1384016}},{{-0.4736044, -0.3198982, -0.2074216}, {-0.2149432, -0.2341083, -0.0892244}, {-0.0295186, -0.104119, -0.0844925}},{{-0.0872553, -0.0474482, -0.1259766}, {-0.1473196, -0.2488955, -0.2214255}, {-0.4227493, -0.443295, -0.2180535}},{{-0.1289228, -0.090923, -0.0215379}, {0.0306591, -0.1767699, -0.0226261}, {0.0583356, -0.1755753, -0.0526132}},{{0.2085446, -0.0755664, -0.3664144}, {-0.0781536, -0.0408986, -0.1497788}, {0.1191172, -0.0179546, -0.0862661}},{{0.4805489, -0.1456426, -0.1239303}, {0.0354796, -0.1427205, -0.1487552}, {-0.0304161, -0.2092242, -0.1087063}},{{0.0477067, -0.1780819, -0.0477799}, {0.0055094, -0.0813563, -0.0982435}, {-0.0887401, -0.0995048, -0.1001486}}}
{{{-0.0980755, 0.1346722, -0.0690065}, {-0.1908396, 0.0633927, -0.0321056}, {0.0693479, -0.1906515, -0.161151}},{{-0.003923, -0.0568541, -0.127267}, {-0.0034858, 0.1086821, 0.1183465}, {0.0750805, -0.0246882, -0.0226238}},{{0.0616712, -0.2293679, 0.0625655}, {0.1545774, 0.1194824, -0.0320702}, {-0.0915985, -0.0903726, -0.0987436}},{{-0.0544461, 0.0559695, 0.0850518}, {-0.0618489, -0.0442404, 0.0674947}, {-0.0248124, -0.0316398, -0.0610617}},{{-0.0592481, -0.1538628, -0.2198764}, {0.1641856, -0.1193399, -0.0163202}, {-0.102578, -0.1917124, -0.0536676}},{{-0.1038577, -0.2359934, 0.0075054}, {-0.0427441, 0.0145629, 0.008628}, {-0.2148435, -0.0065479, 0.0366322}},{{0.0547431, 0.0606886, 0.0469703}, {0.053873, 0.0846575, 0.0408876}, {-0.0121911, -0.038257, 0.0305363}},{{-0.1850617, -0.1606527, -0.1798882}, {-0.2529613, -0.2387824, -0.2493266}, {-0.1762712, -0.3736295, -0.1825491}},{{-0.052357, 0.0547714, -0.0493111}, {0.0487737, 0.0668673, -0.0365968}, {0.0630021, 0.0897284, 0.0170152}},{{-0.0945445, -0.1307554, -0.0820222}, {-0.1329017, -0.2426322, -0.1971992}, {0.0785573, -0.2482227, -0.1671541}},{{0.0939519, -0.1471836, 0.0008084}, {-0.0644305, -0.0957482, -0.0167703}, {-0.1254599, -0.1628843, 0.0121881}},{{0.0551729, -0.0795772, -0.0009256}, {0.0457277, -0.2673482, -0.1856138}, {-0.1880308, -0.1496004, -0.0652893}},{{-0.1152485, -0.1368074, -0.0828438}, {-0.0891055, -0.0749386, 0.0927923}, {-0.1144469, -0.0025669, -0.0515097}},{{-0.0434746, 0.0930784, -0.0536935}, {-0.0700852, 0.020282, 0.0708678}, {-0.0941036, -0.0741643, 0.0421889}},{{-0.148278, 0.0021998, -0.0122288}, {-0.1290366, 0.0228575, -0.0414175}, {-0.0805996, -0.1143148, -0.0451707}},{{0.0945879, 0.0577721, -0.0916353}, {0.1586751, -0.1614984, -0.1233598}, {-0.0340984, -0.0364443, -0.0253467}},{{0.0106008, -0.0081939, 0.0595996}, {-0.0078621, -0.0431529, -0.0305985}, {-0.1037791, -0.1114043, -0.0506406}},{{0.0617525, -0.1220384, 0.08243}, {-0.0494211, -0.0009728, 0.0639793}, {-0.0396781, -0.0485343, -0.0040717}},{{-0.0200625, -0.2313033, -0.2342215}, {0.1390824, -0.0658543, -0.1221718}, {-0.0126989, -0.1424568, -0.0793742}},{{-0.2342658, -0.1968382, -0.0854215}, {-0.2114749, -0.4269218, -0.403747}, {-0.2434842, -0.397592, -0.3297458}},{{-0.1496419, -0.0139743, -0.196783}, {-0.3391681, -0.0898601, -0.058915}, {-0.0064389, -0.1433949, -0.0041645}},{{-0.049727, -0.0792765, 0.0727039}, {0.0400895, 0.0331476, 0.0451351}, {-0.0082608, -0.0755051, 0.0433091}},{{-0.1055372, -0.0078015, -0.0467275}, {-0.054672, -0.0836856, 0.0050086}, {-0.0731542, -0.098783, -0.0627603}},{{-0.1915067, -0.3465849, -0.3015887}, {-0.0266548, -0.2461466, -0.114119}, {-0.1044502, -0.0402519, 0.1516227}},{{-0.0289823, 0.0624104, 0.0535558}, {0.0018548, 0.0653234, 0.0121116}, {0.0074355, 0.0971403, 0.0641043}},{{-0.0122002, -0.1804644, -0.1341268}, {0.0471874, -0.2113859, -0.0945864}, {-0.0017214, -0.1087957, -0.0473527}},{{-0.060929, -0.0189569, 0.0024181}, {-0.1069622, -0.0862559, 0.1043559}, {-0.113239, 0.0169147, -0.0459296}},{{-0.0079014, -0.0237506, -0.080737}, {-0.0473271, -0.1297856, -0.0240929}, {-0.2124436, -0.1151378, -0.1456536}},{{-0.1400615, -0.1255236, -0.0208889}, {-0.0540531, -0.1511884, -0.1850442}, {-0.0242678, -0.0962926, 0.0741635}},{{0.0980056, -0.0686085, 0.0319868}, {0.0718928, 0.0059265, 0.0486438}, {0.0088367, -0.0276269, -0.0348872}},{{0.0565186, -0.0497854, -0.0519898}, {-0.073742, -0.0754718, 0.0776452}, {-0.0135819, 0.0288714, 0.0764073}},{{0.0023048, -0.2884814, -0.0940333}, {0.0197062, -0.1036996, -0.2788393}, {-0.0248196, 0.0319215, -0.1113918}},{{-0.0268119, 0.0270098, -0.0066479}, {0.0101847, -0.0109848, 0.1440512}, {0.0692242, -0.0234309, 0.0298412}},{{0.0410355, 0.0532826, -0.0515796}, {0.1137563, -0.0748355, -0.0204245}, {0.0253823, 0.0654695, -0.0218674}},{{-0.1327442, -0.1174826, -0.0793992}, {0.1397416, 0.0280552, 0.0801357}, {-0.1027739, -0.1303379, 0.0398396}},{{-0.2416494, -0.0897424, -0.2727513}, {-0.2765258, -0.0672086, -0.0846301}, {-0.2446185, -0.2947654, -0.1003098}},{{-0.1445357, 0.0204808, 0.020635}, {-0.0077467, -0.0443094, 0.0103835}, {0.0853165, 0.0256832, -0.0859131}},{{-0.0567748, 0.0231475, -0.0449885}, {-0.0783073, 0.0153087, -0.0002941}, {-0.0956842, -0.0439064, -0.056683}},{{0.0015182, 0.0555329, -0.1138583}, {-0.0817684, -0.067766, -0.0012139}, {-0.0609881, -0.000186, -0.0631985}},{{0.0305913, -0.1599092, -0.1912598}, {-0.0697894, -0.0822098, -0.0390781}, {-0.1333946, -0.2170465, -0.0849382}},{{0.0213499, 0.0732516, 0.0942704}, {-0.0223819, 0.1514422, 0.0138152}, {0.0347093, 0.0734488, -0.1243198}},{{-0.0996123, -0.1180362, -0.0116445}, {-0.1837458, -0.1164418, -0.092264}, {0.0121488, -0.0687549, -0.1355484}},{{-0.1675909, 0.0194634, -0.0420762}, {0.0122529, -0.0298389, -0.1714152}, {0.1305744, -0.1321456, -0.0290059}},{{-0.1387155, -0.1381629, 0.0143044}, {-0.1133785, -0.1033094, 0.0598933}, {-0.161095, -0.2089537, 0.0464142}},{{0.0831199, -0.0009622, -0.0427091}, {0.0221702, -0.0466467, -0.0573776}, {0.0781524, -0.11718, -0.0385019}},{{-0.0085457, 0.1504871, -0.1881254}, {-0.0528732, -0.1170048, -0.1900558}, {0.1080959, -0.0540308, -0.1625635}},{{-0.3289866, -0.2388045, -0.0541506}, {-0.1749315, -0.2452423, 0.0028132}, {-0.2287874, -0.1767474, -0.1450768}},{{-0.0548516, 0.0551845, 0.0713231}, {-0.0334699, 0.0480991, -0.0133909}, {-0.0126617, 0.0641734, 0.0739923}},{{-0.065329, 0.0425289, -0.0073903}, {-0.0749073, 0.0373345, -0.0374352}, {-0.0096847, 0.0103627, -0.0541684}},{{-0.048093, -0.1296304, 0.0308341}, {-0.0265352, -0.0462132, -0.0972652}, {0.049043, -0.002792, 0.0214383}},{{0.0399226, 0.1348167, 0.0316751}, {-0.0118333, -0.0661832, -0.041985}, {-0.1108745, -0.1604928, -0.0695605}},{{-0.012274, -0.0620158, -0.0061968}, {0.0523824, -0.0295961, 0.1097324}, {-0.0196837, -0.0557348, -0.0167174}},{{0.0705282, 0.0380463, 0.0951596}, {-0.1089324, 0.0453668, 0.0576632}, {-0.0502444, 0.0283856, 0.0804651}},{{-0.1237899, -0.1341088, -0.0996575}, {-0.1952093, -0.1216261, -0.0698883}, {-0.1272673, -0.1584197, -0.045126}},{{0.0221136, -0.0923001, -0.0431711}, {-0.1149698, -0.2222088, -0.3272718}, {-0.0025459, -0.1584971, -0.2081309}},{{-0.0648823, 0.1057505, -0.0455991}, {-0.010643, -0.111357, -0.0651967}, {0.0973659, -0.06263, -0.2201141}},{{-0.1313481, 0.0097276, -0.0855074}, {-0.0708056, 0.1713976, 0.2914859}, {-0.1345392, -0.1802742, 0.0842144}},{{0.0255223, 0.0165677, 0.0046261}, {-0.0287166, -0.088468, -0.0692804}, {-0.0247498, -0.0086398, -0.1242519}},{{-0.0248631, -0.1563271, -0.168133}, {0.0070225, -0.1873978, -0.1053331}, {0.0987905, -0.0571859, 0.005584}},{{-0.2500716, -0.0097524, -0.1466582}, {-0.129344, -0.1659083, 0.100458}, {-0.2175584, -0.0806034, 0.027813}},{{0.0612748, 0.0150223, 0.0485948}, {0.0622982, 0.0752006, 0.0401489}, {-0.086469, -0.0448919, 0.0412591}},{{-0.0673104, -0.2104002, -0.1216103}, {-0.117848, -0.233783, 0.0266766}, {-0.0481608, -0.1797542, -0.1307164}},{{-0.0592768, -0.0303989, -0.0063784}, {0.1106548, -0.102171, 0.1361314}, {-0.0740681, -0.0095895, 0.0569551}},{{0.0434423, -0.0597024, 0.0562344}, {0.0028589, 0.0017196, -0.0210588}, {-0.0654295, -0.0270108, 0.0491165}}}
{{{0.0260335, -0.2710479, -0.2348215}, {0.0572793, -0.0535469, -0.1730802}, {-0.1670696, -0.0482165, -0.1515783}},{{-0.0672278, -0.0989786, -0.0078644}, {-0.04455, -0.0958708, -0.1180062}, {0.2290983, 0.0668525, -0.1102319}},{{0.1839453, -0.0298319, -0.023205}, {-0.0768304, -0.0350205, -0.1128666}, {0.0215804, 0.0273725, -0.1748766}},{{-0.0931203, -0.04666, -0.0946783}, {0.0009349, 0.0366918, 0.0151504}, {-0.0204162, -0.0374868, -0.0501215}},{{0.0172749, -0.2814834, 0.075374}, {-0.1807086, -0.0513262, -0.0248326}, {-0.1134687, -0.1086676, -0.1107391}},{{-0.1366784, -0.115616, -0.2006225}, {-0.1265037, -0.0987698, 0.0289993}, {-0.0824105, -0.2082028, 0.0636276}},{{-0.1205666, -0.1850026, -0.1208559}, {0.1275351, -0.0441219, -0.0720621}, {0.177247, 0.1661892, 0.0867769}},{{-0.1642821, -0.1263293, -0.3578962}, {-0.063914, -0.0005856, -0.1467905}, {-0.1603004, -0.0047703, -0.2325992}},{{0.0037836, 0.0470654, -0.0187337}, {-0.0433383, 0.0249786, -0.0767943}, {-0.0305833, -0.0637542, -0.0236145}},{{0.1403393, -0.1442418, -0.0006856}, {-0.0859504, 0.0716397, 0.064903}, {0.0439723, -0.0476268, 0.0654208}},{{0.0290989, -0.0520626, -0.0395234}, {0.0430889, -0.0603039, -0.031927}, {-0.0166798, -0.1519527, -0.1713557}},{{-0.0959624, -0.0945181, -0.125663}, {0.0896196, -0.0854739, -0.0547471}, {-0.0915987, -0.2139998, -0.1046896}},{{0.067149, 0.02615, -0.0188187}, {-0.0830195, 0.1497676, -0.0155474}, {0.0341969, -0.042015, -0.0842183}},{{-0.056772, -0.0834964, -0.0056199}, {-0.0702222, 0.0608893, -0.09715}, {-0.0626904, -0.0881266, -0.0403135}},{{-0.099586, 0.2120609, 0.0173626}, {0.0220759, -0.1977821, -0.0531663}, {-0.011764, -0.1393255, 0.0040513}},{{-0.0454483, -0.1167152, 0.0278572}, {0.0742613, 0.1158119, -0.0686273}, {0.0897027, 0.0867343, -0.1097714}},{{-0.0456808, -0.0939956, -0.0036173}, {0.000715, 0.0670622, -0.0909325}, {-0.0459892, 0.0182889, -0.0616726}},{{-0.0053672, -0.0068281, 0.0376344}, {0.1013468, -0.0658924, -0.0607204}, {-0.0149655, 0.0319985, -0.0074668}},{{-0.122842, -0.0366737, -0.2663746}, {-0.3018631, -0.0946877, -0.1783571}, {-0.2509531, -0.0247835, -0.077133}},{{0.0440532, -0.1481596, -0.1817224}, {-0.0810486, 0.1207537, -0.1563226}, {-0.3276413, -0.0789234, -0.2333056}},{{-0.0675233, -0.0163631, 0.1084296}, {0.2729391, 0.0528905, -0.1953285}, {-0.0842322, 0.0264334, 0.0711105}},{{-0.0081699, -0.003705, -0.0007366}, {-0.0150776, 0.0258831, -0.1195725}, {-0.0111025, -0.1072832, -0.0768291}},{{-0.0137819, -0.1135358, -0.0302791}, {0.0026624, -0.0537044, -0.0802325}, {0.026723, -0.0833923, -0.1244585}},{{0.0742505, -0.102465, -0.1567043}, {-0.2005956, 0.0216664, -0.0577315}, {0.0392583, 0.056804, -0.3200981}},{{0.0149925, -0.0519614, -0.0756087}, {0.0251209, -0.0160305, -0.0627124}, {-0.1008341, 0.0046135, 0.0891808}},{{-0.0098804, -0.0110474, 0.0273453}, {-0.202262, -0.0585916, -0.0475576}, {0.0013625, 0.1157222, -0.0950212}},{{0.0958816, -0.045645, 0.0031811}, {-0.0777674, -0.1007934, 0.0576615}, {0.0342707, -0.093384, -0.0590533}},{{0.0318297, -0.1971866, -0.0513649}, {-0.0592732, -0.0444956, -0.2010669}, {-0.2298104, -0.1739202, -0.2619238}},{{0.0278059, -0.0457231, -0.0749437}, {0.1697591, 0.1007929, -0.0129455}, {-0.0314145, -0.0534697, -0.1339613}},{{0.0015842, 0.0567985, 0.0499554}, {-0.0365659, -0.0609638, 0.0285699}, {0.0453151, -0.003774, 0.0181713}},{{-0.0635042, -0.0535325, -0.0950101}, {-0.0022355, 0.0523978, -0.1150907}, {0.06198, -0.0491575, -0.0430055}},{{-0.0946152, -0.0267001, -0.0858297}, {-0.0498805, 0.0334111, 0.0504943}, {-0.1488005, -0.1496305, -0.2607186}},{{-0.0395061, -0.0092417, -0.0547946}, {-0.0591925, -0.0079405, -0.010678}, {-0.0996365, -0.1199253, -0.085988}},{{0.1048191, -0.0056698, 0.031645}, {0.0924557, -0.0550954, 0.0429155}, {-0.069079, -0.1329837, -0.1388058}},{{-0.1466022, -0.0633158, 0.0520277}, {0.0249486, -0.0388771, -0.061177}, {0.142568, 0.0172531, -0.0338857}},{{-0.0325437, -0.3445757, -0.1216051}, {-0.2253044, -0.0285923, -0.1718136}, {-0.2377406, -0.0293473, -0.3718357}},{{0.021589, 0.0348136, 0.0410712}, {-0.0503059, 0.0247198, 0.019982}, {-0.0676067, -0.083429, -0.1504116}},{{0.0292071, -0.0290117, 0.0116757}, {-0.0630784, 0.0745521, -0.1036206}, {-0.0441605, -0.0961213, -0.0027463}},{{0.0232343, -0.0295574, 0.0208122}, {0.0564055, 0.012151, 0.0277412}, {-0.0008838, -0.0580567, -0.104431}},{{-7.3e-06, -0.1027225, -0.1390088}, {-0.1713279, -0.1559139, -0.2400435}, {-0.0282873, -0.0378546, 0.0317541}},{{-0.0753085, 0.1774583, 0.0176837}, {0.0331373, 0.0101266, -0.1024917}, {0.302743, 0.0882652, -0.2004802}},{{-0.2256773, -0.1284242, 0.0464244}, {-0.0785297, -0.0754953, -0.0486146}, {-0.0288303, -0.0701335, -0.0694614}},{{-0.0494011, -0.0629895, 0.0361274}, {0.0421556, 0.0563995, 0.06786}, {-0.1609276, -0.2533488, -0.3469942}},{{-0.003526, -0.2091575, -0.0018398}, {0.0408681, -0.0096044, -0.1299808}, {-0.0353721, -0.1597631, -0.0562435}},{{0.0664846, -0.0068078, -0.0514363}, {0.0010862, -0.0334047, 0.0819881}, {-0.1195592, -0.0483423, -0.0163592}},{{-0.0095261, -0.049572, -0.1026912}, {-0.0337356, -0.0849769, 0.0396834}, {-0.0950726, -0.0032218, 0.373551}},{{-0.0085025, -0.0701501, -0.207265}, {-0.0535379, -0.0216653, 0.0014676}, {-0.0985786, -0.2350631, -0.3052283}},{{-0.036091, -0.0600531, -0.0190602}, {-0.0144884, -0.0633925, -0.0816109}, {-0.0690771, 0.0277831, -0.0714105}},{{-0.010146, -0.0773955, 0.0328499}, {-0.0286936, -0.0279458, -0.050036}, {-0.030836, -0.0156866, -0.0161281}},{{0.0190813, -0.0387355, 0.0760084}, {-0.0465157, 0.0160655, -0.1812737}, {-0.1661716, -0.0517343, 0.0036198}},{{-0.0501736, -0.0802056, 0.0535038}, {-0.0200564, -0.107908, -0.036511}, {-0.0359808, 0.0336122, 0.1108772}},{{-0.0035669, -0.0437071, -0.0411951}, {-0.0404258, 0.0572919, 0.021767}, {0.0195981, -0.0164822, -0.0338106}},{{-0.0709758, -0.0776243, -0.0845287}, {-0.0096605, -0.0092371, -0.0428571}, {0.1469767, 0.0004669, -0.0742552}},{{0.0161028, 0.0385339, 0.1771121}, {0.0782266, 0.1060975, -0.2077938}, {-0.0007695, -0.0663423, -0.1493777}},{{-0.1105572, -0.2589146, 0.0800006}, {0.1491374, 0.0478194, 0.0242663}, {-0.0946112, -0.2053137, -0.0487467}},{{-0.0103945, -0.0356137, -0.077294}, {-0.1500292, -0.0577329, -0.1208553}, {-0.1600782, -0.0817481, -0.1277853}},{{-0.272394, -0.0552845, -0.0190809}, {0.062818, -0.2995978, 0.104944}, {0.3651186, 0.2326362, 0.1678091}},{{0.1023124, 0.0181827, -0.0743877}, {-0.011059, -0.0302479, 0.0111413}, {-0.1046645, -0.0974447, -0.0016385}},{{0.0489853, -0.0077897, -0.0532904}, {-0.1802274, 0.0006828, -0.1015575}, {-0.1218444, -0.0110421, -0.0834616}},{{0.0604449, -0.1260017, -0.1128894}, {-0.1022909, -0.0671483, -0.214719}, {0.0755325, 0.0451718, -0.0787103}},{{-0.0307288, -0.0274712, -0.0515132}, {0.0383433, -0.0083602, -0.0040102}, {0.0242422, -0.0197889, 0.0799202}},{{0.1034897, -0.1132289, -0.1414236}, {-0.1888881, -0.0024934, -0.0407415}, {-0.0226115, 0.1990335, 0.1268674}},{{-0.0131537, -0.0368648, 0.0344686}, {-0.0687223, -0.0790082, -0.0525336}, {-0.0173139, -0.0450543, -0.0943795}},{{-0.0427712, 0.0234653, -0.0947652}, {-0.0102414, -0.0415568, -0.2143829}, {-0.1341141, -0.0520084, -0.1142832}}}
{{{0.0741275, 0.0207446, 0.0140899}, {0.0969332, 0.1669524, -0.0728275}, {-0.2610253, -0.0698209, -0.0571912}},{{0.0220965, -0.0017353, -0.0181554}, {-0.0140756, 0.1119411, -0.0083612}, {-0.0771694, -0.0388405, -0.1245478}},{{0.1333674, -0.1085002, 0.1687136}, {-0.0438101, -0.0253844, -0.1316811}, {0.0139371, -0.0134533, -0.1053218}},{{0.0431826, 0.0690458, 0.0613871}, {-0.0769881, 0.0734923, -0.0517404}, {-0.0662651, -0.0471035, -0.0754769}},{{-0.0624268, -0.3144873, -0.1504742}, {-0.4024314, -0.2426647, -0.1876833}, {-0.3196401, -0.1416106, -0.1259432}},{{-0.0459837, 0.0200289, 0.0154015}, {-0.2919977, -0.0316021, 0.0567464}, {-0.0170168, -0.0606004, -0.10853}},{{0.0866757, -0.0795334, 0.0664511}, {-0.1001527, -0.1502212, -0.0536942}, {-0.0504245, 0.03034, -0.0631457}},{{-0.068564, -0.1448334, -0.1930898}, {-0.3298584, -0.1474104, -0.2337963}, {-0.0559173, -0.0580344, -0.1226284}},{{-0.099054, 0.0241608, -0.0057114}, {0.0283068, 0.0001447, 0.0426712}, {0.0031109, 0.0708773, -0.038741}},{{0.0483043, -0.04089, -0.1643867}, {-0.0911007, -0.1299351, -0.1225188}, {-0.016273, -0.1448133, -0.0679394}},{{-0.0148524, -0.0698537, 0.0031759}, {0.0396694, -0.0759665, 0.0370882}, {0.0590672, -0.0247463, -0.0242628}},{{0.183906, 0.0442032, 0.0770288}, {-0.326615, -0.3541049, -0.1550281}, {-0.0116626, -0.5139088, -0.2439841}},{{0.017822, 0.1148025, -0.0537782}, {-0.0448436, -0.1362069, 0.0586839}, {-0.0114707, -0.086519, 0.1516145}},{{-0.0847332, -0.063693, -0.075879}, {-0.114106, 0.0358623, 0.0645303}, {-0.1103709, -0.0703285, 0.0131919}},{{0.1554601, -0.206456, 0.1420778}, {0.209119, -0.2100273, -0.3569875}, {0.2927536, -0.1735957, -0.1749659}},{{-0.0775093, 0.0824862, -0.1212001}, {-0.0668027, 0.031318, -0.0278539}, {0.0321075, -0.0098142, 0.0917932}},{{-0.0273693, -0.0172714, -0.0345419}, {-0.0677529, 0.0394828, 0.0841813}, {-0.015737, -0.1143753, -0.0165765}},{{-0.0604244, -0.0717424, 0.0500206}, {0.0288583, -0.054202, 0.0527127}, {0.0122295, 0.0070755, -0.0202771}},{{0.1063407, 0.1466386, -0.2319264}, {0.065322, -0.2250888, -0.1685802}, {0.0759396, -0.4260857, -0.173737}},{{0.14323, 0.2179916, 0.1853133}, {-0.1708004, -0.1469515, -0.1249006}, {-0.3420704, -0.2245113, -0.1387688}},{{-0.2218878, -0.3930977, 0.0552025}, {-0.0196045, -0.0534507, -0.0467511}, {0.0437814, -0.096709, -0.0458547}},{{-0.0524921, -0.043653, 0.0266303}, {-0.0211095, -0.0713538, -0.0166011}, {-0.0633572, 0.0408074, 0.024688}},{{-0.0451116, 0.0986143, 0.0010168}, {-0.0086699, 0.0666571, -9.62e-05}, {-0.1491292, -0.0543826, 0.0726752}},{{0.0593603, -0.1437577, 0.1444806}, {-0.136481, 0.0628621, 0.0187285}, {-0.1013208, 0.0330454, 0.0774771}},{{0.0222385, 0.0667715, 0.0838044}, {-0.0037384, -0.0200493, 0.0372885}, {0.0662503, -0.0538321, -0.0843422}},{{0.1554774, -0.223084, -0.0846818}, {-0.2394165, -0.3632932, -0.2599047}, {-0.4051315, -0.3226829, -0.2428985}},{{0.045837, -0.0299262, 0.0422181}, {0.0308867, 0.0027019, 0.0264829}, {0.0835914, 0.0429527, 0.0782568}},{{0.1237697, -0.0834273, 0.1616836}, {0.0070354, -0.0958911, 0.1392507}, {0.0734297, -0.0952117, -0.0898182}},{{0.2040774, -0.0274702, -0.0194818}, {0.212809, 0.1364148, -0.0745004}, {0.0746416, -0.0243365, -0.2767457}},{{0.0437078, -0.0762506, 0.0411849}, {-0.0350568, -0.0073625, -0.0291178}, {-0.0127872, -0.0491818, -0.0241303}},{{-0.0403023, -0.0369375, -0.0523651}, {0.0426484, -0.0692862, -0.0112279}, {0.0334753, -0.0053651, 0.0568372}},{{0.1296572, 0.053816, -0.1970525}, {0.0861518, -0.0510013, -0.0637937}, {0.1765118, 0.1622683, -0.2902144}},{{-0.0736699, -0.0048403, 0.1583097}, {-0.0042447, -0.014521, -0.0078351}, {0.0240696, 0.0046786, -0.0009861}},{{0.0516702, -0.045849, 0.0588362}, {0.0926162, 0.0118967, -0.00842}, {0.0942103, 0.0374611, 0.0679179}},{{0.1036542, 0.0294902, -0.0703804}, {0.1209288, -0.1724345, 0.0321977}, {0.2064618, 0.0465222, 0.0765131}},{{-0.0705603, -0.1386711, -0.0972013}, {-0.2555486, -0.137799, -0.0620267}, {-0.1666108, -0.0794456, 0.0339063}},{{-0.0575767, 0.0478494, 0.067432}, {0.0216756, -0.1088383, 0.0731498}, {0.0512894, -0.0044518, -0.0478755}},{{0.0402967, -0.0251341, 0.0645296}, {-0.062728, -0.0402844, 0.0659278}, {0.0280191, -0.0470244, 0.0274598}},{{-0.0260058, -0.0650796, 0.0444842}, {0.0500772, 0.0101442, -0.0312724}, {0.0195891, 0.0704947, 0.032472}},{{0.0021049, -0.0746318, 0.1526697}, {-0.3729766, -0.2871322, -0.0404978}, {-0.2929638, -0.5719507, -0.2904586}},{{-0.1134875, -0.0672478, -0.006236}, {-0.1695235, -0.1265451, -0.1508735}, {-0.1270197, -0.0705995, -0.0674467}},{{0.0407483, 0.1048734, -0.2113438}, {-0.5342026, -0.350871, 0.013193}, {-0.0498216, -0.169332, -0.0692658}},{{-0.085317, -0.1733823, -0.1975336}, {0.0599296, -0.0278692, 0.0045159}, {0.1834985, -0.118112, -0.0259391}},{{0.0341588, -0.006294, -0.1161882}, {-0.2656895, -0.0333815, -0.051759}, {-0.0392621, -0.1530287, 0.1169048}},{{0.0039444, -0.0494565, -0.0282826}, {0.0228265, -0.1647414, -0.0258441}, {0.0902722, -0.0543647, -0.0995257}},{{-0.0735346, -0.2117412, -0.2289928}, {-0.0812925, -0.3590651, -0.0117841}, {-0.4927863, -0.2418624, -0.1289482}},{{-0.1170607, -0.0924405, -0.0390581}, {-0.2899717, -0.2293336, -0.0536423}, {-0.20944, -0.1491439, -0.0646234}},{{-0.0420328, -0.03993, 0.085032}, {-0.0274045, -0.0054619, -0.007976}, {-0.033831, 0.0303277, 0.0286443}},{{0.0242764, -0.0632519, 0.0093919}, {-0.0455693, 0.0194127, -0.0028498}, {-0.0411481, 0.0704217, 0.0900788}},{{0.1205191, -0.1044921, -0.0309943}, {0.2346963, -0.0076552, -0.1429473}, {0.2607483, -0.2639773, -0.3660276}},{{-0.0330445, 0.069611, -0.0166327}, {0.0458593, -0.1471204, -0.046994}, {-0.0011452, -0.2331352, -0.0155428}},{{-0.0614048, -0.0383374, 0.1037159}, {-0.0714328, -0.0264793, 0.0558874}, {0.074921, 0.0227584, 0.0499521}},{{0.0087364, 0.0465326, -0.0663978}, {0.0084481, 0.0401314, 0.0325184}, {-0.0181041, 0.0735241, 0.0382791}},{{0.0898826, 0.0471241, 0.1389361}, {0.0707821, 0.1056303, 0.0882009}, {0.1423961, 0.0863841, -0.2364}},{{-0.0437278, -0.1913888, -0.0308901}, {-0.0465481, 0.0517206, -0.1264291}, {-0.1541211, -0.1172962, -0.0553494}},{{-0.1574716, -0.0784224, -0.0864699}, {-0.1374366, -0.1833631, -0.0942245}, {0.0367325, -0.0282195, -0.2203451}},{{0.0613009, 0.2221393, -0.1655907}, {-0.0352856, -0.0197385, -0.1124103}, {0.0909914, 0.1988719, -0.0556151}},{{-0.0534321, -0.0529777, -0.0219049}, {-0.0449217, 0.0180605, -0.0788856}, {-0.0281392, -0.0261453, -0.0145957}},{{0.0129977, -0.0801632, -0.0951417}, {-0.1845593, -0.2405778, -0.1612633}, {-0.2484679, -0.2604296, -0.1823907}},{{-0.1923144, -0.090102, -0.1207737}, {-0.2456127, 0.0008436, -0.1852368}, {-0.1143439, 0.0538909, -0.145287}},{{0.0396513, -0.0449852, 0.014507}, {0.0561514, -0.0731348, 0.0253249}, {0.0074242, -0.0635113, 0.0532893}},{{-0.1627075, -0.1168538, 0.0477361}, {-0.0251303, -0.001535, -0.060816}, {-0.0666159, -0.2424934, -0.0550527}},{{-0.0575778, -0.0241238, 0.1429622}, {-0.0850765, 0.0439462, 0.2203075}, {0.1915766, -0.0441476, -0.0086905}},{{-0.0212297, 0.0476854, -0.0830995}, {-0.0080607, -0.0137653, -0.0197406}, {0.079426, -0.0210792, 0.0265351}}}
{{{-0.2880985, -0.157212, 0.0152558}, {0.0275978, -0.2661309, -0.2962391}, {-0.065802, -0.1309187, -0.2294465}},{{0.0953175, -0.0120141, -0.05612}, {0.0902568, -0.1052525, 0.052634}, {-0.0291333, -0.1153878, -0.0752126}},{{-0.2751076, -0.0960418, -0.0081853}, {-0.0771033, 0.1660901, 0.0061699}, {-0.2550989, -0.1907857, -0.1942203}},{{0.0478559, 0.0857401, -0.1920274}, {0.1374791, 0.0327196, 0.0139474}, {-0.0512826, -0.0535792, -0.0891782}},{{0.0441205, -0.102881, -0.3762057}, {-0.0511042, 0.2856116, -0.3264464}, {-0.0470076, -0.186509, -0.254559}},{{-0.2023924, -0.3250967, -0.2582054}, {-0.1951366, -0.151329, 0.0192988}, {-0.1312054, -0.1253405, -0.041255}},{{0.0106217, -0.1825154, -0.2313215}, {0.2780891, -0.2971974, -0.014909}, {-0.0445801, -0.1616756, -0.0128818}},{{0.0145337, -0.4404182, -0.463335}, {0.0104772, -0.6680924, -0.4753378}, {-0.1260424, -0.3444643, -0.2256049}},{{0.0220252, -0.0363437, -0.0032148}, {-0.0643315, 0.0634177, -0.0246279}, {-0.0257876, 0.0116598, -0.0201308}},{{-0.1530932, -0.1382943, -0.1311694}, {-0.2378519, -0.0999044, -0.096497}, {0.2147993, 0.1553808, 0.0220395}},{{-0.0045818, -0.1722839, -0.160382}, {0.0049739, -0.3066929, -0.0125073}, {-0.146805, -0.0080898, -0.0349635}},{{0.1613192, 0.0336006, 0.0056909}, {-0.0595523, -0.0689139, -0.0998218}, {-0.0760572, 0.027268, -0.0485349}},{{-0.1031215, 0.1313407, -0.1768853}, {-0.1087879, -0.1848381, -0.2960373}, {-0.0385921, -0.3010538, 0.1575692}},{{-0.0549731, 0.0492158, -0.1713105}, {-0.0484949, 0.1355995, -0.0618507}, {0.0280164, 0.0720795, -0.0753445}},{{-0.0214843, -0.0184153, -0.2631454}, {0.0378807, -0.1168318, 0.0713267}, {-0.0518337, -0.0424553, -0.0590574}},{{0.2127233, -0.180596, -0.2409766}, {0.0909252, -0.1868649, -0.1360513}, {0.1058301, 0.009665, 0.0208312}},{{-0.1188131, -0.0802493, -0.0626705}, {-0.0534059, 0.0479326, -0.0795045}, {0.0492224, 0.0008165, -0.0990768}},{{-0.0289872, -0.1676776, -0.0562087}, {0.0414525, -0.140437, -0.0563998}, {0.0402697, 0.0302426, 0.0017035}},{{0.0616652, 0.1099615, 0.1115383}, {-0.0245493, 0.1962464, 0.0183033}, {-0.0518971, 0.1446859, -0.1966442}},{{0.0307477, 0.1168311, -0.0041035}, {0.0963457, 0.089423, -0.1352263}, {0.1703268, 0.2248103, -0.0476901}},{{-0.2010685, -0.0691441, 0.1608834}, {0.1295773, -0.0674373, -0.0383468}, {-0.0332057, 0.1318892, -0.0391992}},{{-0.0388757, -0.1220584, 0.0073351}, {-0.1083866, -0.0925929, -0.0320701}, {-0.1092258, -0.0111706, -0.0188375}},{{-0.0796547, 0.0171517, -0.0632662}, {0.0331971, 0.0568093, -0.2404364}, {0.1493546, 0.0366395, -0.134294}},{{0.0391709, 0.0632125, -0.1874726}, {-0.1831857, 0.0047484, -0.2087511}, {-0.1012504, -0.1419739, 0.1266138}},{{0.0476097, -0.0272469, -0.0425737}, {-0.0129477, -0.0279063, -0.1173197}, {-0.0386239, -0.0817231, -0.0955095}},{{0.1391048, 0.1802266, -0.3190343}, {0.1601327, 0.2646075, -0.3173044}, {-0.0668198, -0.1002106, -0.2754774}},{{-0.0021414, -0.057235, -0.1121231}, {-0.1078669, -0.1332224, -0.127931}, {-0.0270137, 0.0533748, -0.0350343}},{{-0.0184833, -0.3252105, 0.1058177}, {-0.0540727, 0.0951204, -0.0283864}, {-0.0736201, -0.1331224, -0.1976424}},{{-0.0039423, -0.0222693, 0.1170728}, {0.0987568, 0.213188, -0.0327125}, {-0.0803132, -0.1391917, -0.1594281}},{{0.0833423, 0.0224647, 0.0143092}, {-0.1211578, -0.1442155, -0.035823}, {-0.0925083, -0.0659452, 0.0065671}},{{-0.0507679, -0.0174987, -0.031625}, {0.0288873, 0.0432058, -0.0066826}, {0.0356719, 0.0792097, 0.0159446}},{{-0.1854981, 0.0313874, -0.0104874}, {-0.1308365, 0.1911135, -0.1162341}, {0.0152183, 0.1061215, 0.0496583}},{{-0.1767864, 0.0192073, -0.1013241}, {0.0541138, -0.1137708, -0.0017971}, {-0.0844438, -0.071844, -0.0982666}},{{0.0373173, 0.0764996, -0.0826065}, {-0.016739, 0.0499256, -0.0736599}, {0.0019776, 0.0774467, -0.024141}},{{0.1441416, -0.3950462, 0.0423014}, {-0.1590081, -0.0990807, -0.0933603}, {-0.0078699, -0.132586, -0.2321544}},{{0.0198403, -0.1553978, -0.0853699}, {-0.0702981, -0.3382688, -0.287727}, {-0.0661214, -0.3950863, -0.1573223}},{{0.0955513, -0.1053968, -0.0270925}, {0.0318476, 0.1148248, 0.0035327}, {-0.0776893, -0.1564858, -0.1215285}},{{-0.0529215, -0.0989617, -0.081656}, {-0.1439219, -0.0408095, 0.0545825}, {-0.0230578, -0.0692895, -0.1184238}},{{-0.0758019, -0.0148065, 0.0039892}, {-0.044955, -0.0362142, -0.1046883}, {0.0012418, 0.0855538, -0.104875}},{{0.0399341, -0.0085386, -0.1738248}, {0.0597964, -0.0324858, -0.3664019}, {-0.0421402, 0.1206779, -0.0452507}},{{0.0448199, -0.060616, -0.1548005}, {-0.0099222, -0.04138, 0.1026782}, {-0.1306126, -0.0444368, 0.0837205}},{{-0.0516481, -0.0717135, -0.2296869}, {0.2398547, 0.098226, -0.0535856}, {0.0083098, 0.0963273, -0.0649041}},{{-0.2242225, -0.2213327, 0.0205403}, {-0.074712, 0.0638463, -0.1936127}, {-0.0419391, 0.1033983, -0.0164647}},{{0.1513119, -0.018533, -0.1395735}, {0.1640692, 0.1015504, -0.1474863}, {0.0219263, 0.0522149, -0.1613924}},{{0.0123944, -0.0289288, 0.0216002}, {0.0092837, 0.0648817, -0.0230641}, {-0.1378169, 0.044631, -0.0446866}},{{-0.0005099, -0.6614222, 0.0195132}, {-0.1610136, -0.1365709, -0.0258854}, {-0.1108918, -0.1991397, -0.3370221}},{{0.1259302, -0.0564655, -0.1641952}, {0.1505978, -0.0475369, -0.1405612}, {0.0118315, -0.1147173, -0.1114154}},{{0.0289988, -0.0706609, 0.0046325}, {-0.0354002, -0.0391694, 0.0442844}, {-0.032729, 0.0616124, 0.0784195}},{{-0.0780095, -0.0682335, -0.0937618}, {-0.0442336, -0.1068261, -0.0505869}, {-0.1136351, -0.0803859, 0.0112502}},{{-0.2780122, -0.1556882, -0.041845}, {-0.1953999, 0.0836379, 0.2253957}, {-0.0791704, 0.2373974, 0.0844026}},{{0.1181578, -0.1258732, -0.0353706}, {0.072259, -0.1202055, 0.1060469}, {-0.0386893, -0.0097171, -0.1740718}},{{-0.0300723, 0.055526, 0.0453221}, {-0.0953242, -0.0402095, 0.027207}, {0.017723, -0.0720865, 0.2309447}},{{0.0626214, 0.0421271, -0.0073641}, {-0.0167837, -0.0891994, -0.1178103}, {-0.0463328, -0.0880619, -0.1407522}},{{-0.1438946, -0.0242678, 0.0118337}, {-0.0837559, 0.0744002, 0.0035941}, {0.0142763, 0.1539334, -0.0179715}},{{0.2103118, 0.0258255, -0.6570755}, {0.2312955, -0.5558515, -0.3673463}, {-0.2529345, -0.1616915, -0.1079096}},{{-0.1620397, -0.1628572, -0.1888143}, {0.0429521, -0.0039629, -0.1681184}, {-0.2438391, -0.2773003, -0.1682822}},{{0.0970131, -0.0545219, -0.162655}, {0.138575, -0.1604454, 0.2523938}, {-0.3248463, -0.2207144, -0.0994711}},{{-0.097141, -0.1306188, -0.0108043}, {0.0267672, -0.0737311, 0.0359897}, {-0.1317538, -0.1178159, 0.0218412}},{{0.072321, 0.3494216, -0.0654008}, {0.2691734, 0.2758986, -0.1760914}, {-0.1028725, -0.0902607, -0.3751736}},{{-0.0780601, -0.0507258, -0.1463352}, {-0.0080176, -0.0081738, -0.1535397}, {-0.0312792, -0.088874, -0.1092257}},{{-0.0164699, -0.1219412, -0.1553235}, {-0.0194329, -0.0803416, -0.0137992}, {-0.0453107, 0.085294, 0.0640985}},{{-0.0703444, -0.2771406, -0.0831656}, {0.0015022, -0.0406222, -0.0610495}, {0.0434809, -0.1925536, -0.2373152}},{{-0.0752218, 0.0753003, -0.1897166}, {-0.1755912, -0.1227616, 0.0132032}, {-0.1551258, -0.3664126, -0.1024563}},{{-0.1117603, -0.1814817, -0.0622037}, {-0.1163849, -0.1143131, -0.0038037}, {-0.0200531, -0.1685933, -0.0343407}}}
{{{-0.0942326, 0.0202816, -0.2102627}, {0.0688608, -0.1010916, 0.2505828}, {-0.157255, -0.2054902, 0.0814694}},{{-0.0135063, 0.0180151, 0.0463428}, {-0.0480652, -0.0719649, 0.0056095}, {-0.1345932, 0.0049129, 0.026895}},{{-0.0248434, 0.1274215, 0.0673872}, {0.107883, 0.1887796, -0.0493231}, {0.116572, -0.0195584, 0.0766413}},{{0.0441003, -0.0465362, -0.058967}, {-0.0138491, -0.099116, 0.0188777}, {0.0515904, -0.0283793, 0.0748381}},{{-0.1182435, -0.0765305, -0.2808087}, {0.2060132, 0.0167162, -0.3912058}, {-0.2459233, -0.3516457, 0.0228016}},{{0.2046828, -0.0551264, 0.0773456}, {0.0988787, 0.1372503, 0.2236261}, {-0.1416048, 0.015748, 0.2100427}},{{0.0761498, -0.1004367, 0.1669486}, {0.1279944, -0.1582769, -0.0755104}, {-0.0819218, -0.1856367, 0.1229478}},{{-0.3701126, -0.3661152, 0.0592569}, {-0.1288279, -0.386502, -0.0766008}, {0.1020415, -0.0263572, -0.350825}},{{0.0260721, 0.0393544, 0.0257567}, {-0.0366011, 0.0193136, -0.0655591}, {0.1214786, -0.0226836, 0.0058078}},{{0.0366861, 0.1956154, -0.0266901}, {-0.2384829, 0.0900823, 0.0718252}, {-0.1056573, -0.0040146, -0.2493029}},{{0.0217136, 0.0159815, -0.0005214}, {-0.0858659, -0.0366427, 0.0273233}, {0.0437518, -0.0574488, -0.0574838}},{{-0.0297348, 0.0133477, -0.0789311}, {-0.126868, 0.0822317, -0.1914537}, {0.1535774, 0.020997, -0.2868114}},{{0.1329848, -0.0945324, 0.0959412}, {-0.1713185, 0.0447034, 0.082302}, {-0.0359133, -0.0954274, 0.1750113}},{{-0.0851138, -0.0696315, -0.0093041}, {0.0318231, 0.0264124, 0.111455}, {-0.0687138, -0.0480949, -0.0141925}},{{-0.0908888, 0.000565, 0.0887773}, {-0.0502274, -0.051797, 0.0468081}, {-0.0542762, 0.0731615, -0.1340536}},{{-0.1041907, -0.1732405, 0.0782371}, {-0.0450963, -0.0338766, 0.0349188}, {-0.0012759, 0.0117265, 0.1395217}},{{0.0740346, -0.1526667, 0.0532955}, {0.0776311, 0.025217, 0.155624}, {-0.0685244, -0.0603168, -0.039819}},{{-0.0349946, -0.0527533, -0.0832457}, {0.0224219, 0.011108, 0.0260152}, {0.0384018, -0.0093712, -0.0661077}},{{0.2536748, 0.2051264, 0.0908596}, {0.0356701, 0.1299914, 0.0126023}, {-0.1223543, -0.4039149, -0.0960627}},{{-0.0207936, -0.1763504, -0.2159886}, {0.117024, 0.1014023, -0.0264556}, {0.0889968, -0.4605619, -0.356807}},{{-0.3510301, 0.1291775, -0.1553503}, {0.068918, -0.0800656, -0.08388}, {-0.0230333, 0.0593242, 0.141239}},{{-0.0573147, 0.0475988, 0.0314172}, {0.0105496, -0.0033048, -0.0987272}, {0.0268014, -0.0308766, -0.0409291}},{{0.0953581, -0.0430012, 0.0139066}, {0.1375289, -0.1027744, 0.0068184}, {0.0043596, -0.0613338, 0.056052}},{{0.2128847, -0.1320022, 0.0370414}, {-0.0223928, -0.0063052, 0.0736009}, {-0.2385988, -0.0111807, 0.1802799}},{{-0.0639223, 0.0355712, 0.0614478}, {0.0264437, 0.0274216, -0.0341259}, {-0.0297359, 0.0898115, -0.0272494}},{{0.131643, 0.0114458, -0.3901932}, {0.2341134, -0.0432415, -0.288839}, {-0.2255886, -0.4876154, -0.0001176}},{{0.0559183, -0.0853726, -0.2026655}, {0.0211887, 0.0324425, -0.0900756}, {0.1387418, -0.0251706, 0.0176678}},{{-0.2209512, -0.066453, 0.1316865}, {-0.0692355, -0.2231705, 0.1335346}, {0.1165095, -0.3425097, -0.0070214}},{{-0.0033543, -0.0991355, -0.129639}, {0.2582731, 0.0088215, -0.0745523}, {0.0835612, -0.176361, -0.0260995}},{{0.0558978, 0.0863002, -0.0887665}, {0.0039451, -0.040228, 0.0499406}, {-0.0420811, 0.0214581, -0.0673228}},{{-0.0312924, -0.0067192, -0.0012958}, {-0.0109031, -0.0597545, -0.051797}, {0.0740451, 0.056433, -0.0331453}},{{0.0570645, 0.0276202, -0.2738515}, {0.3861266, 0.1671052, -0.2614878}, {0.2648283, 0.0925303, 0.0040875}},{{0.0249499, -0.0757868, -0.0102787}, {0.0627077, -0.0957659, -0.0768443}, {-0.0054744, -0.0395643, -0.0397237}},{{-0.0580141, 0.0052677, -0.0036}, {0.0005095, -0.0423608, -0.0642736}, {0.071148, 0.000538, 0.0124286}},{{0.2071277, 0.1581393, -0.0631322}, {-0.2603837, 0.1333275, -0.3044385}, {-0.237184, 0.0790141, -0.1035175}},{{-0.4300473, 0.0872501, 0.0559583}, {-0.2690573, -0.3229876, 0.1304616}, {-0.0575544, -0.1590358, 0.0626184}},{{-0.0453514, 0.0026245, 0.0189197}, {0.0037991, 0.0560964, 0.1868296}, {0.1030082, -0.0234051, 0.1022196}},{{0.0626529, 0.0438436, -0.0872048}, {-0.0198036, -0.0776488, -0.0608962}, {-0.0243367, -0.0560322, 0.0324161}},{{-0.0514291, -0.058082, -0.0910041}, {0.0542752, -0.060402, 0.0583702}, {0.0779735, 0.0190259, -0.0609532}},{{-0.0345754, 0.0781935, -0.0403878}, {-0.0036571, -0.2075018, -0.1663331}, {-0.0044636, -0.2733499, -0.2013592}},{{-0.0062473, -0.0930263, 0.1464728}, {-0.199822, -0.1458635, 0.1245101}, {-0.440723, -0.0894312, -0.0693104}},{{-0.0742684, -0.0395495, -0.2813954}, {-0.0017067, -0.2647173, -0.2831129}, {0.2458795, 0.0410001, -0.2262616}},{{-0.1882256, -0.0761154, -0.1826375}, {0.3198803, -0.0166538, -0.2059432}, {0.3051824, 0.005898, -0.1174357}},{{-0.0481591, -0.0648436, 0.1981431}, {-0.1464644, -0.121906, 0.1049451}, {0.0132103, -0.0208907, 0.0445862}},{{-0.1085646, -0.1459629, -0.1065825}, {0.1286727, -0.0924405, -0.12911}, {0.0223062, -0.1103198, -0.1458689}},{{-0.1906312, -0.026617, 0.0535665}, {-0.0800719, -0.0912254, 0.1544135}, {0.2621332, -0.2415909, -0.0609648}},{{-0.1152132, -0.2766026, -0.3838203}, {-0.0096506, -0.1433268, -0.1232676}, {0.0019199, -0.2062681, -0.1700929}},{{-0.0291367, -0.0257056, -0.0483654}, {-0.0560995, 0.0134525, -0.0137288}, {0.0595626, 0.0123433, 0.0463207}},{{-0.0726153, -0.0298264, -0.0806682}, {-0.0251022, 0.0387332, 0.0082343}, {0.0260066, -0.0237367, -0.0528761}},{{-0.1028236, -0.0232818, -0.2145574}, {0.5020337, 0.2415204, 0.0310416}, {0.107536, 0.1204803, -0.2389551}},{{0.0214395, -0.0623382, -0.1075725}, {-0.1190222, -0.0121578, -0.1197266}, {0.0374483, -0.0150418, -0.0782647}},{{0.0640533, -0.0554869, 0.0799783}, {0.0264107, -0.0294655, 0.0654425}, {-0.046688, 0.0505945, 0.02187}},{{-0.0173621, 0.0546495, 0.0148056}, {-0.0698445, 0.0131411, 0.0209498}, {0.0825957, -0.0620492, 0.0706367}},{{0.0642232, -0.0385369, 0.0496802}, {0.1099176, 0.2332239, 0.147411}, {-0.1221061, -0.0959909, -0.0663012}},{{-0.1517644, -0.2685071, -0.2375959}, {0.0364638, -0.0720977, -0.1443103}, {0.1362728, 0.0299634, -0.1133041}},{{-0.1176082, -0.1050934, 0.0557645}, {-0.0263125, -0.1136899, 0.09663}, {0.068261, -0.1473905, -0.1119322}},{{-0.5315092, -0.1393946, 0.2365854}, {-0.3927852, -0.2864335, -0.0361692}, {-0.2297334, -0.2691163, 0.0751307}},{{-0.0349287, -0.0315454, -0.0181322}, {0.0166036, 0.0107119, -0.0753362}, {0.0805966, -0.0442471, -0.0925954}},{{0.1803092, -3.58e-05, -0.2309317}, {0.2707166, 0.0045097, -0.2448924}, {-0.2589302, -0.4031773, -0.1497873}},{{0.034961, -0.1307146, -0.1008478}, {-0.1282302, 0.0260123, -0.1545796}, {-0.205653, -0.1278164, -0.0458293}},{{-0.0567167, -0.1007485, -0.065982}, {-0.015985, 0.0530686, 0.0327299}, {-0.0048385, -0.0672338, -0.0124124}},{{-0.0452139, -0.1476536, -0.1150287}, {-0.0284142, -0.2255269, -0.0421794}, {0.1389721, -0.0952625, 0.0432171}},{{0.0729282, -0.0254402, 0.2274784}, {0.2028836, 0.015303, 0.0622615}, {0.1361087, 0.0339064, -0.2669092}},{{0.0730046, 0.0275414, 0.0628485}, {0.0414952, 0.0093045, -0.0352113}, {-0.0011411, -0.0585492, -0.0303262}}}
{{{-0.0405391, -0.0852135, 0.0312885}, {0.0328343, -0.1276977, -0.0246705}, {-0.1167654, -0.0125148, -0.0869468}},{{-0.0613574, 0.0263468, -0.0498697}, {-0.0518324, 0.0666618, -0.0338356}, {-0.0488154, -0.0741829, -0.0390401}},{{0.0590383, -0.056079, -0.0546372}, {-0.003587, -0.1607511, -0.05658}, {-0.0050499, -0.0427942, 0.0373885}},{{-0.120234, -0.0763373, -0.0048707}, {0.029226, -0.0026935, 0.0197337}, {-0.0243289, 0.0256391, -0.0452687}},{{-0.0790555, -0.0030763, -0.1243552}, {-0.032921, 0.0019224, 0.115514}, {-0.158328, 0.0265965, -0.0429063}},{{-0.0758335, 0.0348506, -0.0757689}, {-0.1143662, 0.0121702, 0.0119501}, {-0.1465463, -0.0565498, -0.0307308}},{{0.0457295, 0.0091239, 0.0197375}, {-0.0552137, 0.0707268, 0.0503022}, {-0.0193069, -0.0195144, -0.0435442}},{{-0.2348523, -0.1452823, -0.0750731}, {-0.0629052, -0.0292896, -0.0514046}, {-0.2032055, -0.0902011, -0.0763538}},{{0.0159064, -0.019905, -0.015133}, {-0.0209493, -0.050948, 0.0657767}, {0.0235542, -0.0563086, -0.0696467}},{{0.0699392, -0.0455292, -0.02547}, {0.0200607, -0.0431382, -0.0482711}, {-0.0107596, -0.067929, -0.0384766}},{{-0.002031, -0.0557424, 0.0138303}, {0.038721, 0.0015344, -0.0083272}, {-0.021185, -0.0652965, 0.027729}},{{-0.0702701, -0.0708522, 0.022572}, {-0.0314019, -0.1867468, -0.1195379}, {0.012124, -0.0579421, -0.0388037}},{{0.0233323, -0.0400315, -0.0422422}, {-0.0333144, -0.101191, -0.0641897}, {-0.0496693, 0.0252889, -0.0441328}},{{-0.0212968, -0.0661436, -0.0345673}, {-0.1339443, -0.0145539, -0.0044005}, {-0.0457261, -0.0957239, -0.0261539}},{{-0.1005808, -0.0329921, 0.0661339}, {-0.0336595, 0.0473373, -0.0119036}, {-0.0256253, -0.0320231, 0.0296669}},{{-0.0073019, -0.0557999, 0.0042871}, {-0.0455212, -0.0886424, -0.0518654}, {-0.0221757, 0.0393695, -0.0754367}},{{-0.0099494, -0.0741052, 0.0412356}, {0.0541684, -0.1129451, -0.0130314}, {0.0103485, -0.0462426, -0.0335911}},{{-0.0108306, -0.0816738, 0.0487484}, {0.0345085, 0.0412456, 0.0287194}, {0.0045293, -0.1097474, -0.0273648}},{{-0.0024715, -0.1573056, -0.0386308}, {-0.0325799, -0.0942212, -0.1044319}, {-0.0590919, -0.0484865, 0.0094178}},{{0.0495885, -0.0390134, -0.0252816}, {-0.0932951, -0.1784465, -0.1207299}, {-0.1125361, -0.2547429, -0.1085348}},{{-0.0006222, -0.0789906, -0.08958}, {-0.0568419, -0.0646008, 0.0308302}, {-0.0048162, -0.127343, -0.0992667}},{{0.0334193, 0.0742412, 0.0426791}, {0.0483096, -0.063816, 0.0223607}, {0.0681828, -0.0450884, 0.0393406}},{{-0.0917105, -0.0428339, -0.0581937}, {-0.0831558, -0.05062, -0.0165685}, {0.0146802, -0.0171201, -0.0003973}},{{0.0186454, 0.005303, 0.012982}, {-0.1195022, 0.059991, 0.0525645}, {-0.1862325, 0.1269243, -0.0864025}},{{-0.014943, 0.0150976, -0.0834916}, {-0.0674497, -0.0058921, -0.0345814}, {0.0142782, -0.0364203, 0.0257042}},{{-0.0578905, -0.0973042, -0.1749483}, {-0.0997364, -0.0661609, -0.091047}, {-0.1079889, -0.0865719, 0.0089375}},{{0.0727356, -0.0188595, 0.0333818}, {-0.0406305, 0.0267165, 0.0696702}, {0.0021036, 0.026805, -0.0135269}},{{-0.0358273, -0.0035839, -0.0041995}, {0.0012122, -0.0480403, -0.0035709}, {-0.0002838, 0.030644, -0.0758915}},{{0.0417324, 0.0585972, 0.0174904}, {0.0155542, 0.018143, 0.0503615}, {-0.1047778, -0.0108841, -0.0977187}},{{-0.0260251, 0.0448517, -0.0601066}, {-0.0447225, -0.0236484, 0.0016696}, {0.0243477, -0.0332267, 0.0726003}},{{-0.0152115, -0.0415193, 0.0255826}, {-0.0702415, -0.0600156, 0.0474397}, {-0.0108472, 0.0104709, -0.0149624}},{{0.0108169, 0.1079609, 0.0319356}, {-0.0512338, 0.0146481, -0.1243993}, {-0.0717977, -0.060165, -0.1813247}},{{0.0284548, -0.0216171, -0.0093508}, {-0.092163, -0.0288441, 0.0407057}, {-0.0687501, 0.0041943, 0.0370936}},{{-0.0570803, 0.0316103, 0.0530253}, {-0.0196996, 0.0301147, -0.0316637}, {-0.046133, 0.0007039, -0.0577944}},{{-0.1736205, -0.0504764, -0.070794}, {0.0351296, -0.0635424, -0.0073111}, {-0.0636867, -0.0174636, -0.1209014}},{{-0.0443549, 0.0176594, -0.0891407}, {0.0083325, -0.0820763, -0.0949195}, {0.0565811, -0.1135743, -0.1747438}},{{0.0655479, -0.0663847, 0.0264784}, {-0.0335591, 0.0885232, 0.073371}, {-0.0117642, -0.0027055, 0.0239301}},{{-0.0828468, -0.0607601, 0.0083961}, {-0.0717685, -0.0585439, 0.0328567}, {0.0295145, -0.0730534, 0.015036}},{{0.0305926, -0.0279803, -0.0057665}, {0.0322665, 0.0464242, -0.009915}, {-0.0272737, -0.0424247, 0.0483531}},{{0.0761793, -0.0716672, -0.0813064}, {-0.0025561, -0.0925351, -0.07402}, {-0.0367806, -0.181218, -0.1582268}},{{-0.075838, -0.0158496, -0.0753226}, {-0.0737799, -0.0017034, -0.0676635}, {-0.0512183, -0.0921562, -0.0806389}},{{-0.0145672, -0.1034076, -0.0123236}, {-0.1060728, 0.0253048, -0.1617404}, {-0.0589904, -0.0975495, -0.0587744}},{{0.132706, 0.0433036, -0.0110629}, {-0.0121657, -0.1005837, -0.1168909}, {0.0787921, -0.1375405, -0.0304332}},{{0.0165552, -0.0697691, 0.0075984}, {-0.0355941, -0.032427, 0.0085689}, {-4.47e-05, -0.0481998, -0.0895794}},{{0.1110987, -0.0313315, 0.0882878}, {0.0233113, -0.0326021, 0.061766}, {0.1032099, -0.0471975, 0.0103527}},{{-0.025801, -0.0174489, -0.1465096}, {-0.0447688, -0.0619803, -0.0195054}, {0.0650527, 0.0836497, 0.0070737}},{{-0.0862606, -0.0640086, -0.0798604}, {-0.0027678, -0.0952598, -0.0007377}, {-0.1658291, -0.1450873, -0.1507185}},{{-0.0377098, 0.0461437, -0.0064262}, {0.0207427, 0.0622842, -0.0138351}, {-0.0027325, 0.0134794, -0.0722561}},{{0.0176743, -0.0197923, -0.0474756}, {0.0011972, 0.0406873, -0.0218128}, {-0.061473, -0.0076242, -0.0430893}},{{0.1045853, 0.085326, -0.0782777}, {-0.1120966, -0.013801, -0.0397917}, {-0.0586715, -0.1240654, -0.0206375}},{{-0.0019213, 0.0081904, -0.0800484}, {0.0543796, -0.0748741, 0.0547312}, {-0.0601253, -0.0028408, -0.0173092}},{{-0.0005135, -0.0384856, -0.0480966}, {-0.0124194, -0.0138303, -0.0294627}, {-0.0358002, 0.0055973, -0.0083639}},{{-0.0008325, -0.0023826, 0.0305365}, {-0.0206885, 0.0039508, -0.0322309}, {0.0203828, 0.0458481, -0.0164423}},{{-0.0547023, -0.1218636, -0.0858382}, {-0.0348267, -0.0382368, -0.0753514}, {-0.0104104, 0.0066914, -0.0332629}},{{0.0104508, -0.124737, -0.0800365}, {0.069527, 0.0262974, -2.89e-05}, {0.0604112, -0.0499735, -0.02868}},{{-0.0365137, -0.0066796, -0.1077307}, {-0.0007954, 0.0338852, -0.0126074}, {-0.011426, -0.0546522, -0.0690835}},{{-0.0633167, -0.1569156, -0.1714345}, {0.1910417, -0.0541838, 0.0550338}, {0.0681096, 0.0026623, 0.0702681}},{{-0.020483, -0.0031253, 0.0550158}, {0.0588823, -0.0728085, 0.0438813}, {-0.00819, -0.0165035, -0.0554697}},{{-0.076395, -0.1496292, -0.0806374}, {-0.0913298, -0.1241091, -0.0947806}, {-0.0665685, -0.0237322, -0.0998133}},{{-0.080114, -0.0422675, -0.1590266}, {0.0096383, -0.0346999, -0.1538648}, {0.0499376, -0.1027377, -0.0205497}},{{-0.0022436, -0.0012804, -0.001106}, {-0.0633278, -0.0538843, -0.0690481}, {-0.0799544, 0.0027621, 0.0649393}},{{0.0835828, -0.0120823, -0.0892894}, {0.0855549, 0.0468006, -0.0441756}, {-0.0557649, 0.0478473, -0.0021351}},{{0.023634, -0.0002937, 0.0751816}, {-0.0583524, 0.0403271, -0.0678318}, {0.0119775, -0.0695203, -0.0729907}},{{0.0250151, -0.0116781, -0.028092}, {0.0181938, -0.0062591, 0.0141621}, {-0.0400222, 0.0319383, 0.0155277}}}
{{{0.0130053, 0.0510819, 0.0481971}, {0.0386243, 0.0370032, -0.0181444}, {-0.0810649, -0.0968263, 0.027184}},{{-0.0097362, 0.019129, 0.04861}, {-0.0001204, -0.0926164, -0.079649}, {-0.016006, -0.0059405, 0.0232059}},{{-0.0442939, 0.0334246, 0.0089689}, {-0.0847107, -0.0602656, 0.0357589}, {0.009208, -0.0228074, 0.0646726}},{{0.0249276, 0.0641355, 0.0199451}, {0.0132107, 0.0479757, 0.0726535}, {-0.0771952, 0.0771869, -0.0404167}},{{-0.0048396, -0.008731, -0.1517667}, {-0.0536602, -0.0310665, -0.0750707}, {-0.0357607, 0.0584626, 0.056807}},{{0.0095552, -0.053531, 0.0163385}, {-0.0002877, 0.0255816, 0.0419601}, {-0.0337546, -0.0563695, -0.0787704}},{{-0.0722682, 0.0641415, 0.0668255}, {0.018013, -0.0478566, 0.0058277}, {-0.0035043, -0.0022752, -0.0505987}},{{-0.077883, -0.1087766, -0.0752854}, {-0.0016256, -0.0121838, -0.1398022}, {-0.008051, -0.0982198, -0.0654476}},{{-0.0191498, 0.0456153, 0.0618603}, {0.0423636, -0.0271328, 0.0634473}, {-0.0259399, -0.0012793, -0.002662}},{{-0.210786, -0.0847542, -0.0157984}, {-0.056274, -0.025042, -0.0341253}, {-0.031673, -0.0992093, -0.0394252}},{{0.0321556, 0.0068143, 0.0607417}, {0.0641486, 0.013853, 0.0454892}, {0.0113247, -0.0405339, -0.0063398}},{{0.000209, -0.0900135, -0.0671833}, {-0.0114122, -0.1535892, 0.0029159}, {-0.0854497, -0.0334011, 0.0456873}},{{0.0076417, 0.0227323, -0.013367}, {0.0216829, 0.0714809, 0.0495197}, {0.0630476, 0.0389481, 0.0114176}},{{0.0145773, 0.0365828, -0.0056412}, {0.0179704, 0.0605109, -0.0097046}, {-0.0256734, 0.0049291, 0.0781935}},{{-0.0275614, 0.0763257, -0.0216122}, {-0.1305071, -0.0537347, -0.1504512}, {0.0278973, -0.0822513, -0.0182247}},{{0.0666725, -0.022524, -0.0703051}, {-0.0198737, -0.0177409, 0.018723}, {0.0026907, -0.1092679, 0.0114705}},{{0.0327324, 0.01336, -0.0101774}, {0.0440075, -0.0400459, -0.0660681}, {-0.0866703, -0.0111639, 0.0307756}},{{-0.0551396, -0.0647823, 0.0016266}, {0.0347209, -0.0401123, -0.0664183}, {0.0185424, -0.0678806, -0.009381}},{{0.0048873, -0.1616456, -0.0369283}, {-0.0659462, -0.0240705, 0.0774309}, {-0.1470487, -0.0539982, 0.0976956}},{{-0.0457907, -0.1602171, -0.1348663}, {-0.1875273, -0.0634085, 0.0343328}, {-0.2258038, -0.012372, 0.0338745}},{{-0.1779473, -0.1099733, -0.0581108}, {-0.0983155, -0.1328724, -0.1083952}, {-0.0257259, -0.0490523, -0.0684462}},{{-0.0261465, -0.02609, 0.0159715}, {-0.0372639, 0.0390665, -0.0172136}, {0.00301, 0.0492928, 0.0174868}},{{-0.0342912, -0.0453109, -0.0667989}, {0.02013, 0.0164484, 0.0318968}, {0.0067236, 0.0259247, -0.0136933}},{{-0.0805385, -0.085019, 0.0077137}, {-0.0759084, -0.0244944, -0.0279119}, {-0.0879401, -0.0383698, -0.0021272}},{{-0.0675868, 0.0483319, 0.0473733}, {-0.0482713, -0.0186077, -0.0880508}, {-0.0416269, 0.0024592, -0.03757}},{{0.0380397, -0.1698689, -0.1133772}, {-0.0508213, -0.1442891, -0.0688088}, {-0.0705877, -0.0774609, -0.0027973}},{{-0.0229585, -0.060641, -0.0345288}, {-0.0645257, -0.0686768, 0.0567599}, {0.0439147, -0.0156728, 0.0709672}},{{-0.1234539, -0.104938, -0.0980082}, {-0.0468586, -0.0203329, -0.1198032}, {-0.0379145, -0.0975166, -0.1359297}},{{0.0214073, -0.0781857, -0.0791217}, {-0.1076841, 0.0265027, -0.1417358}, {-0.0954617, -0.0200964, 0.0389832}},{{-0.0269497, 0.0405474, 0.023754}, {-0.0337846, -0.0760778, -0.0207662}, {-0.0472773, -0.0542328, -0.0957527}},{{0.0792037, -0.0538367, -0.0045263}, {-0.0466524, 0.001137, -0.0570286}, {-0.0080976, -4.6e-05, -0.0548727}},{{-0.0441465, -0.0181249, -0.0441295}, {-0.0913611, 0.0400979, 0.0106526}, {-0.0260973, 0.0044645, -0.0475186}},{{-0.0191984, 0.0028262, -0.0267142}, {0.0141201, -0.0208306, -0.0092627}, {-0.0054871, -0.0207761, -0.0382044}},{{-0.0492972, -0.031382, -0.0289081}, {0.0305963, -0.0699479, -0.0630141}, {-0.0103632, -0.0277866, -0.0318409}},{{0.070583, -0.008208, -0.0239928}, {0.0073025, -0.0808039, -0.0879507}, {-0.057482, -0.1609447, -0.0798284}},{{-0.0917158, -0.115368, 0.0018265}, {-0.1057586, -0.048378, -0.1415905}, {-0.0115095, -0.1009699, -0.1845125}},{{-0.0830458, -0.004481, -0.0343606}, {-0.1191673, 0.0496892, -0.0441228}, {0.0347442, -0.0478656, 0.0320324}},{{-0.0515709, -0.0130219, -0.0125989}, {0.0008363, -0.0392665, -0.0551514}, {-0.0188056, -0.0050916, 0.0544028}},{{0.0191636, 0.0409726, -0.0003533}, {0.0077598, 0.0414998, -0.0141056}, {0.0498766, -0.0200843, -0.0656524}},{{0.0208998, -0.1415216, -0.0518308}, {-0.1978894, -0.0648795, 0.0848027}, {-0.0574133, -0.0528974, 0.0830569}},{{-0.0899625, -0.0896645, -0.1381448}, {-0.0972518, -0.0679922, -0.1191924}, {0.001947, -0.1710504, -0.2021122}},{{-0.0015635, -0.056678, -0.0471808}, {-0.0002417, -0.0967398, 0.0034903}, {-0.0515984, -0.0559181, 0.010586}},{{-0.0398965, 0.0381677, -0.0388365}, {0.041885, 0.0268859, -0.0754273}, {0.0121811, 0.0175905, -0.0718903}},{{0.0533631, -0.0730396, -0.0240951}, {-0.0554547, 0.0362483, 0.0096212}, {-0.0141386, 0.030969, -0.0416007}},{{0.030434, -0.1090364, -0.1000589}, {-0.0925424, 0.0073532, -0.1346429}, {0.0644398, 0.0467307, 0.0002692}},{{-0.058794, -0.1108623, -0.0810304}, {-0.035717, -0.0439325, -0.1118679}, {0.0699033, 0.1755617, 0.1222877}},{{-0.0228143, -0.1031075, -0.0178289}, {-0.1259171, -0.0439539, -0.0347464}, {0.0220116, -0.0283024, -0.0115521}},{{-0.023246, -0.0625222, -0.0401016}, {0.0353803, -0.0584104, -0.0328619}, {-0.0145766, 0.0532684, -0.058121}},{{0.0532682, 0.0654815, 0.0100264}, {-0.0002249, -0.0743818, 0.0540893}, {-0.0290253, 0.0559151, -0.0368249}},{{-0.0212318, -0.0752472, -0.0655917}, {-0.0695979, -0.0382558, -0.0720239}, {0.0203518, 0.0045645, -0.0036357}},{{-0.0679828, -0.0335104, -0.0348365}, {-0.0162153, -0.0961985, -0.0497776}, {-0.1517635, -0.1019207, 0.0663792}},{{-0.044397, -0.0313966, -0.072533}, {-0.0265996, 0.0684676, -0.0199764}, {0.0100282, 0.0491532, 0.045072}},{{-0.0172829, 0.051027, -0.0102574}, {0.0131798, -0.0532365, 0.0075187}, {0.0104536, -0.0421465, -0.0398988}},{{-0.1082077, -0.0323957, -0.0714782}, {-0.0972215, -0.0844132, -0.0991616}, {-0.0406662, -0.1451682, -0.0776383}},{{0.0616573, 0.0603253, 0.0012541}, {0.0245854, -0.1033521, -0.0101574}, {0.0447465, -0.1100754, 0.031184}},{{-0.0744756, -0.0675822, -0.1374717}, {-0.004044, -0.0296274, -0.102387}, {0.0052786, 0.0084383, -0.0629525}},{{-0.0325925, -0.0936644, 0.080082}, {0.0180023, -0.0406436, -0.1555108}, {-0.056343, -0.0422739, -0.1809536}},{{-0.0014292, -0.0253834, 0.0041642}, {0.0543044, -0.1187827, 0.0570191}, {-0.0396919, -0.0708987, -0.0604566}},{{0.0876445, -0.1269099, -0.2357386}, {0.0568663, -0.157251, -0.0693327}, {0.0295532, -0.0607449, -0.0678999}},{{-0.1452298, -0.0656401, -0.0340059}, {-0.0551064, -0.0713366, -0.0569761}, {-0.0761039, -0.0340699, -0.063877}},{{0.011244, -0.0046314, 0.0279427}, {-0.027432, -0.0003755, 0.0033033}, {-0.0126914, 0.0545838, -0.0328578}},{{0.0020804, 0.028866, 0.0995796}, {0.0417066, 0.0245884, 0.067925}, {-0.0031968, 0.0104168, 0.089463}},{{0.0148018, -0.0401052, -0.071262}, {0.0257871, -0.06194, -0.026574}, {0.0330172, 0.0583139, -0.0020488}},{{0.0816349, -0.0351894, -0.0585538}, {-0.0036196, -0.0246513, -0.0867661}, {0.0397055, -0.0027348, -0.0639528}}}
