weights3 [64][64][3][3]=
{{{{-0.0343739, -0.0840383, -0.0293298}, {-0.0027125, -0.0858924, -0.0679985}, {-0.0353789, 0.0456777, 0.0019194}},{{0.1099381, 0.0018402, 0.084872}, {-0.0769883, 0.2130719, 0.0588202}, {-0.0460717, 0.112048, 0.1012495}},{{0.054085, -0.0569898, -0.0259158}, {-0.1971599, -0.1759792, 0.0057883}, {-0.0842448, 0.022129, -0.0707182}},{{-0.1788658, -0.0375278, -0.0298922}, {-0.0905294, 0.0954738, 0.0163701}, {0.0727858, 0.0925495, 0.0032926}},{{-0.0420692, -0.1509665, -0.0646597}, {-0.0639441, -0.0518196, -0.0106496}, {0.1196855, -0.04138, -0.0062802}},{{-0.1875293, 0.114359, -0.119193}, {-0.0602732, 0.0412295, -0.0666956}, {-0.1619999, 0.0435416, -0.0619387}},{{0.0103238, -0.2068746, -0.1947443}, {0.2037525, -0.0300677, -0.0253588}, {0.0445497, -0.1940309, -0.1801629}},{{0.0577995, -0.0909823, -0.0615419}, {-0.0397009, -0.1916897, 0.0710785}, {0.0202183, 0.0422688, -0.0148524}},{{-0.0263676, 0.0050917, -0.1493039}, {-0.0294228, 0.031739, -0.1695545}, {0.022587, -0.0404513, -0.1156312}},{{0.0644133, 0.0762216, -0.1647527}, {0.0748448, 0.1771082, 0.0210524}, {-0.1754714, -0.0626372, -0.1169662}},{{-0.0749189, -0.0210357, -0.3229366}, {0.2355848, 0.2347753, -0.3107787}, {0.1008679, 0.2532899, -0.0845249}},{{0.0828, -0.0474914, -0.073804}, {-0.1997935, -0.0578141, 0.0770028}, {-0.2386801, 0.027643, -0.1602029}},{{-0.0589214, 0.0079642, 0.0349878}, {0.0304159, -0.0444193, -0.0049954}, {0.0314064, -0.0348006, 0.0258965}},{{0.0205066, -0.0793304, 0.0221909}, {-0.0046003, -0.0453291, -0.0648802}, {-0.0668121, -0.0132741, -0.0060337}},{{-0.1348153, 0.0210086, 0.0150715}, {-0.0900058, 0.0246779, -0.0743452}, {-0.0448474, -0.0680489, 0.0883165}},{{0.0007019, -0.0152215, -0.1312854}, {0.1061113, -0.0698839, -0.064664}, {0.0841388, 0.0907473, 0.0849081}},{{0.0991235, 0.1312972, 0.0949885}, {-0.2609757, -0.0460962, 0.2423596}, {0.1024966, 0.0870978, -0.0774735}},{{0.0170067, 0.0650464, 0.0516098}, {0.0325928, 0.0808025, -0.0122608}, {-0.1121468, 0.0756531, 0.0498217}},{{-0.1008408, -0.3570498, -0.2490951}, {-0.0993675, -0.2349662, -0.2749278}, {-0.3044522, -0.0974244, -0.2876125}},{{-0.0753007, -0.2191115, -0.211854}, {-0.0621352, -0.0741533, -0.010444}, {0.0823925, -0.0965234, -0.0890136}},{{0.0045584, -0.0783988, -0.01797}, {-0.0702807, -0.0537596, -0.0583142}, {0.0441808, 0.021412, -0.1090754}},{{-0.230244, 0.1488643, 0.1939909}, {-0.0464139, 0.1954989, -0.0588568}, {-0.0561758, 0.3381306, -0.0990427}},{{0.0759538, -0.0545657, -0.2930393}, {-0.2258048, -0.456023, -0.3164513}, {-0.5490164, -0.3238229, -0.2211838}},{{-0.0654567, 0.0133432, -0.2599618}, {-0.0423016, 0.1109788, -0.0160686}, {0.1219152, 0.1265038, -0.0212542}},{{-0.2778919, -0.120501, -0.203515}, {-0.1602228, 0.0902913, -0.312433}, {-0.3519589, -0.3799485, -0.1519488}},{{0.092312, -0.0306839, -0.0518732}, {0.0733527, 0.0272895, 0.0482744}, {-0.0422934, 0.0110963, 0.011089}},{{0.0388153, 0.1442093, 0.0597647}, {0.1331332, 0.1339586, 0.0827622}, {0.0693643, 0.2470102, 0.0837581}},{{-0.079852, -0.0004711, 0.1494714}, {-0.2181506, 0.0014296, -0.0351742}, {-0.0426165, 0.0648225, 0.1034041}},{{0.0466601, 0.0941957, -0.0815623}, {0.0873918, 0.1280048, -0.0424729}, {-0.0740695, -0.1056808, 0.0601167}},{{-0.0079563, -0.2465319, -0.0868533}, {0.1606589, -0.0598035, 0.0515654}, {0.008636, -0.0709832, -0.169197}},{{0.0417818, -0.2634439, -0.0102174}, {-0.1439129, -0.0913957, 0.0905629}, {0.0372736, 0.0688886, 0.0496439}},{{0.0925239, 0.0020611, -0.0614223}, {-0.1209663, 0.0393196, -0.1079524}, {-0.0420135, -0.1793774, -0.048792}},{{-0.0680051, -0.0024852, 0.2475018}, {-0.1084928, -0.1085582, -0.0679461}, {-0.1318516, -0.1173527, -0.2177976}},{{0.0258447, -0.0502394, -0.0248746}, {-0.0478539, 0.0059398, -0.0102594}, {0.0113528, -0.0607776, -0.0524186}},{{-0.0955446, -0.0136612, 0.0240205}, {-0.013883, 0.0019691, -0.1173534}, {0.001651, 0.0187849, -0.1081191}},{{-0.0022986, -0.0425663, -0.0486762}, {-0.0339706, -0.066427, 0.023127}, {0.0247204, 0.0973301, 0.0265909}},{{-0.1475928, -0.0541532, -0.0215337}, {-0.0047556, -0.0116199, 0.0011845}, {-0.0104122, -0.1191754, 0.0679378}},{{-0.1324411, -0.1779138, -0.3182183}, {-0.1051831, 0.039476, -0.1809175}, {-0.3657739, -0.231438, 0.1847915}},{{-0.0767781, 0.0302175, -0.0158433}, {0.0228071, -0.0431737, 0.0214444}, {-0.0092095, -0.0338215, -0.009476}},{{-0.0833836, -0.038898, -0.0298685}, {-0.0861324, 0.0464431, -0.0642173}, {0.0688658, -0.0680505, -0.0538112}},{{-0.0756362, -0.0295619, 0.0328075}, {-0.0364942, 0.0289104, 0.0068226}, {0.05395, -0.0422528, -0.0076734}},{{-0.1524348, -0.0903388, -0.1461015}, {-0.1288734, -0.0349536, -0.179549}, {-0.177663, 0.0413507, -0.232603}},{{-0.0229146, 0.0607404, -0.1600509}, {0.0055489, -0.0328374, -0.1723131}, {-0.1491551, -0.1786035, -0.043045}},{{-0.0332378, 0.028304, -0.0432766}, {-0.0032005, 0.0751123, 0.0570848}, {0.0268451, 0.0508491, -0.0256472}},{{-0.0767007, -0.1651579, -0.0541614}, {-0.262251, -0.0482967, -0.1345228}, {-0.100183, 0.090069, -0.0687904}},{{-0.0252037, -0.0174971, -0.1050592}, {-0.2793757, -0.164185, -0.0448211}, {0.0855787, 0.0920116, 0.043574}},{{-0.0933414, -0.1044872, 0.0374446}, {0.0145353, -0.0386911, 0.03124}, {0.0154763, -0.0805974, -0.0626701}},{{0.0021888, 0.0334603, -0.0013334}, {0.0643827, -0.0201391, 0.0155444}, {0.0319609, 0.0927782, 0.0261949}},{{0.0539151, -0.0392405, 0.0413731}, {0.0586178, 0.0375971, -0.0321349}, {0.0666553, -0.0296024, -0.065208}},{{0.0054148, -0.0058644, 0.0087804}, {0.1707997, 0.0781629, -0.0751787}, {0.0501439, 0.0369166, 0.0575453}},{{-0.0196928, -0.0548077, 0.0213266}, {-0.0318821, 0.0356433, 0.020026}, {0.0257886, -0.0052839, -0.0274348}},{{-0.0558239, 0.0241319, 0.2642398}, {-0.0981228, 0.0056693, 0.0535045}, {-0.0809687, -0.161129, -0.0828069}},{{-0.0593773, 0.1214713, 0.2486268}, {-0.3980563, 0.0329846, -0.250977}, {-0.0195952, 0.0897613, -0.2770313}},{{-0.0734699, -0.1261475, 0.0536897}, {-0.0662209, -0.0346237, -0.1342766}, {-0.0947501, 0.0414664, 0.1119877}},{{-0.0580146, -0.0361756, -0.0310751}, {0.0073374, -0.0343469, -0.0736297}, {-0.0145237, -0.0782742, -0.0461237}},{{0.0518995, -0.1227905, -0.2955591}, {-0.1246771, -0.0408869, -0.3015872}, {-0.0241466, -0.0721374, -0.1644219}},{{-0.0041865, -0.2135356, 0.0015859}, {-0.1531986, -0.1515477, 0.230998}, {0.0038761, -0.0341563, 0.0088347}},{{0.0533405, -0.0415373, -0.0925961}, {-0.0234277, 0.0124223, -0.1943682}, {-0.0074432, 0.1829161, -0.0882545}},{{-0.1550778, -0.0171382, -0.0763164}, {-0.1535834, -0.0756444, 0.0495489}, {0.0451544, 0.0014148, -0.076394}},{{-0.0316973, 0.0115772, 0.0055734}, {0.0438456, 0.0477783, 0.0025757}, {-0.0516027, -0.0009455, 0.022517}},{{0.016981, 0.0659243, -0.1722784}, {-0.0872244, -0.0898114, -0.213034}, {-0.0304442, 0.1143549, -0.0562201}},{{-0.0564821, 0.0113927, -0.0098303}, {0.0506689, 0.0125286, 0.0574097}, {-0.0107949, -0.0112389, 0.0448864}},{{0.0731312, -0.0649365, -0.0236865}, {0.0422743, -0.0076572, 0.0110197}, {0.0513067, -0.0673045, -0.0964876}},{{-0.0639058, -0.136564, -0.0664797}, {-0.0641062, -0.0372584, -0.1099044}, {-0.268269, 0.1530443, 0.0363049}}}
{{{-0.0413571, -0.0582599, 0.0185359}, {0.0278194, 0.0556156, 0.0338303}, {0.0519965, 0.0579372, -0.0284739}},{{0.1513879, 0.0281201, 0.0565133}, {0.1934373, 0.0339951, 0.0772352}, {-0.1803164, -0.1186297, 0.1221911}},{{-0.1212879, 0.0709197, 0.0972559}, {-0.0536318, -0.0168643, 0.1429534}, {0.1068632, 0.0546774, 0.0139244}},{{-0.0308577, 0.036149, 0.0385406}, {-0.0337871, -0.0164108, -0.0761167}, {-0.1477521, 0.0129475, -0.019365}},{{-0.0354082, -0.1020152, -0.0980587}, {-0.0345955, 0.0509834, -0.0448371}, {-0.076674, 0.0087805, -0.0515735}},{{-0.0736218, -0.0277301, -0.1981504}, {-0.2608587, -0.151415, -0.1197747}, {-0.277049, -0.1979043, -0.3871175}},{{-0.2070428, -0.1007514, -0.1569701}, {-0.0395246, 0.0608308, 0.0018726}, {-0.2001589, -0.305321, -0.0052705}},{{0.005741, 0.078397, -0.126794}, {0.2497823, 0.1815153, -0.1250063}, {0.0285321, -0.1133506, -0.139421}},{{-0.0012887, 0.134644, 0.1361703}, {-0.0300154, -0.0657515, 0.0121663}, {0.0426979, 0.1404483, 0.0427453}},{{0.0367946, -0.0050552, -0.0869153}, {0.0967092, -0.0713206, 0.1047171}, {0.0342391, 0.0139329, 0.0006554}},{{-0.0305881, -0.1679634, -0.024782}, {-0.2759271, -0.2303134, -0.2079076}, {-0.0276014, 0.0201857, -0.2222082}},{{-0.0519128, -0.0731445, 0.2209842}, {-0.2159459, 0.0310884, -0.0215885}, {-0.2242923, -0.0510038, -0.1302065}},{{0.1043804, 0.0403538, 0.0555747}, {0.0215552, -0.0447786, 0.019746}, {-0.0190012, -0.132533, -0.0322371}},{{-0.0132025, -0.0165967, -0.0087937}, {-0.0110492, 0.0620134, 0.0175642}, {-0.0177287, 0.0868629, -0.0247412}},{{0.0929195, -0.0492538, 0.0750284}, {-0.0315184, -0.2090135, -0.0415343}, {0.035809, -0.0403796, 0.0062261}},{{-0.0981324, -0.1475895, -0.1262727}, {-0.1244359, -0.0693656, -0.2098642}, {-0.0864616, -0.0562348, -0.0775526}},{{-0.1616844, -0.0523335, -0.1120346}, {0.1806176, 0.0957784, 0.1633858}, {0.0051612, -0.1954371, -0.1828898}},{{-0.1306989, -0.0542279, 0.0548732}, {0.0196048, 0.0215856, 0.0832155}, {0.0144456, 0.0249691, -0.034233}},{{0.1434287, 0.0434882, 0.102124}, {-0.0530419, -0.0084226, 0.128243}, {0.0379061, -0.2288485, 0.0353813}},{{-0.0034189, -0.0517295, 0.0637389}, {-0.1147493, -0.0092097, 0.062767}, {-0.0946994, 0.0268062, -0.0016115}},{{-0.0514753, -0.122878, -0.1478035}, {0.0821045, -0.1339967, -0.1181613}, {-0.1060369, -0.1099032, -0.0641628}},{{-0.1457351, 0.0598743, -0.037277}, {-0.0306802, -0.1363979, -0.2196316}, {-0.1031601, -0.1760868, -0.2946689}},{{-0.3213027, -0.219276, -0.0114281}, {-0.5561998, -0.1545513, -0.0224919}, {-0.1739067, 0.0040272, -0.0751341}},{{-0.2143114, -0.0562398, -0.0042179}, {0.1872974, -0.1860763, 0.0038192}, {0.0577423, 0.0299922, 0.0330678}},{{-0.1437375, 0.2109075, 0.0621122}, {-0.076754, 0.1026159, -0.015061}, {-0.0712861, -0.0275449, 0.0572812}},{{0.0097915, -0.0588605, -0.0243798}, {-0.0144258, -0.0629089, -0.0358888}, {-0.0410022, -0.018967, 0.0217502}},{{-0.0156719, 0.0043095, 0.0301262}, {-0.0501985, 0.0047288, 0.0812361}, {-0.0412317, 0.0431553, -0.0649199}},{{0.1346574, -0.2230291, -0.203906}, {0.0995005, -0.044319, -0.1865176}, {0.1746259, 0.1563642, 0.0133668}},{{-0.1980157, -0.4928456, -0.1581454}, {-0.0905489, -0.2603855, -0.1670866}, {-0.4354696, -0.3714266, -0.4503916}},{{-0.022165, 0.04165, 0.0004742}, {-0.0823787, 0.1304465, 0.0194779}, {-0.1424963, -0.0729809, -0.0303668}},{{0.3030238, 0.1058589, -0.0515832}, {0.0228094, 0.072956, -0.057552}, {0.2081368, -0.0412548, -0.0789343}},{{-0.0224571, 0.0016747, 0.0096018}, {-0.1097247, 0.0021076, -0.1723033}, {-0.0660292, -0.0566373, -0.0638478}},{{-0.0077014, -0.129074, -0.1078216}, {-0.1373528, -0.1751832, 0.0713484}, {-0.278295, -0.0503735, -0.123283}},{{-0.0445716, 0.0074762, 0.0160635}, {-0.0630491, -0.0432916, -0.0725261}, {0.0365498, 0.0615884, -0.0722429}},{{0.0805116, 0.1038421, 0.0630277}, {0.0907983, -0.0990654, -0.0577055}, {0.0631601, -0.0303728, -0.0609153}},{{0.0118932, -0.010087, 0.0553145}, {-0.0077602, -0.0051679, 0.0422732}, {-0.0122199, 0.051784, 0.0305027}},{{-0.0736685, -0.0390394, 0.0104614}, {-0.0344608, -0.0110842, -0.0936919}, {0.0543184, 0.0306374, -0.0218418}},{{-0.0544396, -0.1276831, -0.1978213}, {0.0090776, -0.0364838, -0.0052943}, {0.0145894, 0.048414, -0.103627}},{{-0.1146121, -0.0137109, 0.0601137}, {-0.0544915, -0.0227448, -0.076359}, {0.0650606, 0.0450226, 0.0445146}},{{-0.0725168, -0.0034765, 0.0608964}, {0.0321094, 0.0384764, -0.005015}, {-0.034377, -0.0019144, -0.0050152}},{{0.0482416, -0.0411317, -0.042512}, {-0.0374408, -0.020528, -0.0464867}, {0.0583806, -0.0092052, 0.0546279}},{{-0.0345092, -0.5119129, -0.2011642}, {-0.1241509, -0.3345787, -0.396353}, {-0.1520206, 0.0524026, -0.0745522}},{{-0.1316502, -0.0455454, -0.1030287}, {-0.0414709, 0.0410275, -0.0606331}, {-0.0834948, -0.0323787, -0.0661141}},{{-0.0587352, 0.0022941, 0.0012927}, {-0.0629239, 0.0624559, -0.0353551}, {-0.0537062, -0.0678016, -0.062801}},{{0.0480442, -0.4507474, -0.2651619}, {0.0129634, -0.4463722, -0.1370269}, {-0.2009747, 0.0292194, -0.3418556}},{{0.0629315, 0.0248842, -0.1318771}, {0.0177335, -0.0326462, -0.296162}, {0.035486, 0.0111494, -0.1266948}},{{0.0042204, -0.1097792, -0.000313}, {-0.1835916, -0.0810842, -0.1196552}, {-0.0088427, -0.0641227, -0.0380024}},{{-0.0002395, -0.0327034, -0.0887491}, {0.0081739, 0.0301604, 0.0645298}, {0.0280947, 0.1099535, -0.1383692}},{{-0.0720916, 0.0441975, -0.0550341}, {0.0739122, 0.0246894, -0.0263753}, {0.0618157, -0.0224034, -0.0195344}},{{0.033978, -0.0033962, -0.2046602}, {-0.0798524, 0.0075043, 0.0345725}, {0.1985782, 0.0918954, -0.081355}},{{0.0363754, 0.0060172, -0.0331765}, {-0.058734, 0.0108996, -0.0639}, {0.0212923, 0.0146421, 0.0481613}},{{-0.0831266, -0.0545773, 0.0982798}, {0.0346112, 0.0230323, 0.0839685}, {0.0855238, 0.0816953, -0.0708096}},{{0.1235172, -0.0473319, -0.0470481}, {-0.0956852, -0.0034399, -0.1418536}, {-0.1197531, 0.2863739, 0.1311224}},{{-0.0622697, 0.0014625, 0.1141615}, {-0.0975606, -0.0844657, 0.0769248}, {-0.0636745, 0.1125927, -0.170146}},{{-0.0939835, 0.0574232, 0.0158397}, {0.0341499, -0.0040608, -0.0940899}, {0.0012126, 0.0674959, 0.0659863}},{{-0.2226292, -0.5719046, -0.1520985}, {-0.4461547, -0.4336694, -0.0455831}, {-0.1241874, -0.3630645, -0.0531672}},{{-0.0496688, -0.0640077, -0.0245277}, {0.0846, 0.336659, -0.1162753}, {-0.2341322, 0.1050185, -0.0782756}},{{0.0324039, -0.0435641, 0.0125675}, {-0.0599928, -0.0367908, -0.0209654}, {0.1861273, 0.0463914, 0.0442851}},{{0.1315785, -0.0166105, 0.0214733}, {-0.0179077, -0.0998862, 0.0065463}, {-0.048519, -0.0101856, -0.0286543}},{{-0.046511, -0.164328, 0.0110475}, {-0.0863841, -0.0371248, 0.0686962}, {-0.1091223, -0.0182883, -0.1691028}},{{-0.1372802, -0.0292033, 0.0735129}, {-0.034669, 0.1244627, 0.1002979}, {-0.0201072, -0.1413642, -0.0035366}},{{-0.0607019, 0.0429166, -0.0579394}, {-0.039077, -0.0295183, 0.0386364}, {-0.0558646, -0.0509797, -0.0644541}},{{-0.0630665, -0.0353494, -0.0716642}, {0.0375643, -0.0155431, -0.0578969}, {-0.0966473, -0.0153206, -0.0001705}},{{-0.0310573, 0.0092188, -0.3368441}, {-0.0444901, -0.0769942, -0.1358944}, {0.2186252, -0.2363656, -0.4390414}}}
{{{-0.0640646, 0.0401691, 0.0489679}, {-0.077565, -0.0789788, -0.0290492}, {0.0167187, -0.0318138, 0.0382385}},{{-0.0196606, 0.0028949, -0.0224084}, {-0.0557461, -0.0362236, -0.0588411}, {-0.0399648, 0.040339, 0.0281065}},{{-0.0701764, 0.0480732, 0.008165}, {-0.0401979, -0.0641041, -0.036736}, {-0.0286497, -0.0785986, -0.0679097}},{{-0.012988, -0.0222524, -0.0800916}, {0.0070646, -0.0017921, 0.0560386}, {0.0206973, 0.0082431, -0.0840858}},{{0.0545595, -0.057674, -0.0639264}, {-0.0474758, -0.0530008, -0.0013679}, {-0.0428541, -0.0703928, -0.0579899}},{{-0.0259178, 0.0209708, 0.0080278}, {-0.0058375, -0.092828, 0.0028555}, {0.0127601, 0.012576, 0.0166071}},{{0.0216555, 0.0028656, -0.0687529}, {0.0566386, 0.0014277, 0.0646199}, {0.014029, -0.0227328, 0.0447577}},{{-0.0344504, -0.0294847, -2.73e-05}, {0.0218909, 0.0020309, -0.064119}, {0.037509, -0.0752685, 0.0436849}},{{-0.0134931, -0.0088264, -0.008309}, {-0.08042, 0.0294154, -0.0657281}, {0.0343847, 0.0619319, 0.0092071}},{{-0.0469086, -0.0016596, 0.0364284}, {0.0451258, 0.0063235, 0.02995}, {-0.0238354, -0.0594091, 0.0519209}},{{-0.0469855, -0.0079359, -0.0758545}, {-0.0031831, 0.0267959, -0.0017873}, {0.0472712, 0.0287338, 0.044459}},{{-0.0659954, -0.0731222, 0.0031597}, {0.035638, 0.0070077, -0.107291}, {-0.0966268, 0.0055094, -0.043573}},{{-0.0532827, 0.028055, -0.0250588}, {0.0189688, -0.0758694, -0.0297366}, {-0.0014844, -0.0652653, -0.0502552}},{{-0.0040178, -0.0181374, -0.0062667}, {-0.043322, 0.0061404, -0.0036661}, {0.0364529, 0.0485491, 0.0094925}},{{-0.0324478, -0.0309252, -0.0227001}, {-0.0753949, -0.0240978, -0.0541246}, {0.0507353, -0.0283062, 0.0011187}},{{-0.0445513, -0.0690629, -0.0483759}, {-0.033888, 0.0349841, 0.0258727}, {0.0191548, -0.0146631, -0.0710162}},{{0.0454641, 0.0266622, 0.0051438}, {-0.0771246, 0.0506, -0.0048422}, {-0.0691371, -0.0303152, -0.0399788}},{{-0.0260717, -0.0820204, -0.0712111}, {-0.0016382, -0.0727135, -0.0179044}, {-0.0235443, -0.031411, -0.0511746}},{{-0.0850421, 0.0217192, -0.0319211}, {-0.0056815, -0.0398398, -0.0969904}, {-0.0108375, 0.0482478, 0.0364401}},{{-0.0306804, -0.0230017, -0.0029251}, {-0.0119728, -0.0484238, -0.0247438}, {-0.0115422, 0.0074065, 0.028223}},{{-0.0150314, -0.0456832, 0.0370491}, {-0.0518567, -0.0515031, 0.0021601}, {-0.0560206, 0.0083323, -0.0081067}},{{0.0143811, -0.0748973, 0.0408883}, {-0.0256852, -0.0691352, -0.0819799}, {-0.0529331, 0.0244853, -0.0950813}},{{-0.035484, -0.0374954, 0.0137784}, {-0.0462606, -0.0361028, -0.0493116}, {-0.0560204, -0.0076291, -0.0275855}},{{0.0323866, -0.0518753, -9.67e-05}, {-0.0679181, 0.0602638, -0.0093906}, {0.0335793, -0.0348336, 0.0251667}},{{-0.0119825, 0.0408806, -0.0638035}, {-0.0416541, -0.0566415, -0.033081}, {0.0003195, -0.0929075, -0.0737825}},{{-0.0504511, -0.0542537, -0.0342869}, {-0.0605911, 0.0145449, 0.0008052}, {-0.0150077, 0.0451954, -0.0107339}},{{-0.0334515, 0.0619557, 0.0042895}, {0.0493111, -0.0012166, 0.000543}, {-0.0288582, 0.0074493, 0.0325795}},{{0.035689, 0.0086951, -0.0926743}, {-0.0149186, -0.0631682, -0.0992991}, {-0.0134515, 0.040614, -0.0694599}},{{0.0060679, -0.0860738, -0.0065139}, {-0.0870768, -0.0082244, -0.1205177}, {0.0113593, -0.0774658, -0.1114561}},{{0.0035269, -0.029775, 0.0126291}, {0.009057, -0.0848072, 0.022387}, {-0.0801181, -0.0790083, 0.0208197}},{{-0.0948522, -0.066913, -0.106458}, {-0.0154348, 0.0176017, -0.0485922}, {0.050577, -0.0313645, -0.0661248}},{{-0.0377805, 0.0428899, -0.0854583}, {-0.0865415, -0.0550085, -0.0200181}, {-0.027707, 0.0132937, -0.0052106}},{{-0.0552576, 0.0265384, 0.0421799}, {-0.0783517, -0.016139, -0.0157225}, {-0.0121478, -0.047362, -0.0114341}},{{0.0191558, -0.0788499, -0.0750166}, {-0.0523914, -0.0340804, 0.0432842}, {-0.0606781, 0.0061768, 0.0137541}},{{0.0130724, 0.0051994, -0.0047826}, {-0.0827987, -0.0529383, 0.0385174}, {-0.0104227, -0.0575727, 0.0110747}},{{0.0389718, 0.0620558, 0.0512679}, {-0.028464, 0.0169165, 0.05053}, {0.0514081, 0.0086317, -0.0605925}},{{0.0447887, 0.0270368, -0.0756964}, {0.0603554, -0.0846215, 0.0045429}, {-0.0474172, -0.0545579, 0.0392894}},{{0.0226281, -0.0022339, 0.0330373}, {-0.0496075, -0.0489957, -0.0836845}, {-0.0672479, 0.0397639, -0.0036557}},{{0.0197948, 0.0408193, -0.0385394}, {-0.0106905, -0.0183725, -0.0316692}, {0.0026115, 0.03236, -0.0272277}},{{0.0409662, -0.0639226, -0.0364718}, {-0.0823349, 0.031291, -0.0470224}, {-0.0699401, -0.0373334, 0.0545179}},{{-0.0382073, 0.0020783, -0.0127769}, {-0.047052, -0.0701459, 0.0442397}, {-0.0306829, -0.030823, -0.0553985}},{{-0.004835, -0.0586656, -0.0522717}, {-0.069252, -0.0597494, -0.046499}, {0.02966, -0.0192194, -0.0695728}},{{-0.0617503, -0.0324971, -0.0008336}, {-0.030673, 0.0145354, -0.0812565}, {0.0269194, -0.1034329, -0.0017698}},{{0.0116911, 0.0543653, -0.0107993}, {-0.062379, -0.0691489, 0.0613129}, {-0.0599427, 0.0508383, -0.0182697}},{{-0.0804498, 0.0394117, -0.0124189}, {-0.0080683, -0.0390855, 0.0324317}, {-0.0493545, 0.0270168, -0.0308078}},{{0.0344183, 0.0427441, -0.043851}, {-0.0827654, -0.0102656, -0.0679742}, {-0.0456549, -0.0251884, -0.0380629}},{{0.0119879, 0.0464808, -0.0741692}, {0.0260009, 0.0082059, 0.0168863}, {-0.0202759, 0.0578909, 0.0368535}},{{-0.0062197, -0.0533502, -0.003473}, {-0.0179213, 0.0074715, -0.0235556}, {-0.0038809, -0.0246087, -0.0539639}},{{-0.0277596, 0.0428764, 0.0195645}, {0.0725902, 0.0126245, 0.0083973}, {0.064943, -0.052066, 0.0553944}},{{-0.0299123, 0.0010058, -0.0695942}, {-0.0199022, -0.0623007, -0.0220407}, {0.0112001, 0.0016346, -0.0707781}},{{-0.0069462, 0.0194926, 0.0258978}, {0.0663357, 0.0356291, -0.0721718}, {-0.0443679, -0.0204452, 0.045978}},{{0.0087194, -0.0438585, -0.0917876}, {0.0330798, -0.0047677, 0.025956}, {0.0514554, -0.0443067, 0.006603}},{{-0.0165261, -0.0260681, -0.0030138}, {-0.1004912, -0.0538811, -0.0565117}, {-0.0092621, -0.05662, -0.0831242}},{{0.0375846, 0.0276561, -0.0393229}, {-0.0652134, 0.0173975, -0.0344566}, {-0.0071883, -0.0446137, -0.0004887}},{{-0.0609324, -0.036932, -0.0688962}, {0.0326112, -0.006729, 0.0364852}, {0.0389489, -0.0039146, 0.0566799}},{{-0.0180098, 0.0236932, -0.0971641}, {-0.0650225, 0.0132242, 0.0068573}, {-0.0717594, -0.0126081, 0.0218425}},{{-0.035159, -0.0103556, 0.051821}, {-0.0065732, 0.0013208, -0.007162}, {-0.0266666, 0.0267352, 0.0480955}},{{-0.0143873, -0.040646, 0.0351638}, {-0.0250729, -0.0218, -0.0150803}, {0.0032351, -0.0378084, -0.0126201}},{{-0.0292094, -0.0591029, 0.0109561}, {0.0247194, -0.0106057, 0.052481}, {0.0399935, -0.0856884, -0.0552623}},{{0.0256633, -0.0533817, -0.0281907}, {-0.0628052, -0.0082032, -0.0308103}, {-0.0418856, 0.0446735, 0.003144}},{{-0.0189993, 0.0326681, -0.0696982}, {-0.0557339, 0.0480684, -0.0490243}, {-0.0768081, 0.0143735, 0.0116856}},{{0.0323074, 0.0238347, -0.0092538}, {-0.0657351, -0.0577178, 0.0353302}, {-0.0505556, 0.0387158, 0.0092514}},{{-0.0426095, -0.0376863, -0.0392822}, {0.0136106, -0.0072617, -0.0753438}, {-0.0790047, -0.0535551, -0.0857859}},{{0.0102312, 0.0588473, 0.061}, {-0.0911358, -0.0564077, -0.03995}, {0.0055384, -0.0429779, -0.0384934}}}
{{{-0.0413984, 0.0313611, -0.049927}, {0.0327854, 0.0072351, -0.011095}, {0.0135093, -0.0659237, 0.0224735}},{{-0.0525196, -0.0354924, 0.0482736}, {0.0323833, 0.039406, -0.0973491}, {0.0199225, -0.0890356, -0.0766099}},{{0.0501784, -0.0328848, -0.0062282}, {0.0233933, -0.0052024, 0.0398151}, {-0.0133525, 2.29e-05, -0.0826496}},{{-0.0121142, -0.0664352, -0.0134919}, {-0.0089021, 0.037775, -0.0311446}, {0.0645212, 0.0322325, -0.0523374}},{{-0.0422553, -0.07786, 0.0092409}, {0.0320977, 0.0462093, 0.011691}, {0.0561349, -0.0008839, -0.0110291}},{{-0.0891811, 0.0020785, -0.0864738}, {-0.0536352, -0.0076028, -0.0048642}, {0.0127541, -0.0021423, 0.0113615}},{{0.0360849, 0.0059012, -0.0585793}, {-0.1116522, 0.0910976, 0.0704414}, {-0.0758354, 0.0791211, 0.051708}},{{0.0425281, 0.0245024, -0.03046}, {0.0262764, -0.0783763, -0.0306726}, {0.0277169, -0.0563355, -0.0575678}},{{0.0190121, 0.0145505, 0.0109755}, {-0.0160905, -0.0137621, -0.057325}, {0.0447762, -0.003266, -0.069585}},{{0.0009108, -0.0443897, -0.0148567}, {0.0144079, -0.0591806, -0.0901067}, {0.0070169, 0.0440996, -0.1046046}},{{-0.0506493, -0.0703806, 0.0375256}, {-0.044554, -0.0556957, -0.1216143}, {-0.0112702, -0.0197782, -0.042266}},{{-0.0543287, 0.0539763, -0.1021494}, {-0.0700279, -0.0831747, -0.0299575}, {-0.0760419, -0.0674264, -0.02431}},{{-0.0218558, -0.056085, -0.0533934}, {-0.0133603, -0.0927574, -0.0747388}, {0.0033641, 0.0381446, -0.0165998}},{{-0.055026, 0.0314399, -0.0155531}, {-0.0603727, -0.0170729, 0.0283231}, {0.0460401, -0.0476657, -0.0151544}},{{-0.0099549, -0.0567333, -0.0904596}, {0.0793047, 0.0484652, -0.069491}, {-0.0065037, -0.063094, -0.0451242}},{{-0.0395383, 0.0534169, -0.0724381}, {-0.059014, -0.0013428, -0.0803414}, {0.0114328, -0.0431231, 0.0525981}},{{0.0109047, 0.0697175, -0.0443134}, {-0.0105215, -0.0534145, -0.1023635}, {0.0669102, -0.0356001, 0.037739}},{{0.0207671, -0.0625878, 0.0286363}, {-0.0102867, -0.0153199, -0.0102805}, {-0.0139237, 0.0439887, 0.0009053}},{{-0.0803718, -0.0037765, 0.0144164}, {0.0295445, -0.0275696, -0.0237436}, {0.0322671, -0.0006197, -0.0807389}},{{-0.0089853, -0.0208762, 0.0395376}, {0.0240672, 0.0438251, 0.006412}, {-0.0276576, -0.0309587, -0.0114769}},{{-0.0024756, 0.0525826, -0.0666264}, {0.0062652, 0.0503613, -0.0482261}, {-0.046141, -0.0886677, -0.0709979}},{{0.0225877, -0.0109967, -0.0563053}, {-0.1048844, -0.0381509, 0.0302425}, {-0.0197228, -0.0415716, 0.0487309}},{{-0.0428008, -0.0933079, -0.0380436}, {0.0020643, -0.0771743, -0.0376345}, {-0.0361796, -0.0415125, -0.0863523}},{{-0.0674879, 0.023702, 0.0197313}, {0.0654334, -0.0438106, -0.099239}, {-0.035563, -0.0981091, -0.0261063}},{{0.0052948, -0.0013883, -0.0811646}, {0.0200315, -0.0744681, -0.0159863}, {-0.0584798, -0.1075946, -0.0606476}},{{-0.0087481, -0.0638206, 0.0345497}, {-0.016656, -0.0008796, -0.0499438}, {0.0345932, -0.0189164, -0.0651099}},{{0.1016236, 0.0324201, 0.0308813}, {0.0726345, 0.0298674, 0.0992069}, {0.0768033, 0.0358303, -0.02013}},{{0.0045536, 0.00421, -0.0262051}, {-0.0452071, 0.0256636, -0.0402638}, {-0.0652125, -0.0300985, 0.0358607}},{{-0.0608039, -0.1404704, -0.0234269}, {-0.1141678, -0.0889411, -0.1153355}, {-0.0261537, -0.0467215, 0.0403484}},{{-0.0420522, -0.0431512, -0.1090374}, {0.0003803, -0.0040513, 0.0259819}, {-0.040029, -0.074249, -0.0233929}},{{-0.0140719, 0.0919531, -0.069376}, {-0.0529272, -0.0637706, -0.0410096}, {-0.0662211, -0.0073445, -0.0386248}},{{-0.1122093, -0.0292563, 0.0079787}, {-0.0069893, -0.0115, -0.0207813}, {-0.0904547, -0.0340288, 0.0221371}},{{-0.0191639, -0.083675, -0.1046233}, {-0.0485007, -0.0780779, 0.0071687}, {-0.0960497, -0.022262, -0.0296282}},{{0.0216827, -0.0810205, -0.0531252}, {0.0540451, 0.0233568, -0.0555887}, {-0.0765498, 0.0226989, 0.0415687}},{{-0.0824175, 0.0046737, 0.0398487}, {-0.0862284, -0.0167033, -0.0032907}, {0.0402651, -0.000549, -0.0889972}},{{-0.051391, 0.0628056, 0.0012485}, {0.0740822, 0.0324383, -0.0031013}, {0.0538449, -0.0013453, -0.0261223}},{{-0.0768946, -0.076547, -0.0692395}, {-0.0038677, -0.0125332, -0.1224183}, {-0.0335739, -0.049366, -0.0971381}},{{-0.0572504, -0.0999893, -0.0983683}, {0.0109379, -0.0222712, -0.0975999}, {0.062544, -0.0044988, -0.0354927}},{{0.0240939, -0.0492106, -0.0295891}, {-0.0589003, -0.0364997, 0.0185154}, {-0.0745087, -0.0920433, -0.0884976}},{{-0.0537484, -0.0694826, -0.0024025}, {-0.0793371, -0.0482965, -0.0288355}, {0.006647, -0.034268, -0.0105791}},{{0.0101453, 0.0223567, 0.0599633}, {-0.0141899, 0.102894, 0.0213984}, {0.0326136, 0.1071456, 0.025327}},{{0.0148048, -0.0116229, -0.074531}, {0.0577241, 0.0719174, -0.0191316}, {-0.0413792, 0.0318631, -0.0998786}},{{-0.0620955, -0.0022074, -0.0994387}, {-0.0738353, -0.0731759, 0.0037451}, {0.040165, -0.0474948, -0.1033985}},{{-0.014684, 0.0139497, -0.0137208}, {-0.0589239, -0.0443831, -0.0264374}, {0.0222245, -0.0128184, 0.0661831}},{{-0.0565462, -0.0734353, -0.1532233}, {-0.0236612, -0.0594636, -0.0068812}, {0.037141, -0.0247274, -0.0500205}},{{-0.0933028, 0.0385485, -0.0265646}, {0.0004649, -0.0037635, -0.0597742}, {0.007851, -0.088398, -0.0517592}},{{-0.0231875, -0.0519417, -0.0529841}, {-0.0671679, -0.0113269, -0.0774486}, {0.0397765, 0.0566055, 0.0041214}},{{-0.0455214, 0.0362347, -0.0147772}, {-0.1023602, 0.0131795, -0.007253}, {-0.1086079, -0.0249442, -0.0374}},{{0.002381, -0.0150563, -0.0553147}, {-0.0145294, -0.0026214, 0.0280803}, {-0.0197361, 0.054851, 0.0443408}},{{-0.0543116, -0.0507695, 0.0396608}, {0.0012896, -0.0296384, 0.0244605}, {0.0125639, -0.0418316, -0.0918923}},{{-0.0451392, 0.0002896, 0.0567681}, {0.0264641, 0.05854, -0.0408861}, {0.0666574, 0.0571343, -0.0569293}},{{0.0008282, 0.0644133, -0.0085331}, {-0.1070629, -0.0178776, -0.0183811}, {-0.0094245, -0.0739379, 0.024896}},{{-0.0370552, -0.0472504, -0.0675985}, {-0.0561239, -0.0794683, -0.073269}, {-0.0274209, -0.0932378, -0.0183418}},{{-0.0979131, 0.0018686, -0.0639244}, {0.0243382, -0.0743736, -0.0584106}, {-0.0680541, 0.0208329, 0.0125375}},{{-0.0470904, -0.0200101, 0.0517591}, {-0.001815, -0.0650782, -0.0224524}, {0.0291774, -0.0063658, -0.0932264}},{{-0.0740573, -0.0943286, -0.0424376}, {-0.1087308, -0.0530631, -0.0677426}, {-0.1180241, -0.0576196, 0.0259988}},{{-0.0667714, -0.0057809, 0.0027177}, {0.0352182, -0.0522227, 0.0451728}, {-0.0246066, 0.0489083, -0.040065}},{{0.0268496, 0.0049452, -0.1102343}, {-0.014484, -0.0412746, -0.0118411}, {-0.027624, 0.0566817, -0.0777609}},{{0.0123085, -0.0828105, 0.0508718}, {-0.0201243, -0.0055238, -0.0188913}, {-0.0056949, -0.0178877, -0.055349}},{{0.0040336, 0.0087871, -0.0914275}, {0.0081598, -0.0468544, 0.006861}, {0.0697503, 0.0485195, -0.055367}},{{0.0011882, 0.0313148, -0.0420911}, {-0.0426808, -0.0864071, -0.038059}, {-0.1051645, 0.0013107, -0.0813948}},{{-0.0458818, 0.0606114, 0.0417606}, {0.0570042, 0.0063353, 0.0436941}, {0.0077862, 0.0769662, -0.0110624}},{{-0.0260122, -0.0106224, -0.0258915}, {-0.0613589, -0.0005791, -0.0023521}, {0.0070324, 0.0180491, -0.0181641}},{{-0.0690268, -0.0620506, -0.0200331}, {-0.0344138, -0.053708, -0.0376162}, {0.0148029, 0.021585, -0.0622777}}}
{{{0.0483892, -0.0762879, -0.061866}, {0.0092095, 0.054747, 0.0432724}, {-0.0096082, -0.0152654, -0.0101589}},{{-0.0890009, 0.0398101, 0.0332848}, {-0.0384643, 0.0596094, 0.0543563}, {0.0005656, -0.034025, 0.050579}},{{-0.0285264, -0.132656, 0.0233335}, {-0.0936868, -0.148633, 0.0107416}, {-0.1624747, -0.1176249, -0.0585641}},{{0.0966321, 0.0942748, 0.039134}, {0.0340718, 0.0597381, 0.0129325}, {0.0780813, -0.0696181, 0.0060634}},{{-0.070457, 0.0653998, 0.0358205}, {-0.0505588, -0.0776761, 0.0430012}, {-0.0060203, -0.0617643, -0.0992545}},{{-0.070365, -0.1101508, -0.0480358}, {0.0324668, -0.0938689, 0.0012813}, {-0.0729559, 0.007434, 0.0083336}},{{-0.0391781, -0.0495214, 0.0816665}, {-0.0285519, -0.0774022, 0.0738074}, {-0.0557935, -0.052124, -0.014623}},{{-0.0586664, 0.0234084, -0.0964485}, {-0.0545218, -0.0719584, -0.0701893}, {-0.016612, -0.0138244, -0.0035431}},{{0.0678602, 0.0285243, -0.0384065}, {-0.0809764, 0.0546951, -0.0424319}, {0.0594736, 0.0031791, -0.014978}},{{-0.0235302, 0.0402038, -0.0163434}, {-0.0458239, -0.1264666, -0.0093812}, {-0.0229361, -0.0568776, -0.0673949}},{{-0.0980768, -0.0326262, -0.0334504}, {-0.0300939, -0.1068499, -0.0724652}, {0.0253456, -0.0719979, 0.0517608}},{{-0.0473473, -0.0172393, -0.0470207}, {-0.1010913, -0.0045665, -0.037914}, {-0.1145663, -0.0236168, 0.0492936}},{{0.0488466, 0.0470607, -0.0321117}, {-0.0681764, -0.0881756, 0.0167157}, {-0.0487361, 0.0541436, -0.0438213}},{{-0.0345166, 0.0595708, 0.0675998}, {0.0303562, 0.0539765, -0.020015}, {0.0123491, -0.0737269, 0.0188118}},{{0.0799266, -0.014708, 0.0097922}, {0.0622295, -0.0298603, 0.0268416}, {-0.0011529, 0.0292122, -0.067534}},{{0.0019118, -0.0198825, 0.0289603}, {0.0155566, -0.0135914, -0.0036716}, {0.0227003, 0.0250469, 0.0543641}},{{0.019384, -0.0511931, 0.0363206}, {0.0406912, -0.0680388, -0.0437529}, {0.0194917, 0.0425867, 0.0577689}},{{-0.0521879, 0.0636959, 0.0248309}, {-0.0524856, 0.066677, 0.004541}, {-0.0220034, -0.0057164, -0.0133119}},{{-0.0165969, -0.1070018, -0.0698033}, {0.0373908, 0.033605, 0.0132946}, {-0.1298268, -0.0760617, -0.2009768}},{{0.0040278, -0.0405594, -0.0389381}, {0.0575463, 0.0219867, -0.0432175}, {-0.0337005, 0.0362875, -0.0053955}},{{-0.0436396, 0.0015818, 0.0738184}, {-0.0585184, -0.1114158, 0.0275081}, {-0.0622927, -0.0307937, 0.0382311}},{{-0.0006085, -0.0509523, -0.0787497}, {0.0004816, -0.0173124, -0.0473948}, {-0.0740623, 0.0428687, 0.0461523}},{{-0.0218967, -0.0969374, -0.0614084}, {-0.0490691, -0.040176, 0.0090462}, {-0.2005098, -0.0878152, 0.0624246}},{{0.0679451, 0.1174833, -0.0536375}, {-0.0629315, -0.0625267, -0.0486173}, {-0.0297937, 0.0708299, 0.0208731}},{{0.0311451, -0.0116898, -0.0756966}, {-0.0094819, -0.0190606, -0.0552229}, {-0.1011924, -0.0924631, -0.080695}},{{-0.045784, 0.0211267, -0.0585803}, {0.0243669, -0.0525124, -0.0610004}, {-0.0087421, -0.0498492, 0.0376382}},{{0.0129832, 0.0849908, 0.0105709}, {-0.0808716, 0.0664025, 0.0279896}, {-0.0476302, 0.0171228, 0.0196096}},{{0.0376971, -0.077107, 0.0313775}, {-0.0967267, -0.0117222, -0.0580359}, {0.0298632, 0.0997978, -0.0066835}},{{-0.0277121, 0.011143, -0.1132562}, {-0.0816797, 0.0495241, 0.0073284}, {-0.0325141, 0.0364858, -0.0098266}},{{-0.0756937, -0.0111806, 0.0845028}, {0.0529941, -0.0780349, 0.0331314}, {0.033356, -0.0413452, 0.0028055}},{{0.0160336, 0.0002994, 0.0442159}, {-0.0935798, 0.0359426, 0.0063413}, {-0.0253667, -0.070509, -0.0128206}},{{0.0044673, 0.0391627, 0.024834}, {-0.0376072, -0.0492623, -0.0297013}, {-0.0355349, -0.004481, 0.0897735}},{{-0.1266931, -0.077075, -0.0986411}, {-0.2024549, -0.0605483, -0.0861829}, {-0.0645368, 0.0057006, 0.0140599}},{{-0.0487643, -0.0632885, -0.0364308}, {-0.0885722, -0.0889674, 0.02641}, {0.0330694, -0.0335894, -0.0483398}},{{-0.1262953, -0.1333906, -0.1008551}, {-0.1582699, -0.0939832, -0.0534654}, {-0.017943, -0.0752455, 0.0255208}},{{0.0697276, 0.0050285, 0.0340987}, {0.0609183, -0.0277911, 0.0367378}, {0.0616921, -0.0633425, 0.0288519}},{{-0.0161598, -0.0454373, 0.0408571}, {-0.0180819, 0.0979679, 0.0173223}, {-0.0600797, -0.0139933, 0.0394243}},{{-0.0038294, -0.0905441, -0.0770813}, {0.0218005, -0.1198638, 0.0698946}, {-0.1465095, -0.0515234, 0.0104026}},{{0.0216048, -0.0434566, 0.0067509}, {0.0317315, 0.0728152, 0.0322617}, {0.0045541, 0.0919933, -0.0724525}},{{-0.1135883, 0.026268, -0.0185256}, {-0.0156653, 0.0581219, -0.0176932}, {0.0157767, 0.006191, -0.0193505}},{{-0.0391435, -0.022522, 0.0572557}, {0.0724544, 0.0731317, 0.0491081}, {-0.0169254, 0.0064042, -0.0148471}},{{-0.009786, -0.0288386, -0.0211573}, {-0.0801638, -0.1036031, -0.0132486}, {0.012765, -0.013268, -0.0999274}},{{-0.0794692, -0.0854278, -0.0038624}, {0.0203676, 0.0141059, -0.0824778}, {-0.0474022, -0.0917813, -0.0453769}},{{0.0218929, 0.0607569, 0.0031424}, {-0.0270402, 0.0053929, 0.0547737}, {-0.0624497, 0.0409643, -0.0559789}},{{0.0549697, 0.0560706, 0.0330598}, {0.0082007, -0.0197554, 0.002179}, {0.026481, 0.0284008, -0.0336531}},{{-0.0202157, -0.0076157, 0.0318415}, {-0.0835617, -0.0110818, -0.0320344}, {-0.0520151, -0.0158556, -0.0794639}},{{0.0908765, 0.0780583, 0.0683927}, {-0.0122973, -0.0219467, -0.0491959}, {-0.0293993, 0.0296406, -0.1219411}},{{0.0255697, -0.0057208, -0.0176294}, {-0.0485827, -0.0738171, -0.0443669}, {0.0666029, -0.0376143, -0.0239871}},{{0.0247504, 0.0552705, 0.0554524}, {-0.0408429, -0.0731151, 0.0147983}, {-0.0752354, -0.0176735, 0.0204778}},{{0.0141139, -0.1551869, -0.0672087}, {0.0144224, -0.0498662, 0.0232786}, {-0.0651783, -0.0177113, -0.0585211}},{{0.0429472, -0.0332251, 0.0726054}, {-0.0376019, -0.0562387, 0.0556186}, {-0.0326992, 0.0155181, 0.0080712}},{{-0.0408665, -0.1085701, -0.0014962}, {-0.0576247, 0.0105805, 0.0478543}, {0.0568509, -0.0630179, -0.0087511}},{{-0.040272, -0.050195, -0.021553}, {-0.1301498, -0.0199956, 0.0227829}, {-0.0799437, 0.0390627, -0.0609955}},{{-0.0020625, 0.0310222, -0.0339082}, {-0.0911234, -0.0095205, 0.0520585}, {-0.0054986, -0.1250408, -0.0871263}},{{-0.0490669, 0.0421058, -0.069111}, {-0.0289644, -0.042526, -0.0459448}, {-0.0099024, 0.0114877, -0.066254}},{{-0.0782242, -0.0229214, -0.0267731}, {-0.1258569, -0.0923127, -0.0978951}, {0.0011297, 0.0088411, 0.0060327}},{{-0.0080958, 0.0592715, 0.0006214}, {-0.0764112, -0.1253789, -0.1207125}, {0.0174356, 0.0242251, -0.0083944}},{{-0.1032055, -0.0903692, 0.0320545}, {-0.0166953, -0.0605939, -0.0087389}, {-0.0357286, -0.046847, 0.0061659}},{{-0.0925334, 0.0911025, -0.0899193}, {-0.0226164, -0.0935735, -0.0137836}, {-0.0979744, 0.0441677, -0.0474137}},{{0.0811965, 0.0717567, -0.0608054}, {-0.016738, 0.0508162, 0.00227}, {-0.019694, 0.0065343, -0.0636801}},{{-0.043975, -0.0478797, 0.0594745}, {-0.0517355, -0.1208143, -0.0544443}, {0.0210632, -0.048811, 0.0885433}},{{0.010546, -0.0405455, 0.017631}, {-0.0020962, -0.0264337, -0.0219981}, {-0.0250121, -0.0749098, 0.0473285}},{{-0.0465675, -0.1159795, 0.0383421}, {-0.0677021, -0.0632465, -0.0012262}, {0.0441181, -0.0724162, -0.0466463}},{{0.0872957, -0.0764603, -0.0842037}, {0.0645344, -0.0102729, 0.0460416}, {0.0545273, -0.0362252, -0.0416438}}}
{{{0.0727815, 0.025393, 0.0446836}, {-0.0366039, 0.0405199, 0.0582972}, {-0.0105798, -0.0035689, 0.0226703}},{{-0.0798129, 0.0626283, -0.1320809}, {-0.0233361, 0.045972, -0.0800968}, {0.0769705, -0.1116386, -0.1283734}},{{-0.1810536, 0.1135573, 0.1077822}, {-0.2915807, -0.0793582, -0.1123482}, {-0.0588654, -0.1792535, -0.1440881}},{{0.0186111, -0.0358492, 0.075172}, {0.0809125, 0.0919105, 0.1140623}, {0.0965153, 0.1760497, 0.116465}},{{-0.0595929, 0.0025424, 0.0254694}, {-0.0170443, -0.0905758, 0.0129681}, {-0.0004344, -0.032826, 0.0741607}},{{-0.3323604, -0.0099346, 0.0977371}, {-0.1393181, 0.0177003, 0.0176717}, {-0.0478114, 0.087155, -0.0280378}},{{0.0785568, -0.0103201, -0.1238381}, {-0.0304117, -0.297007, -0.0819614}, {0.2928121, -0.1704956, 0.1349838}},{{-0.0425921, -0.0125462, 0.0071981}, {-0.0339028, -0.1305058, 0.0282425}, {0.0084725, -0.0254189, 0.283216}},{{-0.0620518, 0.166673, 0.0381437}, {0.0455713, -0.0934184, -0.1605872}, {0.1041543, -0.0379739, 0.0936088}},{{-0.2612582, -0.2118741, -0.0449297}, {-0.0729387, -0.2275779, 0.1906324}, {-0.053803, -0.1458387, -0.0063835}},{{-0.199402, -0.0591537, -0.2511246}, {-0.3182828, -0.0221627, -0.1807054}, {-0.1475996, -0.0101654, -0.0372896}},{{-0.210714, 0.1018152, -0.1302014}, {-0.1992221, 0.1581075, 0.162961}, {-0.2000052, 0.0126969, -0.0730811}},{{0.0519867, -0.0444223, 0.0490981}, {-0.0030163, -0.0225197, 0.0374963}, {-0.0543596, 0.0232133, -0.0236825}},{{-0.1343125, -0.0100247, -0.0039071}, {0.0171601, -0.0372188, -0.1206401}, {0.0089785, -0.1010254, -0.0321103}},{{-0.1219847, -0.0681679, -0.0328846}, {0.0479475, -0.1031413, 0.1091207}, {-0.0885385, 0.0038963, 0.0906825}},{{0.0278599, 0.1204518, 0.005789}, {-0.1767011, 0.0131493, -0.1424247}, {0.0580235, -0.1292969, -0.0561973}},{{-0.2416911, 0.033525, -0.007231}, {0.083822, 0.0448694, 0.1549004}, {0.0197477, -0.2343282, 0.1347805}},{{0.0984094, 0.0600049, -0.0082727}, {0.0899493, 0.0973239, 0.0509094}, {-0.0643029, 0.1116677, 0.0210864}},{{-0.1547654, 0.0615627, -0.0390663}, {0.185411, 0.0495054, 0.0219314}, {-0.0327253, 0.1055866, 0.0974282}},{{0.0675702, 0.1746267, 0.0888743}, {0.0482341, 0.1628033, 0.0722376}, {0.0568372, 0.0873441, 0.0910664}},{{-0.0817031, -0.2740319, -0.1452739}, {-0.1152153, -0.1068646, -0.0497868}, {-0.1155, -0.0835835, -0.0271888}},{{-0.4142677, -0.0065885, 0.0534218}, {-0.114211, 0.0461274, 0.1184405}, {-0.0894679, -0.0258802, 0.0933713}},{{-0.1782888, -0.1053626, -0.0771961}, {-0.1043884, 0.1285651, -0.2324705}, {0.0202311, -0.1174139, -0.3533942}},{{-0.0405789, -0.0193835, 0.0171851}, {0.0414742, 0.1525057, 0.1237553}, {0.1061879, 0.078641, 0.1547166}},{{-0.1112207, -0.0172617, -0.0728773}, {0.1914878, -0.2309253, -0.2112352}, {0.0075416, -0.102795, -0.2712306}},{{0.0271612, 0.0336661, -0.0427462}, {-0.0023725, 0.0530505, -0.0225979}, {0.0329098, 0.0477995, 0.0825953}},{{0.1214343, -0.0371732, -0.0319852}, {0.0616208, -0.0307644, -0.0228777}, {0.0161293, -0.0956433, -0.0017875}},{{-0.1188351, -0.1127872, 0.0906833}, {0.0096661, -0.0560653, 0.1224512}, {0.0896081, -0.1173053, 0.0071085}},{{-0.1480024, -0.2822396, 0.1466869}, {-0.164502, 0.0488973, 0.2254896}, {-0.239743, -0.0388815, 0.0091513}},{{-0.0586795, 0.034439, -0.0334773}, {-0.0280234, 0.0220305, 0.0862712}, {-0.0714031, 0.0046145, 0.0194641}},{{0.3276404, 0.001328, 0.2215398}, {0.0092448, -0.1055307, -0.1191139}, {-0.1201781, -0.0020702, -0.103502}},{{-0.3802161, -0.221173, -0.1322666}, {0.0258927, 0.0676139, 0.0048807}, {0.0462068, 0.1043348, -0.24029}},{{-0.2563579, -0.2055959, -0.245856}, {-0.1771644, -0.0572449, -0.0499359}, {-0.1233519, 0.1599462, 0.1251041}},{{0.0617761, -0.0041454, 0.0540899}, {0.0872255, -0.0172397, 0.1037627}, {-0.023321, 0.0047639, 0.001412}},{{-0.0938392, 0.0716208, -0.1602406}, {-0.0178779, 0.0017689, -0.0131317}, {-0.0339986, -0.1957287, -0.030515}},{{0.0223833, 0.0506305, 0.0623925}, {0.0581282, -0.0027489, 0.0035055}, {0.0206683, 0.0610713, -0.0548454}},{{-0.1033605, -0.0065548, -0.1052764}, {-0.0253513, 0.0068878, 0.017629}, {0.0010754, 0.0007249, -0.0563981}},{{0.1168345, -0.020678, -0.1021823}, {0.3338896, 0.2036199, -0.244138}, {-0.1513784, 0.1370046, -0.2925379}},{{-0.019638, 0.021246, 0.0092946}, {-0.0437648, 0.0727941, -0.0408754}, {-8.66e-05, -0.0450672, 0.0029062}},{{0.1473622, 0.0365929, 0.0529573}, {0.0395844, -0.1575329, -0.1080947}, {-0.0047241, -0.0107601, -0.0674439}},{{-0.0281326, -0.0350993, -0.0533441}, {0.0109649, 0.0637276, -0.021621}, {0.0342919, 0.0508303, 0.0878475}},{{-0.088446, -0.0276206, -0.0585068}, {0.0347302, 0.1376301, 0.093787}, {0.1656319, 0.2096027, 0.1225123}},{{-0.0948454, 0.0505055, 0.1560154}, {0.0058418, -0.2168328, -0.0802587}, {-0.0003657, -0.159442, -0.063435}},{{-0.0652818, -0.0393117, 0.0010698}, {-0.0476783, 0.0536016, -0.0186158}, {0.0501791, 0.0339843, 0.0547501}},{{-0.1210208, -0.0063365, -0.0611443}, {-0.1521456, 0.0661424, 0.0540597}, {0.053404, 0.2085984, 0.1552887}},{{-0.0681053, -0.1048687, 0.1605466}, {0.1047338, -0.0431194, 0.1160859}, {0.3027957, 0.1285971, 0.101832}},{{-0.0423073, 0.00146, 0.063487}, {-0.0390709, 0.0544811, -0.0351534}, {0.0909297, 0.1240765, 0.0630077}},{{-0.0262749, 0.1120213, 0.0816084}, {0.1110322, 0.1593722, -0.0005118}, {0.0944571, -0.0004009, -0.0918974}},{{-0.0654759, -0.0021111, -0.020696}, {-0.0871117, 0.0122164, 0.0167544}, {-0.0705579, -0.0141604, 0.0274438}},{{-0.1186049, -0.1429084, -0.2017284}, {0.1902129, 0.075378, -0.1611677}, {-0.1710527, -0.2997771, -0.3657461}},{{-0.0429406, -0.0794038, -0.0515942}, {-0.0572347, -0.0231438, -0.0256908}, {-0.0279887, 0.0198371, 0.0022163}},{{-0.0599623, -0.1299162, 0.044237}, {-0.2892831, -0.0405388, 0.0737256}, {-0.2034207, 0.0581146, 0.2304369}},{{-0.1764141, -0.033923, -0.0176527}, {-0.1648788, 0.0104809, 0.0988793}, {-0.3311211, 0.1065422, 0.1711894}},{{0.1675873, 0.1764915, 0.1270418}, {-0.1038497, 0.0204016, 0.1987068}, {-0.156882, -0.1161532, -0.141575}},{{0.1127776, 0.0820196, -0.0227244}, {-0.0140768, 0.0338255, 0.0565429}, {0.1137656, -0.0319595, 0.1177508}},{{-0.4284567, -0.242643, 0.1512318}, {-0.038844, 0.0223182, 0.0421689}, {0.0355445, 0.0793669, -0.0505583}},{{-0.0167917, -0.1768014, -0.1868473}, {0.1083172, 0.0212313, -0.0242996}, {0.0349448, -0.0316875, 0.1051616}},{{0.0315626, 0.0286745, -0.0288329}, {0.092522, -0.0108593, -0.1700857}, {0.0983915, -0.139523, 0.105901}},{{0.0375085, -0.2078568, -0.0869095}, {-0.1869743, -0.0099449, -0.0569675}, {-0.0744983, -0.0897023, 0.0137994}},{{0.1480464, 0.10845, -0.1181197}, {-0.0048353, 0.0451429, -0.0221582}, {0.0853912, -0.0736473, 0.0877142}},{{-0.0656599, -0.0266755, 0.0730511}, {0.0704401, 0.0517959, -0.0114126}, {-0.0287792, -0.0230577, 0.0428648}},{{-0.0169328, 0.0094425, -0.0094097}, {0.0825046, -0.0488556, 0.0643111}, {-0.0360718, 0.065468, -0.0332587}},{{-0.1275378, -0.077021, -0.1084307}, {0.0389761, -0.0542657, 0.0507528}, {0.0198583, 0.0386854, 0.0332364}},{{-0.1093834, -0.1170972, -0.0753684}, {0.1925275, -0.0459347, 0.1082907}, {-0.2581752, -0.113976, -0.1186273}}}
{{{-0.0795164, -0.0244758, 0.0556302}, {0.0439173, 0.0098084, -0.0266551}, {-0.0441591, 0.0252781, -0.028692}},{{-0.0825058, -0.0999762, -0.073676}, {0.0256102, 0.0612826, 0.1368409}, {0.0212249, 0.2811546, 0.1152776}},{{-0.0678132, -0.016657, -0.0046725}, {0.037525, -0.0284711, 0.021067}, {-0.034837, -0.0494197, -0.0541261}},{{0.1206001, 0.049246, 0.0598989}, {0.0436837, 0.0404549, 0.0362013}, {0.0424688, 0.0721257, 0.0491616}},{{0.080629, -0.0055115, 0.0501044}, {0.0368645, 0.003565, -0.0423719}, {-0.078584, -0.0884195, 0.0365001}},{{-0.084774, -0.1001295, -0.2140213}, {-0.2927451, -0.2131768, -0.153923}, {-0.2365, -0.2926971, -0.068048}},{{-0.0554038, -0.0492726, -0.1020071}, {-0.0234435, 0.0102699, -0.0945096}, {-0.2564192, -0.0812132, 0.2085872}},{{-0.0382377, -0.0959215, -0.1193936}, {-0.1480768, 0.0888417, -0.0953423}, {0.0008432, -0.0369829, -0.067532}},{{-0.009275, -0.2411133, 0.0445604}, {-0.0976508, -0.0836869, -0.3069804}, {-0.0079495, 0.0153369, -0.0606763}},{{0.0211246, -0.2657729, -0.0486227}, {-0.0299023, 0.0975171, -0.1602339}, {0.013891, 0.0616218, -0.0801506}},{{-0.0653521, 0.0397879, -0.0449905}, {0.0647134, -0.0004185, 0.0356827}, {-0.1224844, -0.0907367, 0.0741315}},{{-0.3681119, -0.0693068, -0.1734548}, {-0.2260245, -0.2565088, -0.0686448}, {-0.1614674, -0.216427, 0.0466399}},{{0.015581, -0.1349498, 0.044362}, {0.0539812, -0.086256, 0.0932612}, {-0.0757078, 0.0407374, 0.0541629}},{{-0.0441259, 0.0069486, -0.0004678}, {-0.060765, 0.0470698, 0.0289288}, {-0.091235, 0.077081, -0.0171928}},{{-0.0038639, 0.0654584, -0.0148207}, {0.0524517, 0.0578509, -0.0733924}, {-0.0171677, 0.0536019, 0.0530373}},{{0.125166, -0.035506, 0.0123979}, {-0.1006361, 0.0045536, 0.0239327}, {0.0894521, 0.1834599, -0.0059261}},{{-0.0429825, -0.1584985, -0.1241263}, {0.1792479, 0.1466031, 0.0758102}, {0.0486733, -0.2029488, -0.1842278}},{{0.0551625, -0.0481139, -0.0130305}, {-0.1357384, 0.0545895, 0.0168734}, {-0.1562984, 0.0650037, 0.05639}},{{-0.1202116, -0.1470088, -0.0910485}, {-0.0708055, -0.0027672, 0.027734}, {0.0030959, -0.2858247, 0.0690863}},{{0.0643822, -0.0047998, 0.0193133}, {-0.0004356, 0.0097669, 0.0637672}, {0.0348285, 0.0303358, 0.0024901}},{{0.0727694, -0.0126176, -0.2527076}, {-0.0693044, -0.0291528, -0.0152365}, {-0.0550372, -0.062548, -0.0799017}},{{0.0262258, -0.0847348, -0.1072317}, {-0.0402926, -0.0154412, -0.191562}, {0.0530679, 0.0053198, -0.1837596}},{{-0.1006819, -0.0356082, -0.1650612}, {-0.3470508, -0.0827466, -0.0684017}, {-0.2586979, 0.0109473, -0.0095836}},{{0.0014594, 0.2031165, 0.1561647}, {-0.0906566, -0.0851608, -0.1024129}, {-0.0490436, -0.0394155, -0.0536264}},{{-0.2731496, -0.1332455, -0.0526657}, {-0.0574842, 0.0438994, 0.0303524}, {-0.0187077, -0.0183058, -0.069201}},{{0.0840045, -0.0382333, 0.0838556}, {-0.0337117, 0.0097468, -0.0452251}, {-0.0391539, 0.050103, -0.0377088}},{{0.105198, 0.1380826, 0.0659354}, {0.0917805, -0.0166308, 0.0016679}, {0.0634645, 0.0606902, -0.046025}},{{0.0021937, 0.0595182, 0.1050145}, {-0.1129151, -0.1624104, -0.1204402}, {0.0942178, 0.0397525, -0.246305}},{{-0.4123137, -0.1639052, -0.0664145}, {-0.1055001, -0.0911807, -0.2858198}, {-0.2084885, -0.2155756, -0.3225105}},{{-0.0834197, 0.0158208, 0.0593753}, {-0.033733, -0.0926961, -0.1141492}, {-0.1196741, -0.0977894, -0.0103105}},{{0.0640837, 0.0556688, 0.1134248}, {-0.1352082, -0.0124826, 0.2296118}, {-0.1410904, 0.1456301, -0.1140742}},{{-0.0520644, -0.0538544, -0.0254683}, {-0.1831114, 0.0022728, -0.1026119}, {-0.1243864, -0.061879, 0.0496586}},{{-0.0653201, -0.1926661, -0.3127547}, {0.1071085, -0.1472171, -0.0989426}, {0.0053869, -0.0893426, -0.1598914}},{{0.0485296, 0.0051817, 0.0309549}, {-0.0344348, 0.0240984, -0.0776771}, {-0.0270477, 0.0690808, -0.0657757}},{{0.0360715, 0.0707688, -0.0231618}, {0.1763741, 0.0360443, -0.1222401}, {0.0726361, 0.0523757, -0.0412591}},{{-0.1069619, 0.0554395, 0.0072604}, {0.041203, -0.0291103, 0.0087057}, {-0.070816, -0.0368308, -0.0686766}},{{-0.0548034, 0.0392462, 0.0062642}, {0.009393, 0.1553331, 0.0485445}, {-0.0512252, -0.0434836, 0.0557287}},{{0.042102, -0.1301583, -0.124476}, {0.0749358, -0.1489819, -0.2360159}, {-0.1333227, -0.001511, -0.3738979}},{{0.0154726, -0.0298045, 0.0488546}, {-0.0274112, 0.0026128, 0.0224263}, {-0.0238388, 0.0189879, -0.0141764}},{{-0.0768009, -0.0731633, 0.0377816}, {-0.021629, -0.0628742, 0.0092131}, {0.0031772, 0.0020943, 0.044496}},{{-0.0972995, -0.0841327, -0.0141475}, {-0.0686125, -0.0792802, 0.0288435}, {-0.0287053, -0.0063073, 0.0030581}},{{0.0828735, 0.0994906, 0.050995}, {-0.0193557, 0.0009641, -0.26656}, {-0.2094621, -0.0133604, -0.2252686}},{{-0.1899687, -0.0813474, -0.0327148}, {-0.0913088, 0.095666, -0.0570486}, {-0.0366224, -0.0435974, 0.1159112}},{{-0.0466454, -0.0378629, 0.0674711}, {-0.0395598, 0.0185467, 0.0182496}, {0.0394837, -0.0590632, -0.0026591}},{{-0.0039, -0.037758, -0.0880763}, {-0.0555267, -0.199951, -0.3682374}, {-0.1512834, -0.2142739, -0.2892884}},{{-0.0031392, 0.169512, -0.0284867}, {0.2276648, 0.0823434, -0.0605501}, {0.1530436, -0.1859715, -0.007256}},{{0.0071663, 0.0875548, 0.0962644}, {0.0447953, -0.0033797, -0.0944545}, {0.0045739, -0.0117812, -0.0007903}},{{-0.0401212, -0.0534083, 0.0019802}, {-0.0859544, 0.0405586, -0.0562014}, {0.0036419, -0.0105004, -0.0930131}},{{-0.0785723, -0.023053, 0.0003228}, {0.0552805, 0.0141097, -0.0752633}, {0.0274314, 0.0437029, -0.0306847}},{{-0.0511476, -0.0478496, -0.1035862}, {-0.1413668, -0.0546289, -0.1267761}, {-0.1560552, 0.0203653, -0.0791122}},{{-0.0112686, -0.0555383, -0.0454661}, {0.0467729, -0.0588822, -0.0328669}, {0.0407695, 0.0458898, 0.0040577}},{{-0.1296309, 0.0090832, -0.0143634}, {-0.0596613, -0.0493777, -0.1365238}, {-0.1318431, -0.0284532, -0.1350274}},{{-0.3579338, -0.0754067, -0.2058499}, {-0.0432565, -0.1056153, -0.085379}, {0.086475, -0.1405839, -0.0057166}},{{-0.0226925, -0.0054014, -0.2824956}, {-0.1471416, 0.1296905, 0.0039002}, {0.0949142, -0.0176784, 0.0135953}},{{0.0303276, 0.0278165, -4.34e-05}, {-0.02497, -0.0456432, -0.0963716}, {-0.0266661, -0.0069227, 0.0774809}},{{-0.308133, -0.0647229, -0.0420217}, {-0.0844637, -0.2397846, -0.0268593}, {-0.1630216, -0.1963307, -0.0939439}},{{-0.1687902, -0.0861472, -0.035107}, {-0.0440976, -0.1030304, -0.0978195}, {-0.2068158, -0.1875065, -0.1297318}},{{-0.2771299, -0.142138, -0.1062745}, {-0.0397244, 0.0943562, -0.0070857}, {-0.0601966, -0.0956798, -0.1336471}},{{0.0309688, -0.0661618, -0.0852213}, {0.1068686, -0.0489253, -0.0475299}, {0.079981, -0.0263144, 0.0644007}},{{0.042129, 0.0516303, -0.0236779}, {-0.07766, -0.0855348, -0.0735399}, {0.0515361, -0.0111408, 0.0269547}},{{0.0678346, -0.0802938, -0.1518474}, {0.1644719, -0.0774773, -0.1337838}, {-0.0193824, -0.0648902, -0.2725874}},{{-0.0620779, -0.0505537, -0.0521075}, {0.0443495, -0.0204731, 0.0100629}, {-0.0702615, 0.0656029, -0.0014161}},{{0.0520014, -0.021601, 0.0211719}, {0.0280703, -0.068281, -0.0955531}, {0.0196422, -0.0829127, -0.1139838}},{{0.0239805, -0.0562124, -0.2424948}, {-0.134567, -0.1289379, -0.1318098}, {0.0464709, -0.144486, -0.1169469}}}
{{{0.0560806, -0.0559011, -0.0135123}, {-0.0761016, 0.0523531, 0.0309115}, {-0.0258855, 0.0223369, 0.0680128}},{{-0.0103717, -0.0766745, -0.0667499}, {0.0421582, 0.0631798, -0.0053442}, {0.0592829, -0.0204693, 0.0471503}},{{0.023163, 0.0334606, 0.0213037}, {0.0575139, -0.0441652, 0.0076544}, {-0.0429146, 0.0735012, 0.066706}},{{0.0372631, -0.0358511, 0.0036663}, {-0.0601636, -0.0996478, 0.0346701}, {0.0279283, 0.0197615, -0.0400698}},{{-0.0738522, -0.0189641, -0.0322067}, {-0.012956, -0.0039353, 0.0638251}, {-0.0653734, -0.0461522, -0.0400786}},{{4.85e-05, -0.1001165, -0.0969662}, {-0.0446903, -0.0641813, -0.1451705}, {-0.1001385, -0.0029315, -0.1261875}},{{0.0779448, -0.0979207, -0.0287726}, {-0.0488034, -0.1370658, 0.0746052}, {0.0307873, -0.1862076, -0.0152868}},{{-0.1516142, -0.0402027, 0.0082994}, {-0.0561028, -0.0239908, 0.0027897}, {-0.1357103, 0.0303271, -0.06387}},{{0.0322852, 0.076277, -0.0669307}, {0.1379466, 0.017617, -0.1266746}, {0.0060824, -0.0161961, -0.0730026}},{{-0.0232933, 0.0187944, -0.002991}, {0.0011596, -0.0061004, -0.0323433}, {-0.0177804, -0.100165, -0.0874235}},{{-0.0222569, -0.0574072, -0.0322369}, {-0.0394375, 0.0341829, -0.135048}, {-0.0801276, -0.0350979, -0.0187853}},{{0.0004784, 0.0041503, 0.0372452}, {0.0447645, 0.0639313, -0.0239761}, {-0.0321058, 0.0090099, -0.1186885}},{{-0.0780275, -0.0850196, 0.0060598}, {-0.0339957, 0.041932, 0.0942582}, {-0.0310053, -0.0439419, -0.0517667}},{{-0.0779806, 0.0033287, 0.005541}, {0.0421533, 0.0463142, -0.0014411}, {-1.94e-05, 0.0645461, 0.0128193}},{{-0.0071358, -0.1438186, -0.0863958}, {0.0144672, -0.1401699, -0.0013507}, {0.0767123, -0.0328786, 0.0329344}},{{-0.0570123, -0.0397518, -0.0296849}, {0.0198953, 0.0672885, -0.001289}, {0.0357316, 0.0200865, 0.0141746}},{{-0.045372, -0.0296267, 0.0098378}, {-0.0496839, -0.0507465, 0.0278595}, {-0.0603391, -0.1120432, 0.0553358}},{{0.0811787, 0.003768, 0.0175184}, {0.0329587, 0.1071871, -0.066155}, {0.0285643, 0.0881244, 0.0254616}},{{-0.1010641, -0.0736009, -0.0596934}, {-0.1058014, 0.0206069, -0.0032621}, {-0.0861314, 0.0169468, -0.0213599}},{{-0.0128242, 0.0177815, 0.0063114}, {0.0468375, 0.0112731, -0.0470778}, {-0.0058095, 0.0088478, 0.091393}},{{0.0083041, -0.0169922, -0.0480074}, {-0.032106, 0.0331171, 0.0598083}, {0.0402534, -0.0463918, -0.0042069}},{{-0.0732295, 0.003426, -0.1263663}, {-0.1023013, -0.0867495, -0.0295006}, {-0.0619737, -0.0165901, 0.0215669}},{{-0.0323431, 0.0334351, -0.073442}, {0.0054605, 0.0322081, -0.0556172}, {-0.0788499, 0.0796971, 0.0510993}},{{-0.0346775, -0.0045055, -0.0327079}, {0.0201235, 0.0850056, 0.0017985}, {0.0604452, -0.0171314, -0.1045754}},{{-0.0600106, -0.0684423, -0.0387612}, {-0.0263028, -0.1156589, 0.0451333}, {-0.0724386, -0.0299735, -0.0129914}},{{0.0409151, -0.0043501, -0.0852038}, {-0.0170313, 0.0264432, 0.058609}, {-0.0131429, 0.0573221, -0.0546689}},{{-0.0444362, 0.0714684, 0.0666758}, {-0.0290824, 0.0274638, -0.0474148}, {-0.0276226, 0.0266881, 0.0505151}},{{-0.0553699, -0.0105191, -0.0678508}, {0.0164697, 0.0299319, -0.1045166}, {0.0411945, -0.0058235, -0.057109}},{{-0.0342689, -0.0001813, -0.0646324}, {-0.113223, 0.0083401, -0.0977478}, {-0.1705866, -0.061822, -0.0772419}},{{-0.004191, 0.0283842, -0.0697722}, {-0.0470977, -0.0710452, -0.0248593}, {0.0379221, 0.0050946, 0.0240871}},{{0.0041215, 0.0032645, -0.0381823}, {-0.1134838, 0.0145958, 0.0834159}, {-0.0950745, -0.0439983, 0.023362}},{{-0.0759218, -0.0351922, -0.0341326}, {-0.1135394, -0.0584655, -0.0247892}, {-0.1292458, -0.1256306, -0.0093819}},{{-0.0328615, -0.0809555, 0.0466107}, {-0.0718216, -0.0681566, -0.0148543}, {-0.1270865, -0.0711449, -0.0546731}},{{-0.0410082, -0.008518, -0.009583}, {0.0473208, -0.0589884, 0.0147553}, {-0.0032473, 0.0035718, 0.0300318}},{{-0.0538138, -0.025223, -0.0746314}, {-0.0521583, -0.0668841, 0.0182672}, {0.0276305, 0.0127041, -0.0628997}},{{-0.0048493, -0.0601574, -0.0108154}, {-0.0155732, -0.056785, -0.0561148}, {-0.0275077, -0.075615, 0.0262169}},{{-0.002273, -0.1480137, -0.1879209}, {-0.1030852, -0.0153258, -0.1634112}, {-0.0334872, -0.0106408, -0.0496031}},{{-0.0052615, -0.0132145, -0.0256752}, {0.012403, -0.0324059, -0.062906}, {-0.0503142, -0.0523475, -0.0494243}},{{-0.0289804, 0.0115333, -0.1454665}, {-0.0162385, 0.0515937, -0.0913965}, {-0.0516237, -0.0867037, -0.0578036}},{{0.0038156, -0.022327, 0.0237578}, {-0.0175223, -0.0130103, -0.0538672}, {0.0123084, -0.0185894, 0.0597723}},{{0.0083446, -0.032855, 0.0039956}, {-0.0652241, 0.0494413, 0.0286405}, {0.0602996, 0.0324018, 0.024689}},{{0.0382671, -0.0110249, -0.0551615}, {0.0030572, 0.0253842, -0.0485616}, {0.0074585, 0.0901862, -0.0481035}},{{0.0216253, -0.1111027, -0.0980467}, {-0.0700187, -0.094325, 0.032505}, {-0.0338986, -0.0845897, -0.0511891}},{{0.03925, 0.0462481, -0.0271175}, {-0.0473559, 0.0269139, -0.0286628}, {-0.054402, 0.0205945, 0.0525811}},{{-0.0563222, -0.0618693, 0.0258063}, {0.0192463, 0.0728865, -0.0954725}, {-0.0454458, -0.0134005, 0.001223}},{{-0.0183376, -0.1085242, 0.0451237}, {-0.1069792, -0.0342999, 0.0200434}, {-0.0286253, -0.0531225, 0.042098}},{{0.0657793, -0.012795, -0.1128544}, {0.0341532, 0.0269873, -0.1450469}, {-0.0682738, -0.0801576, -0.0349111}},{{0.0316428, -0.0174173, -0.0447716}, {-0.0345066, -0.041404, -0.1251352}, {-0.0772358, -0.064159, -0.0140516}},{{0.0379654, 0.0229907, -0.0416848}, {-0.0422952, 0.0222146, 0.0656654}, {-0.0088558, 0.042734, 0.0380729}},{{-0.0332652, -0.0732091, -0.0580863}, {-0.0525711, 0.0266169, -0.0655236}, {-0.0416128, -0.0630317, -0.0531969}},{{0.0511819, 0.0662135, 0.0371795}, {-0.0346538, -0.0413805, -0.0401267}, {-0.0517957, 0.0356599, 0.0209387}},{{-0.0757059, 0.045564, -0.0319001}, {-0.0980701, 0.0203193, 0.0423329}, {-0.1967222, -0.1670359, -0.1431011}},{{-0.029654, -0.0509722, -0.0083998}, {-0.0649171, 0.0218255, -0.0501893}, {-0.0662763, -0.1113699, -0.0700362}},{{-0.0161228, -0.0649212, -0.0346182}, {-0.0448333, -0.0376306, 0.0097983}, {-0.0562658, -0.0396309, 0.0728366}},{{-0.0713748, -0.0586026, 0.0428319}, {-0.0212999, 0.0374303, 0.0741037}, {0.0049451, 0.0753893, 0.0108455}},{{-0.0026752, -0.0676747, -0.0615885}, {0.0176833, -0.075625, -0.039902}, {-0.0811727, -0.1140369, -0.0943034}},{{0.0225686, -0.0139337, -0.0335263}, {-0.0191838, -0.0413144, 0.0410607}, {-0.1110473, -0.0753844, -0.0300948}},{{-0.0182005, -0.0014274, -0.1077295}, {0.0087884, 0.0623261, 0.0792553}, {0.0268085, 0.0252146, -0.0757583}},{{-0.1063397, -0.0014488, -0.0204941}, {-0.103275, -0.0079725, 0.0189858}, {0.0083849, -0.0312539, 0.0335103}},{{-0.0542334, -0.0473967, 0.0372474}, {-0.006598, -0.0177442, -0.0540668}, {0.0252088, 0.1027286, 0.0232898}},{{-0.0809273, 0.1073232, -0.0216264}, {0.0141361, 0.0972229, -0.0168678}, {-0.0655614, -0.006162, -0.0910761}},{{0.0190449, 0.0120523, -0.0654704}, {0.0165844, 0.0386593, -0.0064249}, {0.0589751, -0.0382115, -0.026955}},{{-0.0379625, -0.0323772, 0.0591789}, {0.0222127, -0.0065748, 0.045964}, {-0.1522796, -0.0049154, 0.0843778}},{{-0.062407, 0.005622, -0.0571774}, {-0.0209174, -0.0327226, -0.0021263}, {-0.0502098, -0.0759656, -0.0006562}}}
{{{0.0013141, -0.0234864, -0.0796122}, {0.0618239, 0.0574228, -9.58e-05}, {0.0189456, 0.006909, 0.0447747}},{{-0.0706447, -0.0489156, 0.0760367}, {-0.1807708, 0.0853598, 0.0598007}, {-0.1692093, 0.0081229, 0.0832123}},{{-0.1086154, 0.0821279, 0.0034648}, {-0.1448833, -0.0108992, -0.0052623}, {0.0419957, 0.1549641, -0.0463581}},{{-0.0059006, -0.0299824, -0.046495}, {0.030375, -0.0282237, 0.0417933}, {-0.1045721, -0.0908373, -0.0125829}},{{-0.1067591, 0.065037, 0.0473852}, {0.0591482, 0.123704, -0.0005296}, {-0.0058168, 0.0923692, 0.0132871}},{{-0.0757679, -0.263088, -0.2677308}, {0.0849447, -0.1873752, -0.198771}, {0.1056657, -0.2353972, -0.168857}},{{-0.0277459, 0.0293374, -0.0902019}, {0.0059395, -0.0706843, 0.0256268}, {0.0507528, 0.0647255, -0.0049197}},{{0.0193179, -0.0348997, -0.0891212}, {0.036598, -0.1550449, -0.0743882}, {0.0193433, -0.1252394, -0.0875316}},{{0.0026593, 0.114374, 0.1077912}, {-0.0054077, -0.0355242, -0.0741708}, {-0.0623076, -0.1110018, -0.0487492}},{{0.0032076, 0.0078066, -0.0611608}, {0.2409536, -0.0855997, -0.0286826}, {0.179702, -0.1553671, -0.0448446}},{{0.0667792, -0.0612097, -0.1051524}, {0.0187946, -0.1047405, 0.0059466}, {0.012153, -0.150773, -0.0470457}},{{-0.3780752, 0.0727184, 0.1091919}, {-0.0301718, -0.0295075, -0.0037452}, {-0.0248706, -0.0680025, -0.0914982}},{{0.1042723, -0.1095656, -0.130843}, {0.0580401, 0.0471518, -0.0291871}, {0.1606029, 0.0790596, -0.0897186}},{{0.0248192, 0.0570012, 0.0025658}, {0.0364294, 0.0185231, 0.0790354}, {-0.0358667, -0.022405, 0.0965855}},{{-0.0596454, -0.0571116, 0.0850604}, {-0.0922229, -0.0309546, 0.1103052}, {-0.2010481, -0.0605704, -0.1137589}},{{0.0622389, -0.0925314, 0.0292161}, {-0.0543665, -0.0378928, -0.0006389}, {-0.0223432, -0.0486593, -0.0490495}},{{-0.1058589, -0.1989335, -0.0562345}, {-0.1424362, -0.0049217, 0.0037627}, {-0.1108392, -0.3348435, -0.0546662}},{{0.0188018, 0.0255159, 0.017065}, {0.022712, -0.0307882, 0.0429271}, {0.0671253, -0.0658263, 0.105592}},{{-0.1960851, -0.1508552, -0.1499856}, {-0.1553181, -0.2126042, -0.118396}, {-0.1615352, -0.3076302, -0.0479508}},{{-0.0411214, -0.0051925, 0.010219}, {0.0547533, -0.0693879, 0.0042855}, {-0.1181974, -0.086811, 0.0309225}},{{-0.0429997, -0.0129061, 0.0155758}, {0.054102, 0.0406602, -0.031552}, {0.0209198, 0.0288505, -0.0766824}},{{-0.087852, -0.0096872, -0.1841855}, {-0.0163239, -0.0791456, -0.0721801}, {0.0413752, -0.1656679, -0.0242845}},{{0.0623386, -0.118173, -0.0955141}, {0.0403908, -0.0751602, -0.0801165}, {-0.3216609, -0.2139955, -0.1351893}},{{0.0589454, -0.0169005, 0.0947434}, {0.0445845, 0.0050046, -0.195918}, {0.0173394, -0.125006, 0.0101965}},{{-0.0915412, -0.0641265, -0.2126957}, {-0.0031521, 0.1077803, -0.0378272}, {-0.1359511, 0.1420055, -0.1967058}},{{-0.0062212, -0.004345, -0.0507257}, {0.0646869, -0.0521248, 0.074759}, {-0.0117574, -0.0014593, -0.0251513}},{{0.0396157, 0.1046648, 0.0448756}, {0.0095869, -0.0064024, 0.0664979}, {0.009433, -0.0018116, 0.0995047}},{{-0.0722163, -0.1796312, -0.0641235}, {-0.0007755, -0.0560759, -0.1451735}, {0.0591364, -0.0857499, -0.2216511}},{{-0.2754111, -0.2678028, -0.2131125}, {-0.2128187, -0.2606411, -0.1108405}, {-0.3733124, -0.0867151, -0.2172736}},{{0.0729382, 0.0776923, 0.0846705}, {0.0270808, 0.0074893, -0.0220196}, {-0.1291897, -0.0182106, 0.0109274}},{{-0.0666305, 0.0450811, -0.2241804}, {0.0276224, -0.036594, -0.1374679}, {0.0308811, -0.043251, 0.012916}},{{-0.1433525, -0.0081711, -0.1390311}, {-0.0821086, -0.0873323, -0.2109838}, {-0.2546893, -0.0321757, -0.0934075}},{{-0.2915376, 0.0807728, -0.2085229}, {-0.0356492, 0.0404302, -0.2282485}, {0.2851572, -0.2736332, -0.1328353}},{{-0.001281, 0.0805527, -0.0239317}, {-0.0185796, -0.0501744, -0.0302153}, {0.040362, 0.0519837, -0.0035211}},{{0.0691479, 0.0244926, 0.0379743}, {0.1152967, -0.0747481, -0.020465}, {-0.0333401, -0.0059493, 0.050859}},{{-0.0262218, -0.0010978, 0.0472096}, {-0.0291435, -0.0546348, -0.0349814}, {-0.0037558, -0.0986423, 0.0457854}},{{-0.1913517, 0.0118591, -0.079822}, {0.1151939, 0.0225288, -0.0171572}, {0.1217311, -0.0099796, 0.0444088}},{{-0.006814, -0.1866214, 0.0045118}, {-0.1074582, 0.0286338, -0.1140326}, {-0.3154765, -0.0284434, -0.1248118}},{{-0.0791742, -0.0184866, -0.0674028}, {-0.0358957, -0.0601739, -0.0058997}, {0.0611562, -0.026728, -0.0417672}},{{0.0197782, 0.0565359, 0.0922062}, {0.0332028, 0.0637939, 0.0980553}, {-0.064658, -0.0032293, -0.0488777}},{{0.0301668, -0.0021804, -0.0324432}, {-0.001669, -0.0330489, -0.0496362}, {-0.0374938, -0.0018039, -0.0471827}},{{0.0053921, 0.1701191, 0.025252}, {-0.104923, -0.0555226, -0.2421333}, {-0.1163758, -0.087235, -0.1799534}},{{0.0965393, -0.2780907, -0.0038056}, {0.1252969, -0.0266074, -0.1888057}, {-0.0820583, 0.2110318, -0.0429261}},{{-0.0207565, 0.0081533, -0.0502203}, {-0.0098105, 0.0440017, 0.0214337}, {-0.0373687, -0.0518691, 0.037929}},{{-0.2555601, -0.118244, -0.0959743}, {-0.2254473, -0.2400319, -0.4586969}, {-0.360507, -0.0643559, -0.3237684}},{{0.1462767, -0.0346216, -0.1658948}, {-0.024136, -0.0388411, -0.0133683}, {-0.1419083, 0.0488213, 0.0442912}},{{0.1176261, 0.1355736, 0.0033516}, {0.0374433, -0.1191434, -0.0549934}, {0.0320503, -0.1116815, -0.050769}},{{-0.0152461, -0.0383598, -0.0102364}, {-0.0652181, -0.1118173, 0.0572287}, {-0.0474457, -0.0094205, -0.0617971}},{{0.0311526, -0.0544222, 0.0401434}, {-0.0244239, 0.0167944, -0.0080219}, {0.0096312, -0.0153047, -0.0149086}},{{0.1138403, -0.0872758, -0.0001607}, {0.070188, -0.0576722, 0.120801}, {-0.1534976, -0.0440467, -0.079179}},{{-0.0466755, 0.0896709, -0.0047797}, {0.091113, -0.0101866, 0.0243756}, {-0.0323976, -0.0133947, 0.0372247}},{{-0.1811697, -0.1192177, -0.12892}, {-0.21706, -0.1075172, -0.0455172}, {0.0070657, 0.0776404, -0.0182169}},{{-0.4220511, 0.1069028, -0.0772993}, {-0.1736465, -0.1232735, 0.0130016}, {0.2328956, -0.1218589, -0.0945692}},{{-0.1764059, -0.123406, -0.1488163}, {-0.0366966, -0.1350522, -0.0923264}, {-0.0259987, 0.0868488, -0.0185727}},{{-0.0673644, 0.02041, -0.0723101}, {0.0439065, -0.0607576, 0.007718}, {0.0053837, -0.0526413, -0.0722536}},{{-0.1240971, 0.060665, -0.0466992}, {-0.1426848, -0.1242686, -0.2697878}, {-0.2763743, -0.1638611, -0.3495095}},{{-0.0161569, -0.2052216, -0.0235568}, {0.2004904, 0.0462419, -0.0783156}, {0.1754593, -0.0299434, -0.3181108}},{{0.1928342, -0.124383, -0.0150448}, {0.0018934, -0.0482222, 0.0049535}, {0.0193549, -0.0136923, -0.2155841}},{{-0.0266608, -0.0707057, 0.1281153}, {0.0734206, -0.063561, 0.0380817}, {0.0550755, -0.2317788, 0.0091705}},{{-0.0334139, -0.0397826, -0.0083917}, {0.0385229, 0.0263439, -0.0679669}, {0.0322438, 0.0283909, 0.0234174}},{{0.1328297, -0.0612519, -0.0336552}, {0.0729179, -0.1091485, 0.1027405}, {-0.0242737, -0.1791463, 0.0048158}},{{-0.0493667, -0.0353154, 0.0186323}, {-0.0144975, 0.0101614, -0.0098785}, {-0.0066852, -0.045965, 0.0067895}},{{0.0328166, 0.0328343, -0.024607}, {0.0581124, -0.0169537, 0.0094116}, {0.0738423, 0.0590171, 0.0152374}},{{-0.1437536, -0.1893286, -0.2375721}, {-0.0296656, -0.1236858, -0.0781864}, {0.103799, -0.1514762, -0.2045646}}}
{{{0.0554957, -0.0371428, 0.0178123}, {0.0579489, -0.0024317, 0.0667964}, {-0.0716787, 0.0616557, -0.0474053}},{{-0.0493816, -0.0090841, -0.0242317}, {-0.0302017, -0.0738473, -0.0161341}, {-0.0197381, -0.0250977, -0.0475533}},{{0.0215854, -0.0418343, 0.051134}, {-0.0794126, -0.0852522, 0.047465}, {-0.0018859, 0.0244557, -0.0939046}},{{-0.1261952, -0.115941, 0.0792538}, {-0.0702299, -0.0370636, 0.1030022}, {-0.0372741, -0.0893679, 0.0635823}},{{-0.0500655, 0.0775052, -0.0084152}, {-0.1104354, -0.0036015, -0.0042889}, {-0.0779834, -0.081128, -0.043632}},{{-0.0012386, -0.0570586, -0.1575006}, {0.0053792, -0.0769484, -0.1196043}, {-0.0691889, -0.0357683, -0.1353842}},{{0.1208911, -0.0298353, -0.0403524}, {0.0622599, -0.0023224, 0.0437142}, {-0.0689781, -0.1043014, 0.0530137}},{{-0.0008388, 0.01519, -0.0012744}, {-0.1063037, 0.01742, -0.0539051}, {-0.0800858, -0.0921595, -0.0199491}},{{0.0999858, -0.0205961, 0.0840162}, {0.1005463, -0.0331007, 0.0023487}, {-0.0842507, -0.0798411, -0.040393}},{{-0.037412, 0.0566473, -0.089716}, {-0.0848063, -0.059923, 0.0309765}, {-0.0835923, -0.0304246, -0.0648689}},{{-0.1068719, -0.0809545, -0.0405147}, {0.0039343, -0.077815, -0.0282651}, {-0.0679964, -0.0134033, -0.0782063}},{{0.0217673, -0.0818963, -0.0627788}, {0.0537015, 0.0148087, -0.1153543}, {-0.0628767, -0.0266052, -0.0436544}},{{-0.0198892, 0.0522885, -0.0360613}, {-0.0563977, -0.0212389, -0.0026858}, {0.0289365, -0.0012564, -0.0149617}},{{-0.0058308, 0.0423954, -0.0629681}, {0.0556362, 0.0164506, -0.0481691}, {-0.0106842, -0.051157, -0.0505801}},{{-0.0367968, -0.0801877, 0.0526611}, {-0.0137956, -0.0214398, 0.0496321}, {-0.0126597, -0.0420881, -0.0563356}},{{0.0129109, -0.0073157, 0.0257344}, {-0.0133867, 0.0527977, -0.0157534}, {-0.0485363, -0.08817, 0.0628083}},{{0.0483609, 0.0471876, 0.0600628}, {0.0239882, -0.0739476, 0.0042913}, {-0.1467384, -0.0346531, -0.0102915}},{{-0.0733886, -0.0265055, 0.027355}, {-0.027116, -0.1020803, 0.0341993}, {0.0070319, -0.0774532, -0.0714848}},{{-0.0428391, -0.0258251, 0.0463354}, {-0.0098771, 0.0587427, -0.007972}, {-0.0901409, -0.0162581, 0.0373577}},{{-0.0116065, 0.0226177, -0.0627376}, {-0.0170124, -0.067247, -0.0267283}, {0.0543711, -0.0001158, -0.0869882}},{{0.0345585, -0.0629729, -0.0425419}, {0.0434822, -0.0139418, 0.0376862}, {0.0257687, 0.0249163, -0.0709409}},{{0.0612105, -0.0813804, -0.0682643}, {0.0229949, 0.0131787, 0.0769655}, {-0.0599739, -0.0398765, 0.0483606}},{{-0.1224756, 0.0004392, 0.0062613}, {-0.1371903, -0.0107956, 0.0178416}, {-0.1025986, -0.0075081, -0.0677929}},{{0.0484073, -0.0063586, 0.0234899}, {-0.0588455, -0.1493062, -0.1691706}, {-0.0470878, -0.0827003, -0.0541481}},{{-0.0484926, -0.0993855, 0.0021217}, {-0.1430887, -0.0490471, -0.0365751}, {-0.1549102, -0.1704242, -0.0379789}},{{0.0522968, -0.1148977, -0.0018482}, {-0.0069534, -0.0667949, 0.0269954}, {0.0624217, -0.0652605, -0.0030852}},{{-0.0903718, -0.0509996, 0.0012071}, {-0.0549531, -0.037405, 0.0196974}, {-0.0396353, -0.0375773, -0.0248386}},{{-0.0103564, -0.0198898, -0.0560303}, {0.0509925, -0.0135006, -0.1291442}, {-0.0266266, 0.0222554, -0.1453965}},{{0.0092602, -0.0056315, -0.0894062}, {-0.0490355, -0.0171819, -0.1021117}, {-0.1502864, -0.1392348, -0.0219303}},{{0.0570896, -0.0804778, -0.0072264}, {0.0640523, 0.0168565, 0.0413666}, {-0.089985, -0.0555913, -0.0098136}},{{0.0413108, 0.0490362, 0.0238766}, {-0.0211548, 0.0496073, -0.0965322}, {-0.0471853, -0.0848833, -0.0885723}},{{-0.0508475, 0.0185098, -0.0102694}, {-0.0161416, -0.0465636, 0.003457}, {-0.0602329, -0.0707031, -0.0799656}},{{-0.013163, -0.061166, -0.0066777}, {-0.0947492, -0.0469727, -0.0107941}, {-0.068559, -0.0129421, -0.1628212}},{{-0.0381278, 0.0345203, -0.0281198}, {-0.0688321, -0.0467417, 0.0666353}, {-0.0413849, -0.0054529, -0.027175}},{{-0.0239232, 0.0290199, 0.0281519}, {0.0390162, -0.0242909, -0.0414626}, {0.0528739, 0.0800449, -0.0019823}},{{0.0651112, -0.0117616, 0.101253}, {-0.0521459, 0.0417722, 0.0043277}, {0.0204929, -0.053608, -0.074713}},{{-0.0652205, -0.0533356, -0.1095131}, {-0.0557249, 0.0269782, 0.0311214}, {0.0800517, -0.0073551, 0.0490758}},{{-0.0267651, 0.0039181, -0.0110317}, {-0.0594701, 0.0136733, -0.0328122}, {-0.0675295, -0.0585067, -0.0907657}},{{-0.0511428, 0.0234427, 0.016648}, {0.0427522, 0.0451003, -0.0367623}, {-0.0632379, -0.0713995, -0.0757669}},{{0.0250804, 0.0283426, 0.0318692}, {-0.0114381, -0.018142, -0.0613809}, {-0.0503119, 0.0442547, -0.0690453}},{{-0.0223539, -0.0112447, 0.0489927}, {-0.0497539, -0.0049285, 0.0586228}, {-0.0864639, -0.0799735, -0.008675}},{{0.0305245, 0.0315743, -0.0659929}, {0.0381818, -0.0393065, -0.1060509}, {0.0509123, -0.0057292, -0.1350163}},{{-0.0241638, -0.0245293, -0.0261021}, {-0.1183947, -0.0515138, 0.0246638}, {-0.079938, -0.0586997, -0.0302417}},{{0.0517555, 0.0233206, -0.0122376}, {0.0331522, 0.0567998, 0.0171535}, {-0.0543655, 0.0461476, -0.0427655}},{{0.0323952, -0.0916474, -0.010957}, {0.0505184, 0.0271621, 0.0197159}, {-0.0972338, -0.0337569, -0.1237337}},{{-0.0073619, -0.0557745, 0.0772356}, {-0.0852306, -0.0046545, 0.0038193}, {-0.0076352, -0.040205, 0.0887064}},{{-0.0083036, -0.0450327, -0.0706576}, {-0.0396529, -0.0525815, 0.0094631}, {0.0206876, 0.0096334, -0.0743741}},{{0.0037762, 0.1162071, 0.012572}, {-0.0008944, -0.0472877, -0.0192161}, {-0.1034047, 0.0052951, 0.0059515}},{{0.0615878, 0.0405584, -0.0213854}, {-0.0338855, -0.0205156, 0.0431596}, {0.0369643, -0.0573966, -0.0640058}},{{-0.0096063, -0.0972588, -0.1204174}, {-0.0294799, -0.1146537, -0.0430487}, {-0.0960891, -0.0720915, -0.055001}},{{-0.0536906, 0.0163312, -0.0285523}, {-0.0649767, 0.0662554, -0.033005}, {-0.0289711, -0.0381804, -0.0598584}},{{0.1308941, -0.0552855, -0.0176912}, {-0.0102375, 0.0480266, -0.0154557}, {-0.0861381, -0.069844, -0.0315548}},{{0.044141, 0.0139797, 0.0367057}, {-0.0648101, -0.0891116, 0.0203307}, {-0.037425, -0.161485, -0.1625448}},{{-0.0748461, -0.0489158, 0.0474482}, {-0.0397801, 0.0073794, 0.0481029}, {0.037712, -0.0406986, 0.0181427}},{{-0.02691, -0.0705044, -0.0938436}, {0.0098217, -0.0454197, -0.0912494}, {-0.033449, -0.0030573, 0.0227914}},{{0.0401728, 0.0480295, -0.0113376}, {-0.0736367, -0.024093, -0.0407755}, {-0.0342298, -0.1200599, 0.0341284}},{{0.0777166, 0.0788728, 0.063955}, {0.0695259, -0.0278891, 0.049192}, {-0.0490479, -0.0860255, -0.0503617}},{{0.0111572, 0.0207983, -0.0463307}, {-0.1105014, 0.0058658, 0.0178378}, {-0.0849016, -0.0004171, -0.0979464}},{{-0.0967484, 0.0029164, -0.0405795}, {-0.0885061, -0.0314905, -0.0536044}, {-0.0568521, 0.0049907, -0.0338346}},{{0.0432786, 0.0218223, -0.0276893}, {-0.0013804, -0.0556478, 0.0079352}, {0.0203838, -0.006536, -0.0475937}},{{0.0561646, 0.0042436, -0.041043}, {0.1177773, -0.1313356, -0.1529712}, {-0.0088453, -0.1190282, -0.0448013}},{{-0.0565147, 0.0297235, -0.0152739}, {0.055738, -0.0285856, 0.0677074}, {0.004415, -0.0427493, -0.0081548}},{{-0.0173994, -0.0381462, 0.0288588}, {0.0214016, -0.0116305, 0.0795686}, {0.0557168, -0.0137962, 0.0537614}},{{-0.0340559, -0.053923, -0.083743}, {-0.0152799, -0.0103958, -0.0071859}, {-0.0592938, 0.0321903, 0.0206979}}}
{{{0.0712016, -0.0071589, -0.0579389}, {0.0280546, -0.081396, -0.0539728}, {0.030572, 0.0134297, 0.049452}},{{0.1204263, -0.1009213, -0.1016311}, {0.0849608, 0.0173108, 0.030005}, {-0.0797743, 0.0147305, -0.0075866}},{{-0.0593117, -0.0520469, 0.0790111}, {0.0027344, 0.1227188, -0.0498615}, {0.065973, 0.04964, 0.0065143}},{{0.0307338, -0.0997581, 0.0489605}, {-0.0242348, 0.0257827, -0.0740809}, {-0.0742551, -0.0632578, -0.0067576}},{{-0.0873582, -0.0126282, -0.0738505}, {-0.021848, -0.0534313, -0.0151139}, {-0.0931765, -0.1482968, -0.1059478}},{{-0.1947998, -0.1116516, -0.0762525}, {-0.0834873, -0.0634001, -0.0104707}, {-0.0166922, -0.111563, -0.0540545}},{{0.1465616, -0.074231, 0.0427938}, {0.0214029, -0.1494044, 0.0402983}, {0.0978312, -0.076041, 0.1407924}},{{-0.0337242, -0.1877084, -0.0132096}, {0.0157934, -0.1073935, -0.0374381}, {0.063352, -0.0943316, -0.0732145}},{{-0.0481712, -0.0647909, 0.0140863}, {0.0611688, 0.0860944, 0.0900208}, {0.0602512, 0.0341323, -0.0765567}},{{-0.0218549, -0.1863093, -0.0466546}, {-0.0406494, -0.1415005, -0.1013861}, {0.0359454, -0.0198337, -0.0591403}},{{-0.1702953, -0.1629202, 0.0746477}, {-0.08473, -0.0431006, 0.0596732}, {-0.0832718, -0.022226, -0.0188553}},{{-0.0954955, 0.0081839, 0.0733822}, {-0.092741, -0.0644913, 0.1779878}, {-0.0601714, 0.020764, 0.1054405}},{{-0.0074481, 0.0435484, 0.0594035}, {-0.0699472, -0.103311, -0.0788421}, {-0.1233017, -0.0524985, -0.0186185}},{{-0.0385449, -0.0854391, -0.0322259}, {-0.083529, -0.0467608, -0.0255437}, {0.0233378, -0.1019758, -0.1097939}},{{0.021215, -0.0827696, 0.0466883}, {0.0620404, -0.0324081, -0.058201}, {-0.0212359, -0.0302149, 0.0651572}},{{-0.0309698, -0.0692896, 0.0089893}, {0.0101502, -0.0565116, -0.0347595}, {0.021624, -0.0223805, -0.0160987}},{{-0.0412118, -0.1469681, -0.1630615}, {-0.0702368, -0.0940075, -0.1754058}, {0.0438028, -0.0340981, -0.0415362}},{{0.0090609, 0.0283349, 0.1136303}, {-0.0366078, -0.0053515, -0.011909}, {-0.0624605, -0.0686767, 0.1111988}},{{-0.112301, -0.1228061, 0.0293775}, {-0.0777291, -0.0701883, -0.1914329}, {-0.0194299, -0.1956371, -0.2113539}},{{-0.0327554, -0.066082, -0.0593893}, {0.0157979, -0.0158482, -0.1003276}, {-0.1075215, -0.0782861, -0.0949632}},{{0.0787034, -0.0782351, -0.0508601}, {0.0669555, -0.0920603, -0.0930956}, {0.104192, -0.123048, -0.0999707}},{{0.0183747, -0.0830859, -0.142693}, {-0.1194655, -0.0961282, -0.0722899}, {-0.0835892, 0.0520238, -0.067931}},{{-0.1125521, -0.1459373, -0.1141166}, {-0.1587907, -0.0411005, -0.2155755}, {-0.1659202, 0.0567494, -0.1471597}},{{-0.1386312, -0.1200518, -0.0973662}, {-0.1607019, -0.2202356, 0.009695}, {-0.0525765, 0.0253096, -0.0025732}},{{-0.0704225, -0.2313282, -0.2662311}, {0.0749605, -0.2644788, -0.3196837}, {0.0389275, -0.138759, -0.292046}},{{0.0437675, -0.0037839, -0.0425971}, {-0.0606495, 0.0551099, -0.0378539}, {0.022505, 0.0463408, -0.0186572}},{{0.0656464, 0.0540932, 0.0764991}, {0.0704228, 0.0971875, -0.0057051}, {0.0383179, -0.0446056, -0.0382609}},{{-0.1105023, -0.0341569, -0.0822221}, {-0.0152967, -0.0709112, -0.0070388}, {-0.083263, 0.0446567, 0.0953794}},{{-0.0555373, -0.162436, -0.2299588}, {-0.0232878, -0.1918018, -0.3822736}, {-0.0332235, -0.1611644, -0.1715159}},{{-0.0042565, 0.030489, -0.0957241}, {0.0239879, 0.077346, -0.0780223}, {0.1483603, 0.0420642, -0.1169395}},{{-0.051911, -0.0865145, -0.1147716}, {0.0107261, 0.1648556, 0.0021658}, {0.1072461, -0.0636627, -0.0848849}},{{-0.0232041, -0.0545873, -0.1749794}, {0.0186544, -0.1554965, -0.260092}, {-0.1238361, -0.0864185, -0.2886555}},{{-0.1332882, -0.0894832, -0.2073625}, {-0.0482933, -0.0526978, -0.0257356}, {-0.0836715, -0.0026485, 0.0038762}},{{-0.0078992, -0.0770618, 0.0354027}, {-0.0029224, 0.0124042, 0.0172732}, {0.0478653, -0.0110016, -0.093725}},{{-0.0118006, -0.0539439, 0.0464699}, {-0.0883579, -0.0670584, -0.0146731}, {-0.1209921, 0.0096685, -0.1139779}},{{-0.0104843, -0.0611338, 0.0951551}, {-0.1090852, -0.0523314, -0.1023845}, {0.0343642, 0.0057323, -0.0556421}},{{-0.0716958, -0.1380808, -0.0585673}, {-0.0547034, -0.0131558, -0.0529807}, {-0.0032677, 0.120261, 0.0151003}},{{-0.0886189, -0.0387838, 0.0329571}, {-0.0554617, -0.0860444, -0.0338209}, {-0.196559, -0.043873, -0.0331912}},{{-0.0591536, -0.0552963, 0.0091628}, {-0.0374577, -0.1081761, -0.0532698}, {0.0652837, -0.0058223, 0.0129663}},{{0.022795, -0.0764207, -0.0369024}, {-0.0310034, -0.0575814, -0.0353376}, {-0.0274631, -0.1092101, 0.0321179}},{{-0.0676009, -0.070215, -0.030613}, {-0.0072339, -0.0334071, -0.0235141}, {-0.0476479, 0.005121, 0.05319}},{{0.0066741, -0.10841, -0.0688419}, {0.0353462, -0.0647863, 0.1460156}, {-0.0744312, 0.0096421, 0.0822554}},{{0.0336333, -0.1479791, -0.1739142}, {0.1041002, -0.0846907, -0.2575234}, {0.0724565, -0.089751, -0.2892864}},{{-0.0006903, 0.0227714, 0.0136364}, {0.0441882, -0.0484927, -0.026869}, {0.0001342, -0.0713339, -0.0394158}},{{0.0836265, -0.1013017, -0.1642265}, {0.0972762, -0.0317523, -0.0513432}, {0.1084946, -0.0711099, -0.0426841}},{{-0.051633, -0.0429982, 0.0264516}, {-0.0710523, -0.0335513, -0.1456819}, {-0.0750271, -0.0730375, -0.0924229}},{{0.0137837, -0.0156047, 0.0010293}, {-0.0606512, -0.1300035, -0.0171389}, {-0.0150093, -0.00105, -0.0855855}},{{0.0534589, -0.0095011, -0.0105035}, {0.022102, 0.0020714, 0.0740387}, {-0.0388153, 0.054042, 0.0364971}},{{-0.0154941, 0.0474846, -0.0020348}, {0.0306528, 0.0471384, -0.0215734}, {0.0010664, 0.00464, 0.0134762}},{{0.0178553, 0.0801071, 0.0582183}, {0.0057566, -0.1778852, -0.1904331}, {-0.265107, -0.2405618, -0.1121327}},{{-0.007963, 0.0526759, -0.0103544}, {-0.0594498, -0.0588155, 0.0454888}, {0.008958, 0.0491053, -0.0075682}},{{0.0037147, -0.153436, -0.0907023}, {-0.0995217, -0.199604, -0.0595285}, {0.1528326, -0.1468373, -0.0634017}},{{-0.1563096, -0.0701698, -0.1783669}, {-0.0375661, -0.1281166, 0.0045447}, {-0.1025472, -0.0248555, 0.0112683}},{{-0.0691861, -0.0207536, -0.0256321}, {0.022852, -0.1510101, -0.0867498}, {-0.0620236, -0.0580697, 0.0197029}},{{-0.0298927, -0.0449949, 0.0489337}, {-0.008545, 0.0003396, 0.04038}, {-0.020342, 0.0330478, -0.0136281}},{{-0.0176429, -0.1113247, -0.1014151}, {-0.0346509, -0.0501388, -0.0768631}, {-0.096448, -0.0269092, -0.2149585}},{{0.0174211, -0.0182991, -0.1354395}, {-0.018143, 0.0318436, -0.0278133}, {0.0103521, -0.1132121, -0.0541152}},{{-0.0630684, -0.0487369, 0.0553415}, {-0.100908, -0.1605639, -0.0289605}, {-0.1542684, -0.0466487, -0.1016935}},{{0.0101783, -0.1309611, -0.0357215}, {-0.0558219, 0.124018, 0.0578864}, {-0.0306526, -0.1189986, -0.0718511}},{{-0.0593127, -0.0336038, 0.0206654}, {-0.098586, 0.0206405, -0.042533}, {-0.0834155, -0.0740485, -0.0763784}},{{-0.0159574, -0.0793452, -0.0010993}, {0.0420754, 0.0666304, 0.049311}, {0.0296775, 0.0761249, -0.0190104}},{{-0.0092861, -0.0329185, 0.0534697}, {0.005009, -0.0482937, -0.0264509}, {0.0413272, -0.0368179, -0.0696409}},{{0.0730215, -0.0954696, 0.0017008}, {0.0411425, -0.0641066, 0.0138791}, {0.0881861, -0.040839, -0.0868497}},{{0.0373752, 0.0363968, -0.0544016}, {0.1343118, 0.0583509, -0.0417772}, {-0.037203, -0.1269753, 0.0659534}}}
{{{0.0201682, -0.054352, -0.0015204}, {-0.0647831, 0.0519274, 0.0570562}, {0.0077972, -0.0627329, -0.0048424}},{{0.0278765, -0.077634, -0.0219078}, {-0.0474267, -0.073139, 0.0098032}, {-0.0286956, 0.0618901, 0.0370658}},{{-0.0007187, -0.0587522, 0.0467232}, {0.0037438, 0.0197727, 0.0031318}, {0.004446, 0.0089716, 0.0141267}},{{-0.0431407, 0.0473203, -0.0046701}, {-0.0152593, -0.0831333, 0.0421865}, {-0.0488744, 0.0201285, -0.0735225}},{{-0.0626569, -0.0032888, -0.0587377}, {-0.0675321, -0.0251012, 0.0368711}, {-0.0161629, -0.0733566, 0.0316931}},{{-0.1259369, -0.0823803, -0.057982}, {-0.0896397, -0.0202622, 0.0087249}, {-0.0867966, -0.0466124, -0.0639995}},{{-0.1142889, -0.0157101, -0.0645095}, {-0.0847655, -0.0289603, -0.053042}, {-0.078784, -0.0791138, -0.0421383}},{{-0.0692028, 0.008721, 0.0095074}, {-0.0601115, -0.0756948, -0.0186958}, {0.0536518, -0.092991, -0.0198327}},{{0.0869045, 0.0115064, -0.058112}, {0.023706, 0.0195325, 0.0694533}, {-0.0106459, -0.0198006, -0.0275081}},{{-0.0021787, 0.030145, -0.0742656}, {0.0585263, 0.0188592, -0.0550391}, {-0.022483, -0.0490563, -0.00532}},{{0.0636306, 0.0167043, 0.0210088}, {-0.0373302, 0.0623511, 0.035765}, {-0.0372962, -0.0790934, -0.0083385}},{{-0.0664114, -0.0452495, -0.1028627}, {-0.0851973, -0.0222683, 0.0454015}, {-0.0657141, -0.0654325, -0.0756318}},{{0.0290622, 0.0144479, -0.0675031}, {-0.0646056, -0.0736095, -0.0309395}, {-0.0429619, 0.0565156, 0.0297149}},{{-0.0511049, 0.0637988, 0.017398}, {-0.0119868, 0.0277231, 0.0512638}, {-0.0314527, -0.0064245, -0.0581979}},{{0.0576956, -0.0313291, -0.0398421}, {0.0397806, -0.0618709, -0.0640546}, {-0.0108287, 0.0620419, 0.0055307}},{{-0.0143779, 0.0119517, -0.0339107}, {-0.0646942, 0.0389498, 0.0499994}, {-0.0462769, -0.0160385, -0.0453923}},{{0.0500409, -0.0790957, 0.0408073}, {-0.0153505, 0.0642826, 0.0067486}, {-0.0634132, -0.0171373, 0.0095851}},{{-0.0069793, -0.0877889, -0.0121018}, {-0.0630436, 0.0118633, 0.0084776}, {-0.0653418, -0.0043232, -0.1086185}},{{0.0565816, -0.0252987, 0.0197565}, {-0.0716112, -0.0290318, -0.047061}, {-0.0237919, 0.0331279, -0.0146786}},{{-0.0174988, -0.0698205, 0.054744}, {-0.0381803, -0.0299843, -0.0119234}, {0.0633669, -0.0104004, -0.0550954}},{{-0.0048919, 0.0178963, -0.0451624}, {0.0010643, -0.0140257, -0.0415728}, {-0.0083925, 0.0399771, -0.0120537}},{{-0.0673554, 0.003739, -0.0465899}, {-0.0188969, 0.0049043, 0.0185946}, {-0.051097, -0.0498491, 0.0247594}},{{-0.0699715, -0.0455734, -0.0315433}, {-0.0166486, -0.0402862, 0.0358749}, {-0.0356549, -0.0383059, -0.0200713}},{{-0.0785864, 0.0114929, -0.1079224}, {0.0482582, -0.0822585, -0.0141157}, {-0.0349195, -0.047138, -0.041147}},{{0.0338002, 0.0508938, -0.0752611}, {-0.0677918, -0.042779, 0.0018396}, {-0.0778429, -0.061613, -0.0447733}},{{-0.0273152, -0.0193091, 0.0548814}, {-0.0677589, -0.064175, -0.027217}, {-0.034927, -0.0523939, 0.074336}},{{-0.0093911, 0.047131, 0.0064627}, {0.0085477, -0.0528343, 0.0821619}, {0.0236477, 0.0332201, 0.075657}},{{-0.070301, -0.0746319, -0.0576548}, {-0.0458987, -0.0146221, -0.0149535}, {-0.0869303, -0.0800899, -0.0725283}},{{-0.0705538, 0.0030121, 0.0281074}, {-0.1085264, -0.0527746, -0.0600054}, {-0.0741382, -0.06985, -0.1209681}},{{-0.074949, -0.0421525, -0.0244294}, {-0.0154824, 0.0056459, -0.0788483}, {-0.0539575, 0.0577788, 0.0101449}},{{0.0100953, -0.0862185, -0.0648254}, {-0.0331091, -0.0322232, -0.0969332}, {-0.0121701, -0.0396536, -0.0621767}},{{-0.0050628, -0.0231567, -0.0302059}, {-0.0653073, -0.0862226, -0.0078592}, {-0.0873023, -0.0235981, -0.0296342}},{{-0.0104539, -0.0485998, -0.0318229}, {-0.0073674, 0.010858, 0.0133695}, {-0.0459076, -0.0036904, -0.0760819}},{{0.0267582, -0.0236225, 0.0424384}, {-0.0719272, 0.0503233, -0.0619316}, {0.0312867, 0.0710296, 0.0124356}},{{-0.0595902, 0.0063745, 0.041664}, {0.0512189, -0.0046224, 0.0600508}, {0.0582936, -0.0141958, -0.0278623}},{{-0.0088591, -0.0421708, -0.0345346}, {-0.0221684, 0.0161057, -0.0554966}, {0.0646139, 0.0598224, 0.0618069}},{{0.0385168, -0.074673, -0.0678666}, {0.0472104, 0.0538551, 0.0308497}, {0.0253479, -0.0259359, 0.0584295}},{{0.0486451, -0.0224065, -0.0406155}, {0.0299185, -0.0498368, 0.0597967}, {-0.0114233, 0.00623, -0.0027316}},{{-0.0573564, -0.0547716, -0.0297146}, {0.0258711, -0.01257, -0.0230003}, {-0.0603869, -0.0091383, 0.001339}},{{0.0120692, 0.0474688, -0.0599188}, {0.0349241, 0.0436308, 0.0455722}, {-0.0542167, -0.0237883, 0.0451596}},{{0.0589572, 0.0335561, 0.0149229}, {0.0802852, 0.0528968, 0.0568709}, {-0.0303333, 0.049199, -0.0484639}},{{0.0105739, -0.0502527, -0.0123066}, {-0.0979498, -0.0654503, -0.0047767}, {0.0512127, 0.0276462, -0.049663}},{{-0.0483545, -0.069318, 0.048933}, {0.0625848, -0.0631407, -0.058023}, {0.0626709, -0.0194212, 0.0329339}},{{0.037698, 0.0190139, -0.0362912}, {-0.0196487, 0.02494, 0.0309604}, {0.0130608, -0.0255242, -0.0250597}},{{-0.0984879, -0.0041876, -0.0259068}, {0.0127041, -0.0349811, -0.0430944}, {-0.1018267, 0.0105874, -0.1125629}},{{-0.0557255, -0.0669957, 0.0441367}, {0.0499577, 0.0527632, -0.0258922}, {-0.0627344, 0.0103486, 0.0188478}},{{-0.119894, -0.0388663, -0.1199561}, {-0.1306086, -0.0832041, 0.0077621}, {-0.0973249, 0.0091609, -0.0208191}},{{0.0413292, 0.0138067, -0.0048713}, {-0.0100382, -0.0247062, 0.0101311}, {-0.0149746, -0.0054254, -0.0258953}},{{-0.0254553, -0.0711878, 0.0075867}, {0.0500423, 0.0482386, -0.0666857}, {0.0468381, -0.0328413, 0.0011756}},{{0.0587078, -0.0533199, 0.067712}, {-0.0272214, 0.0227297, -0.0035604}, {-0.0224224, 0.0011582, -0.0210693}},{{-0.04908, -0.0274951, -0.0238107}, {-0.0105797, 0.072758, -0.0650251}, {0.0267823, 0.0348249, 0.0055055}},{{0.0076562, 0.0557235, 0.0904121}, {-0.0022641, -0.0366262, -0.0880452}, {-0.0771364, -0.0507262, 0.0195876}},{{-0.0848565, -0.0598507, -0.0414745}, {-0.0480497, -0.0345928, -0.1276455}, {0.0012369, -0.0706666, -0.0368094}},{{0.0172628, -0.0524512, 0.0527975}, {-0.0403802, -0.0627443, 0.0023914}, {-0.0546627, 0.0004077, -0.0015065}},{{-0.0371104, -0.0512125, -0.0419485}, {0.0036272, -0.0638877, 0.0680557}, {0.0408243, 0.0430587, 0.0378963}},{{-0.0293483, 0.016944, -0.0025048}, {-0.0765057, -0.0004471, -0.1030596}, {-0.1126486, -0.0836286, -0.0745196}},{{0.036809, -0.0041238, 0.0344488}, {-0.0223458, -0.0136671, -0.0565358}, {0.0199829, 0.0051986, 0.0275825}},{{0.0805995, -0.0269345, -0.0389544}, {-0.0715966, -0.0597651, -0.0319939}, {-0.0320344, -0.0042743, -0.0613775}},{{-0.0668584, 0.0133238, 0.0530788}, {0.0128319, 0.000623, 0.0045408}, {-0.0270841, 0.0303061, 0.0548173}},{{0.0269617, -0.0298202, 0.006378}, {0.0109551, -0.0263618, -0.0377598}, {-0.0052781, -0.0601337, -0.0216345}},{{-0.0233225, 0.0675995, 0.0371031}, {0.0421243, 0.073169, -0.0373738}, {-0.0547797, -0.041925, -0.0105909}},{{-0.0605168, 0.0210763, -0.0142815}, {-0.0668019, 0.0397846, -0.0285622}, {0.0625471, 0.0027991, -0.0259237}},{{0.0010019, -0.0934053, -0.0218573}, {-0.0042369, -0.0278921, -0.0672297}, {-0.1015664, -0.0711097, -0.0029292}},{{-0.0372388, 0.0172965, 0.0458696}, {0.0142967, -0.0643421, 0.0066428}, {0.0219826, -0.0247102, -0.0235561}}}
{{{0.0027819, -0.0463728, -0.0350257}, {0.004388, 0.0574664, -0.0728294}, {-0.0587365, 0.0189416, -0.0677046}},{{0.0156398, 0.1069762, -0.0309541}, {0.0238096, 0.1834452, 0.1379423}, {0.005584, -0.1345852, -0.0634712}},{{0.0669813, 0.1678249, -0.0395301}, {-0.0573714, 0.0394622, 0.0345449}, {-0.0071818, 0.0216737, -0.0071521}},{{-0.0784997, 0.0266107, 0.0973752}, {-0.1982135, 0.045179, -0.0097055}, {-0.1378048, -0.0368725, 0.0877315}},{{-0.1436042, -0.0423145, -0.0229491}, {-0.0567677, 0.0277382, -0.0617279}, {-0.016737, 0.0439605, 0.0444409}},{{-0.1134303, -0.0781466, -0.2102194}, {0.0374784, -0.049131, -0.2825875}, {-0.1131683, -0.0596059, -0.0912118}},{{-0.1820101, -0.0557508, -0.1213888}, {-0.1307477, -0.0827173, 0.0019743}, {-0.0109725, -0.0738729, 0.0053943}},{{-0.0655606, -0.1222781, -0.0012901}, {0.0400125, 0.0750858, 0.062993}, {-0.1217138, -0.0265771, -0.003669}},{{-0.1187058, -0.0572475, -0.0721286}, {-0.0561582, -0.0115116, 0.0531861}, {0.0603366, 0.0029647, 0.0953466}},{{-0.0471279, -0.1037025, -0.0831377}, {-0.0791148, 0.0083459, -0.0307005}, {-0.1463761, -0.0751387, 0.0051419}},{{-0.054942, -0.1614803, 0.0094042}, {0.0581229, 0.1012676, -0.0374519}, {-0.2337132, -0.2031004, -0.2704337}},{{-0.0373393, -0.079668, -0.1640697}, {-0.0737041, -0.1224257, -0.0340735}, {-0.1110612, 0.0344856, 0.0662926}},{{-0.0227857, -0.0783736, 0.0618117}, {-0.0675579, 0.0518156, -0.0166256}, {-0.0450321, 0.0756908, -0.0213771}},{{-0.0184378, -0.0141414, 0.0497524}, {-0.0255189, 0.0087619, -0.0328607}, {-0.0364095, -0.0321906, -0.013153}},{{-0.0461562, -0.0116318, 0.0569215}, {-0.1085979, 0.0015815, 0.0367515}, {-0.0261732, 0.0696598, -0.0353749}},{{-0.0258678, -0.0119597, -0.0129355}, {0.0238939, -0.0658855, -0.0420824}, {0.0035827, -0.036015, -0.0618788}},{{-0.0550774, -0.0324517, -0.0359412}, {0.0590959, 0.1390776, 0.0412444}, {-0.0733893, 0.0680712, -0.1955212}},{{-0.0208245, 0.0186007, 0.0710928}, {0.0322898, -0.0211134, 0.0486323}, {0.0472026, -0.0952331, -0.0047656}},{{-0.0883779, -0.0967273, -0.0025883}, {-0.0839578, -0.0067767, -0.0018883}, {-0.1353289, 0.0090192, 0.0292951}},{{-0.0397345, 0.0526764, 0.0573792}, {0.0077484, -0.051747, -0.0237482}, {-0.0269116, -0.0305532, -0.011764}},{{-0.0860399, -0.0976564, 0.0229513}, {0.0009262, -0.0482522, 0.1248603}, {-0.0290585, -0.0689021, -0.0279036}},{{-0.2484025, -0.1161887, -0.0067486}, {0.0159542, -0.0223714, -0.0741686}, {-0.2186025, -0.086018, -0.0751959}},{{0.0083052, 0.0258019, 0.0136098}, {-0.0770519, -0.0374118, -0.0622539}, {-0.0540342, -0.0757591, -0.0653349}},{{-0.0195597, 0.039465, 0.0676457}, {0.0513124, -0.1383081, -0.0425794}, {0.0821686, -0.0823882, 0.0451309}},{{-0.2675079, -0.2508027, -0.3037723}, {-0.1408511, -0.1384889, -0.2348222}, {-0.1175177, -0.1521398, -0.1548359}},{{-0.0162952, 0.0333233, -0.0343216}, {0.0248938, -0.0480405, 0.0144522}, {-0.0497161, 0.09049, 0.0655692}},{{-0.0312276, -0.0539151, 0.0324227}, {0.0186678, 0.0365115, 0.0203499}, {-0.0383173, 0.0337865, 0.0723219}},{{-0.0118598, -0.1832872, -0.0590816}, {-0.0788714, -0.0540358, -0.002764}, {-0.0877322, -0.0966567, -0.1261806}},{{-0.127109, -0.2951819, -0.2255734}, {-0.0907112, -0.0463078, -0.1015022}, {0.0054261, -0.0384652, -0.1750803}},{{0.0351804, 0.008683, 0.0525665}, {0.0424523, -0.0318327, 0.0102159}, {0.0704269, 0.0157257, 0.0324747}},{{0.0526679, 0.0454419, -0.0211207}, {0.0784673, -0.0234625, -0.0329259}, {0.0320292, -0.0090206, 0.0650406}},{{-0.2396633, -0.0248555, -0.1495417}, {-0.1118248, -0.0822541, -0.2098467}, {-0.0414649, -0.0579873, -0.0211556}},{{-0.1105262, -0.2077451, -0.0278033}, {-0.0744688, 0.0556864, 0.1221873}, {-0.0125821, -0.0641901, -0.0375785}},{{0.0044968, 0.0230497, 0.020138}, {-0.0341241, 0.0313554, 0.0033502}, {-0.0172991, -0.0798541, -0.0471311}},{{-0.0660812, 0.0557175, 0.0541991}, {-0.0374763, 0.0559138, 0.0204929}, {-0.0721474, 0.0214494, 0.0328135}},{{0.0626245, 0.0150891, 0.0851523}, {-0.0740025, 0.0314349, 0.0874436}, {0.0015135, -0.0206628, 0.0061479}},{{-0.0434213, -0.1082783, -0.0703002}, {0.0935067, 0.0538323, 0.1559908}, {0.0090954, -0.0451366, -0.0290048}},{{-0.073909, -0.0003161, -0.0745853}, {-0.0900862, 0.0901005, -0.0949644}, {-0.0646945, -0.1046838, -0.0059448}},{{0.0544735, 0.059735, -0.0315845}, {-0.0237652, -0.0447126, 0.0276879}, {0.0476925, -0.0375521, -0.0027319}},{{0.0153065, -0.0041394, 0.0231}, {-0.0608876, 0.0300663, 0.0347912}, {0.0587416, 0.0219625, 0.0601781}},{{-0.0236503, -0.0299868, 0.025637}, {-0.0510696, -0.0582245, -0.0594259}, {0.0446312, 0.0185342, 0.0284356}},{{-0.0566077, -0.0743652, -0.0946207}, {0.0284384, -0.0823741, -0.0683543}, {0.1124969, 0.0039994, -0.0721141}},{{-0.1080715, -0.0930921, -0.2484004}, {-0.1548149, -0.101276, -0.0975628}, {-0.1186482, 0.0096897, -0.1269904}},{{0.0577771, -0.0332761, 0.0327648}, {-0.0542703, -0.0004157, 0.0463597}, {-0.0373267, 0.0765219, -0.0229402}},{{-0.1239878, -0.2295064, -0.1326152}, {0.0265292, -0.0260583, -0.0765422}, {-0.0867598, -0.0864811, -0.0563194}},{{-0.0312448, 0.0334471, -0.0561714}, {-0.0830148, 0.0413104, -0.1153153}, {-0.0332442, -0.0758412, 0.0210544}},{{-0.0753158, -0.1232956, -0.1343324}, {-0.0042528, -0.1013544, -0.0455691}, {-0.0489766, -0.0784861, 0.0188951}},{{-0.0956208, -0.10325, -0.012322}, {-0.0269795, -0.0860694, 0.0972629}, {-0.0047206, -0.0709453, -0.0372232}},{{-0.0581458, 0.0507653, 0.0228313}, {0.0063991, -0.0083711, -0.0708499}, {-0.0020872, 0.0712482, -0.0815753}},{{-0.0252997, -0.1122153, -0.0112234}, {-0.099635, -0.0215398, -0.0539716}, {-0.1069847, -0.1426884, -0.0099209}},{{-0.0180189, 0.077624, -0.0261635}, {-0.0427244, 0.0819658, 0.0766738}, {0.0544785, 0.0403225, -0.012296}},{{-0.0266333, -0.0877421, -0.0407362}, {0.0111215, 0.0889818, 0.136512}, {-0.0656064, 0.1877423, 0.097936}},{{0.0238851, -0.070739, -0.003801}, {0.0796288, 0.0699741, -0.001562}, {0.0359758, 0.1130087, -0.040771}},{{0.0428303, 0.015891, 0.0521177}, {-0.1310355, -0.0626224, 0.0265157}, {-0.1288666, -0.0184484, -0.0360455}},{{-0.0095623, 0.0653707, -0.0215135}, {0.0980229, 0.0781322, -0.0409374}, {0.0340738, 0.0566803, 0.0303812}},{{-0.2114903, -0.0531592, -0.022007}, {0.0150684, -0.0277147, -0.0368191}, {-0.0907245, -0.3919706, -0.2500706}},{{-0.0361913, -0.05469, 0.0194774}, {0.0529178, 0.0104671, 0.3574293}, {0.0268902, -0.1144224, 0.0710645}},{{-0.0304876, -0.1104053, -0.1105204}, {-0.0979929, -0.0047364, -0.0949772}, {-0.1158898, 0.0172905, -0.0396936}},{{-0.0415279, -0.088312, -0.0197711}, {0.0469471, -0.0487253, 0.0303729}, {0.0458423, -0.0041749, 0.0337297}},{{-0.0994536, -0.0560644, 0.1713647}, {0.0388397, 0.0378375, 0.0386757}, {0.1720857, 0.0003815, 0.0409204}},{{-0.0174686, -0.0963616, -0.0033384}, {0.1342975, 0.0323523, -0.0233026}, {0.0618399, -0.0384889, -0.0777224}},{{-0.0365956, 0.030935, -0.0511795}, {0.0424937, 0.0610612, -0.0120874}, {0.0388509, -0.0581612, 0.002184}},{{-0.0086703, -0.1022186, 0.0154347}, {-0.0031761, 0.0517219, -0.0264893}, {-0.0195071, -0.0254385, 0.030895}},{{-0.003823, -0.259632, -0.2093864}, {-0.1383559, -0.2649301, -0.0728946}, {-0.1586551, -0.0880879, -0.028308}}}
{{{-0.0334564, -0.052379, 0.0242595}, {0.0518414, 0.0278497, -0.0568859}, {0.0642055, 0.0269549, 0.0277742}},{{-0.0647556, 0.2561901, 0.1525577}, {0.1267964, -0.081907, 0.0924629}, {-0.2230922, -0.2362809, -0.0402542}},{{-0.1689493, -0.0742098, 0.1269865}, {0.0316105, -0.0343497, -0.1558381}, {-0.117167, -0.199532, 0.0773386}},{{-0.0237797, 0.0564844, -0.03901}, {0.0362434, 0.1647795, 0.0495866}, {0.1089497, 0.1711604, 0.0073685}},{{0.0533494, 0.0214907, -0.0969386}, {-0.0549389, -0.0971303, -0.0260163}, {0.0307101, -0.0845488, -0.0513992}},{{0.0215865, -0.132314, 0.0554603}, {0.0165815, -0.2971398, -0.1348968}, {0.1051737, 0.1010641, 0.1014593}},{{-0.1483804, 0.0015603, -0.2163083}, {-0.0325683, 0.2454281, 0.0061222}, {0.1229563, 0.0745203, -0.1970203}},{{-0.1310652, -0.168481, 0.1468058}, {0.0929563, 0.1163781, 0.0303916}, {-0.0686405, 0.0045999, -0.2132089}},{{0.0553574, -0.1598365, 0.0872566}, {0.0621522, -0.0302648, -0.0133878}, {0.1863358, 0.0417126, 0.1834755}},{{-0.3180956, -0.0411018, -0.1140264}, {0.0349729, 0.0800216, -0.0392501}, {-0.1265389, 0.1082145, -0.0879684}},{{0.0534897, -0.2130621, -0.4139033}, {-0.0423119, -0.3136143, -0.2139571}, {-0.1565639, -0.2601328, -0.1179035}},{{-0.0803474, -0.0170106, -0.1862365}, {0.1037376, -0.1321054, -0.2191238}, {-0.1388335, -0.3173818, -0.1308604}},{{0.0135393, 0.0679042, -0.0596927}, {-0.04001, 0.0420452, 0.0443444}, {-0.0396124, 0.0120557, -0.1300043}},{{-0.0564743, -0.0306359, 0.0609962}, {-0.1441201, -0.102211, -0.0479932}, {0.0057727, -0.0218894, 0.021306}},{{0.0104233, -0.0583982, 0.0390346}, {0.0645304, 0.1420495, -0.0170165}, {0.0654717, 0.1164518, -0.0739964}},{{-0.2027261, -0.1279219, 0.0093049}, {0.047028, 0.1566331, 0.0163012}, {-0.038222, 0.1284512, 0.0596599}},{{0.0360948, 0.0561263, -0.1062161}, {0.1995634, 0.2208943, 0.0691357}, {0.0897368, -0.0139861, -0.1991565}},{{-0.0423521, 0.1436684, 0.0242004}, {0.0638769, -0.0110159, -0.0418971}, {-0.0437934, -0.0615875, -0.0150132}},{{-0.2521365, -0.0750895, -0.2318112}, {0.1038821, -0.161829, 0.1508252}, {-0.1302144, -0.1886967, 0.0963966}},{{0.0536169, 0.0542587, 0.0238528}, {0.1591108, 0.0070985, -0.0728692}, {0.0909987, -0.1132042, 0.0109653}},{{-0.0603417, -0.0174646, -0.0412983}, {0.0510445, -0.0287969, -0.0391751}, {0.0507691, 0.0664607, 0.0808754}},{{-0.0293121, -0.3029844, 0.0592907}, {-0.341166, -0.5754971, -0.0690921}, {0.0963086, -0.0327044, 0.1166229}},{{-0.0900939, -0.4416455, 0.0409977}, {-0.2210637, -0.0428118, 0.1363415}, {0.0016171, 0.0780901, -0.1902444}},{{-0.0677033, -0.0424097, -0.0803727}, {-0.1986679, -0.3249808, -0.154361}, {-0.1385687, -0.1389257, -0.1486567}},{{-0.4780658, -0.2181644, -0.0202456}, {0.0164714, 0.0510265, -0.2524861}, {-0.2072898, -0.2397133, -0.2843829}},{{-0.0985749, -0.0033033, -0.07496}, {-0.0644486, 0.0185552, 0.0364026}, {-0.0935132, -0.0204745, -0.1032728}},{{0.1568694, 0.0718353, 0.007698}, {-0.0273906, -0.1279683, -0.0361926}, {-0.0019019, -0.0935873, -0.1490238}},{{0.0373202, 0.143923, 0.0878266}, {-0.1540313, -0.1909653, 0.1057014}, {-0.3479939, -0.1181322, 0.0218891}},{{0.1305989, -0.0130812, -0.1088474}, {0.0164111, -0.1438991, -0.2605919}, {-0.2384349, -0.0701775, -0.0007986}},{{-0.0491452, -0.1106234, -0.1491843}, {-0.0691836, -0.0639209, -0.1582107}, {-0.0058257, 0.0019537, 0.0373152}},{{0.1254851, -0.0371239, -0.1608063}, {-0.0952051, 0.0650801, 0.0264325}, {-0.2551166, 0.0977137, 0.1935587}},{{0.157462, 0.1077555, -0.0368398}, {-0.2853678, -0.0222818, 0.1545076}, {-0.0446112, 0.082512, -0.127044}},{{0.1413614, 0.2979574, 0.0466604}, {-0.0298959, -0.1207619, -0.0690531}, {-0.1578822, -0.5840759, 0.1956773}},{{0.0002028, -0.1013462, -0.0586603}, {-0.0199713, -0.0043796, -0.1076114}, {-0.0275634, -0.0172041, -0.0446047}},{{0.0312633, -0.1710742, 0.1716657}, {0.0981336, -0.0958713, -0.0042984}, {-0.1445928, -0.0809088, 0.0365421}},{{-0.0129827, -0.1173383, 0.0251259}, {0.0084405, -0.0695456, -0.1182039}, {0.0675489, -0.0539375, -0.0482599}},{{-0.1447996, 0.0275039, -0.0839648}, {-0.0646061, -0.0362004, -0.0511812}, {-0.04543, 0.0800312, -0.1070095}},{{-0.2690709, 0.105062, -0.0385783}, {-0.0549685, 0.2683381, -0.2204747}, {-0.0967464, 0.0723908, -0.2632964}},{{-0.0442142, -0.0691099, -0.0026831}, {0.0095869, -0.0877189, -0.0505811}, {0.0064187, -0.0262956, 0.0654075}},{{-0.0166129, -0.0207398, -0.0495179}, {0.0313868, 0.0557193, -0.0057146}, {-0.073316, 0.0881129, -0.0204007}},{{0.027906, -0.003574, -0.0175117}, {0.0018751, 0.1052045, 0.0735049}, {0.0373888, -0.0040963, 0.0559053}},{{-0.0894415, 0.0099475, -0.0948725}, {0.1022354, -0.1628655, -0.2660761}, {-0.1270251, -0.197377, -0.4719869}},{{-0.2396484, -0.2943417, -0.040543}, {-0.0105078, -0.1954155, -0.0415521}, {0.0642367, -0.0795307, -0.0606296}},{{-0.0684403, 0.0674391, 0.0021178}, {-0.0252074, 0.0067339, 0.0383469}, {0.0737528, -0.0417827, 0.0304785}},{{-0.2030354, 0.0554382, -0.237697}, {-0.1265396, -0.1666945, -0.0008827}, {-0.2428606, -0.1908387, -0.0021516}},{{-0.1087427, 0.1386189, 0.1626316}, {0.2903059, 0.2653961, 0.027802}, {-0.0870708, -0.2072736, -0.3154199}},{{0.1052545, 0.0565909, 0.0127522}, {-0.1207337, -0.1197798, -0.0165162}, {0.0734932, -0.0537806, 0.0040205}},{{-0.0877428, -0.1719387, -0.1499412}, {-0.2495452, -0.0593409, 0.0141239}, {-0.1820507, -0.0096046, 0.1480862}},{{0.021622, 0.0078059, -0.0632985}, {-0.036212, -0.0147769, -0.0040461}, {0.0321806, -0.0333296, -0.0773638}},{{-0.2388529, -0.275268, -0.0443932}, {-0.1410654, -0.0332756, -0.1374269}, {-0.1445066, 0.1906375, 0.0452392}},{{0.05464, -0.0152199, -0.0090604}, {-0.0300582, -0.0150352, 0.0645134}, {-0.0617289, -0.049791, 0.060562}},{{0.109087, 0.0244126, 0.1573277}, {-0.035896, 0.1053958, 0.0045653}, {-0.0105101, -0.0007668, 0.0079902}},{{0.1704574, -0.0531906, -0.00385}, {0.1252729, -0.0235477, -0.0190904}, {0.0625201, -0.1495456, -0.0082285}},{{-0.1420268, 0.0643245, 0.2812425}, {0.1349083, 0.1082993, 0.0323}, {-0.1107874, -0.0529142, -0.0544565}},{{0.1255175, 0.0146044, -0.0105563}, {0.1141419, 0.09903, -0.0132349}, {0.0022858, -0.0385196, -0.0814551}},{{0.0283165, -0.1461236, -0.3800646}, {-0.1310215, -0.3034955, -0.1130888}, {-0.20424, -0.0534201, 0.1386528}},{{-0.0135462, 0.1912315, 0.1359433}, {0.130403, -0.0268047, 0.1136555}, {-0.1199364, -0.1577629, -0.0492802}},{{-0.149275, -0.2561135, 0.1804233}, {-0.2749164, -0.0336895, -0.0659588}, {-0.1142188, -0.0633139, -0.0709888}},{{0.0429401, 0.1585806, -0.0406276}, {0.0820568, 0.0124781, -0.352327}, {0.0248896, -0.1142497, -0.1500686}},{{0.0250242, 0.0618118, 0.023334}, {-0.1358779, -0.0027839, -0.060689}, {0.022111, -0.0216696, -0.1433984}},{{0.0829796, -0.2191942, -0.0267302}, {0.1424722, -0.0820177, 0.0150936}, {-0.0468511, 0.069981, 0.1642564}},{{0.0451382, 0.0439686, 0.0693716}, {-0.0128576, -0.0063404, -0.0558039}, {-0.0107862, 0.0545778, -0.0609311}},{{-0.082335, 0.0077973, -0.1038683}, {-0.0341467, -0.0763876, -0.2049889}, {0.0138299, -0.0988367, -0.0506106}},{{-0.1744914, -0.103345, 0.0453192}, {-0.0927214, 0.1173478, -0.245108}, {-0.1825851, -0.0233265, -0.0799665}}}
