float weights11 [1024][1024]=
{{{-5.92946410e-02, -7.42983446e-02, -2.18175203e-02,
         4.17549908e-02, -1.33718606e-02, -1.54562667e-01,
        -9.51267965e-03, -1.35751873e-01, -1.12924673e-01,
        -2.75979400e-01},
       { 6.04884624e-02, -1.26020089e-01, -1.94108844e-01,
        -1.27228156e-01, -4.50071990e-02,  6.05069250e-02,
         7.18139336e-02, -7.71549195e-02,  7.84087984e-04,
         6.08298345e-04},
       {-1.98421314e-01, -6.33595884e-02, -2.41251774e-02,
        -1.78409308e-01, -2.77125626e-03, -2.88678482e-02,
        -9.65486094e-02,  3.52714062e-02, -1.02623858e-01,
        -2.97679026e-02},
       {-2.02717870e-01, -4.33077924e-02, -1.52269036e-01,
         1.12256385e-01, -2.38190994e-01,  3.37942541e-02,
        -1.17869742e-01, -2.01925978e-01,  6.35252073e-02,
        -1.06492072e-01},
       { 3.83870490e-02, -4.34230477e-01, -2.72659548e-02,
        -2.23867580e-01,  1.09875128e-01, -1.85908929e-01,
         1.08724236e-01, -2.75678217e-01, -2.23928541e-02,
        -4.45319563e-01},
       { 4.30708490e-02,  7.19506070e-02, -4.07301262e-02,
        -1.01437069e-01, -4.64245230e-02, -9.38698500e-02,
        -4.62431088e-02, -1.33895099e-01, -3.59039567e-02,
         2.60492601e-02},
       { 3.29709016e-02, -2.98359483e-01,  2.99756378e-02,
         7.23718246e-03, -8.57174471e-02, -2.37002462e-01,
         1.64605360e-02,  4.01900150e-02, -4.73765768e-02,
         7.11006820e-02},
       {-1.67719617e-01, -1.71439216e-01,  8.13275017e-03,
        -5.44789881e-02, -5.91160432e-02,  2.82409471e-02,
        -1.37170225e-01, -1.47874355e-01, -3.46346088e-02,
        -5.43738753e-02},
       {-1.46714181e-01, -4.29060869e-02,  1.60632003e-02,
         2.43744440e-02, -1.73640046e-02, -1.75378039e-01,
         2.49524154e-02, -1.79967955e-01, -3.02108526e-02,
        -2.79315263e-01},
       { 5.69370911e-02, -2.97920287e-01, -1.55455530e-01,
         2.50073373e-02, -1.84319854e-01, -3.44675362e-01,
         1.09042153e-01, -4.41927195e-01, -1.82444215e-01,
        -4.56336170e-01},
       {-9.00217444e-02,  3.64357121e-02,  5.53076081e-02,
         1.81906335e-02,  1.15873046e-01, -7.68555924e-02,
        -4.11205590e-02,  1.58217158e-02, -1.26532361e-01,
        -5.03543802e-02},
       {-5.37391365e-01, -1.76620781e-01,  3.80546451e-02,
        -3.53898048e-01,  6.38052002e-02,  4.29545306e-02,
         6.96673766e-02, -2.30641812e-01, -3.57276827e-01,
         4.14868332e-02},
       {-2.18536437e-01, -3.26079642e-03, -1.93940699e-01,
        -2.88032621e-01, -1.12285249e-01, -2.23541290e-01,
         8.25742334e-02,  1.33630261e-02, -3.67355585e-01,
        -3.79372895e-01},
       {-8.35004598e-02, -7.94797689e-02, -1.18454710e-01,
         3.04618776e-02, -2.56345749e-01, -1.03862576e-01,
        -8.58425647e-02, -8.81843362e-03, -1.86526597e-01,
        -2.16058586e-02},
       {-1.00981720e-01, -1.57362908e-01, -2.81436473e-01,
        -1.33019134e-01, -9.30391029e-02, -2.10441515e-01,
        -3.76848504e-02, -1.26538545e-01, -1.05720468e-01,
        -7.86601081e-02},
       { 5.34812128e-03, -1.41021982e-01, -2.78735042e-01,
        -7.79120158e-03, -1.03477128e-01, -3.45202573e-02,
        -2.06641972e-01, -5.42959049e-02, -5.21671511e-02,
        -6.30300865e-02},
       {-2.09106192e-01,  6.91323504e-02, -3.24892029e-02,
         6.68497309e-02, -2.42189556e-01, -1.98453397e-01,
        -9.89177227e-02, -1.52950287e-02,  1.41541436e-01,
        -1.09938890e-01},
       { 5.26744276e-02, -2.62283813e-03, -1.85121492e-01,
         9.47606787e-02, -2.22597346e-01, -1.11205606e-02,
        -2.24674251e-02, -1.55066341e-01, -3.77719291e-02,
        -1.53331444e-01},
       { 2.79565174e-02, -1.70386627e-01, -2.33492523e-01,
         8.45204666e-02,  1.20278344e-01, -1.88528672e-01,
        -1.41917467e-01, -1.25303715e-01, -6.21863641e-02,
        -3.15762311e-01},
       { 1.15709724e-02, -2.09314823e-01, -2.50569098e-02,
        -2.20265970e-01, -9.53963026e-03, -5.14038019e-02,
         2.30392497e-02, -9.20852274e-03,  4.86418605e-03,
         2.93700788e-02},
       {-5.09266704e-02, -2.37916872e-01, -1.39684185e-01,
        -4.80640046e-02, -2.93783873e-01, -1.30885184e-01,
        -4.85009048e-03, -1.27911955e-01, -2.24187002e-01,
        -8.44200999e-02},
       { 9.95570794e-02, -5.74995354e-02,  4.95605450e-03,
        -1.57967154e-02, -1.54020652e-01, -4.34507042e-01,
         1.30193964e-01, -7.48198807e-01, -2.36207128e-01,
        -4.82273519e-01},
       { 5.80961034e-02,  1.26028499e-02, -3.14777084e-02,
        -7.64305592e-02, -5.40294610e-02, -2.20156088e-01,
        -1.58643108e-02, -3.28515977e-01,  8.54085535e-02,
        -2.74609059e-01},
       {-1.35117238e-02, -1.14686796e-02,  2.97874026e-02,
         1.78118534e-02,  4.51555289e-03, -1.82502065e-02,
         1.08630396e-02, -3.26500572e-02, -7.29155317e-02,
        -6.31634742e-02},
       { 1.48841813e-02, -4.42473263e-01,  4.28750366e-02,
        -3.39451581e-02,  5.03019132e-02, -1.34314418e-01,
        -9.65975225e-02, -9.33936462e-02, -2.20810607e-01,
        -1.86588168e-01},
       {-1.02089695e-03, -1.62048340e-02, -9.78585146e-03,
        -8.03530738e-02, -6.31515905e-02, -5.03799040e-03,
        -6.02879655e-03, -5.06912731e-02, -9.88809485e-03,
         2.92339344e-02},
       {-2.86250859e-02,  4.58181254e-04,  1.40717691e-02,
        -1.12380767e-02, -1.79820862e-02,  3.79635915e-02,
        -7.35196546e-02,  4.81509231e-02,  8.88060704e-02,
        -1.19586242e-03},
       { 8.19947571e-02, -1.22653350e-01,  3.67473960e-02,
        -2.57412374e-01, -2.33672932e-01, -1.16101727e-01,
         8.16978738e-02, -2.09958907e-02, -5.98949119e-02,
        -2.77061224e-01},
       { 2.13179588e-02,  9.04787183e-02,  3.78206652e-03,
        -7.93556497e-02,  7.68922716e-02, -1.73218384e-01,
         8.71102139e-02, -5.22168279e-01, -1.94954634e-01,
        -3.93262357e-01},
       { 1.12092786e-01,  4.24827561e-02, -4.57677364e-01,
         6.96070269e-02, -2.09504828e-01, -5.41951180e-01,
         1.34571359e-01, -5.27798533e-01, -3.88898730e-01,
        -3.50481331e-01},
       {-2.59771913e-01, -1.08077943e-01,  1.66469719e-02,
        -7.30313510e-02,  6.26693517e-02, -2.60362644e-02,
        -5.63749894e-02, -2.19647303e-01, -3.97310369e-02,
         9.97487679e-02},
       { 1.10435955e-01, -2.91064233e-01, -9.72150937e-02,
        -9.51165706e-02,  4.92092930e-02,  6.58523515e-02,
        -8.22593495e-02, -6.06841631e-02, -1.35797322e-01,
        -1.63125023e-01},
       { 3.15903425e-02, -9.39238146e-02,  6.14240486e-03,
         3.25704031e-02, -8.39860663e-02, -1.32972553e-01,
        -1.09071925e-01, -4.46008183e-02, -7.53700286e-02,
        -2.29398221e-01},
       {-1.22424260e-01, -2.63230592e-01, -1.93702448e-02,
        -3.69070530e-01, -1.51137933e-01, -1.33566875e-02,
        -9.58538428e-02, -1.19214945e-01, -3.56843621e-01,
        -1.82024185e-02},
       { 5.25028072e-03, -2.79479641e-02, -2.74706721e-01,
        -1.46542072e-01,  1.55310735e-01,  4.98353988e-02,
         3.89100388e-02, -2.06391066e-02,  1.66241750e-01,
        -2.25897461e-01},
       { 4.75300523e-03, -2.16415972e-02, -2.24400058e-01,
        -3.55321020e-02, -9.40951854e-02, -4.87351827e-02,
        -5.57076558e-02, -7.32594654e-02,  4.72081117e-02,
        -9.87035111e-02},
       {-3.30408439e-02, -1.40935495e-01, -5.46528101e-02,
        -7.10445121e-02, -6.13627881e-02,  5.90364961e-03,
        -3.11689824e-01, -5.18486984e-02, -2.68626921e-02,
        -5.16667627e-02},
       {-7.30239376e-02,  8.03077221e-02, -7.85438046e-02,
        -6.88852444e-02, -1.65605694e-01, -2.74403673e-02,
        -1.64336085e-01,  9.82276797e-02, -7.22698914e-03,
        -1.21431135e-01},
       {-3.22139747e-02, -1.81004450e-01, -3.56564075e-02,
        -1.80751607e-01, -2.55682230e-01, -5.69634289e-02,
         8.81775841e-02, -1.11267976e-01, -2.73711346e-02,
        -1.42624483e-01},
       {-2.08751410e-02, -3.97884220e-01,  2.66597439e-02,
        -1.28423885e-01, -1.39607340e-01, -5.21683842e-02,
        -5.71140163e-02,  8.42848942e-02, -3.39118272e-01,
         5.63912615e-02},
       {-4.78676669e-02,  2.17511114e-02, -4.20737177e-01,
        -2.59284321e-02,  1.00050747e-01,  3.82500216e-02,
         7.98127130e-02, -2.00024068e-01, -3.56834270e-02,
        -3.95327285e-02},
       {-1.41134754e-01, -1.94620997e-01, -4.29811962e-02,
        -2.22259820e-01, -1.04391411e-01, -2.43610233e-01,
        -3.24542150e-02, -6.80586770e-02,  1.31031230e-01,
         1.53678030e-01},
       { 6.74178675e-02, -4.05492127e-01,  4.62364256e-02,
         4.56489716e-03, -2.63358951e-01, -6.20574057e-01,
        -4.06562127e-02, -7.31543720e-01, -5.51184732e-03,
        -3.85602921e-01},
       {-5.53950742e-02, -3.95719893e-03, -1.44752905e-01,
         2.98871901e-02, -2.44738519e-01,  7.38982856e-02,
        -1.65399626e-01, -3.29417512e-02, -3.41428488e-01,
         4.74604452e-03},
       {-6.22907467e-02,  8.50262716e-02, -1.34181902e-01,
        -7.44883716e-02, -2.16768369e-01,  6.83550611e-02,
        -5.44250496e-02, -1.48369059e-01,  3.81998420e-02,
         5.13066836e-02},
       { 8.89730752e-02, -4.43799078e-01, -1.77292600e-01,
         8.67975354e-02,  7.73993060e-02, -9.08006668e-01,
         7.34244660e-02, -1.24449217e+00, -3.95369947e-01,
        -9.94370997e-01},
       {-6.71020430e-03, -1.74461111e-01, -7.01980665e-02,
        -4.24297154e-01, -6.28010780e-02, -1.45468071e-01,
         3.32637504e-02, -1.17966987e-01, -6.90387711e-02,
        -5.30803949e-02},
       {-6.25244141e-01, -2.37461910e-01, -3.38588923e-01,
        -4.60196227e-01, -4.22792226e-01,  3.49709317e-02,
        -4.05441076e-01,  3.63757536e-02, -3.86794984e-01,
         1.06478473e-02},
       {-2.81360120e-01, -1.95694596e-01,  7.00116456e-02,
        -6.28215000e-02,  4.47335839e-02, -3.58742625e-01,
        -4.64385077e-02, -4.84738380e-01, -1.47221088e-01,
        -3.38802375e-02},
       { 6.72498047e-02, -5.09631217e-01, -3.04818749e-02,
        -4.68581244e-02, -4.56834465e-01,  6.73028007e-02,
         8.32961574e-02, -2.67737601e-02, -4.25562829e-01,
         3.93133052e-02},
       { 8.99504572e-02, -1.59447491e-01, -8.66559595e-02,
         3.52301486e-02, -1.07725799e-01, -4.86569628e-02,
        -1.22219950e-01, -1.60856411e-01,  2.48878803e-02,
        -5.28625213e-02},
       {-1.29866689e-01, -1.43555328e-01, -2.00456709e-01,
        -1.55448923e-02, -2.71491297e-02, -9.35280398e-02,
        -3.75394598e-02, -2.86658674e-01,  7.55862296e-02,
        -1.31651461e-01},
       { 1.18312119e-02, -1.38006359e-01, -1.51275083e-01,
        -1.16264671e-01, -4.72049713e-02, -1.09509230e-01,
        -5.77094406e-02, -1.06707644e-02, -1.61991864e-01,
        -4.36311662e-02},
       {-1.76987961e-01, -8.80355537e-02, -6.23713806e-02,
        -7.56225213e-02, -9.16539207e-02, -1.05145639e-02,
        -1.18618168e-01, -2.35797241e-02, -8.46127719e-02,
        -8.00791606e-02},
       {-3.35245967e-01, -1.96133569e-01,  9.39322338e-02,
         8.95034522e-03,  7.68559575e-02, -3.65712464e-01,
         5.24143055e-02, -3.87280136e-01, -4.65802103e-01,
        -1.68077379e-01},
       {-2.13376701e-01, -8.51321965e-02, -9.40711498e-02,
        -5.81395999e-02, -1.26840264e-01, -9.55682620e-02,
         3.53454612e-02, -1.50346518e-01, -3.86861652e-01,
        -6.76638857e-02},
       {-3.72353531e-02,  6.32896507e-03, -9.07180235e-02,
         5.50957490e-03,  3.41156796e-02, -2.61166453e-01,
         7.33087584e-02, -6.38587236e-01, -2.74544179e-01,
        -5.77469826e-01},
       {-2.54883543e-02, -1.42359346e-01, -1.78975612e-01,
        -9.79927406e-02, -2.94879377e-01, -3.10259592e-02,
        -8.77533332e-02, -5.52897975e-02,  6.38000965e-02,
        -2.08883032e-01},
       {-5.48560917e-02, -2.12372169e-01, -1.28403530e-01,
         5.78510948e-02, -2.16368333e-01, -3.19845527e-02,
        -3.31851020e-02,  2.37084813e-02,  1.02973200e-01,
         4.61829193e-02},
       { 1.54677391e-01, -1.87329054e-01, -2.29081780e-01,
        -1.58305448e-02,  3.19419010e-03, -4.25501429e-02,
        -2.00419322e-01, -2.88201291e-02, -3.73234481e-01,
         3.76423262e-02},
       {-1.11785904e-01, -2.15429425e-01, -2.73742169e-01,
        -6.66983649e-02, -1.46200150e-01,  8.73375311e-02,
        -6.03454299e-02, -1.43643111e-01, -1.72825679e-01,
        -4.23865020e-02},
       { 6.11710213e-02, -1.86691746e-01, -2.29981691e-01,
        -3.08110043e-02, -2.17986003e-01, -1.66481659e-01,
         8.70973151e-03, -1.49505123e-01,  1.06785409e-01,
         7.99106881e-02},
       {-6.49101064e-02, -4.13602451e-03, -7.20781907e-02,
        -1.58474341e-01, -4.13052253e-02,  9.34404582e-02,
        -6.78578392e-02, -5.94328791e-02,  6.32570237e-02,
        -8.27372521e-02},
       { 3.35802622e-02, -3.91476989e-01, -6.79206755e-03,
        -3.91412467e-01,  6.09252639e-02, -2.24112213e-01,
         2.47206930e-02, -2.03352645e-01, -3.23947430e-01,
        -1.12709776e-02},
       {-1.23172045e-01, -1.11649238e-01,  5.76603636e-02,
        -2.34611437e-01, -2.81385481e-02, -3.81904356e-02,
        -1.10535681e-01, -3.94221134e-02, -1.46793276e-01,
        -4.01937664e-02},
       {-2.51487028e-02, -1.05189309e-01,  3.72131579e-02,
        -2.59860963e-01, -7.67385736e-02, -5.12439609e-02,
        -9.38240290e-02, -1.19533636e-01, -2.95264199e-02,
        -1.37533367e-01},
       {-2.81363428e-01, -8.37649480e-02, -1.02435753e-01,
        -1.76584393e-01, -2.87791759e-01,  1.37271583e-01,
        -2.18970507e-01, -1.72062188e-01, -1.13586500e-01,
        -1.38278902e-01},
       {-6.37000725e-02,  2.33593415e-02, -7.92281609e-03,
        -5.25733046e-02, -2.28353105e-02, -6.17481731e-02,
        -1.19928867e-01, -1.56481147e-01, -7.13707656e-02,
        -3.74053627e-01},
       {-1.54498011e-01, -9.07611772e-02,  5.49023855e-04,
        -1.96911514e-01,  1.92089472e-02, -3.37867886e-02,
         5.77276526e-03, -3.59042026e-02, -2.63164323e-02,
        -3.07480153e-02},
       {-2.49107376e-01, -5.06383717e-01,  8.11498147e-03,
         9.69836768e-03, -9.57621709e-02, -3.35154533e-02,
        -2.83676088e-01, -1.84023395e-01, -2.16296598e-01,
         1.81856871e-01},
       {-7.54533568e-03, -6.76480755e-02,  7.25780278e-02,
        -2.73117274e-01, -1.75716430e-01, -3.53377871e-02,
         5.20414021e-03, -1.37039423e-01,  3.44083048e-02,
        -3.99067700e-02},
       {-4.45369855e-02,  1.08105049e-01, -9.41923819e-03,
        -1.56913381e-02, -1.34552255e-01, -2.31709749e-01,
        -1.05054937e-01,  3.33704539e-02,  6.17651851e-04,
         1.04271993e-01},
       {-3.31709422e-02,  6.17629141e-02,  1.41912717e-02,
        -4.29918952e-02, -3.56993489e-02,  9.01995460e-04,
         1.60211176e-02,  1.59988552e-02,  2.75648776e-02,
        -1.52456924e-01},
       { 7.74891749e-02, -4.42352027e-01,  1.03251904e-01,
        -3.04405123e-01, -1.38131201e-01, -7.17154890e-02,
         1.90112330e-02, -2.44094342e-01, -8.96303877e-02,
        -2.84197986e-01},
       {-1.08095080e-01, -1.74522489e-01,  1.93931535e-02,
         8.55541006e-02, -8.14808235e-02,  7.54838660e-02,
        -4.89668176e-02,  9.32422280e-02,  1.61026388e-01,
        -9.09401327e-02},
       { 1.32991076e-02, -1.20288499e-01,  3.14512923e-02,
        -1.86627015e-01, -1.36985287e-01, -2.40188703e-01,
         1.27252594e-01, -4.54224706e-01, -2.20945999e-01,
        -2.60351691e-02},
       {-1.58794746e-01,  5.48195504e-02, -1.40317544e-01,
        -1.29596040e-01, -1.39312536e-01, -1.03753313e-01,
        -1.81688234e-01, -7.59922117e-02, -3.61510009e-01,
        -7.94579312e-02},
       {-1.20756768e-01, -3.97593945e-01, -2.62668937e-01,
        -2.73235530e-01, -2.83414304e-01,  1.07922979e-01,
        -3.35940778e-01,  7.76581792e-03, -1.39945284e-01,
         5.24399914e-02},
       {-1.25143966e-02,  7.17293145e-03,  3.01827453e-02,
        -3.14187892e-02, -8.42125416e-02,  2.41621565e-02,
        -6.78463802e-02, -1.00178717e-04,  5.49122207e-02,
         2.20368411e-02},
       { 5.59242908e-05, -2.52437979e-01,  1.52263790e-01,
        -2.35340614e-02, -1.10452466e-01, -1.97521314e-01,
        -1.33431852e-01, -1.09085418e-01, -2.92694092e-01,
        -5.60587496e-02},
       {-2.78361708e-01,  1.26176691e-02, -1.03431828e-01,
         5.40115647e-02, -1.51445568e-01, -1.06844835e-01,
        -1.36573628e-01, -2.15502515e-01, -1.02904953e-01,
        -6.63415417e-02},
       { 2.10250970e-02,  9.20784920e-02, -1.77465752e-01,
        -1.93582937e-01, -3.86881009e-02, -1.21138424e-01,
         3.14559676e-02, -1.10164784e-01, -2.01821942e-02,
        -5.64811081e-02},
       {-2.30922818e-01, -1.25744849e-01, -9.84670520e-02,
        -2.37472821e-02, -2.82369610e-02, -6.88489666e-03,
        -2.80369027e-03, -3.55127491e-02, -2.31454000e-01,
         8.71985406e-02},
       { 1.16089229e-02, -2.36632660e-01, -3.83290172e-01,
         7.72116408e-02,  7.53290579e-02, -3.12024772e-01,
         7.27849603e-02, -4.67840374e-01, -2.37191562e-02,
        -2.40903303e-01},
       {-2.64105916e-01,  9.62363258e-02, -1.78918630e-01,
        -1.37511984e-01, -7.14609325e-02,  5.05133457e-02,
        -9.15789884e-03, -3.80641110e-02, -2.04391763e-01,
        -6.49299771e-02},
       {-3.03171933e-01, -1.56160489e-01, -2.75133967e-01,
        -1.64499804e-01, -2.07121432e-01,  2.69449521e-02,
        -2.29227319e-01,  5.45477904e-02, -2.33417675e-01,
         3.31491753e-02},
       { 2.22448818e-02, -7.82457888e-02, -9.52280164e-02,
        -2.67431855e-01, -8.53233114e-02,  1.36063080e-02,
        -1.72576327e-02, -1.27097502e-01, -1.11614361e-01,
        -3.69757111e-03},
       { 1.06771894e-01, -1.40965767e-02,  5.51861199e-03,
         1.15334667e-01, -1.04821213e-01, -9.83434450e-03,
        -1.32798448e-01, -1.90808028e-02, -2.93149263e-01,
        -1.27827972e-01},
       {-5.86211644e-02, -4.16448981e-01, -1.33911539e-02,
        -4.86306161e-01,  6.73058257e-03, -3.96813363e-01,
        -9.26572364e-03,  5.26628196e-02,  1.05451175e-03,
         7.55179748e-02},
       {-1.42451385e-02,  7.15029910e-02, -1.88018337e-01,
        -1.05401259e-02, -1.26875862e-01, -1.23414081e-02,
        -5.44595830e-02, -1.96182225e-02,  5.35828546e-02,
         7.40131065e-02},
       {-4.32954907e-01, -2.88182646e-01, -3.30207944e-01,
         3.30975768e-03,  1.45387366e-01, -6.52919784e-02,
        -2.22055703e-01, -2.30831921e-01, -8.43393579e-02,
        -4.16443288e-01},
       {-1.55458087e-02, -1.12810686e-01, -1.51969254e-01,
        -1.56861320e-02,  4.54921201e-02, -6.47334754e-02,
        -1.48487091e-03,  9.46040377e-02,  5.26151173e-02,
        -1.03270710e-01},
       { 1.33753493e-02,  1.93489566e-02, -1.52694181e-01,
         2.93569863e-02,  5.53790526e-03, -3.11771601e-01,
        -8.84829760e-02, -3.26616287e-01, -3.21808010e-01,
        -4.43927228e-01},
       {-8.74459296e-02,  1.76276252e-01, -6.40356168e-03,
        -1.58211887e-02,  1.94428377e-02, -2.02615082e-01,
        -6.04795888e-02, -3.51459861e-01,  9.25907493e-02,
        -3.66172224e-01},
       {-1.56088263e-01, -1.24840565e-01, -3.61282416e-02,
        -2.59413719e-01, -5.26577421e-02,  4.12595533e-02,
        -1.28765300e-01,  5.22688106e-02, -3.26334655e-01,
         7.12566599e-02},
       {-1.51991500e-02, -2.08414122e-02, -1.87828951e-02,
         4.10591904e-03,  3.77418362e-02, -1.45541817e-01,
         3.01815923e-02,  1.42463055e-02, -3.33770178e-02,
         2.86642928e-02},
       { 3.67006920e-02, -2.98813730e-01, -7.00939968e-02,
        -1.35368064e-01, -6.72103018e-02, -3.55551153e-01,
         9.22105536e-02, -3.69453728e-01, -3.37122202e-01,
        -1.26124963e-01},
       {-2.87703007e-01,  8.02344382e-02, -1.20653532e-01,
         3.79625894e-02, -8.74040946e-02, -1.56986609e-01,
        -1.41068324e-01, -1.03090256e-01,  1.59226716e-01,
        -1.33028269e-01},
       { 7.56600946e-02, -2.42138684e-01,  1.07917273e-04,
         4.85636257e-02, -9.70167853e-03, -3.60023975e-01,
         1.68271139e-02, -3.74001175e-01, -6.01883866e-02,
        -4.79708761e-01},
       {-6.81990534e-02, -1.22653924e-01, -8.74909833e-02,
         7.58870458e-03, -1.05854735e-01,  3.38988528e-02,
        -6.25808956e-03, -7.28419274e-02, -2.37400293e-01,
        -2.65438240e-02},
       {-1.43187955e-01, -2.49652505e-01,  4.95711192e-02,
        -9.73375812e-02, -1.90654606e-01, -4.28344347e-02,
        -8.79304558e-02, -2.52067670e-02,  7.31500015e-02,
        -6.63969070e-02},
       {-2.70706415e-01, -1.13415174e-01, -6.97096959e-02,
        -4.16701324e-02, -9.24085602e-02, -6.16266914e-02,
        -2.59213090e-01, -9.96956453e-02,  2.00838111e-02,
        -1.33902207e-01},
       {-2.36324351e-02,  1.37275234e-01, -1.47843152e-01,
        -2.95278311e-01,  1.07049868e-01, -3.84157598e-02,
         2.96031013e-02, -1.00466155e-01,  5.98164946e-02,
        -9.44506079e-02},
       {-7.27535859e-02, -1.10461920e-01, -1.68984190e-01,
        -1.33514240e-01, -1.50021881e-01,  1.06012374e-01,
         2.79357675e-02,  7.57708326e-02, -5.20189814e-02,
         6.60557067e-03},
       {-9.74720493e-02, -1.76120684e-01, -3.18252593e-02,
        -5.24303503e-02, -1.59534737e-02, -1.89807281e-01,
        -1.97482452e-01, -7.90115744e-02, -8.29541385e-02,
         1.70612410e-02},
       {-2.52949223e-02, -2.18845353e-01, -2.40816548e-01,
        -8.90091062e-02, -3.29935439e-02,  1.61455870e-02,
        -1.03277192e-01, -1.48968413e-01,  5.02232835e-02,
         1.25158094e-02},
       {-7.95430690e-02, -2.02269614e-01, -1.28365948e-03,
        -8.31233189e-02, -2.07011402e-01, -2.12386638e-01,
        -6.06666543e-02, -2.72076894e-02, -1.42512828e-01,
         4.90887836e-02},
       { 1.61377992e-02, -4.91997242e-01,  1.39890620e-02,
        -2.45806441e-01, -2.72908121e-01, -3.43123496e-01,
        -9.04908404e-03, -1.27036080e-01, -4.15575266e-01,
        -1.53141186e-01},
       {-1.82795003e-01, -2.86235362e-01,  3.44724394e-02,
         1.48282284e-02,  7.88355470e-02, -1.01105981e-01,
        -5.70586883e-02, -8.81929323e-02, -2.63434052e-01,
        -9.17631090e-02},
       {-4.76477742e-02, -1.37620196e-02, -3.43159549e-02,
        -2.56105303e-03, -7.69824535e-02,  4.19368036e-02,
         3.20719625e-03, -5.03054671e-02, -4.56080921e-02,
        -6.08991645e-02},
       { 7.42083117e-02, -4.13481116e-01, -1.38233125e-01,
         1.50035582e-02, -2.33101949e-01, -2.95646220e-01,
         1.17022023e-01, -6.09521233e-02,  4.17629555e-02,
        -2.04251204e-02},
       {-4.08836082e-02, -1.80354580e-01, -3.26789841e-02,
        -2.23505899e-01, -2.12863371e-01, -1.02577947e-01,
        -6.75823241e-02, -7.94346556e-02, -1.97104961e-01,
        -1.92540497e-01},
       { 1.54911488e-01, -9.64997783e-02,  7.85732418e-02,
        -1.00714788e-01, -2.03977227e-01,  3.34006846e-02,
         4.36475165e-02,  5.52370474e-02, -8.00511539e-02,
        -8.12868401e-02},
       {-1.18114270e-01, -1.51570156e-01, -1.76121563e-01,
         6.06821068e-02,  1.00113362e-01, -4.02870029e-01,
        -2.95047425e-02, -2.48984128e-01, -4.55901146e-01,
        -4.52937007e-01},
       {-6.28013760e-02, -3.78527075e-01, -6.15002289e-02,
        -1.86723977e-01, -1.62794098e-01, -3.85859400e-01,
        -5.26639819e-02, -2.39229590e-01, -1.29260914e-02,
         1.34427175e-01},
       {-4.57273185e-01, -1.64672896e-01,  1.92004424e-02,
        -5.55596165e-02, -6.79765791e-02,  2.23291405e-02,
        -2.37283245e-01,  9.63850878e-03, -1.21313771e-02,
        -5.12941256e-02},
       {-3.88479263e-01, -1.27421785e-02, -7.70261977e-03,
        -1.56032443e-01, -1.09636478e-01, -2.30303869e-01,
         7.33175576e-02, -1.42788783e-01, -1.19521618e-01,
        -6.01473935e-02},
       {-8.56359899e-02, -1.21573433e-01,  4.89528775e-02,
        -1.73809782e-01,  6.30000085e-02,  9.71246138e-03,
        -1.30636305e-01,  5.91600761e-02, -5.17970137e-02,
        -7.58964419e-02},
       {-1.88125744e-01, -8.01095590e-02, -1.52377546e-01,
        -1.50854573e-01, -1.68252736e-01,  2.26816200e-02,
        -1.91184640e-01, -2.93249562e-02, -3.04559797e-01,
        -4.55275783e-03},
       {-1.02629196e-02, -2.05985263e-01, -2.46090833e-02,
         8.88957828e-03, -1.14941232e-01, -6.93266466e-02,
        -5.59503548e-02,  3.32809351e-02, -2.01327249e-01,
        -4.92666177e-02},
       { 4.89497706e-02,  1.47638112e-01,  2.44861394e-02,
        -2.83925571e-02, -2.19208956e-01, -2.92644743e-02,
        -3.17444354e-02, -1.48071051e-01, -1.51104733e-01,
        -3.23319912e-01},
       {-1.04139470e-01, -3.43010277e-01,  6.42252117e-02,
         9.30353925e-02, -1.08903825e-01, -4.45767224e-01,
         5.19760437e-02, -3.47631276e-01, -1.86134219e-01,
        -2.38460228e-01},
       {-1.31848812e-01, -2.62808174e-01, -9.11107380e-03,
         1.43132329e-01,  2.11437567e-04, -6.59703510e-03,
         2.79900562e-02,  5.78376651e-02, -2.96354711e-01,
        -5.13626896e-02},
       {-6.29895389e-01, -1.85732096e-01,  6.26872331e-02,
        -4.52600092e-01,  4.63464558e-02, -6.91309664e-03,
         4.19838876e-02, -2.28536025e-01, -5.98066509e-01,
         5.61600514e-02},
       {-2.74443358e-01, -8.62506181e-02, -1.69830322e-01,
        -9.40424278e-02, -1.85892820e-01, -1.13715298e-01,
         2.60978527e-02,  1.04764566e-01,  4.62441184e-02,
        -3.20873350e-01},
       { 1.44585622e-02, -6.46138787e-02, -8.22217911e-02,
        -1.35684505e-01, -2.91940421e-01, -3.92163359e-02,
        -7.54270405e-02,  1.19682916e-01, -8.83333236e-02,
        -4.16130014e-02},
       {-3.59605290e-02,  3.15832235e-02,  9.15859863e-02,
         7.22430348e-02, -8.09984654e-02, -2.93278098e-01,
        -1.14515156e-01,  1.86683796e-02, -1.84719235e-01,
        -7.02297390e-02},
       {-2.78458446e-02, -3.06930542e-01, -4.40683290e-02,
         3.54113132e-02,  7.94418231e-02, -3.12290013e-01,
         7.51580000e-02, -4.96791601e-01, -2.62254685e-01,
        -4.41718221e-01},
       { 4.11127619e-02,  3.53043079e-02, -1.38642073e-01,
        -1.87490612e-01,  7.72020966e-02,  5.41400462e-02,
        -7.56823644e-02, -2.87018746e-01, -4.77897450e-02,
        -2.97440201e-01},
       {-3.78103405e-02, -8.79607350e-02,  2.80491691e-02,
        -2.38615885e-01, -5.44566922e-02,  1.37241662e-01,
         8.72657914e-03, -2.49302611e-01,  1.67836860e-01,
        -4.01288897e-01},
       { 8.83132368e-02, -3.34326118e-01, -2.45244712e-01,
        -2.10480019e-01, -3.68852466e-01, -1.37579724e-01,
        -1.18186139e-01,  2.18185838e-02, -2.78937250e-01,
         8.43438804e-02},
       {-1.79498240e-01, -7.49986526e-03, -5.72858453e-02,
        -5.10152197e-04, -1.02950297e-01,  4.15829793e-02,
        -4.87124324e-02,  9.48387012e-02,  2.13575531e-02,
         2.65570953e-02},
       { 8.97623226e-02, -1.32117197e-01, -1.41864330e-01,
        -1.96799278e-01, -2.23567426e-01,  5.78566268e-02,
        -7.88275525e-02, -1.48454741e-01,  3.90393995e-02,
         6.05090149e-02},
       { 8.90816301e-02, -1.32074833e-01, -8.39516371e-02,
         1.46259889e-02, -2.69426070e-02,  7.32173026e-02,
        -1.12927094e-01, -1.85143184e-02, -9.49328989e-02,
        -2.54966822e-02},
       {-2.44698569e-01, -5.30753881e-02, -5.98555356e-02,
        -4.63974774e-02, -1.64760858e-01, -1.59604587e-02,
        -2.68363565e-01, -4.82622012e-02, -9.22657084e-03,
        -1.99081022e-02},
       {-8.31049904e-02, -1.64284572e-01, -1.66091874e-01,
        -1.51012272e-01, -1.07814953e-01, -9.60446224e-02,
        -9.33055133e-02, -8.36290643e-02, -1.74879245e-02,
        -2.10670203e-01},
       {-1.66368991e-01, -3.09769809e-01, -7.81427145e-01,
        -2.13026404e-01, -2.22366810e-01, -1.15648821e-01,
        -3.11628193e-01,  1.22088129e-02, -3.48008484e-01,
         2.14155745e-02},
       {-3.03599946e-02, -1.46102473e-01, -8.28614533e-02,
        -4.74841371e-02,  2.24151947e-02,  4.53774147e-02,
        -9.27771162e-03, -1.48298413e-01, -2.42093578e-01,
        -6.97680488e-02},
       {-2.22401582e-02, -1.46578878e-01, -1.99665815e-01,
         4.98651564e-02, -3.12635064e-01,  4.63236198e-02,
         1.23885483e-01, -2.31488720e-02, -1.94835402e-02,
        -1.20113261e-01},
       {-2.93062180e-01, -6.42274857e-01,  4.84834760e-02,
        -2.62640983e-01, -1.04241572e-01, -2.06280798e-01,
         1.17820129e-01, -4.05857325e-01, -5.35452589e-02,
         3.54361697e-03},
       {-3.09323408e-02, -1.21592032e-02, -6.42591193e-02,
        -9.60860103e-02, -1.91491634e-01,  4.95221280e-03,
        -1.70700908e-01,  3.97455469e-02, -3.27435255e-01,
        -1.03805169e-01},
       { 3.43821980e-02, -2.46235594e-01, -6.25226879e-03,
        -1.96710572e-01, -2.48554736e-01, -2.01979771e-01,
        -1.29132578e-02, -8.43596682e-02, -1.48665473e-01,
        -1.39085893e-02},
       {-1.31005764e-01,  5.19056059e-02, -8.76910053e-03,
        -1.20162994e-01,  5.71322441e-02, -4.23485637e-01,
         6.54913187e-02, -4.10531402e-01,  9.50029045e-02,
        -4.79201734e-01},
       { 5.97865321e-03,  1.54363131e-02,  4.02402654e-02,
         3.93452570e-02, -2.46828958e-01, -2.55056143e-01,
        -2.14791864e-01, -1.05817065e-01, -6.59462363e-02,
        -3.07129435e-02},
       {-3.57980877e-02, -3.96610834e-02, -5.45848966e-01,
         1.35265756e-02, -6.03641421e-02,  6.07654303e-02,
        -8.87716115e-02, -3.89005154e-01, -3.09552997e-01,
        -9.61041749e-02},
       { 1.06040142e-01, -7.24035949e-02, -8.92755296e-03,
        -2.31828932e-02,  4.06682491e-02, -1.69252649e-01,
         4.56646085e-02, -2.03530103e-01, -8.93683285e-02,
        -1.26506105e-01},
       {-1.50517926e-01,  8.56988411e-03,  9.86270700e-03,
         1.56764071e-02, -2.69462354e-02, -4.98210400e-01,
         1.28423655e-02, -8.73182639e-02, -1.39289618e-01,
        -5.88725865e-01},
       {-5.79707371e-03, -4.43700291e-02,  2.01072209e-02,
        -2.44830936e-01, -1.63424462e-01,  6.06612787e-02,
        -1.62716582e-01,  8.95044729e-02, -3.50543484e-02,
        -1.51643641e-02},
       { 4.00255946e-03, -1.60556912e-01, -1.53069478e-03,
        -5.65217696e-02,  1.77052396e-03,  7.66753359e-03,
        -1.36913314e-01, -9.97452512e-02, -3.11685592e-01,
        -3.56412411e-01},
       {-3.57103646e-02, -1.63445380e-02,  2.02342961e-02,
        -3.11605692e-01,  9.00652409e-02, -1.93081066e-01,
         1.01204932e-01, -4.78155464e-01, -2.90982693e-01,
        -3.64746571e-01},
       { 2.21889261e-02, -2.67394036e-01, -1.27603903e-01,
        -9.18623060e-02,  1.08266942e-01, -3.53962258e-02,
        -5.39150909e-02, -7.36265704e-02, -1.96954921e-01,
        -6.31679893e-02},
       {-1.52888715e-01, -1.64637581e-01, -1.62456512e-01,
        -3.61329645e-01, -8.30411464e-02, -1.47288620e-01,
        -1.84736177e-01,  4.13888805e-02,  6.41053095e-02,
        -9.51321125e-02},
       {-3.62163819e-02,  3.90524007e-02, -1.26012057e-01,
        -6.68004751e-02,  3.01505849e-02, -1.86820745e-01,
        -2.67547369e-01, -3.03322989e-02, -1.47001748e-03,
        -1.91492945e-01},
       {-1.21296234e-01, -1.45801306e-01, -8.36685821e-02,
        -5.24738282e-02, -1.63845062e-01, -3.46097574e-02,
        -1.59448966e-01,  1.09787993e-02, -2.28937894e-01,
        -2.12133259e-01},
       {-9.53988656e-02, -1.25437170e-01, -5.45652620e-02,
        -2.25735500e-01, -1.73976153e-01,  9.66987461e-02,
        -9.58331227e-02, -2.78034478e-01,  8.19683224e-02,
         8.17217107e-04},
       {-2.52032667e-01,  4.56860587e-02, -2.32858226e-01,
        -5.85167855e-02,  1.21358022e-01, -1.06823921e-01,
         2.04799064e-02, -4.45528403e-02, -3.84851545e-01,
         3.03601986e-03},
       { 1.32531701e-02,  4.97867242e-02, -2.79829875e-02,
        -6.37656897e-02, -2.12932467e-01,  2.74894701e-04,
        -2.89202631e-02, -1.85240090e-01, -6.26206547e-02,
        -2.02444509e-01},
       {-7.90249743e-03,  2.85121631e-02, -2.75826365e-01,
        -1.97203108e-03,  9.24673751e-02, -4.03475016e-01,
         1.71326566e-02, -1.38667658e-01, -1.59244135e-01,
        -1.14808410e-01},
       {-3.40299577e-01, -1.10438615e-01, -2.55316794e-01,
        -7.04082325e-02, -9.12325531e-02,  7.41671175e-02,
        -2.14321800e-02,  3.82643682e-03,  1.32097244e-01,
         2.78848084e-03},
       { 1.48100644e-01,  5.30755147e-03,  3.48527613e-03,
        -1.75084159e-01, -7.05684423e-02, -2.01867655e-01,
        -7.86229894e-02,  1.31057993e-01, -2.09876060e-01,
        -1.21096522e-01},
       {-1.49796814e-01, -1.51765630e-01, -2.45399714e-01,
        -1.47471681e-01, -1.91311598e-01,  7.92807713e-02,
        -1.46339625e-01,  5.90405278e-02,  4.95711192e-02,
         9.00383014e-03},
       { 4.16263193e-02, -2.66649902e-01, -2.08203599e-01,
        -4.02835524e-03, -2.43406847e-01,  8.24576057e-03,
        -3.21682006e-01, -2.80425907e-03,  8.10838938e-02,
         9.86331236e-03},
       {-7.68761849e-04,  1.74667255e-03, -1.79227144e-02,
        -6.28608698e-03,  4.42144834e-02, -3.49188074e-02,
         2.38631070e-02, -1.30252391e-02,  5.32329716e-02,
        -1.29218381e-02},
       {-9.25193727e-02, -5.14023043e-02, -7.22924992e-02,
        -4.34194021e-02, -6.78048097e-03,  4.10183966e-02,
        -1.03406962e-02,  4.90613095e-02, -1.89307645e-01,
        -6.42171949e-02},
       {-7.29490910e-03,  5.16076386e-02,  3.50829959e-02,
        -1.78975370e-02,  1.29868668e-02, -1.63045645e-01,
        -1.66773856e-01, -1.06545202e-01, -2.89254844e-01,
        -1.66391477e-01},
       { 1.92703847e-02, -3.31892461e-01, -3.35037947e-01,
        -1.59698725e-01, -2.79999703e-01, -5.23747355e-02,
        -2.28212099e-03,  7.64232948e-02,  3.39745283e-02,
        -4.93253842e-02},
       {-3.69985215e-02, -7.94282854e-02, -1.17358007e-01,
         3.24328989e-03,  1.22038431e-01, -5.10076135e-02,
        -8.41384083e-02,  5.04593551e-02, -3.21622252e-01,
         2.95077655e-02},
       {-3.56970698e-01,  4.31390963e-02,  4.49006259e-02,
         2.72110365e-02,  2.83755865e-02, -1.90191880e-01,
         1.05273612e-02, -2.97166258e-01, -2.06847399e-01,
        -2.50472307e-01},
       {-5.83498888e-02,  1.67521071e-02,  5.26557490e-02,
         2.76885498e-02, -1.01575993e-01, -1.73421770e-01,
        -8.65527615e-02, -4.57897969e-03, -6.00339808e-02,
         2.81321481e-02},
       { 8.60760640e-03, -6.73246756e-02, -6.61343709e-02,
        -8.56034756e-02, -1.81949697e-02, -3.95951718e-02,
        -5.47374301e-02,  3.93067598e-02, -8.40837583e-02,
         6.79987017e-03},
       {-8.57168809e-02,  5.23652928e-03,  6.47369772e-02,
        -2.79594898e-01, -2.84616858e-01, -1.27079755e-01,
        -8.15799758e-02,  2.40075644e-02,  9.10416320e-02,
         6.85804561e-02},
       {-7.17336386e-02,  4.73264642e-02, -9.98565182e-02,
        -8.87796506e-02,  3.42690572e-02, -8.84154513e-02,
        -8.58945847e-02, -3.33669931e-02,  2.68941373e-02,
        -5.32245357e-03},
       {-1.62180841e-01, -1.93570122e-01, -3.36159766e-01,
        -2.54381716e-01, -2.96219379e-01,  9.61258560e-02,
        -2.74785519e-01,  5.15796691e-02, -9.40531716e-02,
         8.01858902e-02},
       {-8.81963894e-02,  2.40608733e-02,  1.58153083e-02,
         9.90384072e-03, -1.69561952e-02, -3.42052653e-02,
        -7.83896148e-02,  4.25559878e-02, -3.68112810e-02,
        -4.15178575e-02},
       {-1.03063606e-01, -1.59912687e-02, -1.42588496e-01,
        -2.43390113e-01, -1.45362258e-01,  1.57861225e-02,
         1.16135567e-01, -8.98068249e-02, -2.07515612e-01,
         7.94952642e-03},
       {-4.37535718e-02, -7.05963075e-02, -9.59411189e-02,
        -1.11257531e-01, -5.61212152e-02, -9.19125378e-02,
        -7.05826655e-02, -1.53656125e-01,  1.32136837e-01,
        -1.50498495e-01},
       { 4.47115153e-02,  6.31902590e-02, -3.14757586e-01,
         4.29638810e-02,  1.09570906e-01, -1.80311531e-01,
        -7.10918009e-02, -1.94338113e-01,  4.65496257e-02,
        -6.12719357e-01},
       {-2.85063386e-01, -6.24230392e-02, -2.91174471e-01,
        -9.02214050e-02, -3.07820328e-02, -1.73352942e-01,
        -8.11986253e-02,  7.34079108e-02,  6.83988631e-02,
        -2.09939163e-02},
       { 9.49734414e-04,  1.06263757e-01,  3.40131931e-02,
         9.90580861e-03, -1.46690950e-01, -6.27433434e-02,
        -9.68987122e-02, -2.22459361e-01, -3.07139128e-01,
        -1.70586884e-01},
       {-2.42676679e-02,  6.81839213e-02, -2.18687393e-02,
         2.84683798e-02, -1.60050645e-01, -3.26611757e-01,
        -6.00635111e-02, -3.06100219e-01,  1.18032277e-01,
        -3.66380274e-01},
       {-1.12402849e-01, -7.54594430e-02, -2.56715775e-01,
        -1.97253853e-01,  2.52053775e-02, -1.28593698e-01,
         2.92786416e-02, -1.31719425e-01,  1.25636294e-01,
        -2.20079094e-01},
       { 6.21216856e-02,  8.52217749e-02,  2.02818587e-02,
        -2.14913890e-01,  7.13520125e-02, -5.18613979e-02,
        -5.44384830e-02, -2.39312768e-01,  7.57774040e-02,
        -4.53598291e-01},
       {-5.43615595e-02, -4.57862113e-03, -3.50998268e-02,
        -1.72852613e-02, -2.58049145e-02, -4.48060557e-02,
        -6.05394170e-02, -8.81454442e-03, -1.17053278e-01,
        -5.72399125e-02},
       {-9.68320668e-03, -5.98489726e-03,  1.54002393e-02,
        -3.05017531e-01,  2.67932694e-02, -2.20924720e-01,
         7.54684731e-02, -3.10085773e-01, -1.99381188e-01,
        -3.75198543e-01},
       {-1.08818114e-02,  9.12918970e-02,  3.57852653e-02,
         6.48728609e-02, -2.49717347e-02, -3.85943614e-02,
        -1.13112824e-02, -7.79932290e-02, -3.69317234e-02,
        -5.87904491e-02},
       {-1.70278158e-02, -4.85827059e-01, -2.56483536e-02,
        -2.54633248e-01,  1.89454276e-02, -9.72977728e-02,
        -5.50907664e-02, -5.12635373e-02, -2.57034868e-01,
         2.54747141e-02},
       {-2.17543453e-01, -1.69968363e-02,  9.99087244e-02,
         2.62606870e-02, -1.37419358e-01, -7.45630786e-02,
        -1.87382221e-01,  6.23277314e-02,  1.13153486e-02,
        -2.27157086e-01},
       {-1.19696043e-01, -1.34103417e-01, -1.68885574e-01,
        -1.25860810e-01,  1.91943143e-02, -3.10314268e-01,
        -1.16971157e-01, -1.68225691e-01,  1.64818212e-01,
        -1.02588512e-01},
       {-1.37343973e-01,  1.23900838e-01, -1.74522679e-02,
         1.34462699e-01, -6.91765696e-02, -5.24148904e-02,
         2.78379042e-02, -1.05636962e-01,  9.75072533e-02,
        -1.16253821e-02},
       { 1.53035909e-01, -7.10117102e-01, -1.27325714e-01,
        -3.43868434e-01, -1.32173553e-01,  7.44294971e-02,
        -2.89796025e-01, -1.48343787e-01, -7.92151317e-02,
         1.48216840e-02},
       {-2.68733911e-02, -2.41753444e-01, -3.06279033e-01,
        -1.88783839e-01, -2.78528452e-01,  1.47245914e-01,
        -2.21812829e-01, -1.33629162e-02, -1.16901360e-01,
         2.09497642e-02},
       {-4.25647423e-02, -5.86406514e-02, -2.79006720e-01,
        -1.14914272e-02,  1.11567393e-01, -2.91604459e-01,
        -1.06568588e-02,  3.26753408e-02, -7.21289888e-02,
         1.06475629e-01},
       { 2.83629950e-02,  5.23305424e-02, -2.38927945e-01,
         6.00415505e-02,  1.55637898e-02, -3.85526419e-01,
         3.47294435e-02, -1.91593409e-01, -8.41394067e-02,
        -6.73414707e-01},
       {-1.65629387e-01, -7.31278658e-02, -3.76472659e-02,
        -2.17584521e-01, -2.97830924e-02, -4.51835662e-01,
        -2.54731886e-02, -3.95394117e-01,  1.21866301e-01,
        -3.60587209e-01},
       {-1.36975169e-01, -2.53788114e-01,  8.79817009e-02,
        -3.08924466e-01,  7.40868598e-02, -1.21212296e-01,
         4.29524779e-02, -1.06464013e-01,  6.57706708e-02,
        -2.45791242e-01},
       {-2.78729737e-01, -3.53902221e-01,  1.00602835e-01,
        -3.13256562e-01, -2.89475590e-01,  5.11326008e-02,
        -8.68001431e-02,  1.51054829e-01, -5.83303034e-01,
        -9.29389670e-02},
       {-9.98913273e-02, -1.51987314e-01, -5.52635789e-01,
        -7.46305436e-02, -5.48345506e-01,  5.12296297e-02,
        -2.26958364e-01,  3.07534114e-02, -1.56367674e-01,
        -7.36967325e-02},
       { 1.99803850e-03, -2.02647433e-01,  5.24811298e-02,
         3.00609227e-02,  3.16893868e-02, -3.31645876e-01,
        -4.98815849e-02, -1.76736847e-01, -4.63646092e-02,
        -8.50503221e-02},
       { 1.56091629e-02,  8.12831223e-02, -1.10665664e-01,
         7.27073997e-02, -1.20838873e-01,  1.04633935e-01,
        -1.79529607e-01, -1.57163247e-01, -1.03738040e-01,
         8.37128907e-02},
       { 8.80431384e-02,  8.91784877e-02, -9.31170359e-02,
        -9.66610834e-02, -5.38585447e-02,  3.32308337e-02,
         8.89488757e-02, -7.66370744e-02,  4.14039642e-02,
         4.61563878e-02},
       {-4.93024290e-02, -5.80445647e-01, -3.78609180e-01,
        -7.23376572e-02, -2.90799379e-01, -4.35170531e-02,
        -3.88194352e-01,  1.08299419e-01, -2.99057007e-01,
        -2.96590626e-01},
       {-2.39052892e-01,  4.96998020e-02, -1.58524588e-01,
         2.24735141e-02,  2.17635781e-01, -1.74891636e-01,
        -1.22360848e-01,  4.04385105e-02, -2.93650717e-01,
        -1.34580374e-01},
       { 2.66577210e-02,  2.38006003e-02,  4.02634069e-02,
        -1.54146910e-01,  4.85693887e-02, -1.27482921e-01,
        -1.21230304e-01,  9.75283459e-02, -2.00466160e-02,
        -1.45593673e-01},
       { 4.44473587e-02, -2.41790295e-01,  1.19209811e-01,
         2.60706153e-02, -5.14193512e-02, -4.27411646e-01,
         1.91922393e-02, -5.20052016e-01, -5.50377548e-01,
        -2.97777593e-01},
       {-1.31688446e-01,  1.14389606e-01, -2.17160471e-02,
         7.22835138e-02,  3.05440295e-02, -2.97418296e-01,
        -1.83129206e-01, -2.53706187e-01, -9.28962678e-02,
        -2.78029382e-01},
       {-2.86872357e-01,  6.11097068e-02, -1.16063811e-01,
         5.19784726e-03,  7.73819312e-02, -1.54835120e-01,
         8.83756429e-02, -3.72491390e-01, -4.12950546e-01,
        -5.61152577e-01},
       {-5.06658792e-01, -7.02833951e-01, -2.15988219e-01,
        -5.17262399e-01, -4.75501955e-01, -5.77028655e-02,
        -5.07478297e-01,  7.95412883e-02, -3.41217667e-01,
         6.81902096e-02},
       { 2.67623402e-02, -7.25686550e-03,  4.16088849e-02,
         3.47779179e-03,  7.00587705e-02, -3.27746332e-01,
         2.03277580e-02, -1.86670229e-01, -1.20191932e-01,
        -2.72758454e-01},
       {-4.69661877e-02, -2.20301419e-01, -2.23753035e-01,
        -2.21825927e-01, -1.18280143e-01, -1.46826699e-01,
         9.60348453e-03, -6.62135780e-02, -4.71942611e-02,
        -2.18632430e-01},
       {-1.21987499e-01, -8.16802979e-02, -9.76976156e-02,
        -5.83772138e-02, -5.77231720e-02, -1.17165096e-01,
        -6.53550178e-02, -4.01937440e-02,  1.41948104e-01,
         1.08740799e-01},
       { 2.35604104e-02, -1.59959272e-01, -1.19510122e-01,
         3.49364779e-03, -4.84344400e-02, -1.55418128e-01,
         2.38367915e-02, -4.56624359e-01,  1.26310706e-01,
        -1.44085661e-01},
       {-1.13698812e-02, -1.29735902e-01,  7.65056312e-02,
        -4.29497719e-01,  2.33219657e-02, -2.50629365e-01,
         2.77845543e-02, -5.27348518e-01, -1.18142575e-01,
        -7.40235448e-02},
       {-2.14465018e-02, -5.85208163e-02,  3.23910229e-02,
        -2.90730130e-02,  9.40428115e-03,  4.11491375e-03,
         1.70013029e-02, -5.83320260e-02, -2.05787681e-02,
        -4.70736213e-02},
       {-1.56975776e-01, -1.66965857e-01, -7.80721158e-02,
        -2.36233752e-02, -2.75861889e-01, -1.09278381e-01,
        -1.72867939e-01, -1.01288855e-01, -3.69138151e-01,
        -9.19060186e-02},
       { 3.68687958e-02, -2.50941753e-01, -8.92132372e-02,
         8.42120871e-03, -4.44698364e-01,  1.17195912e-01,
         9.32538956e-02, -3.70067470e-02, -2.33507231e-01,
         6.47286102e-02},
       {-6.66347370e-02, -5.24308495e-02,  6.56643584e-02,
        -1.12802312e-02,  2.79107550e-03, -2.50028908e-01,
         1.10423025e-02, -1.24082968e-01, -1.69676632e-01,
        -1.93379194e-01},
       {-2.26006940e-01, -2.55985856e-01, -1.29026771e-01,
        -2.36866027e-01, -1.28896445e-01,  1.62102710e-02,
        -7.77665749e-02, -4.49139774e-02, -2.64499467e-02,
        -8.24161544e-02},
       {-2.31852964e-01, -1.73003256e-01,  8.62560645e-02,
         2.26159347e-03, -2.73517162e-01, -1.09731644e-01,
         6.72335476e-02, -1.41745344e-01,  2.21893843e-02,
        -6.26956969e-02},
       {-2.03083739e-01,  1.25132799e-01, -2.37939820e-01,
         2.68858690e-02,  3.64478957e-03, -3.76482069e-01,
        -9.71324220e-02, -5.46967387e-01, -9.62778181e-02,
        -5.36254168e-01},
       {-8.05529952e-02, -1.96655482e-01, -8.43084082e-02,
        -2.61113256e-01, -1.81888297e-01,  5.24456687e-02,
        -6.45734966e-02, -4.72943224e-02, -1.12335697e-01,
         3.51507477e-02},
       { 1.29245266e-01,  4.11614217e-02,  9.43812579e-02,
        -1.96035951e-02, -6.84136301e-02,  4.38279733e-02,
        -2.61401623e-01, -2.59410173e-01,  9.14523285e-03,
         2.40203179e-02},
       {-2.08044454e-01,  7.45830312e-02, -5.10154068e-02,
        -2.98720598e-01, -9.55364630e-02, -5.25875613e-02,
        -6.26604713e-04, -7.85034597e-02, -6.33332655e-02,
        -9.31017622e-02},
       {-2.68123001e-01, -8.05984885e-02, -2.33420327e-01,
        -1.09815732e-01, -3.88787180e-01, -2.57349432e-01,
        -5.29832482e-01,  6.70050532e-02, -9.37264934e-02,
         5.57677262e-02},
       { 9.58577618e-02, -9.88821406e-03,  1.94646511e-02,
        -1.32087722e-01, -2.10499540e-02, -9.23751071e-02,
         6.14863373e-02, -3.36627252e-02, -1.98995486e-01,
        -6.36540279e-02},
       {-3.40002473e-03,  2.08170302e-02,  4.87303138e-02,
        -8.11553523e-02, -1.92083158e-02, -2.62658503e-02,
        -1.07778441e-02, -4.23488729e-02, -8.07916149e-02,
         5.64878844e-02},
       {-6.65405244e-02, -5.26369214e-02, -1.39345797e-02,
        -2.39990368e-01,  1.00218253e-02, -3.06513011e-01,
        -2.21459299e-01, -1.89561859e-01, -2.88069010e-01,
        -2.67279774e-01},
       {-1.97383091e-02, -4.07938927e-01, -8.18393230e-02,
        -1.25101551e-01, -2.77937669e-02, -1.47677898e-01,
        -8.24889392e-02, -1.16961859e-01, -9.85203162e-02,
        -3.25141698e-01},
       {-1.82400614e-01,  1.16316073e-01, -1.02774180e-01,
         1.33415192e-01, -3.17822471e-02, -3.21618877e-02,
        -1.59555286e-01, -1.80217266e-01, -1.65016308e-01,
         7.43943825e-02},
       {-3.62198171e-03, -2.40507908e-02, -3.29495341e-01,
        -3.39635573e-02, -5.42006046e-02, -3.32701743e-01,
        -1.37403877e-02, -3.21575433e-01,  1.17833698e-02,
        -2.81794935e-01},
       {-3.13090272e-02, -2.43332107e-02,  3.16861793e-02,
        -1.85288236e-01, -8.79341066e-02,  4.84108552e-02,
        -8.77543166e-02,  1.16953151e-02, -2.96339411e-02,
        -1.78379659e-02},
       {-4.69220817e-01, -3.84596437e-01, -1.93153024e-01,
        -2.24885195e-01, -6.66800141e-02, -3.72358821e-02,
         1.98742524e-02,  3.73529755e-02, -3.22460353e-01,
        -3.00090369e-02},
       {-1.45948410e-01, -4.62514497e-02, -1.70923948e-01,
        -1.79542556e-01, -7.92713836e-02, -9.66810957e-02,
         7.94818550e-02, -1.03000373e-01,  1.72797129e-01,
        -1.99929625e-01},
       {-4.33520108e-01,  9.05768126e-02,  5.70786223e-02,
         5.13397567e-02, -4.17252034e-02, -1.19313352e-01,
         1.07987665e-01,  7.31894001e-02, -1.24293320e-01,
         8.11538473e-02},
       {-1.31428046e-02,  4.85533029e-02,  7.51889870e-02,
         4.25110608e-02, -1.50971547e-01, -2.27091983e-02,
        -5.68512790e-02,  2.09799018e-02, -1.76615059e-01,
        -8.84976834e-02},
       {-2.20553279e-01, -2.21072346e-01, -3.86682376e-02,
        -9.51656234e-03, -1.78716943e-01,  5.79547472e-02,
        -6.96554929e-02, -1.37577951e-01,  4.09479439e-02,
        -1.45936385e-01},
       { 7.99656063e-02, -7.29999393e-02, -8.54071006e-02,
        -1.40194088e-01, -1.06616430e-02, -5.70958667e-02,
         6.57392740e-02, -4.76488918e-02, -8.70613083e-02,
        -1.46609455e-04},
       { 1.30461767e-01, -8.36113021e-02,  7.26902857e-02,
        -1.62419662e-01,  2.66135391e-02, -8.67426172e-02,
        -1.41434982e-01, -1.43030174e-02,  5.57065271e-02,
         6.69547915e-02},
       { 7.15940446e-02, -3.77046973e-01, -1.75751001e-01,
        -1.23734415e-01, -3.74938786e-01, -5.77450451e-03,
        -5.21520451e-02, -8.23470876e-02,  5.26648983e-02,
        -1.28740415e-01},
       {-1.08091131e-01, -9.97904912e-02, -1.72228850e-02,
        -7.66496956e-02, -3.78902256e-02,  4.80796695e-02,
        -1.24545887e-01, -1.99012598e-03,  7.70535460e-03,
         4.47684266e-02},
       { 7.47950897e-02, -4.04604495e-01, -1.35269016e-01,
         2.55174730e-02, -1.00889415e-01,  4.93645109e-02,
         4.98313271e-02, -1.27228111e-01, -3.95768195e-01,
        -2.20661703e-02},
       {-1.50945574e-01,  2.33575255e-02, -1.90442398e-01,
         4.37224135e-02, -7.76709542e-02, -2.88571656e-01,
        -9.06683505e-03, -1.54027119e-01,  5.40276617e-02,
        -2.63767213e-01},
       { 2.83094501e-04, -5.14295325e-02,  4.89369268e-03,
        -2.39643152e-03, -9.49617326e-02, -2.43690088e-01,
        -1.88175708e-01, -2.68111557e-01,  1.09049849e-01,
        -2.02235237e-01},
       {-1.54797569e-01,  1.38450470e-02, -6.52659759e-02,
        -3.41575503e-01,  2.85155643e-02,  1.00008793e-01,
        -1.76712200e-01, -2.51876950e-01, -2.27717355e-01,
         3.72379757e-02},
       {-2.07836211e-01,  1.39975518e-01,  1.08970858e-01,
        -1.83708236e-01, -2.26353444e-02, -1.44788250e-01,
        -1.22032776e-01, -1.30827263e-01, -7.78474510e-02,
        -2.72431225e-01},
       {-6.82894960e-02,  2.33089849e-02,  8.72622579e-02,
        -2.50556767e-01, -2.90083259e-01,  3.94600742e-02,
        -8.92024338e-02,  9.23885033e-02, -1.29261181e-01,
        -1.61420554e-01},
       {-3.11645903e-02,  3.51093970e-02, -1.90352783e-01,
        -1.84537709e-01, -9.93214548e-02,  7.81556591e-02,
         9.33453590e-02, -2.64265209e-01,  2.31073014e-02,
        -6.91780373e-02},
       {-8.81785899e-02, -2.21484363e-01, -1.48603871e-01,
        -2.24613529e-02, -9.52469781e-02, -2.81884093e-02,
        -4.44152094e-02, -4.60900441e-02, -1.09193727e-01,
        -1.03671737e-01},
       {-9.65378508e-02, -5.46367764e-02, -1.48751974e-01,
         1.05452631e-02, -6.56247735e-02, -9.01816562e-02,
        -3.52040008e-02, -3.03084180e-02,  1.58163965e-01,
        -5.51805273e-02},
       { 5.55979041e-03, -3.26783538e-01, -2.02579007e-01,
        -8.69366154e-02, -6.51527420e-02, -5.70589304e-02,
         6.63779005e-02,  3.74204405e-02, -3.41922306e-02,
        -2.14409366e-01},
       { 3.79529372e-02,  4.74918522e-02, -2.57820543e-02,
         3.09204124e-02, -5.59588559e-02, -8.20117667e-02,
         5.73034994e-02, -1.57007035e-02,  1.94213763e-02,
        -1.66127495e-02},
       {-6.09649308e-02, -9.24497023e-02, -3.99057120e-02,
        -3.58501971e-01,  2.51829159e-02, -2.79468119e-01,
         3.62149402e-02,  7.22618103e-02,  1.62977949e-01,
        -9.72111300e-02},
       {-1.52645558e-01,  1.33252025e-01, -1.11846671e-01,
        -1.68574721e-01, -2.30088294e-01, -3.29258770e-01,
         3.67336953e-03, -4.59918857e-01,  1.00368947e-01,
        -3.97580892e-01},
       { 2.86292806e-02, -7.00122118e-02, -2.12272331e-01,
         9.89402160e-02, -2.10984573e-01, -8.53782669e-02,
        -5.98465130e-02,  5.11518829e-02, -1.19152494e-01,
        -1.02498926e-01},
       {-7.21636117e-02, -6.28262088e-02,  8.54281485e-02,
        -2.15945002e-02, -5.76923601e-02, -5.44993222e-01,
         1.27515525e-01, -3.84762138e-01, -1.73827916e-01,
        -3.84862155e-01},
       {-2.05067471e-01, -4.49343063e-02,  9.31892991e-02,
         2.95956433e-02, -1.73224732e-01, -8.29305947e-02,
        -1.21241905e-01,  1.91990566e-02, -2.44804844e-01,
        -1.20640464e-01},
       { 2.54669916e-02, -2.63517022e-01,  7.44319856e-02,
        -1.14342444e-01, -8.58863220e-02,  5.34487031e-02,
         1.85118750e-01,  3.89879309e-02, -4.61506069e-01,
        -3.80919278e-02},
       { 1.85436249e-01, -4.10192162e-02, -3.15371752e-01,
        -6.58479659e-03, -2.14128137e-01, -1.14458568e-01,
        -1.44541696e-01, -8.87029395e-02, -2.33931895e-02,
        -1.92780967e-03},
       {-7.41919577e-02, -2.16630295e-01,  3.08727343e-02,
        -8.11828822e-02,  1.51114702e-01,  4.11447734e-02,
        -4.48081940e-02, -2.41134718e-01, -5.54974340e-02,
         4.07209732e-02},
       {-1.75737843e-01,  8.96275416e-02, -6.40283376e-02,
        -6.72483742e-02, -1.69531241e-01,  1.22229066e-02,
        -1.27491117e-01, -2.24956777e-02, -1.90474868e-01,
        -2.16364558e-03},
       {-2.01408416e-01, -3.31863433e-01, -1.95658132e-01,
        -1.12418480e-01, -1.05293110e-01, -6.65180206e-01,
        -3.76735218e-02, -4.64147538e-01, -6.95164442e-01,
        -5.66832960e-01},
       { 1.34458886e-02, -1.96226919e-03, -1.59022361e-02,
        -8.94137006e-03, -3.07227671e-01,  1.08377941e-01,
        -2.99495161e-01,  1.25139847e-01, -5.53261079e-02,
        -8.72349069e-02},
       {-6.56185746e-02,  2.71720886e-02, -7.14745149e-02,
         2.22992077e-02, -3.24014202e-02, -1.11425243e-01,
        -2.56189350e-02,  1.54714674e-01, -1.72669500e-01,
        -2.17080116e-01},
       {-6.82884753e-02, -7.65737295e-02, -1.07011246e-02,
        -4.42320146e-02, -2.56306911e-03,  7.03074085e-03,
        -4.85037938e-02, -9.44532920e-03,  7.02187512e-03,
        -2.77660359e-02},
       {-1.49424702e-01,  5.34050912e-02, -4.08824012e-02,
        -2.84609377e-01, -1.32768437e-01, -5.74861094e-02,
        -1.41409896e-02, -1.87286869e-01,  5.47974817e-02,
        -2.34418392e-01},
       {-2.06423834e-01,  6.41033426e-02,  3.49946059e-02,
         3.03439405e-02,  7.48609826e-02,  1.78351793e-02,
         5.24703078e-02,  2.81144958e-02, -2.02178329e-01,
         1.80763695e-02},
       {-2.36358065e-02, -1.44913524e-01, -4.06719446e-02,
        -7.11569116e-02,  5.00405543e-02, -3.89991514e-02,
         1.97076853e-02,  3.52893732e-02, -2.04288084e-02,
         5.60315289e-02},
       { 3.91495898e-02, -1.88950866e-01,  6.70896471e-02,
        -3.87743562e-01, -2.16670204e-02, -1.04837688e-02,
         4.48893383e-02,  5.15393093e-02,  5.37837371e-02,
        -1.13257512e-01},
       {-5.36614023e-02,  4.29982878e-02, -4.75471467e-02,
         3.62779945e-02,  2.07501724e-02, -8.19685981e-02,
         2.88496409e-02, -2.27838323e-01, -2.84161768e-03,
        -7.37332180e-02},
       {-5.59078716e-02,  8.90316814e-02,  4.17272039e-02,
         8.12656209e-02,  5.93596585e-02, -3.01986277e-01,
        -2.05604672e-01,  3.31868120e-02, -1.01683617e-01,
        -5.40339500e-02},
       {-8.27866867e-02, -2.10398942e-01, -2.33752012e-01,
        -1.74788848e-01, -3.01958144e-01,  6.71675131e-02,
        -1.30335672e-03, -7.27282763e-02, -2.52735972e-01,
         4.26443713e-03},
       {-1.11548848e-01,  1.60432979e-02, -7.73935914e-02,
        -1.97877020e-01, -7.54813701e-02, -6.47294670e-02,
        -5.50106764e-02, -2.12140400e-02, -1.77207991e-01,
        -3.28039825e-02},
       {-6.06299974e-02,  5.16563803e-02,  1.15113445e-02,
         1.23985261e-02,  1.38865128e-01, -3.32899727e-02,
        -4.40742075e-02, -1.42576518e-02, -1.08160330e-02,
        -3.55635695e-02},
       {-9.81474891e-02,  1.08001575e-01, -3.06168258e-01,
        -2.23653778e-01, -4.64197174e-02, -1.75974563e-01,
        -1.69625934e-02, -8.60799104e-02,  1.12893954e-01,
         3.67401429e-02},
       {-2.97809571e-01, -3.33087295e-01, -1.96332008e-01,
        -1.21945515e-01, -1.52965114e-01, -4.66650538e-03,
        -2.80772209e-01,  1.99390370e-02, -2.88894642e-02,
        -8.37759152e-02},
       {-1.28698302e-03, -5.97520396e-02, -1.98612094e-01,
         2.26139091e-02, -3.15627195e-02, -1.00558691e-01,
         2.44902242e-02, -1.39395535e-01,  8.41061696e-02,
        -1.60463080e-01},
       {-2.99066961e-01,  1.30922422e-01, -3.04860592e-01,
        -1.12710580e-01, -2.03066356e-02, -2.26026952e-01,
        -2.61869460e-01, -2.59930313e-01,  1.66628435e-01,
        -3.17344278e-01},
       { 4.52262312e-02, -3.92810166e-01, -2.42699340e-01,
        -1.85848773e-01, -1.04517601e-01, -2.29992703e-01,
        -5.84938452e-02, -3.95295501e-01, -2.16605157e-01,
        -4.58983481e-01},
       {-8.91280919e-02, -1.98766768e-01, -7.17293322e-02,
        -4.96776327e-02, -4.52407189e-02, -2.18134433e-01,
        -1.04052857e-01, -3.07131503e-02, -1.35887504e-01,
        -9.70251486e-03},
       {-1.34313017e-01, -3.12314868e-01, -1.58219025e-01,
        -3.59276444e-01, -3.04000318e-01,  1.78696588e-02,
         1.51956994e-02,  3.19153001e-03, -1.70357972e-02,
        -2.08338723e-01},
       {-2.45104190e-02, -4.71775644e-02, -2.68499609e-02,
        -6.97603971e-02, -4.60652029e-03,  1.02213873e-02,
        -2.46334553e-01,  1.43354526e-02,  1.28828986e-02,
         8.06906540e-03},
       {-4.28680936e-03, -4.16010529e-01, -2.46299934e-02,
        -2.10500404e-01, -9.75890011e-02, -1.14194244e-01,
        -6.76559880e-02, -9.83529463e-02,  5.73617145e-02,
        -7.90182874e-02},
       { 1.41035855e-01, -2.98468679e-01, -1.05673142e-01,
         5.49238697e-02, -1.54035702e-01, -6.48087040e-02,
        -1.79942533e-01, -1.90807924e-01, -1.51233181e-01,
         1.17498495e-01},
       {-1.50464505e-01, -3.74830514e-02,  8.69471505e-02,
        -4.94337976e-02, -1.30114198e-01, -1.17334969e-01,
        -1.74882382e-01, -4.52950224e-02, -2.92439997e-01,
        -1.09744005e-01},
       { 6.78904504e-02, -2.10127175e-01, -7.95027316e-02,
        -3.11114043e-01,  1.17571674e-01, -1.31992158e-02,
        -5.62550798e-02,  1.64420251e-03, -6.95910379e-02,
        -1.20951131e-01},
       { 2.56816857e-02, -3.79133821e-02, -2.32046396e-01,
        -2.17495244e-02, -5.12996688e-02, -1.70365032e-02,
        -2.31296882e-01, -1.04778059e-01, -1.91917703e-01,
        -5.20625003e-02},
       {-2.29792923e-01, -1.35134995e-01, -1.15374975e-01,
        -6.54548034e-02, -1.93337068e-01,  3.10621299e-02,
        -1.30669028e-01, -3.28901783e-02, -3.24808866e-01,
        -8.75053182e-02},
       {-2.74085432e-01,  2.48057907e-03,  8.98162462e-03,
         1.45719662e-01, -1.09521694e-01, -2.42053457e-02,
        -6.08808734e-02, -1.18048802e-01, -1.62188292e-01,
        -3.16726118e-02},
       {-3.65314484e-01, -1.11762337e-01, -3.45887826e-03,
        -3.72122884e-01, -1.25118531e-02, -9.39689875e-02,
         7.45414570e-02, -1.99489012e-01, -4.22265887e-01,
        -8.84448588e-02},
       { 1.58265568e-02, -2.28063732e-01, -2.03523144e-01,
        -2.47076452e-01, -2.12947786e-01, -2.34783851e-02,
         1.99993681e-02, -1.84999168e-01,  8.60436913e-03,
         2.36200124e-01},
       {-6.62911460e-02, -1.13851674e-01, -1.70332760e-01,
         6.65623695e-02, -1.63471237e-01, -1.97043587e-02,
        -5.29233180e-02,  2.76540443e-02,  7.50827938e-02,
         2.45320499e-02},
       {-9.48581323e-02, -1.17803253e-01, -1.25630736e-01,
        -6.51740581e-02, -1.28722385e-01, -6.94006607e-02,
        -3.09128836e-02,  1.79222832e-03, -3.16033870e-01,
         2.27503516e-02},
       { 1.30296554e-02, -1.56750888e-01, -1.51635148e-02,
         7.67974332e-02, -1.31408736e-01,  5.86604998e-02,
        -2.58283392e-02, -7.16683120e-02, -2.91852504e-01,
        -1.22883776e-02},
       {-1.53315468e-02,  3.65970470e-02, -4.60182428e-02,
        -2.45357095e-03, -9.38956589e-02, -1.09457597e-01,
        -5.72387129e-02, -2.93207169e-01, -2.15080436e-02,
        -1.76206738e-01},
       {-8.59758332e-02, -2.16707319e-01, -3.19053322e-01,
        -1.20708339e-01, -1.13009080e-01,  3.67582105e-02,
        -2.70191938e-01,  9.53358933e-02, -1.47347823e-01,
        -1.14454433e-01},
       { 2.84013692e-02, -2.22333685e-01, -1.25070944e-01,
        -2.90301386e-02, -3.09797347e-01,  3.85848321e-02,
        -1.27895877e-01, -1.03948630e-01, -1.96807712e-01,
        -1.61431339e-02},
       {-1.35487795e-01, -4.23659310e-02, -1.67796984e-01,
         1.09597012e-01, -8.45099799e-03, -2.91393429e-01,
        -5.66970184e-02,  3.96905243e-02, -1.23370644e-02,
        -5.69152692e-03},
       { 6.63954616e-02, -2.87004143e-01, -3.88866179e-02,
        -2.39845529e-01,  1.92512237e-02,  3.07138693e-02,
        -1.78209350e-01,  3.91118452e-02, -3.95813584e-01,
        -3.61768641e-02},
       { 5.29205427e-03, -2.10706040e-01,  3.63783538e-02,
        -6.15328625e-02,  2.68776226e-03,  1.80925373e-02,
        -3.27679105e-02, -4.69709635e-02, -2.77097136e-01,
         6.56984188e-03},
       { 4.48681563e-02,  6.67325482e-02,  8.56198221e-02,
        -5.10593988e-02, -2.34539777e-01, -3.52983147e-01,
        -1.56305909e-01, -3.29604030e-01,  6.29140139e-02,
        -5.17180562e-01},
       { 7.46081471e-02,  2.17574256e-04, -2.45781466e-01,
         2.16801930e-02, -1.69164523e-01,  2.32746471e-02,
         1.06443428e-01, -1.90879241e-01, -2.04647779e-01,
        -5.87408617e-02},
       { 4.46923599e-02,  8.41131136e-02, -1.98829561e-01,
        -1.60613731e-01, -3.41591351e-02, -6.53551593e-02,
        -4.99339402e-02,  5.07618207e-03,  7.69447982e-02,
        -4.47057076e-02},
       { 2.87568457e-02, -1.30670696e-01, -1.94356125e-02,
        -1.65509313e-01, -1.24472968e-01, -1.30686149e-01,
        -4.08272631e-02, -2.81419903e-01,  1.19501851e-01,
         3.86731699e-02},
       { 2.62073278e-02, -2.36976668e-01, -1.62692159e-01,
         7.12292492e-02, -1.40048563e-01, -1.07642934e-01,
        -1.13048173e-01, -1.35941446e-01, -5.94192510e-03,
        -6.10242225e-02},
       {-1.94811910e-01,  3.10770385e-02, -1.85459659e-01,
         1.21723050e-02, -2.78837495e-02, -2.88606912e-01,
        -6.13110252e-02, -1.60653159e-01, -5.76458909e-02,
        -1.29416332e-01},
       { 7.07882270e-02, -4.06914838e-02, -1.24524944e-01,
        -2.40758769e-02, -8.87250304e-02,  2.78190169e-02,
        -1.18621595e-01, -2.78710406e-02,  1.40049057e-02,
        -2.89301947e-02},
       { 2.86456887e-02,  2.10600886e-02,  9.46005732e-02,
        -2.26737291e-01, -2.32117102e-01, -1.28234103e-01,
        -3.40069942e-02, -4.00115311e-01, -8.56756940e-02,
        -7.25668743e-02},
       {-1.26481652e-01, -1.83349177e-01, -3.11183214e-01,
        -2.89142668e-01, -3.08336437e-01, -6.81652352e-02,
        -8.38839337e-02,  3.92037109e-02, -1.12554066e-01,
         5.57989068e-02},
       { 9.36845168e-02, -1.35524228e-01, -1.53811509e-02,
        -4.77827847e-01, -1.47453099e-01, -9.87406522e-02,
        -6.86183805e-03, -2.05226704e-01,  9.76273511e-03,
        -3.22672158e-01},
       {-8.15337896e-03, -2.16645256e-01, -2.42727414e-01,
        -1.47317186e-01, -2.93840468e-01, -1.43982157e-01,
        -5.06993309e-02, -1.27720892e-01, -6.99098483e-02,
         1.50974110e-01},
       { 3.90908569e-02, -4.24344480e-01, -3.43270332e-01,
        -2.77694792e-01, -1.31617486e-01, -2.28490099e-01,
        -1.39072314e-01, -2.27866396e-01, -2.27715790e-01,
        -3.71866465e-01},
       {-1.33030787e-01, -8.53117332e-02, -2.65302986e-01,
        -6.48684651e-02, -1.21445134e-01, -1.04643784e-01,
        -5.45708686e-02, -2.30729669e-01, -1.89996913e-01,
         6.77844658e-02},
       { 2.93033309e-02,  9.76119190e-02,  2.04420853e-02,
         3.30202244e-02,  4.44785804e-02,  5.94324842e-02,
         6.53427318e-02, -4.30442616e-02,  5.10237403e-02,
         2.84511913e-02},
       {-1.25764191e-01, -8.35028216e-02, -1.05908677e-01,
        -5.78145683e-02, -2.11166874e-01, -1.06714323e-01,
        -1.51757956e-01, -1.55039206e-01,  1.14142429e-04,
        -1.44642636e-01},
       {-6.27369508e-02, -5.37957661e-02,  1.12803476e-02,
        -5.98680265e-02,  1.37552666e-02,  5.55018857e-02,
        -5.76271378e-02, -6.06854782e-02,  1.28656417e-01,
        -7.91694745e-02},
       {-6.31090030e-02, -1.86226338e-01,  8.39641467e-02,
        -5.58888197e-01, -2.41329953e-01, -1.21631622e-01,
         8.00924525e-02, -4.74358976e-01, -2.38464102e-01,
        -3.42974812e-01},
       {-1.24796115e-01,  8.42237622e-02, -2.33240038e-01,
        -1.40555322e-01, -3.11914802e-01, -7.10463077e-02,
        -4.90095168e-01,  2.74018738e-02, -2.55132377e-01,
        -4.52666767e-02},
       {-1.26164630e-01,  5.56470454e-02,  1.51489407e-01,
        -2.37869453e-02, -1.74237072e-01, -3.66280645e-01,
        -1.00063704e-01, -4.51089889e-01, -3.09008032e-01,
        -3.28277826e-01},
       {-3.34188007e-02, -2.60241240e-01, -1.05941430e-01,
        -2.96910061e-03, -5.49686961e-02,  4.09539267e-02,
        -1.81999244e-02,  1.29787521e-02,  5.75202070e-02,
        -2.23445930e-02},
       { 7.91068152e-02, -4.01492953e-01,  5.51433899e-02,
        -8.22985545e-02, -2.25564241e-01, -8.44107747e-01,
         7.25852177e-02, -9.00806725e-01, -2.26863146e-01,
        -7.00224102e-01},
       {-3.41416925e-01, -7.52320979e-03, -3.99913937e-02,
         9.04236361e-02, -8.02642480e-02, -1.51603445e-01,
        -5.17033823e-02, -1.39793664e-01,  9.28849503e-02,
        -3.08553129e-01},
       {-6.08222671e-02, -3.48852634e-01, -1.46407977e-01,
        -7.30567127e-02, -2.71792132e-02, -1.28292203e-01,
        -3.69333178e-02, -1.64250195e-01,  9.17066261e-02,
         1.11802846e-01},
       {-2.83775747e-01,  1.26361856e-02, -2.07292840e-01,
         8.87666121e-02, -1.42956495e-01, -1.77081719e-01,
        -1.34341821e-01, -7.49324933e-02, -3.74779314e-01,
        -9.26487297e-02},
       { 9.69417393e-02,  6.24437705e-02, -3.71349156e-02,
        -4.18560952e-03, -5.28527796e-02, -1.58476651e-01,
        -1.59985468e-01, -1.20968483e-01,  7.96234384e-02,
        -2.82359391e-01},
       { 9.75412200e-04, -3.61403495e-01, -1.70594648e-01,
        -4.14298564e-01, -2.07093701e-01, -2.72750288e-01,
         2.69015990e-02, -1.04832001e-01,  7.52228051e-02,
        -3.85710150e-02},
       {-2.02735439e-01, -3.62336308e-01,  3.05796936e-02,
        -2.33506158e-01, -1.23598382e-01, -8.84241238e-03,
         4.32344936e-02, -9.32169333e-02,  5.72433807e-02,
        -6.10266291e-02},
       {-1.59470029e-02, -1.18435495e-01, -2.14166030e-01,
         2.41137985e-02, -8.72592181e-02, -1.65920496e-01,
         1.45354420e-01, -1.72082990e-01, -1.16730005e-01,
        -9.34536159e-02},
       {-3.54286917e-02, -1.27335161e-01, -2.58743614e-02,
        -8.27251449e-02, -1.10898145e-01, -1.78894363e-02,
        -7.95111358e-02, -4.25443947e-02,  7.90307671e-03,
        -3.58796306e-02},
       {-1.54403865e-01, -1.41180053e-01,  2.56429911e-02,
        -1.69746459e-01,  3.43017541e-02, -4.90730144e-02,
         4.35902663e-02, -2.15737119e-01, -1.57275140e-01,
        -2.72631615e-01},
       {-1.00188321e-02, -1.84944406e-01,  1.00521678e-02,
        -1.76383018e-01, -5.19606248e-02, -2.22045854e-02,
        -1.21276662e-01, -3.40198100e-01,  1.33402109e-01,
        -2.73300469e-01},
       {-1.41895264e-01,  2.69385590e-03, -1.42846450e-01,
        -1.02253735e-01, -9.38573778e-02, -4.34896275e-02,
        -4.33102623e-02, -2.89894380e-02, -1.06318705e-01,
        -1.32447422e-01},
       {-1.27329245e-01,  3.54005839e-03, -4.75697248e-04,
        -1.84816033e-01, -1.67604734e-03, -1.69363365e-01,
        -1.22290283e-01, -1.62161186e-01, -1.01233289e-01,
         6.11373223e-02},
       {-4.09201421e-02, -3.00664425e-01,  1.03234639e-02,
        -1.38745680e-01, -1.29295677e-01, -1.99366555e-01,
        -1.18819484e-02, -4.81056720e-02, -3.78906488e-01,
        -2.34254412e-02},
       {-1.38442993e-01,  7.48083591e-02,  4.81639430e-02,
         1.23810498e-02,  7.52355456e-02, -9.19920951e-02,
        -2.32033148e-01, -9.71928686e-02, -4.16060118e-03,
        -1.25035882e-01},
       {-4.36997786e-03, -2.77481765e-01, -2.97636278e-02,
        -4.45074439e-01,  1.30957467e-02,  1.21689737e-01,
         7.17318943e-03,  2.77586095e-03,  7.66142905e-02,
         8.46061110e-03},
       {-3.42784747e-02, -1.24202989e-01, -1.77539483e-01,
        -4.83230948e-02, -9.77741852e-02, -3.90098780e-01,
        -4.06474769e-02, -2.64653414e-01, -1.71716824e-01,
        -2.96711296e-01},
       {-1.82718351e-01,  5.11680096e-02, -1.89653069e-01,
        -9.67012197e-02,  4.17750552e-02, -1.03100158e-01,
        -1.05052829e-01, -2.71532089e-01,  3.08608729e-02,
        -1.60998002e-01},
       {-8.75528902e-03, -7.61642307e-03, -3.06106448e-01,
        -1.73227750e-02, -1.95799097e-02, -7.37194419e-02,
        -1.35502294e-01, -3.08270395e-01,  6.06412217e-02,
         1.06659859e-01},
       { 6.22855574e-02,  5.66041470e-02, -4.26439285e-01,
         5.81600294e-02, -9.77751836e-02,  2.55100615e-02,
         9.80292782e-02, -1.04136541e-01, -1.59618601e-01,
        -1.67966992e-01},
       {-1.14896670e-02, -1.28025696e-01, -5.77824861e-02,
        -1.91992633e-02, -7.50407577e-02,  1.89095933e-03,
        -1.57716110e-01, -7.20840544e-02, -8.83819684e-02,
         9.06253816e-04},
       {-6.75449427e-03,  4.54410017e-02, -3.55188310e-01,
        -2.36435067e-02, -3.16227525e-01, -1.66607033e-02,
         1.03046171e-01, -1.04665190e-01, -1.47766665e-01,
        -5.46460330e-01},
       { 1.65454969e-01, -4.62883949e-01, -1.16699889e-01,
        -3.15595418e-01, -5.98026589e-02, -1.94217004e-02,
        -1.65048793e-01, -4.65051346e-02, -5.96064270e-01,
        -7.26989582e-02},
       { 1.94354169e-02, -1.07110292e-01, -1.21937297e-01,
         4.04569246e-02, -1.57233756e-02,  1.53200656e-01,
        -6.49359450e-02, -1.48342282e-01, -1.73004001e-01,
        -2.11846873e-01},
       {-2.11853012e-02, -3.34380269e-01, -3.25707078e-01,
        -8.67969394e-02, -1.30192131e-01, -5.79475202e-02,
        -1.44136578e-01, -6.27881140e-02, -1.47440776e-01,
        -7.99560249e-02},
       {-1.37158081e-01,  6.93001002e-02,  9.09290835e-02,
         2.51209028e-02,  7.53618032e-02, -1.49118945e-01,
        -3.43464725e-02, -1.18125565e-01, -2.66373724e-01,
        -7.05200374e-01},
       {-3.55866291e-02, -1.37026817e-01, -1.86764166e-01,
        -3.77529524e-02, -8.09680596e-02, -2.36140624e-01,
        -1.33532673e-01, -2.46416777e-01,  9.49168280e-02,
         1.92622185e-01},
       {-9.13575292e-02, -2.48531520e-01, -1.56294763e-01,
        -1.24363773e-01, -5.21458797e-02,  2.85302289e-02,
         4.61159274e-03, -5.89442030e-02, -2.57006362e-02,
        -1.00894645e-01},
       {-3.04981828e-01, -4.57515493e-02, -1.06003881e-01,
        -3.73408824e-01, -1.32622570e-01, -1.25257000e-01,
        -4.25946750e-02, -9.38501507e-02, -2.76343971e-01,
         1.86679229e-01},
       {-1.83397271e-02, -1.98823184e-01,  1.46860061e-02,
        -1.82933822e-01, -1.21569581e-01, -5.64699434e-02,
        -4.84227343e-03,  4.74579334e-02,  1.60618089e-02,
         2.87220851e-02},
       {-3.05173397e-02,  3.33673134e-02, -5.06271869e-02,
        -5.82133839e-03, -7.78280422e-02, -1.57424718e-01,
         5.64740226e-02,  3.30405906e-02,  5.51191233e-02,
        -1.06549017e-01},
       {-2.21020523e-02,  3.19449580e-03,  2.30763387e-02,
         1.64402612e-02, -1.32404398e-02,  4.95279692e-02,
         1.24503970e-02,  1.59531867e-03,  3.55702601e-02,
         3.87084745e-02},
       {-8.51332620e-02,  7.53350928e-02,  4.45509776e-02,
        -1.08083691e-02,  6.45502880e-02,  2.21139658e-02,
        -4.52257603e-01, -1.83818802e-01, -4.73489538e-02,
         7.78080430e-03},
       {-1.40744150e-01, -1.48051903e-02, -6.20973520e-02,
        -2.43282273e-01, -2.65056610e-01, -1.17052518e-01,
        -2.78516352e-01,  1.66679937e-02, -2.59381592e-01,
        -4.84547876e-02},
       {-3.42672877e-02, -2.12512299e-01, -1.41958594e-01,
        -3.42514098e-01, -3.55862647e-01,  6.16345145e-02,
        -1.20279707e-01,  9.84471887e-02, -7.10775405e-02,
         5.79639003e-02},
       {-2.69944787e-01, -4.42527205e-01, -1.28211051e-01,
        -4.29711252e-01, -2.53736585e-01, -1.35156542e-01,
        -3.48766416e-01,  5.85648650e-03, -1.75290212e-01,
        -1.12393782e-01},
       { 3.44460160e-02, -1.03751801e-01, -1.11194067e-01,
         5.47949411e-02,  2.98096556e-02, -2.54649192e-01,
        -1.56671256e-02, -1.95872188e-01, -2.95254350e-01,
        -1.62507474e-01},
       {-4.20495309e-02, -6.62686110e-01,  3.09670949e-03,
        -1.96787864e-01, -3.37613933e-02, -2.74747759e-02,
        -3.11125368e-02, -7.59647042e-02, -2.35841915e-01,
        -1.97257157e-02},
       { 1.20031536e-01, -3.65239412e-01, -1.45750418e-01,
        -1.33560374e-01,  7.09921122e-02,  1.92148588e-03,
        -5.18798679e-02, -1.86473295e-01, -6.77914247e-02,
        -1.27202600e-01},
       { 3.08623370e-02, -3.23638201e-01, -3.53958365e-03,
        -1.24384791e-01, -2.16764770e-02,  3.58319655e-02,
         1.47867892e-02,  2.94274017e-02,  7.20345750e-02,
         5.63731510e-03},
       { 7.33425468e-02, -3.42360497e-01, -2.25607857e-01,
        -1.32582337e-01, -2.48550959e-02, -8.57262313e-02,
         5.43661080e-02,  1.13864228e-01, -1.58836290e-01,
        -6.22493215e-02},
       { 3.48446853e-02, -3.85781109e-01, -5.64775057e-03,
        -4.40201722e-02, -3.77020419e-01, -1.30159751e-01,
        -1.10716738e-01, -1.12099029e-01, -3.86711568e-01,
        -2.97676399e-02},
       {-2.15101972e-01, -1.32215098e-01, -4.18843376e-03,
        -7.44332969e-02, -2.09055413e-02, -4.85816561e-02,
        -1.04135908e-01, -4.40337770e-02,  1.17223278e-01,
         1.05402172e-02},
       {-7.47851981e-03,  9.46473107e-02, -6.11504763e-02,
        -1.05326578e-01, -6.75319210e-02, -3.53771672e-02,
        -5.32794185e-02,  8.40349346e-02,  3.57825086e-02,
        -1.21708758e-01},
       {-5.48930056e-02, -6.01947121e-03,  5.33970855e-02,
         4.12726477e-02,  1.36255706e-02, -1.98971316e-01,
         3.14302519e-02, -2.10498035e-01,  1.28274281e-02,
        -5.01700044e-02},
       { 5.14138155e-02, -2.42746904e-01, -3.49940538e-01,
         6.50740862e-02, -2.82429039e-01,  1.03731044e-01,
         8.39436874e-02, -5.70042664e-03,  3.85633111e-02,
         9.21527147e-02},
       {-8.13961849e-02, -1.09679386e-01, -1.61409646e-01,
         3.17809079e-03, -1.09810777e-01, -1.10541448e-01,
        -5.92490211e-02, -1.42903015e-01, -2.42693210e-03,
        -1.48010198e-02},
       {-5.64836599e-02,  5.62160574e-02, -8.30757990e-02,
         1.51487002e-02, -4.07278910e-02, -1.96662471e-01,
         6.77914470e-02, -3.53412271e-01, -4.59507674e-01,
        -3.02397341e-01},
       {-1.34638324e-02,  5.52033111e-02, -5.83966114e-02,
        -3.74840107e-03, -3.03485900e-01,  2.18209736e-02,
        -1.15331814e-01, -1.72770351e-01, -1.05654337e-01,
         1.06504381e-01},
       {-1.07005984e-01,  3.52208652e-02, -2.62792289e-01,
        -1.16029205e-02,  2.52970867e-02, -2.03382254e-01,
         3.80173661e-02, -1.12401985e-01,  6.85742423e-02,
        -1.50959417e-01},
       { 7.56331757e-02, -1.35223746e-01, -1.07925773e-01,
        -1.30152667e-03,  7.26119205e-02, -2.82858938e-01,
        -9.52384621e-02,  5.67320399e-02, -8.67955200e-03,
        -2.47190401e-01},
       { 9.87498239e-02,  1.08427621e-01, -1.69879347e-01,
        -1.80125624e-01, -1.79444298e-01, -7.01108202e-02,
        -6.19332306e-04, -7.48655722e-02, -6.70909360e-02,
        -2.23473340e-01},
       {-2.85300929e-02,  8.68500322e-02, -1.10471174e-01,
         9.99055896e-03,  3.75594129e-03, -5.51879369e-02,
         1.38649242e-02, -2.29451492e-01,  8.93581882e-02,
        -3.71065885e-01},
       {-5.73440529e-02, -4.37232107e-02, -5.51397204e-02,
        -2.97610015e-02, -1.05915563e-02, -6.95749447e-02,
         1.40722729e-02, -2.46376311e-03, -5.01679480e-02,
        -2.13769767e-02},
       {-1.40397727e-01, -1.45890102e-01, -1.80598527e-01,
        -2.26663873e-02, -1.12344407e-01, -1.31941363e-01,
        -6.83686435e-02,  1.21975481e-03, -9.33690742e-02,
        -3.40130106e-02},
       { 1.50088426e-02, -3.31371307e-01, -1.84229046e-01,
        -2.03140572e-01,  1.44971814e-02, -7.89837986e-02,
        -8.91567022e-02, -4.36657928e-02, -5.71711659e-02,
         5.86718088e-04},
       { 2.41308380e-02,  1.17205009e-01, -3.96697707e-02,
        -1.14268318e-01, -9.92031172e-02, -1.43168345e-01,
         7.01045096e-02, -1.43203437e-02,  6.07408409e-04,
        -5.28372452e-02},
       { 8.64781737e-02,  8.85215029e-02, -1.18891494e-02,
        -7.09879473e-02, -5.94065264e-02, -1.44748315e-01,
        -1.26638129e-01,  1.30835816e-01,  3.44406813e-02,
        -5.70860729e-02},
       {-1.72632784e-01, -6.51894584e-02, -1.03019476e-01,
        -1.17442593e-01, -2.15075314e-01, -2.88153321e-01,
        -1.20849334e-01, -1.21638037e-01, -1.83429286e-01,
         2.84047034e-02},
       {-4.44971621e-02, -1.66839287e-01, -7.79853389e-02,
        -5.24892844e-02,  1.16042323e-01,  1.19728642e-02,
        -1.91563383e-01,  4.28644801e-03, -2.54741669e-01,
        -1.28035381e-01},
       {-1.17418617e-02, -3.25843126e-01, -3.57234925e-01,
         4.66999103e-04, -9.99985263e-02, -2.73333862e-02,
         1.53323459e-02,  2.57681943e-02, -1.00346230e-01,
         7.41610676e-02},
       { 2.36180858e-04,  2.60839649e-02, -2.21320257e-01,
         3.37875858e-02, -2.62523443e-01, -8.37653577e-02,
         1.10725127e-01, -2.08142176e-02,  8.51284787e-02,
        -1.64220139e-01},
       {-4.62220520e-01, -3.59066218e-01, -5.52286267e-01,
        -3.22109669e-01, -5.34029782e-01,  1.13472193e-01,
        -4.66600329e-01,  8.53414759e-02, -4.47633266e-01,
         6.43393919e-02},
       {-1.81971028e-01, -4.70980674e-01, -1.55208617e-01,
        -2.44909078e-01, -2.81896796e-02, -1.65408030e-01,
        -1.29240498e-01, -4.63284478e-02, -3.48017544e-01,
        -6.08690176e-03},
       {-1.46677926e-01, -1.41201615e-01, -1.33327872e-01,
        -1.84287384e-01, -3.82897295e-02,  1.40089378e-01,
        -2.53584832e-02, -1.61612958e-01,  8.29017460e-02,
         1.81699786e-02},
       {-3.79628725e-02, -1.18082605e-01,  3.92464399e-02,
        -2.91703761e-01,  7.27072880e-02, -7.22123444e-01,
        -1.01071037e-01, -4.13731605e-01, -3.12040210e-01,
        -1.35112679e+00},
       {-8.42081904e-02,  8.59543905e-02, -1.75062075e-01,
         8.73028710e-02, -8.55240747e-02, -9.36284512e-02,
        -2.26863608e-01, -2.65243347e-03,  7.26249665e-02,
        -2.19142921e-02},
       {-2.45873854e-01,  7.41895810e-02,  8.47000927e-02,
         6.46071509e-02, -6.15223823e-03, -1.84736341e-01,
        -6.06766120e-02, -9.49583575e-03, -8.08108151e-02,
        -1.63947046e-01},
       {-1.45719677e-01,  6.89558461e-02, -1.87296383e-02,
        -9.41686258e-02, -6.53583184e-02, -1.96573496e-01,
        -6.04516007e-02, -2.51462281e-01,  8.68174806e-02,
        -1.38213620e-01},
       { 7.50673562e-02, -8.04884732e-02,  8.42809901e-02,
         8.74488801e-03, -1.43577605e-01, -5.42568862e-01,
        -1.39270462e-02, -3.89852583e-01, -2.10595384e-01,
        -1.29991814e-01},
       {-6.26129285e-02, -9.39291418e-02, -1.74338758e-01,
         4.68734130e-02,  3.69244218e-02, -1.85660154e-01,
        -1.52222425e-01, -2.27541238e-01,  1.27388105e-01,
         2.61474460e-01},
       {-5.96299581e-02, -2.56137010e-02, -1.23454012e-01,
         1.50885468e-03,  5.31745814e-02, -1.37397304e-01,
        -5.38143367e-02, -2.25704819e-01, -2.73560807e-02,
        -2.45289251e-01},
       { 7.04636201e-02, -3.29760015e-01,  7.65022263e-02,
         4.74483259e-02,  3.95378992e-02, -8.56944501e-01,
        -9.19711590e-02, -5.41065335e-01, -2.41960943e-01,
        -1.04622018e+00},
       {-1.58944800e-01,  9.79772136e-02, -8.35456103e-02,
        -1.08141869e-01, -2.05852106e-01,  5.71818501e-02,
        -9.40496325e-02, -1.43925324e-01, -1.37761906e-01,
        -1.78590581e-01},
       { 3.06906309e-02, -8.73711258e-02, -1.48836583e-01,
         3.52825113e-02, -2.52388507e-01, -3.24321210e-01,
         2.95733884e-02, -4.38517854e-02,  7.19164833e-02,
        -3.26322839e-02},
       { 1.91102549e-02,  2.31736079e-02, -9.25665498e-02,
         9.63990018e-02,  7.84963816e-02, -1.14297122e-01,
        -4.61658202e-02, -5.23526743e-02,  1.27353996e-01,
        -5.44547439e-02},
       {-2.51333892e-01, -1.37436762e-01, -1.52681440e-01,
         1.29623050e-02, -8.04762691e-02, -1.60502687e-01,
        -1.02496564e-01, -6.97412994e-03, -2.04999536e-01,
        -4.67713885e-02},
       {-2.08549470e-01, -3.51260811e-01, -2.97872931e-01,
        -3.44768256e-01, -2.45697975e-01, -1.70873255e-01,
        -8.63916427e-02, -7.73092657e-02, -1.14954248e-01,
        -1.18454695e-01},
       {-7.03608096e-02, -5.11348844e-01, -7.63048008e-02,
        -2.85982460e-01,  1.28797879e-02, -2.75935680e-01,
        -1.21511996e-01, -8.64786878e-02, -1.91693455e-01,
        -1.15244582e-01},
       {-2.10254993e-02, -8.71897936e-02, -1.82877347e-01,
        -2.01030374e-02,  7.21753463e-02, -2.39460140e-01,
         1.27372397e-02,  3.77343334e-02, -8.51204470e-02,
         3.47781852e-02},
       { 5.75330555e-02, -5.87161742e-02, -3.79843004e-02,
         9.25522596e-02, -1.94265425e-01,  3.45761776e-02,
        -4.41790447e-02, -1.16751328e-01, -3.49622965e-01,
        -1.66144241e-02},
       { 2.65332852e-02, -2.38101259e-01, -1.79103136e-01,
        -3.94810438e-01, -6.44840002e-02, -2.38645464e-01,
         1.09433867e-02, -1.09163940e-01, -3.37383777e-01,
        -1.70082912e-01},
       {-4.37779009e-01,  6.70432001e-02, -7.72261173e-02,
        -1.70269892e-01, -1.67085439e-01,  3.55722904e-02,
        -3.20036672e-02,  1.93677389e-03, -1.68548506e-02,
         4.62070070e-02},
       {-4.22470011e-02, -2.01930538e-01, -1.63567796e-01,
        -3.00634414e-01, -2.83497959e-01, -2.13460147e-01,
        -8.58079121e-02, -1.28196567e-01, -7.84327164e-02,
        -2.46854737e-01},
       {-7.16105402e-02, -1.15643829e-01, -2.29747668e-01,
        -9.18637514e-02,  2.39452603e-03,  8.72390997e-03,
        -7.01285303e-02,  1.27232289e-02, -3.28162014e-02,
        -7.91488290e-02},
       {-4.32533361e-02, -1.63299248e-01, -3.89204085e-01,
        -5.16530946e-02, -2.34478757e-01, -8.95942897e-02,
        -1.28265336e-01, -1.20517462e-01, -2.37895533e-01,
        -8.29837769e-02},
       {-2.51811713e-01, -3.43882404e-02,  5.16056828e-02,
         2.31262576e-02, -1.76166184e-02,  4.40629385e-03,
        -7.85930976e-02, -1.75724104e-02, -2.37843409e-01,
        -8.17845091e-02},
       {-3.82179111e-01, -6.72802210e-01,  4.16315086e-02,
        -1.36944979e-01,  6.46208078e-02, -8.09101224e-01,
         5.49570285e-02, -1.17040420e+00, -5.21721780e-01,
        -6.16086185e-01},
       { 7.43198469e-02, -4.33719128e-01,  4.57479358e-02,
        -6.35866597e-02, -2.11779505e-01, -2.96747923e-01,
         6.41587079e-02, -2.79857606e-01,  2.93823555e-02,
        -3.30211312e-01},
       { 4.35432419e-02, -1.57170743e-01, -1.17201820e-01,
        -2.92035580e-01, -2.40396112e-01,  1.36668533e-01,
        -3.49536911e-02,  3.54415961e-02,  9.29674059e-02,
        -2.17022430e-02},
       { 8.63357037e-02, -4.69076306e-01, -7.96892494e-02,
         5.81015646e-02, -2.26918086e-01,  4.50034961e-02,
        -5.81583288e-03, -9.25425738e-02, -3.15337926e-01,
         3.09821358e-03},
       { 3.26547921e-02, -2.67655730e-01, -2.34136879e-01,
         1.04976548e-02, -1.53938532e-01, -1.75682858e-01,
        -1.37778416e-01,  5.68475947e-02,  8.04260299e-02,
         5.89846857e-02},
       {-3.12233921e-02, -4.42885935e-01, -1.38751835e-01,
        -1.40735343e-01, -1.56415448e-01,  2.20201388e-01,
        -2.63800532e-01, -7.25288689e-03,  1.30482148e-02,
        -8.41599889e-03},
       {-1.12385424e-02, -8.29945803e-02, -1.17554314e-01,
        -4.09650542e-02, -6.20367415e-02,  2.11979123e-03,
        -5.28538749e-02, -3.87249142e-02,  1.88197359e-01,
        -1.18722185e-01},
       { 1.82158519e-02, -2.48977676e-01, -1.31711215e-01,
        -6.15068786e-02, -1.33612975e-01, -1.87948197e-02,
        -1.45586595e-01,  4.65478108e-04, -5.32977097e-02,
         1.88375469e-02},
       {-1.40021279e-01, -1.61393955e-01, -8.75044316e-02,
        -1.47631809e-01, -2.04268962e-01,  5.54257147e-02,
        -8.75711143e-02, -7.29131624e-02, -5.29481396e-02,
         3.12530845e-02},
       { 1.27120331e-01, -2.72422105e-01, -6.70221299e-02,
         9.82267410e-02,  4.31873724e-02, -3.62640530e-01,
        -1.21102363e-01, -2.32904345e-01, -4.42129910e-01,
        -3.30933750e-01},
       {-2.60823756e-01,  9.46492106e-02,  1.12103298e-02,
         2.51822360e-02, -2.60587603e-01, -1.85485378e-01,
         3.79487500e-02,  3.66541930e-02, -4.35788073e-02,
        -2.07752839e-01},
       {-2.41955481e-02, -4.33411784e-02,  1.56718027e-02,
        -2.17376351e-01, -9.23096463e-02, -1.37335166e-01,
        -9.06887427e-02,  1.57222729e-02, -2.02230498e-01,
        -1.33657664e-01},
       {-3.32372375e-02, -2.98046231e-01, -1.03744298e-01,
        -4.67227176e-02,  3.75760794e-02, -2.61268348e-01,
         1.71878293e-01, -1.13325544e-01, -1.82486042e-01,
        -1.47272050e-01},
       {-5.64476475e-02, -8.54429156e-02, -7.21075535e-02,
         2.38296818e-02, -2.96520945e-02, -1.75708055e-01,
         7.42971748e-02, -5.20990901e-02, -3.90768945e-01,
         9.55469348e-03},
       { 6.41816258e-02,  8.46732184e-02, -8.73747990e-02,
        -1.54514298e-01, -5.18509224e-02, -5.99317998e-03,
        -2.01636516e-02,  2.04721070e-03, -2.48898268e-02,
        -1.35379974e-02},
       {-1.97189644e-01, -2.06170306e-02,  2.55129673e-02,
        -7.31363967e-02, -7.31523037e-02, -1.34098753e-01,
         8.56368169e-02,  8.12487453e-02, -4.89098370e-01,
         7.15074688e-02},
       {-9.16009545e-02, -2.33833998e-01,  3.88297141e-02,
        -1.63431197e-01,  3.98505433e-03,  1.74395368e-01,
        -9.18083191e-02,  6.93659410e-02, -1.18835993e-01,
        -1.84549689e-01},
       {-1.47660986e-01,  8.73651635e-03, -3.65068644e-01,
        -3.12596746e-02, -2.96630025e-01, -1.37524709e-01,
        -1.66274399e-01, -5.40700704e-02,  1.26779526e-01,
         5.83795877e-03},
       { 2.96083782e-02,  3.80609855e-02, -1.94994956e-02,
        -2.46984944e-01, -2.22755566e-01, -2.88846791e-01,
         9.09464210e-02, -1.39933676e-01,  1.02177011e-02,
         8.76984224e-02},
       { 9.79656726e-02, -1.34876490e-01,  4.22015339e-02,
        -2.13599399e-01, -1.44719914e-01, -2.40608603e-01,
        -8.33194554e-02, -2.59710312e-01, -2.85798013e-01,
        -5.43338478e-01},
       {-1.86995238e-01, -5.43435588e-02,  9.25151780e-02,
        -6.34170417e-03, -1.64630294e-01, -4.92468961e-02,
        -1.04026556e-01, -4.06558290e-02,  4.20461334e-02,
        -2.05659434e-01},
       {-1.86011702e-01,  9.33876485e-02, -2.25129090e-02,
        -1.78154439e-01,  5.98042384e-02, -2.75849104e-02,
        -3.16585377e-02, -1.27326265e-01, -3.55924010e-01,
        -1.84393421e-01},
       { 2.40992550e-02, -2.80510306e-01, -1.30534783e-01,
        -1.03198446e-01, -3.95435542e-01,  7.82973692e-02,
        -1.52512759e-01, -6.69204518e-02, -3.39835018e-01,
        -3.91188599e-02},
       {-4.37460765e-02, -1.39528513e-01, -6.54430687e-02,
        -1.67373225e-01, -6.43345946e-03, -1.26587674e-01,
         1.90384425e-02, -2.36364687e-03, -1.25617951e-01,
        -6.05737977e-02},
       {-8.03749710e-02,  4.14377376e-02,  5.48897237e-02,
        -2.12592602e-01, -8.84917676e-02, -6.01053275e-02,
         3.90056781e-02, -9.11949351e-02,  2.79437136e-02,
        -9.29438025e-02},
       { 5.87725490e-02,  1.29615784e-01,  7.23377019e-02,
         4.01984528e-02, -1.64462298e-01, -3.20725471e-01,
        -5.97560182e-02, -2.15795711e-01,  1.86267029e-02,
        -2.96663493e-01},
       {-6.42710477e-02, -4.67329621e-01,  4.84080203e-02,
        -2.15552356e-02,  4.87863272e-02, -1.66692715e-02,
        -5.41159771e-02,  5.98266311e-02, -4.19252999e-02,
        -7.05028325e-02},
       { 2.13537272e-02, -5.05174041e-01, -2.54073769e-01,
        -3.81791025e-01, -1.83078408e-01,  5.83278872e-02,
         3.88901145e-03,  5.49071655e-03, -5.02869263e-02,
        -1.89177454e-01},
       {-9.81943160e-02, -7.82534555e-02, -2.45634258e-01,
         1.21190753e-02,  1.82024371e-02, -4.03301090e-01,
         1.07871138e-01, -2.92728484e-01, -2.83158600e-01,
        -2.90077776e-01},
       { 3.85070406e-02,  5.60874864e-03, -7.60006011e-02,
         1.54341832e-01, -5.28864712e-02, -1.12843394e-01,
        -1.80812832e-02, -1.60979241e-01, -1.09733187e-01,
        -3.14683579e-02},
       {-2.03262895e-01,  8.97778422e-02, -2.28380919e-01,
         1.89810395e-02,  1.10988043e-01, -2.92193115e-01,
        -1.71446428e-01, -3.71004254e-01,  6.69347718e-02,
        -2.92375624e-01},
       {-1.67242184e-01, -2.26749405e-01,  4.49288487e-02,
        -4.37516272e-02, -2.06512026e-02, -7.95397311e-02,
        -2.78784409e-02, -2.65687928e-02,  1.12386703e-01,
        -9.63933989e-02},
       { 2.95051113e-02,  5.93668297e-02, -2.99067199e-01,
        -7.31301843e-04, -4.02617753e-02, -3.97685617e-01,
         2.59371102e-02, -7.22418725e-01, -2.64521316e-02,
        -4.45799202e-01},
       {-2.11896583e-01, -2.66325921e-01, -3.46815944e-01,
        -5.67297488e-02,  2.16644052e-02,  3.37222475e-04,
         2.39463702e-01,  6.27226308e-02, -1.51949361e-01,
        -2.30442792e-01},
       {-1.80026516e-01,  5.26360869e-02, -1.83537990e-01,
        -3.26517634e-02,  4.20690998e-02,  2.05643587e-02,
         1.18451277e-02,  4.57208864e-02, -1.37495816e-01,
         1.96377281e-03},
       {-1.22664526e-01,  6.82816356e-02, -1.70387387e-01,
        -1.85475331e-02, -1.17471226e-01, -1.73646919e-02,
        -2.19911426e-01, -6.41246438e-02,  1.66305508e-02,
        -1.14774220e-01},
       {-1.05604529e-01, -2.46823788e-01, -1.44110724e-01,
        -2.99095601e-01, -1.31326362e-01, -2.31876343e-01,
        -2.32392311e-01,  8.03122744e-02, -2.70625204e-01,
        -3.81209403e-02},
       { 6.13096878e-02, -3.03801507e-01, -1.42925680e-01,
        -3.50666225e-01,  3.90052833e-02, -3.87386590e-01,
         3.02722882e-02, -9.62781236e-02,  4.39396985e-02,
        -1.61698028e-01},
       { 2.77892575e-02, -1.30757004e-01, -3.09641846e-03,
        -9.19465721e-03,  2.17849109e-02, -3.96428734e-01,
        -8.20144564e-02, -5.48077285e-01, -2.74249256e-01,
        -5.16845286e-01},
       {-3.39759002e-03, -1.28290921e-01, -9.42806304e-02,
         4.12655734e-02,  8.28570500e-02, -3.02263230e-01,
        -2.29375422e-01, -7.93005005e-02, -1.54174522e-01,
        -7.87369087e-02},
       {-2.58837223e-01, -2.28538677e-01, -4.23410349e-02,
         5.21866372e-03,  3.12868878e-02, -3.13680782e-03,
         1.00852512e-02, -1.16266822e-02,  2.80613615e-03,
        -7.18254671e-02},
       {-1.75486013e-01, -1.08809702e-01,  9.76743028e-02,
        -4.14519668e-01,  1.21017143e-01, -6.01953685e-01,
        -4.91857156e-02, -8.94337475e-01, -3.55153233e-01,
        -9.67334807e-01},
       { 8.83466527e-02,  1.06078787e-02,  2.85343006e-02,
         1.23231746e-01, -1.73915625e-01, -3.70122254e-01,
         5.36731668e-02, -6.02707446e-01, -4.30256575e-01,
        -2.06565514e-01},
       { 5.14347814e-02, -4.64825742e-02, -2.24280357e-01,
        -1.40490726e-01, -1.25310784e-02, -3.54159623e-01,
         1.19209215e-01, -1.51569143e-01, -1.71200708e-01,
        -1.38748392e-01},
       {-2.32963890e-01, -1.22363828e-01,  4.63717692e-02,
        -2.49612719e-01, -6.37154235e-03,  1.38485036e-03,
         3.21584642e-02, -1.74875427e-02, -5.32407224e-01,
         2.21921820e-02},
       { 2.74750087e-02,  7.55427256e-02, -2.33015224e-01,
         4.79881912e-02, -4.37558070e-02, -5.88462889e-01,
        -2.11000979e-01, -2.91402996e-01, -1.37318254e-01,
        -3.72396618e-01},
       {-1.62450999e-01, -7.14658499e-02,  2.35948057e-04,
         2.24352889e-02, -2.07563117e-01, -6.80080429e-02,
        -9.73119140e-02,  1.44092403e-02, -3.80945690e-02,
        -1.24443673e-01},
       {-1.23019174e-01, -1.48068890e-01, -1.88160256e-01,
        -2.83647835e-01, -1.62693262e-01, -5.75795062e-02,
        -5.36322966e-02, -7.85483792e-03, -3.38389128e-02,
        -1.08940430e-01},
       {-2.18047574e-02, -2.30815202e-01, -1.56181470e-01,
        -1.03724346e-01, -1.56246230e-01, -1.80045050e-02,
         1.88935280e-01, -9.97891203e-02, -1.36366978e-01,
        -2.85376534e-02},
       {-2.09044471e-01, -1.82072684e-01, -3.29758488e-02,
        -2.50973701e-01, -3.30272168e-02, -6.59948140e-02,
         1.11902263e-02, -2.05151737e-01,  1.71556279e-01,
         3.05299629e-02},
       {-4.81418893e-02, -1.99720696e-01, -3.18877965e-01,
        -2.53988266e-01, -4.96888198e-02, -4.57461655e-01,
        -6.95865080e-02, -1.35150388e-01, -5.83729327e-01,
        -1.24544896e-01},
       {-5.08944057e-02, -7.09311739e-02,  6.96285740e-02,
        -3.16144861e-02,  1.31041752e-02, -4.98355180e-02,
        -6.66054524e-03,  4.12903773e-03, -5.92054389e-02,
        -1.53549323e-02},
       {-2.67557837e-02, -2.98946146e-02, -5.89007139e-02,
         3.17834038e-03, -6.07743748e-02, -1.44890351e-02,
        -1.58777516e-02, -3.78821194e-02, -6.59153759e-02,
         2.39254497e-02},
       { 3.08740512e-02, -2.16786582e-02, -1.26589343e-01,
        -7.24604204e-02,  6.05531558e-02, -4.27719295e-01,
        -1.60301045e-01,  3.04634534e-02, -7.11921602e-04,
        -1.38272032e-01},
       {-2.02529877e-01, -2.80837536e-01, -1.17536843e-01,
        -1.37792304e-01,  2.53943410e-02, -3.27736996e-02,
        -4.89264503e-02, -5.81959412e-02,  1.43847230e-03,
        -6.11253791e-02},
       {-5.64804338e-02, -2.91787267e-01,  4.06518802e-02,
         5.53935068e-03, -5.14308512e-02, -8.75011086e-02,
        -8.30912068e-02, -4.42884043e-02, -7.93028250e-02,
        -8.41895416e-02},
       {-1.20362498e-01, -6.73654735e-01, -1.88512266e-01,
        -1.10337049e-01,  5.04515469e-02,  3.86807509e-02,
        -3.66149545e-02,  3.80818769e-02,  1.59891155e-02,
         2.25696750e-02},
       { 6.46927208e-02, -4.66370940e-01,  7.43713677e-02,
        -2.45200977e-01, -1.31798595e-01, -1.60419405e-01,
         8.27274248e-02,  9.62179080e-02,  7.81017691e-02,
        -1.36921974e-02},
       { 1.72143150e-02,  5.56628481e-02, -9.86288562e-02,
        -1.20504210e-02, -1.16027035e-02, -2.03697965e-01,
        -8.12633783e-02, -7.59477913e-02, -1.88351929e-01,
        -1.71964258e-01},
       {-9.64023545e-02, -2.41177782e-01, -9.86783653e-02,
        -3.03151812e-02, -1.17347129e-01,  9.45291370e-02,
        -2.23392591e-01,  6.52429685e-02, -1.27505362e-01,
        -1.13026150e-01},
       {-9.85398740e-02, -1.35461703e-01, -1.66356221e-01,
        -2.08388180e-01, -1.64559394e-01, -2.75031179e-02,
        -5.62943965e-02,  9.65624640e-04, -1.38545111e-01,
        -9.14415866e-02},
       {-1.33950695e-01, -2.60917217e-01, -1.15801506e-01,
        -1.15777545e-01, -1.22798821e-02, -1.54465541e-01,
         1.56236738e-01, -1.71870142e-01,  6.19055294e-02,
        -1.74217045e-01},
       {-5.22470772e-02,  2.75700744e-02,  2.14837864e-02,
        -1.55261949e-01, -7.91115910e-02,  2.06046253e-02,
        -1.69704065e-01, -6.21659644e-02, -8.55523348e-02,
        -9.74198729e-02},
       {-1.27504691e-01, -9.42022800e-02, -6.00757189e-02,
        -3.34762871e-01, -1.07918747e-01, -9.92158335e-03,
        -8.63127336e-02, -1.61395874e-02, -8.78469646e-02,
         5.94788380e-02},
       {-3.17726657e-02, -1.34565860e-01, -1.43274106e-02,
        -1.01877518e-01,  4.86468598e-02, -2.07459673e-01,
         9.46814078e-04, -6.66064993e-02, -2.42630988e-01,
         1.11582279e-02},
       {-1.24241263e-01, -8.13122466e-02, -1.89602628e-01,
         1.71490293e-02,  1.85488239e-02, -4.27387953e-01,
         8.88391063e-02, -1.18470758e-01,  1.02763608e-01,
        -7.74281546e-02},
       {-1.42815351e-01, -2.01885238e-01, -1.27481818e-01,
        -2.76042849e-01, -5.21145940e-01,  8.91818702e-02,
        -1.92040816e-01, -8.40428635e-04, -8.74477699e-02,
         7.77868330e-02},
       {-2.00282171e-01, -4.62867543e-02,  1.93485752e-01,
        -4.96167056e-02, -2.17890769e-01,  7.64272511e-02,
        -1.69732839e-01, -1.22472517e-01,  2.70012803e-02,
        -1.88933834e-01},
       {-8.13735798e-02,  1.65184721e-01, -1.70781478e-01,
        -9.85009447e-02, -2.55856793e-02, -3.96204218e-02,
        -8.66340101e-03,  6.31409371e-03, -2.65771300e-02,
        -2.92046722e-02},
       {-2.36350810e-03, -1.90502658e-01, -7.38530159e-02,
        -1.07671440e-01, -1.42515510e-01, -1.25622928e-01,
         1.22652799e-02, -1.91949472e-01,  1.23189747e-01,
        -2.05072701e-01},
       {-9.63781029e-02,  7.78280385e-03,  2.21724175e-02,
         4.45155390e-02, -1.44311547e-01, -1.56454042e-01,
        -1.72536135e-01, -2.52518237e-01, -9.53305364e-02,
        -1.22778624e-01},
       { 2.67707445e-02,  4.81251925e-02, -3.87014002e-01,
         8.43820274e-02, -3.88508499e-01,  3.72587740e-02,
         1.23160906e-01, -2.20098346e-01, -1.25377759e-01,
        -8.44130814e-02},
       { 4.13665874e-03, -3.66438448e-01, -1.36872485e-01,
        -6.59496710e-02, -2.03256875e-01,  6.29209056e-02,
         1.39439302e-02, -1.32105891e-02, -1.01285040e-01,
         9.13040433e-03},
       {-9.76345688e-02, -3.85020792e-01, -1.90828145e-02,
        -3.20441097e-01, -3.46951932e-02,  3.48782539e-02,
        -2.20852897e-01, -4.21217494e-02,  1.02565125e-01,
        -4.96581793e-02},
       {-4.48973551e-02, -3.27453256e-01, -2.56441265e-01,
        -4.03302424e-02, -1.97911382e-01,  9.82321948e-02,
         1.91540897e-01, -1.02177165e-01,  1.10037345e-02,
        -2.35668570e-02},
       {-9.12544504e-03, -2.81701654e-01,  3.12391091e-02,
        -2.61284918e-01, -1.31858140e-01,  2.19193678e-02,
        -1.97561264e-01,  3.65885310e-02, -1.35082632e-01,
        -8.74283258e-03},
       { 5.58927394e-02, -1.78949863e-01,  2.47680191e-02,
        -1.76988930e-01,  1.00476220e-01, -2.43941769e-01,
        -2.68323775e-02, -3.97112846e-01, -3.79985005e-01,
        -2.84560204e-01},
       { 2.54953261e-02, -2.64285147e-01, -1.53915733e-02,
         5.17969243e-02, -9.36413109e-02, -4.67487752e-01,
         1.04819089e-01, -3.42762381e-01, -4.28774327e-01,
        -2.00121507e-01},
       { 3.86591554e-02,  6.43008202e-02, -1.40240163e-01,
        -1.43018812e-01, -8.77105221e-02, -7.05711097e-02,
        -9.96437743e-02, -1.54425085e-01,  3.63315046e-02,
         2.73704585e-02},
       { 2.31212601e-02, -7.32867280e-03,  4.37612608e-02,
         5.14508896e-02,  6.72869608e-02, -7.71805793e-02,
         1.42187113e-02, -2.46390089e-01, -3.79960239e-01,
        -2.47028202e-01},
       {-5.19916341e-02,  6.17451929e-02,  8.64167884e-02,
        -1.13422476e-01,  6.05450757e-02, -1.19395328e+00,
        -3.09732854e-01, -1.04659200e+00, -1.12762690e-01,
        -4.45362180e-01},
       { 1.91877484e-01,  9.60737839e-03, -1.05948031e-01,
        -5.83513118e-02, -3.65801007e-02, -3.23816150e-01,
        -5.46998829e-02, -2.20820978e-01, -6.62071481e-02,
        -1.65678516e-01},
       {-2.54263371e-01, -1.37628093e-01, -5.31096943e-02,
        -3.19498420e-01, -1.21325083e-01, -4.63167541e-02,
        -1.33511126e-02, -1.53632155e-02, -7.94314444e-02,
        -9.67479199e-02},
       {-1.94584310e-01, -1.50265023e-01, -2.55677938e-01,
        -1.98876172e-01, -1.19550921e-01, -1.59266040e-01,
        -8.85434672e-02, -2.02212464e-02, -1.75741851e-01,
        -1.67310625e-01},
       {-8.70456174e-02, -2.06069410e-01, -2.67705679e-01,
        -2.68340647e-01, -3.80032480e-01,  1.37010170e-02,
        -1.15919918e-01, -4.59651798e-02,  7.68065453e-02,
         7.22438172e-02},
       { 6.11507474e-03, -6.44291192e-02, -3.97414118e-02,
        -2.23673880e-02, -1.29021168e-01, -3.51026915e-02,
        -6.41479641e-02, -6.99596331e-02, -1.90672368e-01,
        -9.17856246e-02},
       {-7.64561892e-02, -8.36916342e-02,  1.07037053e-02,
        -2.25242004e-01, -7.73676187e-02,  5.24530672e-02,
         3.06943022e-02, -1.10613257e-01,  7.04991296e-02,
        -1.02321759e-01},
       {-3.29825915e-02,  3.38243246e-02,  7.72663159e-04,
