weights[1][64][3][3]=
{{{-0.2298914, 0.007262, 0.1749956}, {0.0486441, -0.2384198, -0.2185307}, {-0.1878682, -0.0094927, 0.1198966}}
{{0.0393498, -0.0876814, -0.0946882}, {-0.1709288, 0.0384568, 0.0265175}, {-0.151864, -0.1047585, -0.0524016}}
{{-0.1169667, -0.0064702, -0.1132732}, {-0.2220752, -0.2469522, -0.0153632}, {0.0767191, -0.1902957, 0.0798398}}
{{0.0178417, -0.0548132, 0.0101645}, {-0.0739793, -0.0562422, -0.1504365}, {-0.0173985, -0.0240198, -0.1154881}}
{{-0.0713774, 0.1832772, -0.0117897}, {0.1744212, 0.0549491, -0.282325}, {-0.1935307, -0.2389921, -0.8665196}}
{{0.1115747, -0.1518138, 0.2124034}, {-0.1760169, -0.157585, 0.0939629}, {-0.043481, -0.0681927, -0.1111284}}
{{0.0589901, -0.1235533, -0.2202063}, {0.0028059, 0.1086626, -0.1522547}, {-0.2139636, -0.0405559, -0.1481722}}
{{0.1260922, -0.1377535, -0.2131452}, {0.1829361, 0.1817187, -0.1486623}, {0.1496629, 0.2446852, -0.1143338}}
{{-0.0808274, -0.0083913, -0.0033949}, {-0.0269978, -0.0011334, -0.2357383}, {-0.0809107, -0.002123, 0.0165498}}
{{-0.0912216, 0.1974587, 0.0232094}, {-0.7134398, -0.0379026, -0.05278}, {0.1125343, -0.2806142, 0.0131202}}
{{0.0517498, -0.0715424, -0.1640746}, {0.0154819, -0.1117429, 0.0074933}, {0.0007478, -0.0656865, 0.022105}}
{{0.0159929, 0.1149959, 0.0317385}, {-0.0356605, -0.2126004, -0.1455989}, {-0.0637683, -0.3088857, 0.089986}}
{{-0.1238296, -0.0501132, -0.0347359}, {-0.0678601, -0.1349451, 0.1014639}, {-0.1721215, -0.0097743, -0.1928919}}
{{-0.1180361, -0.0150163, -0.0721966}, {-0.0572787, 0.0386948, -0.183124}, {-0.0814864, -0.0147901, -0.053345}}
{{-0.0312157, -0.350899, -0.1958255}, {-0.4113255, -0.5752543, -0.0006303}, {-0.4963728, -0.3570426, 0.0494376}}
{{0.0941473, -0.1196083, -0.1200121}, {0.0165658, -0.1508174, -0.0738707}, {-0.2668546, -0.0313186, 0.019661}}
{{-0.0229839, -0.0191419, -0.1637595}, {-0.0585856, -0.0109364, -0.1465716}, {-0.0962199, 0.0212378, -0.0195606}}
{{0.006323, -0.1524452, -0.050524}, {0.0398153, -0.0153342, -0.0359154}, {-0.1174243, -0.0286615, -0.0067514}}
{{0.0113283, -0.0272673, 0.172595}, {0.1455301, -0.4420587, -0.0170712}, {-0.1354735, -0.9635289, -0.0805259}}
{{0.0399268, 0.0331938, 0.1093547}, {-0.0190615, -0.1537363, -0.4764184}, {0.1648908, 0.056319, -0.0202926}}
{{-0.2130709, 0.1697422, -0.0740018}, {-0.1028145, 0.0699989, -0.1883548}, {-0.3979844, -0.2220215, 0.09975}}
{{-0.0849557, -0.0364661, -0.1196146}, {0.0487814, -0.1213016, 0.0110137}, {-0.0271361, -0.0190073, -0.0253529}}
{{-0.017532, -0.0203563, -0.0172202}, {-0.0239946, 0.0436598, -0.2100201}, {-0.1401351, -0.0750697, -0.1437448}}
{{-0.5958765, -0.2275221, 0.2174188}, {-0.061799, -0.1112503, 0.096533}, {-0.0998128, 0.1606707, -0.2249825}}
{{-0.1203115, -0.086106, 0.0168084}, {-0.0021838, 0.01818, 0.0219584}, {0.0003099, -0.1273429, -0.0345811}}
{{0.1514762, 0.0240745, -0.1223201}, {0.1202108, -0.2439567, -0.8175888}, {-0.1160349, 0.1035873, -0.9354755}}
{{-0.0559291, -0.1139607, -0.0550274}, {0.0142364, -0.0367109, -0.1063034}, {-0.0833946, -0.0792049, 0.0635986}}
{{-0.0907443, 0.1142575, -0.319111}, {0.08931, 0.0230949, -0.4041393}, {0.1352006, 0.0684964, 0.0191838}}
{{-0.0116795, -0.8132193, 0.0645561}, {-0.1303218, -0.2687193, -0.0661817}, {0.0382482, -0.094455, -0.0492224}}
{{0.0003299, 0.0214012, -0.0096491}, {-0.0643397, -0.1126117, 0.0453604}, {-0.0268208, -0.155551, -0.0929257}}
{{-0.009591, -0.1171292, -0.0053158}, {-0.0230114, -0.0182756, -0.0396613}, {-0.0373515, -0.1002851, 0.0220839}}
{{-0.1295803, -1.1073324, 0.0768424}, {0.0027731, -0.1487805, 0.0533048}, {0.1588131, 0.0834545, -0.1476199}}
{{-0.1872497, -0.1650542, 0.0450962}, {0.0086788, 0.0032795, 0.017451}, {-0.054744, -0.0736443, -0.0905902}}
{{-0.1789926, -0.1754965, -0.0569102}, {0.0125435, -0.0187243, -0.0419269}, {-0.0507679, 0.0148383, -0.0576752}}
{{-0.1173508, 0.0830858, -0.0812819}, {-0.0293717, -0.3150078, 0.110813}, {-0.1275095, -0.4431066, -0.3636283}}
{{0.0341054, 0.0707126, 0.042962}, {-0.2268066, 0.4180228, -0.0729512}, {-0.058864, 0.2173993, -0.1373387}}
{{-0.185652, -0.0542792, -0.2033896}, {0.0241618, -0.0279217, -0.2073524}, {-0.0364387, -0.0955663, -0.0901631}}
{{-0.0297468, -0.0076273, -0.02674}, {-0.0152081, 0.0336293, -0.1390003}, {0.0020776, -0.0779252, 0.0398298}}
{{-0.1649905, 0.0204637, -0.0403006}, {-0.0376489, -0.015317, -0.0854488}, {-0.0325846, -0.0235906, 0.0097244}}
{{0.124096, 0.1911807, 0.2144963}, {0.0600276, -0.0657085, -0.0347558}, {0.0827671, -0.344734, -0.1806951}}
{{-0.2604747, -0.2297117, -0.2089722}, {-0.3691841, -0.2112077, 0.0806682}, {-0.1668058, -0.2493319, 0.040578}}
{{-0.1473677, -0.1771108, -0.155384}, {-0.1951664, -0.3672846, -0.4354553}, {0.060496, 0.0804711, -0.2001909}}
{{-0.2239887, -1.0552932, -0.4756364}, {0.1346303, -0.1703174, -0.2030074}, {0.1050555, 0.0225587, 0.056696}}
{{-0.1548407, 0.0871508, -0.0023381}, {-0.3812124, 0.1411646, -0.1711494}, {0.0333461, -0.0715721, -0.1871539}}
{{-0.069768, -0.363892, -0.0021605}, {-0.1292102, -0.2775252, -0.1805227}, {0.0690067, -0.0122452, -0.0587649}}
{{-0.1116943, -0.3329833, 0.1729474}, {0.2564166, 0.2212568, -0.2663204}, {-0.0705187, -0.0950871, -0.081867}}
{{-0.0160507, -0.0799507, -0.2355303}, {-0.0209548, -0.1372563, -0.1131725}, {0.0660566, -0.0147204, -0.1237255}}
{{-0.0282958, -0.0756889, -0.0583293}, {0.0024302, 0.0250805, -0.0178341}, {-0.0713045, 0.0303579, -0.0332772}}
{{-0.0934923, 0.0242556, -0.0308016}, {0.0352345, 0.027477, -0.0041808}, {-0.0149011, -0.050389, 0.0095289}}
{{-0.6303434, -0.8077094, -0.0679414}, {-0.5998173, -0.6000578, -0.1121664}, {0.0788931, -0.0532016, 0.0185469}}
{{0.0136157, -0.1319169, -0.0970488}, {0.0387103, -0.022449, 0.0356836}, {-0.1915714, -0.2142007, -0.0328026}}
{{-0.009494, -0.0889348, -0.0249166}, {-0.0187809, -0.0080217, 0.0029848}, {-0.0252446, 0.033046, -0.0831245}}
{{0.0320516, -0.1701361, -0.0268941}, {-0.025065, -0.0416925, 0.0179828}, {-0.1779731, -0.0341005, -0.0509145}}
{{-0.1452788, 0.0307158, 0.0349818}, {-0.6320233, -0.5228883, -0.1357285}, {0.0853287, -0.0873124, -0.0036839}}
{{0.2302603, -0.0772981, 0.0302035}, {-0.1532565, -0.1841258, -0.4135231}, {-0.0351276, -0.0005915, 0.0663367}}
{{-0.1840136, -0.1379611, -0.2212445}, {-0.0222639, 0.0890237, -0.1135165}, {0.0168132, 0.0370452, -0.1451173}}
{{0.2100632, -0.0419679, -0.2385279}, {-0.0455288, 0.1272599, 0.2407119}, {-0.5327905, -0.2066083, 0.0871642}}
{{-0.0271358, -0.2051129, -0.156873}, {0.0296856, -0.016616, -0.1105986}, {0.0457852, -0.0355314, -0.1041591}}
{{0.1896279, -0.2983213, -0.3152392}, {-0.0756254, -0.6347256, -0.3876297}, {-0.1961809, -0.6749089, -0.5670791}}
{{-0.0092712, -0.0904311, -5.19e-05}, {-0.3513214, 0.0483678, 0.1173031}, {-0.3195753, 0.1674749, 0.0675091}}
{{0.0108747, -0.1234685, -0.161024}, {0.0590781, -0.0240278, -0.0299992}, {-0.07709, -0.1805017, 0.0251159}}
{{-0.1904092, -0.2562605, 0.0924799}, {0.1098346, 0.0446127, -0.1133474}, {-0.0352267, -0.2255423, -0.0904967}}
{{-0.2243085, -0.3741999, 0.1482535}, {0.1045912, -0.1872406, -0.0498078}, {0.1477508, 0.0598901, -0.396749}}
{{-0.0247685, -0.225908, -0.059831}, {0.0114834, 0.0084253, 0.0170193}, {0.0049941, -0.1236462, 0.0577183}}};
