float weights6 [64][64][3][3]=
{{{{-0.1054278, 0.0162747, -0.0308644}, {-0.1241439, -0.2352738, 0.1488089}, {-0.2586809, 0.0044855, -0.1667328}},{{0.0134078, -0.0307966, -0.2713267}, {-0.414649, -0.1934185, -0.1403667}, {-0.0735629, -0.0945095, -0.0941369}},{{-0.3517702, 0.1326002, -0.0879777}, {-0.0650875, 0.0488013, -0.3022662}, {-0.110516, 0.0098894, 0.0967827}},{{-0.1105244, -0.3948054, -0.0909013}, {-0.1727176, -0.3194327, 0.0219551}, {0.015786, -0.2348078, 0.1125812}},{{-0.1698335, 0.0175329, 0.1519771}, {-0.0235843, -0.2188177, -0.1456998}, {-0.1814, -0.2451347, -0.1514293}},{{-0.2839025, -0.0861999, -0.3034856}, {-0.1530946, 0.0325551, -0.1055213}, {-0.03052, -0.1549774, -0.1533549}},{{0.1702417, -0.0133243, 0.0469689}, {-0.176871, 0.01996, 0.0472836}, {0.0519333, 0.0366747, -0.05115}},{{0.0104952, -0.0771821, -0.2273875}, {-0.2350193, 0.1595097, -0.2804955}, {0.1311765, -0.0560727, -0.0581376}},{{0.0597984, -0.2341611, 0.1821932}, {0.2491993, -0.364963, 0.2214926}, {0.2815243, 0.0048563, 0.2759306}},{{-0.0852041, 0.0469271, -0.2546836}, {-0.4423667, -0.1620511, -0.1707517}, {-0.1468063, 0.0560468, -0.1911724}},{{-0.1768787, -0.0788719, -0.2742656}, {-0.1624316, -0.1766781, -0.0145391}, {0.0201643, 0.0071009, -0.1591144}},{{-0.0164706, -0.0579858, -0.0191584}, {-0.0464569, -0.0130866, 0.0595509}, {0.021046, 0.0122714, 0.0709287}},{{-0.225861, -0.2018041, 0.152064}, {-0.3434557, -0.2414187, 0.0734913}, {-0.2209808, -0.2859505, -0.0177575}},{{0.0439696, -0.0634429, 0.0284501}, {-0.2284447, 0.0718868, 0.0541091}, {-0.0611598, 0.0257438, -0.0323975}},{{0.048764, 0.0015532, -0.0559746}, {-0.2596484, 0.0556121, -0.0238038}, {0.1380851, 0.0949582, 0.2036961}},{{-0.0860649, 0.1491867, -0.2807892}, {-0.0049358, 0.2206914, -0.2931484}, {0.120803, -0.0239342, -0.3691159}},{{-0.2712437, 0.2649849, -0.5531701}, {-0.2753648, -0.197877, -0.3635694}, {-0.5192417, -0.1314355, -0.0140411}},{{0.254021, -0.0895134, -0.1286999}, {-0.0148856, -0.1102464, -0.2232421}, {0.1933848, -0.0648524, -0.2100163}},{{0.1951188, -0.0460838, -0.2320022}, {-0.0056751, -0.1215895, -0.4184253}, {-0.2469205, -0.086163, -0.4199883}},{{-0.1654855, -0.299352, -0.1087616}, {-0.1730674, -0.1032111, 0.0680428}, {-0.0306186, -0.1438625, -0.1736245}},{{-0.1022095, 0.0195523, -0.1491087}, {-0.106521, -0.3691068, -0.273175}, {0.0421735, -0.1396691, -0.221833}},{{0.282144, -0.1380199, -0.0803274}, {-0.0258071, -0.0434482, 0.229526}, {0.165474, -0.1552115, -0.0946859}},{{0.0006304, 0.2670612, -0.0550376}, {0.0931736, 0.0612584, 0.0852603}, {0.0642504, 0.1162123, 0.0537213}},{{-0.1200031, -0.1650153, 0.1348768}, {0.1212167, 0.0948577, 0.0578013}, {-0.0536923, -0.0965697, -0.0532693}},{{-0.3240248, 0.095611, -0.3919744}, {-0.6183471, -0.2426711, -0.3651049}, {-0.2786848, -0.0043712, -0.0954338}},{{0.1029888, 0.0357845, -0.3219576}, {-0.1615901, -0.370256, -0.1749898}, {0.1324407, -0.2802373, 0.0261605}},{{-0.2193629, -0.4068682, -0.2549323}, {0.0806132, -0.213084, -0.2708909}, {-0.0133984, -0.0637662, -0.0846956}},{{-0.0998649, -0.1194759, 0.2061108}, {-0.0961235, -0.3852364, 0.152731}, {-0.0611797, -0.2619968, 0.122297}},{{0.1654469, 0.0605052, -0.2171585}, {-0.2727803, -0.2634076, 0.1250272}, {0.2092111, -0.1638003, 0.0269982}},{{-0.1677081, 0.1105007, -0.0378893}, {-0.0574583, -0.1974113, -0.1295772}, {0.1229023, -0.0931587, -0.1690826}},{{-0.0348747, -0.0151112, 0.0674721}, {0.0626725, -0.0924936, 0.022978}, {-0.0911197, -0.0707573, -0.0833577}},{{0.1768929, -0.1588709, 0.0496413}, {-0.038223, 0.0268746, 0.0883006}, {0.1774951, 0.037293, 0.0015569}},{{0.1608749, -0.0288663, 0.0574286}, {0.0464997, 0.0431663, 0.1018266}, {0.0385907, -0.1880218, 0.1302619}},{{-0.0569907, -0.1102324, -0.1314698}, {-0.0612512, -0.0686379, -0.0551735}, {-0.2074998, 0.2254576, -0.3261104}},{{-0.0678802, 0.0021001, -0.0549582}, {-0.0210132, -0.0948132, -0.0682682}, {-0.1836225, -0.0145922, 0.1369281}},{{-0.172721, -0.2008949, 0.1082121}, {-0.21232, -0.1431388, 0.2413115}, {0.1684411, -0.2095906, 0.0321585}},{{0.201754, -0.1134106, -0.1868991}, {-0.2783923, -0.135547, -0.1713409}, {-0.1105754, -0.1110248, -0.1705305}},{{0.2065669, -0.2338989, -0.0307197}, {0.3427847, -0.3677076, 0.1745112}, {0.0286393, -0.0774145, -0.0183831}},{{-0.0060333, 0.0022609, -0.0660936}, {0.2340903, -0.0528252, -0.303566}, {0.2140903, 0.0339451, 0.1053514}},{{-0.2922924, 0.1442703, -0.0365915}, {-0.384593, -0.2587262, -0.0523001}, {-0.0387863, -0.0116251, 0.0441033}},{{-0.2224111, -0.0400703, 0.0477623}, {-0.2536925, -0.3453102, 0.1244074}, {0.0656035, -0.1609374, 0.1892763}},{{0.0192723, 0.2521422, -0.0279528}, {-0.2149893, -0.0120581, -0.3005269}, {-0.0058949, -0.0982573, -0.2727363}},{{-0.0863693, -0.0352346, 0.0624076}, {-0.1012505, -0.1074239, 0.1938796}, {-0.1554683, -0.0793758, 0.0746207}},{{0.022797, 0.0303798, 0.1515265}, {-0.0767534, 0.0206991, -0.1685861}, {-0.0133458, -0.0210634, -0.1702655}},{{-0.0731728, -0.2240445, -0.2608047}, {-0.2687719, -0.1829144, -0.1267515}, {0.0697631, -0.1221412, 0.1520467}},{{-0.2108462, -0.07291, 0.3610649}, {0.118845, -0.1752543, 0.2416915}, {-0.0922441, -0.3892331, -0.2318983}},{{-0.1436603, -0.0688042, 0.156855}, {-0.1161115, 0.0510308, -0.034615}, {-0.1263155, 0.0274464, -0.2323519}},{{0.1142687, -0.249234, 0.0436009}, {0.041151, 0.2667516, 0.1464384}, {0.0705044, -0.0682939, -0.1029337}},{{-0.0337226, -0.0694007, 0.3719489}, {0.1331189, -0.1146855, 0.0973474}, {-0.0985094, 0.1173216, 0.1103231}},{{0.2404533, -0.43176, -0.2172764}, {0.0257173, -0.2301703, -0.3621408}, {-0.3099416, 0.1212879, -0.2057862}},{{-0.1195263, 0.0623735, -0.2650796}, {-0.3719229, 0.3848919, -0.3193699}, {-0.2327313, 0.4268692, -0.3109332}},{{-0.0987551, -0.0015266, -0.4088601}, {-0.4691406, -0.2272786, -0.2038374}, {-0.588247, -0.2335504, -0.1974653}},{{0.1463824, -0.1695516, 0.0409212}, {-0.1603664, -0.2703442, 0.0796384}, {-0.1049361, -0.0199014, 0.2017482}},{{0.1925041, 0.1615988, -0.2920032}, {0.0930743, 0.1488689, -0.0231427}, {0.0327256, 0.1294916, -0.098681}},{{0.226725, -0.3375228, -0.1695579}, {0.2416262, -0.1948741, -0.1580756}, {-0.296496, -0.254728, -0.2741811}},{{-0.0152445, -0.0397769, -0.0041977}, {0.1354259, -0.0061494, -0.0060327}, {0.0188223, -0.0625523, -0.0105175}},{{0.0682131, -0.0401584, 0.0323479}, {-0.038958, -0.0255666, 0.0133524}, {-0.0097142, 0.0260456, -0.0345333}},{{-0.2821693, 0.1258891, -0.2535278}, {-0.3080407, -0.0757067, 0.1475353}, {-0.2164944, -0.1549298, 0.2174923}},{{-0.1056919, 0.1656117, -0.2714055}, {0.0578631, 0.1096655, -0.0471423}, {0.0194713, 0.1295483, -0.1859378}},{{-0.1283978, -0.228551, -0.1952308}, {0.0394999, -0.0729544, -0.1747633}, {0.0246844, -0.0482102, 0.1264639}},{{-0.0765924, -0.0942874, -0.0572066}, {-0.1084381, 0.0085221, -0.1167707}, {-0.0069963, -0.0474964, 0.0672133}},{{0.0324476, -0.212033, -0.2305299}, {-0.1412469, 0.0851916, 0.0273672}, {-0.2112098, 0.26327, -0.2868758}},{{-0.0914669, -0.1409616, -0.2399021}, {0.0338123, 0.0880756, 0.0205492}, {-0.1619677, -0.17728, 0.0146732}},{{-0.2284034, 0.0498678, 0.0984461}, {-0.0209449, -0.1098597, -0.0577884}, {0.1482968, -0.3881252, 0.0916126}}}
{{{-0.0657816, 0.0687531, -0.1367217}, {-0.0038574, -0.1325223, -0.0197591}, {-0.4340173, -0.2016472, 0.0707871}},{{0.1174742, -0.0427802, -0.1462872}, {-0.1050269, 0.1800101, -0.1434547}, {-0.2099084, 0.3288608, 0.0347685}},{{-0.1347198, 0.0479815, -0.0930408}, {0.1037726, -0.17551, 0.1255807}, {0.050587, -0.1583719, 0.079813}},{{-0.2583411, -0.1046821, 0.1172535}, {-0.2480853, 0.0786943, -0.1279113}, {-0.3484545, 0.0958888, 0.0843472}},{{-0.088787, -0.1247983, -0.0744862}, {-0.3580409, 0.0590655, -0.0454029}, {-0.1732442, -0.1217087, 0.1267499}},{{-0.4821332, -0.2167585, -0.0337002}, {0.0230935, 0.0273324, -0.4678366}, {-0.1605512, 0.1376639, -0.2277255}},{{-0.0203023, 0.0060619, 0.1413221}, {-0.1828526, 0.1596243, -0.0512514}, {-0.0405526, -0.0835298, -0.005727}},{{-0.2120308, -0.216151, 0.2540826}, {-0.0806744, -0.4714321, -0.2965744}, {0.1296352, -0.2870088, 0.1323204}},{{-0.5968166, -0.6309526, -0.1844548}, {-0.2438025, 0.093871, -0.1047318}, {0.0165782, -0.2285099, -0.0701793}},{{0.3445041, -0.1997403, -0.0981917}, {0.3178549, -0.1615347, 0.1009916}, {0.1435368, -0.2803695, -0.1088693}},{{-0.6407316, 0.1016475, -0.0918352}, {-0.3848444, 0.0362919, -0.0112446}, {-0.2874084, -0.0035708, 0.2687716}},{{0.0160841, 0.0199271, -0.0034084}, {0.0495055, 0.0408411, 0.0537997}, {-0.0426136, 0.0317961, -0.075705}},{{-0.1421698, -0.1706668, -0.0630962}, {-0.2783628, -0.4685955, -0.3471484}, {-0.2602533, -0.2730073, -0.1211939}},{{-0.1041022, -0.0167836, -0.0333845}, {0.0971598, -0.113384, -0.0907055}, {0.0495888, -0.0855791, -0.189505}},{{0.0367802, 0.0434128, -0.3072764}, {-0.3703344, -0.2331749, 0.1467153}, {-0.0293271, 0.0481207, -0.0296524}},{{-0.2873929, 0.0580092, -0.088342}, {0.0617072, -0.3036625, -0.237267}, {-0.1358634, -0.0876619, -0.0408853}},{{-0.0293343, -0.1176776, -0.0984725}, {0.038341, 0.0520376, -0.1719697}, {0.0027243, 0.0390607, 0.1250804}},{{-0.2228044, -0.0723592, -0.1057251}, {-0.1312278, -0.1714654, -0.1565653}, {-0.0882699, -0.2051152, 0.2130098}},{{-0.0455372, -0.0130789, -0.0556704}, {0.0469481, 0.0391675, -0.0708956}, {0.005792, 0.0960096, -0.3111109}},{{-0.167655, -0.0161144, -0.0626973}, {-0.1498251, -0.0359817, -0.1591559}, {0.0343457, -0.2008475, -0.3445354}},{{-0.2874769, 0.1023246, 0.0313385}, {-0.2733536, 0.0021888, -0.069304}, {-0.1624838, 0.2806591, 0.1804427}},{{-0.1007811, -0.2325425, -0.3589462}, {-0.1336955, -0.0474193, -0.2595662}, {0.2249894, -0.2504131, -0.0450364}},{{0.0799294, 0.0433062, 0.1827168}, {-0.0134, -0.0951935, 0.1921951}, {6.82e-05, -0.0634438, 0.1526348}},{{-0.0304253, -0.1939617, 0.2413061}, {-0.2352525, -0.0204784, -0.1267337}, {-0.5135598, -0.2733633, -0.138182}},{{0.1650341, -0.1824265, -0.1245946}, {-0.0203998, 0.3026043, -0.2380105}, {-0.0368213, 0.2249306, -0.1107928}},{{0.1370521, -0.2954202, -0.2366196}, {-0.0284061, 0.0727058, 0.0337961}, {-0.1046601, 0.0367368, 0.0994125}},{{-0.231122, 0.0423871, -0.3705942}, {-0.0232452, 0.2113145, -0.0304685}, {0.0809829, 0.2460977, 0.0072772}},{{-0.2707126, -0.1067633, 0.1954879}, {-0.2641898, -0.0137127, -0.1846654}, {-0.0744701, 0.0961395, 0.0739889}},{{-0.1945864, -0.1974555, -0.085138}, {-0.4025315, -0.3683418, -0.3637444}, {-0.0677621, -0.0338555, -0.0695432}},{{-0.1440626, 0.0062809, 0.0163452}, {-0.0354101, -0.0231922, -0.2467258}, {-0.1674441, 0.0826191, 0.0587412}},{{0.0019646, 0.0314538, 0.0456285}, {-0.0673336, 0.0626947, -0.0544169}, {-0.1053365, 0.021054, -0.0530655}},{{-0.2837111, -0.5595303, -0.1969208}, {-0.1970435, 0.3439376, -0.0414967}, {-0.1219184, 0.0753622, -0.1764953}},{{0.0326343, -0.0806063, -0.0758255}, {0.1186597, 0.0100958, -0.0205879}, {0.0866158, 0.1505036, -0.0573662}},{{-0.3102992, -0.1192034, -0.0082388}, {0.0060047, -0.5038588, -0.2042907}, {0.2174673, -0.0132606, 0.2803016}},{{-0.0260948, -0.1588461, -0.137621}, {-0.0440404, -0.1544554, -0.1828879}, {-0.0306161, 0.1616795, -0.0734074}},{{-0.2101538, 0.1236131, -0.3904167}, {-0.2434145, 0.0596984, -0.4721825}, {-0.179072, -0.4067335, -0.2715519}},{{-0.1488384, -0.1244765, -0.3375756}, {-0.3239377, 0.3436082, -0.3528228}, {-0.1163198, 0.1527848, 0.0509379}},{{-0.3324873, -0.1030649, -0.1637373}, {-0.1156891, -0.0821067, -0.0719054}, {-0.2745458, 0.1265977, 0.2084714}},{{-0.1962766, 0.038227, -0.2336112}, {-0.0877906, -0.097121, 0.1791705}, {-0.018464, -0.0253686, 0.196123}},{{-0.3880963, 0.1368911, -0.285838}, {-0.1671011, -0.3308133, -0.214382}, {-0.3568873, -0.5772768, -0.2247722}},{{-0.0245358, -0.089471, -0.04867}, {-0.6557377, 0.1350628, -0.3694765}, {-0.2365817, 0.1187249, -0.259953}},{{-0.2225437, -0.1320458, -0.1124947}, {0.0367858, 0.1262765, -0.0114247}, {-0.1271303, 0.1955276, -0.0346903}},{{-0.0868005, 0.0192166, -0.209205}, {-0.2490383, -0.1048817, -0.0219326}, {-0.1545069, -0.0370375, -0.1529127}},{{0.006563, 0.0345928, 0.2832219}, {0.0236098, -0.22854, -0.3518268}, {0.1084577, -0.1470143, -0.0112777}},{{-0.4144758, 0.0825978, 0.2047291}, {0.0520204, 0.1813537, -0.3198758}, {-0.5142978, -0.0376017, -0.002849}},{{-0.3286704, 0.08974, -0.1405152}, {-0.0787346, 0.0807654, 0.0507211}, {-0.0974458, -0.0177295, 0.0845777}},{{0.0283657, -0.050353, -0.1715056}, {-0.0620603, -0.0219249, 0.0813008}, {0.164049, 0.2517203, -0.0188673}},{{-0.333102, -0.1852144, -0.3101446}, {-0.1241853, 0.2395246, -0.3024816}, {-0.0764163, 0.0323701, 0.1221907}},{{0.0978086, 0.210557, -0.6819302}, {0.4353098, 0.3671654, 0.1753928}, {-0.0976312, 0.0312391, -0.2872443}},{{-0.178068, 0.047162, -0.1880211}, {-0.084751, -0.0221331, 0.2832706}, {-0.2210959, -0.3176683, 0.1584743}},{{-0.0398008, -0.1295869, -0.0832095}, {0.1097728, -0.0886225, -0.0985113}, {0.1694485, -0.5404165, -0.4162649}},{{0.0749453, 0.0397203, -0.0813477}, {-0.0782538, 0.1874636, 0.1325564}, {0.0051595, 0.0201392, -0.1324968}},{{0.0978221, -0.0154003, -0.1098738}, {-0.2565622, 0.0551237, 0.0472772}, {-0.0529778, -0.0869189, 0.0423551}},{{-0.2854099, -0.0513866, 0.1722454}, {-0.0630164, -0.2619123, 0.2161395}, {-0.0669364, -0.3750207, 0.0057092}},{{-0.0352831, -0.1554525, 0.0442385}, {-0.2327436, -0.0262437, 0.203108}, {0.022514, 0.2264615, -0.1335956}},{{-0.1643381, -0.0532738, 0.1523757}, {-0.0203862, -0.0450222, 0.148948}, {0.1461203, 0.1233821, 0.047897}},{{0.0693086, 0.0417374, 0.0277496}, {-0.0641387, 0.0521928, 0.0005012}, {0.0110942, 0.0421939, 0.0369239}},{{-0.2109344, 0.1355852, -0.215964}, {-0.1062821, 0.1472689, -0.0341435}, {-0.0447436, 0.050059, -0.16181}},{{-0.1468084, 0.0158734, -0.4568371}, {0.0673805, 0.1231015, 0.0447071}, {0.1796685, 0.0894368, -0.0811394}},{{-0.0379033, -0.309166, 0.1617575}, {-0.0311015, -0.213098, -0.0310751}, {-0.1325899, -0.046175, -0.2511659}},{{-0.0090825, 0.0262071, -0.0242447}, {0.0663825, 0.0562173, 0.0340109}, {0.0245854, -0.0219232, 0.0900987}},{{-0.0732259, -0.1203403, 0.1902753}, {0.0326308, -0.0934051, -0.1150479}, {0.299696, -0.436908, 0.4529269}},{{-0.1987297, -0.021279, -0.3093606}, {-0.0815501, 0.0338205, -0.0562976}, {-0.1770917, -0.1970047, -0.0987192}},{{-0.140904, -0.2712192, 0.103907}, {-0.3191795, -0.0751772, -0.2220266}, {-0.142677, -0.2768608, -0.0762131}}}
{{{-0.0032305, 0.1599711, 0.1099754}, {0.1289167, -0.0985814, -0.1684054}, {-0.023302, -0.2737553, 0.0475496}},{{0.1130795, -0.1209214, 0.2848361}, {-0.1789981, -0.2560258, 0.0014139}, {-0.0775067, 0.1525635, -0.2305325}},{{0.0744288, 0.0396376, -0.0722551}, {-0.0710225, -0.0149351, 0.027423}, {-0.1744735, -0.175839, 0.186905}},{{-0.2346005, -0.07098, 0.0702671}, {-0.0449394, 0.2498534, -0.1794701}, {0.0139539, 0.1505258, -0.4210781}},{{-0.1396661, -0.0530624, -0.0959641}, {-0.147827, -0.1608864, -0.3758482}, {0.0163359, -0.3193322, 0.1402121}},{{-0.0847727, -0.1474781, -0.1016422}, {-0.5964311, -0.3774886, -0.1922938}, {-0.2589607, -0.3483599, 0.11113}},{{-0.0030124, -0.3435584, -0.022482}, {-0.0119461, 0.0003667, -0.278267}, {-0.1327476, 0.1464377, 0.0547166}},{{0.1064375, -0.3636668, -0.1188556}, {-0.0899486, -0.1012673, -0.0447611}, {-0.0287111, -0.3821281, 0.0389697}},{{0.2734262, -0.1543327, -0.1354145}, {-0.2213067, -0.0866312, 0.0039537}, {-0.0859317, -0.1156367, -0.2466651}},{{0.361327, -0.0358311, -0.1474847}, {-0.0119112, -0.0755702, -0.1123891}, {0.0166289, -0.3401868, 0.0267983}},{{0.4180037, -0.0450846, -0.2115263}, {0.3190272, -0.2704361, -0.244147}, {-0.0798663, 0.0403817, -0.0642711}},{{-0.0460777, 0.0306764, -0.0514863}, {-0.0228135, -0.0179012, -0.0484666}, {0.0504323, -0.0561621, -0.0131098}},{{0.0660928, 0.1412379, 0.0712388}, {-0.0944616, -0.0732691, -0.0841961}, {0.0027121, -0.4574504, -0.2527522}},{{0.0049911, 0.0161461, 0.022581}, {0.0305082, -0.0553038, -0.2407589}, {0.0501916, 0.1627935, -0.1488043}},{{0.0425913, -0.3120639, -0.1262892}, {-0.2464754, -0.0160262, -0.0561972}, {-0.149664, 0.1360119, 0.1247995}},{{-0.3287908, -0.3683265, 0.0065741}, {-0.4145664, 0.1737265, 0.1654652}, {-0.1160519, 0.032723, 0.2407174}},{{0.1837446, -0.065802, 0.2852949}, {0.2508216, -0.0224885, -0.0866952}, {-0.0713806, -0.1044269, -0.0275464}},{{-0.5711645, -0.0370507, 0.0747493}, {-0.0971215, -0.1257796, 0.0769969}, {-0.1519057, 0.205084, 0.1894585}},{{-0.294447, -0.0377211, 0.0962899}, {-0.074662, 0.0129083, -0.1552867}, {0.0103296, 0.0646402, -0.1145827}},{{-0.1261642, 0.0022268, -0.0801753}, {-0.4260539, -0.1729834, -0.3255551}, {-0.4365091, -0.2670278, -0.462416}},{{-0.068348, 0.0273263, -0.3664453}, {-0.0913921, -0.2525024, -0.0494561}, {0.1711077, -0.2772948, 0.2113983}},{{-0.4277447, 0.0834365, -0.1531923}, {-0.2016216, 0.1822327, -0.0465074}, {0.1367716, -0.1140459, 0.12675}},{{-0.0222408, -0.0033904, -0.1617732}, {-0.0744046, -0.1156256, -0.0886152}, {0.0905284, -0.0073514, 0.1981191}},{{-0.0942597, -0.209043, 0.0633519}, {-0.1077515, -0.034483, -0.0379021}, {-0.0809718, 0.0080004, 0.1241992}},{{0.1749841, -0.1360132, -0.3849314}, {0.126342, -0.0564208, -0.1180453}, {-0.0431746, -0.2061557, 0.0255395}},{{0.1066122, -0.1100283, 0.0262774}, {0.0379776, -0.2366851, -0.1116074}, {0.2051493, 0.1884726, 0.1312571}},{{-0.0969412, 0.0835299, 0.2260908}, {-0.0823396, -0.2237575, 0.0385446}, {-0.1555174, 0.0426293, 0.0541114}},{{0.3477894, 0.1058939, 0.271017}, {0.0182431, -0.085338, 0.1525736}, {-0.0856442, -0.2051316, 0.0241785}},{{0.0834336, -0.3572286, -0.0497573}, {0.0299726, -0.2093992, -0.0452822}, {-0.1980139, -0.1882802, 0.1079554}},{{-0.1740967, 0.1380713, -0.4249552}, {-0.2154933, -0.122808, -0.1901781}, {-0.2161345, -0.2534555, 0.1178735}},{{-0.1139785, -0.0437551, -0.0302409}, {-0.0367941, 0.0317359, -0.0531879}, {-0.0362625, 0.0802877, -0.0566649}},{{0.2044548, 0.1509122, 0.0235399}, {0.2544058, -0.0586244, 0.0065308}, {0.0078811, 0.2673561, 0.150114}},{{-0.2532339, 0.1261678, -0.2260088}, {-0.0558653, -0.09107, -0.1459731}, {-0.0950268, -0.0497693, -0.1475925}},{{0.3830746, 0.2161743, 0.0083207}, {-0.1342569, -0.0163532, -0.2137928}, {-0.0670463, -0.3635532, -0.0206122}},{{0.2056729, 0.2657724, 0.3306684}, {0.0240177, 0.3928006, 0.3013371}, {-0.0173223, -0.0062501, -0.0454994}},{{-0.3125122, -0.0204181, -0.0204301}, {0.2043776, -0.3164568, -0.3293419}, {-0.0591178, -0.3758491, -0.3567416}},{{0.0079643, -0.0612905, 0.080752}, {0.0697646, -0.2468164, -0.1079041}, {0.0719629, -0.2336925, -0.1345038}},{{-0.0178361, 0.0749087, 0.0084498}, {-0.0807277, -0.0811011, -0.2479122}, {0.0114721, 0.0777442, -0.2490846}},{{-0.0017852, 0.1823304, -0.0683895}, {-0.0548339, 0.2098673, -0.1379675}, {0.2211823, -0.2905096, -0.1824086}},{{0.0348001, 0.0405435, -0.1320472}, {-0.0491337, 0.0125275, -0.3464047}, {0.0109214, -0.0894733, -0.1247554}},{{-0.0223415, -0.3698728, -0.0427576}, {-0.1195468, -0.2966652, -0.2999962}, {0.0159867, -0.0967313, -0.0977881}},{{-0.2283027, -0.1458284, -0.3576015}, {0.0765967, 0.1823351, -0.3304396}, {0.0836311, 0.0774172, 0.0091909}},{{0.0070599, -0.0707071, 0.1942146}, {-0.0240924, 0.2993515, -0.1991794}, {-0.0308406, 0.2832311, -0.1038126}},{{-0.1503153, 0.0124864, -0.3412823}, {-0.3344085, -0.1287475, -0.2538124}, {0.1597142, -0.2852608, 0.1045341}},{{0.1562101, 0.1886912, -0.1516757}, {0.1898955, 0.1763822, 0.057968}, {-0.1969619, -0.2665757, -0.2696402}},{{-0.2556077, 0.0281765, -0.0352489}, {0.2542628, -0.1831824, 0.0996245}, {-0.066474, -0.0893827, -0.2178207}},{{-0.3300073, -0.149687, -0.2098043}, {-0.1035564, -0.4719877, -0.181476}, {0.1428758, -0.0281429, 0.2596277}},{{0.0212967, -0.301944, -0.0075202}, {-0.0856875, 0.0626699, 0.0285369}, {0.0958234, 0.2600427, 0.2056487}},{{0.1351041, -0.2862327, -0.092088}, {0.2239012, 0.1250712, -0.3179431}, {-0.1871028, -0.1319319, -0.0760939}},{{-0.1711937, 0.0139578, -0.1773802}, {0.0141551, -0.0387251, 0.0093848}, {-0.0337665, 0.2243638, -0.1822203}},{{0.003892, 0.0211076, -0.1495643}, {0.1301828, -0.0498302, -0.0408376}, {-0.1101187, -0.0159339, -0.1447393}},{{0.0695978, -0.2047138, 0.059205}, {0.0462434, 0.1920093, -0.1699194}, {0.207648, -0.023024, -0.0094129}},{{-0.0591369, 0.032204, -0.2383749}, {-0.2496579, 0.1057108, -0.0639913}, {-0.0324065, 0.0908963, -0.1295729}},{{-0.2113405, -0.0726794, 0.1426213}, {-0.174172, -0.0184369, 0.2081729}, {0.0915103, 0.0506977, 0.0554926}},{{0.1396779, -0.0464233, 0.2818251}, {-0.3331413, -0.4398338, -0.2092408}, {-0.1308584, -0.1883551, 0.0815331}},{{0.0129804, 0.0376426, -0.0938968}, {-0.0210301, 0.0566116, -0.0274387}, {0.0123662, -0.0223769, -0.0106947}},{{-0.0303419, -0.0435508, -0.0636245}, {0.0036848, -0.0380435, 0.0633788}, {0.0091593, 0.0561053, -0.0266004}},{{-0.2190688, -0.0167532, 0.1277125}, {0.3536797, 0.0306514, 0.2844662}, {0.1727237, -0.4226609, -0.0727473}},{{0.0699614, -0.1055389, -0.3081148}, {0.1255621, 0.0570547, 0.0062762}, {0.0766603, 0.0500001, 0.0785431}},{{-0.0406356, -0.0648052, 0.0439825}, {-0.1254971, -0.0745762, 0.2147762}, {-0.0356323, -0.0664646, 0.0922532}},{{-0.0515486, 0.1256621, 0.1288893}, {-0.0791247, -0.0537332, -0.0693676}, {-0.1228976, -0.0444264, -0.1788587}},{{-0.3300434, 0.020074, -0.0332774}, {-0.0957727, -0.0671122, 0.0260872}, {0.0764201, -0.2193603, -0.1354}},{{-0.2079298, -0.0344613, -0.043276}, {-0.0082502, 0.0593694, 0.0665966}, {0.1285765, -0.0169202, 0.0314797}},{{-0.3133387, -0.0530331, 0.0665492}, {-0.4201896, 0.1272501, -0.1495983}, {0.0663247, -0.0205582, -0.0045367}}}
{{{0.3471763, -0.2614825, -0.3082276}, {0.2370586, -0.0361929, -0.4754131}, {0.0791904, -0.1013222, -0.0795086}},{{-0.2427619, -0.1403178, 0.0705243}, {-0.3263749, 0.0039567, -0.0568751}, {0.0575282, -0.1453327, -0.0669293}},{{-0.4038041, -0.0578841, 0.4279679}, {0.1747078, -0.0332715, -0.3546122}, {-0.0415081, -0.0926802, -0.1928499}},{{0.0854387, -0.0946601, 0.0977381}, {0.2377862, -0.0148703, 0.0546915}, {0.0557464, 0.1508915, 0.0416945}},{{-0.0301875, -0.1918909, -0.0975558}, {-0.2994709, -0.1957277, 0.0630504}, {-0.208248, 0.0780321, -0.0398639}},{{-0.0120473, -0.164813, 0.3533159}, {-0.1656552, -0.282194, 0.1285184}, {0.1620122, -0.0545511, -0.2496577}},{{-0.196681, -0.0919667, 0.1156771}, {-0.1352585, 0.1956599, 0.0841769}, {0.0691285, 0.0900937, -0.0555103}},{{-0.3147791, -0.1862669, 0.0987539}, {-0.029625, 0.1400491, 0.0066064}, {0.1137005, -0.4587612, -0.2915848}},{{0.0044081, -0.0240912, -0.2539473}, {0.0273365, -0.4083803, -0.4421794}, {0.149972, -0.0522294, 0.2140072}},{{0.1589189, -0.2429739, -0.183885}, {-0.1330075, -0.4073636, -0.3798011}, {-0.1903423, -0.0112102, -0.0340138}},{{0.1904929, 0.2088137, 0.0404402}, {0.0068767, 0.1960603, -0.0597752}, {-0.2133507, 0.0768883, -0.1707634}},{{0.0106617, 0.0319773, 0.0050868}, {-0.0195414, -0.0033761, 0.0618633}, {-0.0295559, -0.0659783, -0.0100426}},{{-0.0982192, -0.0889251, -0.2036609}, {-0.1597512, 0.1427478, -0.293859}, {-0.038527, 0.1576132, -0.0848744}},{{-0.0090031, 0.019793, 0.1217742}, {-0.0732345, 0.134661, 0.0514646}, {-0.0140658, -0.0732995, 0.1113992}},{{-0.1321301, 0.0842149, -0.1050054}, {0.0179276, 0.1267619, -0.4999853}, {-0.1302802, -0.0798215, 0.0673687}},{{-0.2899048, -0.4077065, 0.3805127}, {-0.1002685, -0.1548507, 0.0178251}, {0.0858298, -0.1182534, 0.0247956}},{{0.0930628, 0.0908668, -0.1763559}, {0.0791503, -0.0113797, -0.261788}, {-0.0070021, -0.0158995, 0.1323436}},{{-0.2854461, -0.1021089, 0.2539906}, {0.1753833, -0.0431143, -0.0959082}, {0.1136249, -0.1694418, -0.0432053}},{{-0.2665521, -0.0934208, -0.1524038}, {-0.3790896, -0.2256595, -0.1610929}, {0.0499652, -0.0319409, -0.3974818}},{{-0.212903, 0.0485361, -0.3320006}, {-0.3268563, -0.099923, 0.0474028}, {-0.1885342, -0.1964173, -0.1435012}},{{0.0012916, 0.0239566, 0.0551729}, {0.0550741, -0.0741929, -0.035195}, {0.1464996, -0.0821433, -0.3184605}},{{-0.0293443, -0.0009189, -0.3296992}, {-0.0809603, -0.1862157, -0.1125938}, {-0.1164694, -0.2968214, 0.0630559}},{{-0.1301755, 0.0395396, -0.1093077}, {0.0598817, -0.0042094, -0.0143641}, {-0.1236974, -0.032859, -0.041653}},{{-0.133136, -0.2814342, -0.1673033}, {-0.0354299, -0.1396382, -0.0143573}, {-0.0430834, -0.1366135, -0.0442079}},{{-0.0603121, 0.0284972, -0.3138583}, {-0.0784662, -0.2596172, -0.2391911}, {-0.1520873, -0.153265, -0.165885}},{{0.0526484, -0.0084925, -0.2756655}, {0.1627542, -0.080924, 0.0340184}, {-0.0781018, 0.0009841, 0.3241418}},{{0.0838055, 0.0513421, -0.3381705}, {-0.1437935, -0.1770657, -0.2271991}, {-0.2233386, -0.2401097, 0.2655191}},{{-0.0133787, -0.1837843, -0.3704937}, {-0.2350885, -0.4095064, 0.0336495}, {0.1405389, 0.1440486, 0.2244466}},{{0.2029327, -0.0016879, -0.1468619}, {-0.1523657, -0.3441602, 0.214299}, {-0.004382, 0.0433555, -0.0404669}},{{0.0367981, -0.3140718, 0.0238814}, {0.0840767, -0.275576, -0.0506664}, {-0.2484774, 0.3153908, -0.1447433}},{{-0.0335594, 0.0218789, -0.0509022}, {-0.0944934, -0.03857, -0.0101138}, {-0.0300906, 0.0488249, 0.0503897}},{{0.0654789, -0.5812217, -0.0091008}, {0.1085834, -0.3578771, -0.2814257}, {0.0821749, 0.0358991, 0.1937203}},{{-0.1115036, 0.1158802, -0.1205578}, {-0.3736489, -0.216649, -0.1866929}, {-0.0100682, 0.0841373, 0.1195132}},{{0.1579576, 0.0236682, -0.1177853}, {0.0486268, 0.0067889, 0.025779}, {0.0397804, -0.1217146, -0.0329902}},{{0.1906491, -0.1153922, -0.0421175}, {-0.0199551, -0.1465352, -0.2021522}, {0.1499666, -0.2251867, 0.0005975}},{{-0.3122893, -0.0658197, -0.1421076}, {-0.0170744, -0.1862283, -0.4421688}, {0.0720669, -0.0915569, 0.0439172}},{{-0.1134002, -0.2230135, 0.0906106}, {-0.3089332, -0.0064455, -0.2166923}, {-0.3973272, -0.1310288, 0.0999678}},{{-0.2500861, -0.3080046, -0.2192188}, {-0.2401304, 0.0919813, -0.2201856}, {0.0344114, 0.1233623, 0.0625287}},{{-0.1839442, -0.0096997, -0.0304761}, {-0.0108038, -0.1805861, 0.0252822}, {0.0467453, -0.2995623, -0.1774648}},{{0.0752848, -0.1889495, -0.0297056}, {0.0861112, 0.0517924, -0.0947875}, {0.1058055, 0.1520744, -0.2862271}},{{-0.1132537, 0.0704356, -0.288514}, {-0.1411148, -0.4004718, -0.1054687}, {-0.3595833, -0.2534073, 0.1273007}},{{-0.130151, -0.0995813, -0.2071323}, {-0.1803741, -0.0594717, -0.0991747}, {0.024832, -0.0067024, 0.0202728}},{{-0.2216177, -0.1423589, -0.062325}, {0.1289288, -0.1671339, 0.2790526}, {0.0317758, -0.2610949, -0.0401297}},{{-0.0040902, -0.1106257, -0.0371568}, {0.2240011, 0.0087198, -0.1540336}, {-0.0048298, 0.0307164, 0.0202377}},{{0.1572555, -0.0716735, -0.0631363}, {-0.0277358, -0.0795832, 0.1987807}, {0.1592574, -0.1061473, 0.2171971}},{{0.0257799, -0.1302273, -0.1855154}, {-0.1236811, -0.1544659, -0.1159599}, {-0.0838503, -0.3897351, -0.0127098}},{{0.2315315, -0.004873, 0.0412489}, {-0.0787953, -0.1676859, -0.11152}, {-0.1285159, -0.1988371, 0.0724569}},{{-0.2227968, -0.3331903, -0.384815}, {0.165487, -0.4287066, -0.0860215}, {0.1225512, -0.311402, 0.173579}},{{-0.0083756, -0.2096684, 0.0858882}, {-0.2413672, -0.198762, 0.006444}, {-0.3507234, 0.1447127, 0.1531119}},{{-0.1459552, 0.0904824, 0.0188371}, {-0.1939186, 0.0090158, -0.0268154}, {-0.4231887, 0.0768243, -0.0908837}},{{0.0803185, -0.2189248, 0.0954247}, {-0.060962, -0.3716902, 0.1121239}, {-0.1295661, -0.1135339, -0.0641895}},{{0.0015894, 0.0489967, -0.1638728}, {0.0004125, -0.0872463, -0.1437027}, {0.0064466, -0.1739757, -0.048132}},{{-0.2499851, -0.0999431, -0.1253486}, {0.0022543, 0.0770677, -0.2704949}, {-0.1542125, -0.320475, -0.0416355}},{{-0.4495471, -0.0423721, -0.4458615}, {-0.1351106, 0.1837373, -0.2534548}, {0.0268162, 0.2303345, 0.1046597}},{{0.1572432, -0.2656977, 0.0467379}, {0.1440683, 0.0414588, -0.1354513}, {-0.0746939, 0.085971, -0.0584839}},{{-0.0162654, -0.009232, -0.0340304}, {-0.0140782, 0.0407507, 0.011274}, {-0.118412, 0.0532786, -0.0318525}},{{0.0163153, -0.030933, 0.0403896}, {0.0237602, 0.043253, -0.0654046}, {-0.032192, 0.0537795, -0.0204824}},{{0.1509631, 0.0096871, 0.0118622}, {-0.2089265, -0.1492722, 0.0153507}, {-0.1629936, -0.0973349, -0.1010379}},{{0.099359, -0.3772033, -0.2675584}, {0.0635771, 0.2368517, -0.0481981}, {0.0006295, -0.2379583, -0.1195815}},{{-0.1651549, -0.2592343, -0.0082932}, {0.0312715, -0.1402878, -0.0648236}, {0.1339534, -0.1063178, -0.016656}},{{0.040871, -0.0237385, 0.0287176}, {0.1769351, 0.0009471, 0.0515367}, {0.0427056, 0.0573124, -0.0105461}},{{-0.0244586, -0.0304297, 0.0596589}, {-0.2067109, 0.1767712, 0.221801}, {-0.0768532, -0.4010232, 0.0557216}},{{-0.1665988, -0.3922658, -0.2194929}, {-0.1142385, -0.0825122, 0.1860175}, {0.0709224, -0.0902379, 0.0753135}},{{-0.2196125, -0.2064398, -0.1837229}, {-0.0630745, -0.2800848, 0.0084953}, {0.0405323, -0.0325261, 0.1763713}}}
{{{0.0216029, -0.0143506, -0.5063282}, {0.0276031, -0.2449827, 0.0155037}, {-0.3062391, -0.2229034, 0.160224}},{{0.0243619, 0.2292809, 0.0851822}, {0.1611485, 0.0847741, 0.1744558}, {-0.0397103, -0.0608779, 0.0869022}},{{-0.0055932, 0.0183243, -0.2107559}, {0.1311656, -0.3104982, -0.3249882}, {0.0921518, -0.223347, -0.2310722}},{{0.1374789, -0.0010602, -0.1558576}, {-0.0297672, 0.0396386, -0.1526516}, {-0.2093911, -0.2338007, -0.3509452}},{{-0.0698556, 0.0997428, -0.0724827}, {-0.2432507, 0.2381657, 0.1458047}, {-0.0925724, 0.0197964, -0.1237426}},{{-0.3475403, -0.108579, 0.1658605}, {0.1500221, 0.1225743, -0.2250864}, {0.1818141, -0.0059953, -0.4039536}},{{0.20736, -0.0716784, -0.1068888}, {0.1840156, 0.0180975, 0.052523}, {0.0862225, -0.1667346, 0.0320407}},{{-0.1281237, -0.0635131, -0.2033566}, {0.2411237, -0.1470629, 0.0681583}, {-0.130471, -0.2769959, 0.2619838}},{{-0.0327176, -0.3469332, -0.1419362}, {-0.1441073, 0.0638851, 0.232546}, {0.1909107, 0.0413055, -0.0754636}},{{-0.0706103, 0.1132189, -0.2918471}, {-0.1806011, -0.0188326, -0.2338432}, {0.3220766, 0.0769279, 0.005973}},{{0.0089893, -0.1602385, -0.0336015}, {0.1241114, -0.2509925, -0.1500604}, {-0.1884096, -0.2500927, -0.0592319}},{{0.0667744, 0.0690883, -0.0360608}, {-0.0645593, 0.0464618, 0.0443328}, {0.0448351, -0.0352811, -0.0082242}},{{0.0336296, -0.0984613, -0.2708754}, {0.0648337, -0.2666022, -0.1867915}, {0.0007707, -0.35151, 0.1282174}},{{-0.1566824, -0.0221571, -0.0219709}, {-0.0830136, 0.0461662, -0.0874867}, {-0.0604871, 0.223538, 0.0283201}},{{0.1904448, -0.1413055, 0.057007}, {-0.2421687, 0.0766054, 0.0160001}, {-0.273719, -0.1177031, 0.0003807}},{{-0.1741257, 0.0174556, -0.107476}, {0.2943369, 0.0098896, 0.1796891}, {0.0497708, -0.059583, -0.219428}},{{-0.0025035, -0.2189971, 0.165758}, {0.002794, -0.1655011, -0.2804543}, {0.0267154, -0.0777685, -0.0900262}},{{0.0158103, 0.0847607, -0.0452351}, {-0.1832844, -0.1361731, -0.0310598}, {-0.1766277, 0.0612869, 0.0173801}},{{-0.087638, -0.4299181, -0.0379749}, {-0.1365632, -0.2064885, -0.1361893}, {-0.2715225, -0.1621272, -0.2961839}},{{-0.4172221, -0.3958523, -0.0425171}, {-0.0835804, -0.17841, -0.0946492}, {-0.2545453, 0.1628541, 0.0795402}},{{-0.0938812, 0.1369981, -0.1519675}, {-0.0144029, -0.198931, 0.0481273}, {0.0636421, 0.006689, 0.0169529}},{{0.1504326, -0.0188118, -0.1567731}, {-0.0642765, 0.045662, 0.0285026}, {-0.2457235, -0.0482442, -0.079164}},{{0.0590683, -0.0209488, 0.1011345}, {-0.0283634, -0.0428072, -0.022031}, {0.055921, 0.0079281, -0.1169757}},{{-0.097712, 0.1612502, -0.0514928}, {-0.1304228, -0.093526, 0.0257577}, {-0.1147272, 0.0945814, -0.0727321}},{{-0.4250797, -0.3766374, 0.0981814}, {-0.163463, -0.2186796, 0.0086028}, {-0.1568275, -0.2252689, 0.0131706}},{{0.0583588, 0.1176725, -0.047077}, {-0.1941789, -0.2754114, 0.2159613}, {-0.0035697, -0.226465, 0.113708}},{{0.0128778, -0.1646729, 0.2368606}, {-0.0786805, -0.3846202, 0.0207724}, {-0.0671087, -0.0926754, 0.0328311}},{{-0.3206282, 0.1279578, 0.0845129}, {-0.2557393, 0.2286214, -0.0211112}, {0.1042662, -0.02239, -0.2654838}},{{-0.1073829, -0.5304492, 0.1234884}, {0.0226179, 0.1503255, -0.0502009}, {0.0272694, 0.0929571, -0.4939948}},{{-0.2355576, 0.0454521, -0.0195084}, {-0.055608, -0.0194513, 0.0628461}, {-0.0863003, -0.0457573, 0.1895064}},{{0.0152457, -0.0226211, 0.0339262}, {0.0176241, -0.0324223, 0.0392177}, {-0.0066881, 0.1179889, -0.043761}},{{-0.0514966, -0.2524941, -0.1034986}, {0.0370099, 0.0689993, -0.0791949}, {-0.4441181, 0.1116984, 0.1015328}},{{0.0926661, -0.0587826, -0.0900356}, {-0.0727989, 0.0667439, 0.0687389}, {0.0905766, 0.0746267, -0.2759345}},{{-0.0008382, 0.1530283, -0.4548041}, {0.0365885, -0.1383638, 0.0427781}, {0.3273137, -0.2569822, 0.20043}},{{-0.4687112, -0.0976761, -0.1234481}, {-0.2893021, 0.0904096, 0.0722316}, {-0.0979086, -0.0993576, -0.073717}},{{0.1377797, -0.2401133, -0.1197151}, {-0.2130252, 0.1346498, 0.0241273}, {-0.1007373, 0.2164674, 0.0789086}},{{-0.0839366, -0.3534225, -0.0137402}, {-0.3616625, -0.0381539, -0.0083753}, {0.0702335, -0.033118, 0.1080448}},{{-0.2097962, -0.0291184, 0.0827651}, {-0.0212393, -0.2290285, 0.0400034}, {0.1239078, -0.1828521, 0.0493583}},{{-0.0376826, 0.1377148, -0.0614158}, {0.2534876, -0.0315479, -0.2078384}, {0.0830016, -0.1920662, -0.0090209}},{{-0.0556655, -0.1824093, -0.4264669}, {0.0701773, -0.0152709, -0.2805494}, {-0.0150574, -0.2593575, 0.3034445}},{{-0.3293636, 0.0413619, -0.1385439}, {-0.0787583, 0.1980623, -0.0611522}, {-0.320187, 0.1081439, -5.99e-05}},{{-0.0921491, -0.1010526, 0.0813818}, {-0.1094788, -0.0144857, 0.1124689}, {-0.2179589, -0.1226583, -0.0077457}},{{-0.1058147, 0.0095308, 0.0933731}, {-0.063642, 0.034618, 0.1887618}, {0.1484254, 0.0182199, 0.1572205}},{{-0.18173, 0.1341998, -0.2403724}, {-0.003724, 0.1677809, 0.1328532}, {0.1190591, -0.1392579, -0.0455686}},{{-0.0374242, -0.1555008, -0.0678723}, {-0.195969, -0.2560194, -0.2992775}, {0.2250202, 0.0535551, 0.1815341}},{{-0.0820552, -0.1064113, -0.1169661}, {-0.0020837, 0.0570483, -0.1395662}, {-0.0694145, 0.0422981, -0.0665863}},{{0.1165937, -0.1810816, 0.1927325}, {0.0810323, -0.5728115, 0.2843236}, {-0.2183683, -0.2060929, -0.0375209}},{{0.0839042, 0.0112898, -0.301103}, {-0.1598847, -0.0841774, 0.0327218}, {-0.0678772, -0.167286, 0.0518555}},{{-0.1149127, -0.2277266, -0.0639891}, {-0.1046021, -0.1882199, 0.182311}, {0.0533351, -0.1365201, -0.1542807}},{{0.1359075, -0.2458715, -0.1838199}, {-0.0583727, -0.4597424, 0.0983849}, {0.061508, 0.0365333, -0.2512583}},{{0.1083371, -0.2778877, -0.1351624}, {-0.3362656, -0.011794, -0.2798543}, {0.0817978, -0.1159814, 0.1214667}},{{-0.1795568, -0.1571684, -0.1624849}, {-0.2393419, -0.1255249, -0.2544167}, {-0.1502077, -0.0954678, 0.0235227}},{{0.1750378, -0.0234504, -0.0341248}, {-0.1886215, 0.1344504, 0.042538}, {-0.0349807, -0.0811439, -0.0295604}},{{0.0824722, 0.1294604, -0.1327379}, {0.1479723, -0.1767867, -0.1845212}, {-0.1626798, 0.0935137, -0.3049147}},{{-0.0597844, -0.0967848, -0.1394516}, {-0.2572657, 0.0778757, 0.0814892}, {-0.2094908, -0.1251264, -0.1506414}},{{-0.0334203, 0.0306791, 0.0366497}, {0.0355842, 0.0323981, 0.0104425}, {0.0572189, 0.0009513, 0.0172771}},{{-0.0607649, 0.0567144, 0.0264928}, {0.0151929, -0.0416069, -0.0679881}, {-0.0049348, 0.0122136, -0.0551559}},{{0.0266682, -0.0961874, -0.3759632}, {0.0069931, -0.1095276, -0.182382}, {-0.068325, 0.0062494, -0.3623589}},{{-0.3179499, 0.106836, -0.0884608}, {-0.1491845, 0.243267, -0.0563014}, {-0.1911565, -0.0431376, 0.1547719}},{{-0.2556227, -0.0078449, 0.0058385}, {-0.1973689, 0.017637, -0.1043529}, {-0.0100676, -0.1274941, -0.0465285}},{{-0.0070806, 0.0189606, -0.1014004}, {0.0149127, 0.1128921, -0.0250532}, {0.0693251, 0.0920035, 0.0934503}},{{0.0304269, 0.1484664, -0.0273764}, {-0.1106034, -0.029227, 0.0397422}, {0.0707695, 0.0900598, -0.0157948}},{{-0.0550018, -0.3500401, 0.0437376}, {-0.1955062, 0.0979348, -0.1340383}, {-0.1724937, 0.226937, -0.2768405}},{{0.085732, 0.0601096, -0.2283468}, {-0.1196977, 0.1716867, -0.1270368}, {-0.0207738, -0.0609301, -0.0063979}}}
{{{0.0251571, -0.0252578, -0.1115668}, {-0.0808222, -0.0697878, -0.2858108}, {-0.1042573, 0.1221742, -0.1838255}},{{-0.1313083, -0.0855365, 0.0123427}, {-0.2349212, -0.0714182, -0.1778674}, {0.1963023, -0.1551697, 0.1348116}},{{-0.116126, 0.1133004, -0.093649}, {0.1450648, -0.0253694, -0.2055996}, {-0.0645129, -0.0731808, 0.2330219}},{{-0.2413515, -0.1779323, -0.2179146}, {-0.2266877, -0.0254656, 0.1800124}, {0.069263, 0.2075678, 0.0400169}},{{-0.2522976, -0.1732511, -0.3135511}, {-0.094582, 0.1809496, 0.0168799}, {0.1081061, -0.0551867, 0.180931}},{{0.3666145, -0.233663, -0.2033181}, {-0.1684258, 0.1496923, 0.2173493}, {0.2331543, 0.2165872, -0.0701293}},{{0.0600877, 0.015076, 0.1824199}, {-0.0233292, -0.1354062, -0.1164439}, {0.1094797, 0.0877094, 0.1153245}},{{-0.2698638, -0.1721078, -0.0546863}, {0.0054845, 0.0776642, -0.122065}, {0.0344851, -0.1236509, 0.0265212}},{{0.0357576, -0.0826584, -0.2889886}, {-0.1220943, -0.0263263, 0.2690943}, {-0.0672162, 0.0048339, -0.2773168}},{{0.0438505, -0.4365856, 0.2113529}, {0.0131198, -0.2492137, -0.0694102}, {-0.0282871, -0.3510702, -0.2152476}},{{0.3505805, 0.1740902, -0.3444867}, {0.2094067, 0.0952524, -0.1066732}, {-0.0585591, -0.0268303, 0.0354728}},{{0.0030911, 0.0367862, 0.0545976}, {-0.0442525, -0.0272522, 0.0353383}, {0.0486258, 0.0797175, -0.0321411}},{{-0.0944046, -0.1256018, -0.0082442}, {0.2884819, -0.01403, -0.2898991}, {0.1080243, -0.0166827, -0.1648463}},{{-0.169265, 0.0497946, 0.0677757}, {-0.1942201, -0.0029587, 0.0817523}, {-0.0664005, -0.0086731, -0.0323181}},{{0.1510685, 0.0416312, -0.1080627}, {-0.0635734, -0.468585, 0.1742836}, {-0.5820084, -0.1641366, 0.1887564}},{{-0.1436252, 0.1036842, -0.125352}, {-0.0045475, -0.0019325, -0.0299769}, {-0.0711715, -0.117271, 0.1288336}},{{-0.1009611, 0.0118307, -0.0528194}, {-0.1180535, -0.3500429, -0.3103408}, {0.048915, 0.0109505, 0.2419674}},{{-0.1232786, -0.0062658, 0.0618736}, {-0.1834884, 0.0462271, -0.1978555}, {-0.148699, -0.0662451, 0.0732505}},{{-0.4099058, -0.2553296, 0.2246358}, {-0.3450204, -0.3536446, -0.0508064}, {-0.2067456, -0.3331672, -0.0196029}},{{-0.0045291, -0.3563116, 0.0327226}, {0.1545061, 0.026286, -0.2997735}, {0.0071731, -0.2424624, -0.2996302}},{{-0.3202894, -0.0996863, -0.2940624}, {0.1473219, 0.0460918, -0.334471}, {-0.227949, -0.123292, -0.195033}},{{0.0049952, -0.2365191, 0.2042933}, {-0.228891, -0.187446, 0.1068676}, {-0.2473582, -0.1623147, -0.1690107}},{{0.1235038, 0.0798561, 0.1138458}, {-0.0585266, -0.0405658, 0.0358276}, {-0.1316012, -0.0309878, -0.0353171}},{{-0.1030885, 0.0902396, -0.1889129}, {-0.0612188, -0.3870632, 0.0394692}, {-0.1067054, -0.2429819, -0.2171478}},{{-0.1739767, -0.2698935, -0.2250109}, {0.0311305, -0.2806168, -0.037116}, {-0.1828887, -0.0438313, -0.3251895}},{{-0.0371556, -0.1459116, 0.0284095}, {-0.1797383, 0.108641, 0.0122571}, {-0.1341403, -0.1297606, -0.1424277}},{{-0.0321037, -0.251092, -0.1190376}, {0.0610763, -0.1950962, -0.0418105}, {-0.0766619, 0.2353263, -0.0093848}},{{-0.4376515, -0.0646697, -0.0164374}, {0.0984151, -0.1731861, -0.0972713}, {-8.24e-05, 0.0595355, -0.1710914}},{{-0.0147729, -0.472829, -0.1607555}, {-0.0355078, -0.2253191, -0.0208615}, {0.3291011, 0.2002035, -0.1329247}},{{-0.123817, -0.1487859, 0.0933871}, {-0.1790301, -0.1408032, -0.0226049}, {-0.0530587, -0.062387, -0.1057968}},{{-0.043001, -0.0470934, 0.0790205}, {0.0032292, 0.0274863, 0.0057806}, {0.0053129, -0.0604589, -0.0354403}},{{0.1272303, -0.0793163, -0.2423076}, {-0.2404459, -0.6523265, -0.009983}, {-0.1582135, -0.1679266, -0.1566701}},{{0.1363881, -0.0520614, -0.0454054}, {-0.0365486, -0.1194234, -0.1929349}, {0.1605723, -0.0714984, -0.2152918}},{{-0.1467133, -0.3947593, -0.2833597}, {0.1798998, -0.0907204, -0.364214}, {0.0883832, -0.2027244, -0.2987123}},{{-0.0328517, 0.0866398, 0.0504961}, {0.029619, 0.0396636, 0.0391273}, {0.2169694, -0.0373318, -0.0168059}},{{0.1667682, -0.0801245, 0.0312722}, {-0.1355948, -0.342391, -0.4303556}, {-0.0683194, -0.0551225, -0.1920248}},{{-0.1184275, -0.0760099, 0.0727397}, {0.0833057, -0.204057, -0.3297395}, {-0.1722564, 0.1639632, -0.3735743}},{{-0.1900129, -0.2785584, 0.203084}, {-0.0349614, -0.0890653, -0.1253759}, {0.0781486, -0.0689157, -0.0757755}},{{-0.2305307, 0.0863796, 0.0141269}, {-0.1828674, -0.351029, 0.0186577}, {-0.1894714, -0.0103178, 0.0363192}},{{-0.481475, 0.0917474, -0.0639845}, {-0.0919131, -0.0625025, -0.265228}, {0.2303717, -0.027259, 0.1975614}},{{-0.2582886, -0.3000242, 0.2291624}, {-0.1310845, -0.2330812, 0.111964}, {-0.228151, -0.1792922, -0.3552363}},{{-0.3058406, 0.0027379, 0.0874509}, {-0.3308697, 0.093612, -0.2051572}, {-0.0347788, 0.1019596, 0.0650247}},{{-0.1215499, -0.2889527, -0.022703}, {-0.1902881, -0.0447403, 0.1369877}, {0.1343583, -0.4243583, -0.0930019}},{{-0.2729351, -0.2609474, -0.4106682}, {0.1845733, -0.1124578, 0.0977945}, {-0.0956056, -0.2467042, 0.0842022}},{{0.2152338, -0.32863, 0.0057244}, {-0.0818825, -0.25001, -0.0780142}, {0.1249925, 0.1533732, -0.2010331}},{{0.0339525, 0.002511, 0.0119075}, {-0.103827, -0.3806687, -0.162219}, {0.0349167, 0.0725834, -0.0504202}},{{0.2239049, -0.1522425, -0.0795696}, {0.0744209, -0.1705365, -0.0966006}, {-0.1939407, 0.2328264, -0.0913146}},{{-0.0129522, -0.300725, 0.3183003}, {-0.2075267, -0.2856647, 0.1061291}, {0.1039912, -0.1320374, -0.2489142}},{{0.0063406, -0.2418794, -0.0742562}, {-0.2703001, -0.2506251, -0.1677884}, {0.1944072, 0.105007, 0.4353369}},{{-0.0600166, -0.167977, 0.0203872}, {-0.2634284, -0.4415754, -0.108267}, {-0.0579452, 0.0149907, -0.2448374}},{{0.027126, -0.4080679, 0.0381146}, {-0.1155321, -0.2258413, 0.0059989}, {0.1806419, -0.1984728, -0.1305047}},{{-0.2479538, -0.2505065, 0.2180763}, {-0.3124607, -0.3445379, 0.2228867}, {-0.0316134, 0.0669004, 0.2023645}},{{-0.1561598, -0.1660623, -0.206531}, {-0.1804477, -0.1426354, 0.0506038}, {0.0078737, 0.1402692, 0.1454844}},{{-0.0677, -0.3301193, -0.028966}, {-0.1340518, -0.4141218, -0.2388276}, {0.1337652, -0.2122241, -0.0676693}},{{0.1373795, -0.0666559, -0.1934628}, {0.0361709, 0.080101, 0.2040627}, {-0.0509862, -0.1837566, -0.0586}},{{0.0009131, -0.0718732, 0.0062084}, {0.0298174, -0.0880089, 0.0187731}, {0.0111509, -0.0371029, -0.0322306}},{{-0.0219775, 0.0422451, -0.0682425}, {-0.0108937, -0.0287544, -0.018388}, {0.0532409, -0.0235782, -0.0286591}},{{0.0530287, 0.0036613, 0.0591827}, {-0.0865186, 0.000143, 0.0681265}, {-0.0771083, -0.2184807, -0.0896107}},{{0.082285, -0.0015462, -0.0612022}, {-0.0685867, -0.1986848, 0.537262}, {0.1157521, 0.2854141, 0.1691688}},{{0.1584077, -0.2190195, -0.3360515}, {0.099958, -0.1219966, 0.0446435}, {-0.0763781, -0.0071418, -0.0796407}},{{0.061825, 0.0537366, -0.079048}, {0.035559, -0.01392, -0.1140479}, {-0.0391485, -0.0154909, -0.0652984}},{{-0.4447243, -0.4834644, -0.2709497}, {-0.4943292, -0.0922834, -0.3561856}, {0.0842729, 0.003011, -0.1195531}},{{0.2500698, -0.2015141, -0.3606681}, {-0.1551527, -0.5440387, 0.0889628}, {0.0881121, -0.0377398, -0.0324565}},{{-0.0447246, -0.3431475, -0.0555553}, {-0.3983141, -0.2202646, -0.0125583}, {0.1201187, -0.0753665, -0.011408}}}
{{{0.0265919, -0.0723978, -0.0155847}, {0.1536643, -0.0899689, -0.0379847}, {-0.0171106, -0.0970618, -0.2052883}},{{-0.105042, 0.1147935, 0.1572239}, {-0.0192907, -0.4210575, -0.1032044}, {-0.1329481, -0.3073807, -0.0385661}},{{0.0690085, 0.1113317, 0.1749761}, {0.1724422, -0.0920578, 0.0584963}, {-0.1672718, -0.2415995, -0.07324}},{{-0.3056958, -0.3456029, 0.1401173}, {-0.4533641, -0.1937432, 0.0671636}, {0.1913207, -0.0044465, -0.1954718}},{{-0.3010979, -0.1732134, -0.2902927}, {-0.0613744, -0.020729, -0.1117583}, {-0.2855009, -0.0449021, -0.058745}},{{-0.2347122, -0.0292109, -0.1118807}, {-0.1231736, -0.0164996, 0.0889739}, {-0.2413183, -0.1262347, 0.0167659}},{{-0.0380594, 0.0615705, 0.0885382}, {0.0641396, 0.0464698, -0.0822699}, {-0.0263796, 0.0301816, 0.0346041}},{{-0.1647285, -0.1303415, -0.1057882}, {0.0917281, 0.0434593, -0.0800992}, {-0.0695668, -0.1156805, 0.005953}},{{-0.2323431, -0.347683, -0.05859}, {-0.2899286, -0.4537719, -0.1106374}, {-0.2444552, -0.0709322, 0.2506709}},{{0.1907959, -0.0956791, 0.0913018}, {-0.2430124, 0.1173066, 0.0845692}, {0.0051478, -0.0019556, 0.1910958}},{{0.1839479, -0.1215528, 0.0811272}, {0.0159447, -0.1527707, 0.0594986}, {-0.0446, -0.1822134, -0.0366583}},{{0.0087476, -0.0551401, 0.0622022}, {-0.0286029, 0.0170395, -0.0723233}, {-0.0130473, 0.0190971, 0.0251071}},{{-0.2110865, -0.3005531, -0.0462795}, {0.0890273, 0.2207416, 0.056092}, {-0.1988297, -0.2181476, -0.2175166}},{{0.2124663, 0.1754059, -0.0052273}, {0.2375187, -0.0471319, -0.0578744}, {0.122328, -0.1597485, 0.1943586}},{{0.1062271, -0.0512383, 0.0247582}, {-0.0139126, -0.1796664, -0.1562945}, {-0.180163, -0.4521592, 0.0956546}},{{-0.1563222, -0.1457638, -0.2304408}, {0.0140973, -0.1065681, -0.1165019}, {-0.1358214, -0.3200099, -0.0254871}},{{-0.0087875, -0.1612049, -0.0779075}, {0.2066797, -0.1773756, -0.0450366}, {-0.1581709, -0.0457873, 0.0836551}},{{-0.1516025, -0.3245953, -0.179727}, {-0.3447663, -0.0006469, -0.1292596}, {-0.0991324, 0.0229868, 0.1351342}},{{-0.5399498, -0.6717078, -0.246621}, {-0.3827706, -0.260542, -0.2548224}, {-0.306431, -0.0974015, 0.0168461}},{{-0.3795771, 0.1347848, -0.1116535}, {-0.1366908, -0.3016099, -0.2250411}, {0.0089253, 0.0290562, -0.0415557}},{{0.0670112, -0.0784552, -0.0181511}, {0.3028361, -0.0917917, -0.3850931}, {0.0544581, -0.3078392, -0.449699}},{{-0.0594335, -0.0364106, -0.3019409}, {-0.0538032, -0.2433978, 0.0998428}, {-0.3051927, 0.197247, 0.1628595}},{{-0.0428698, -0.1323055, -0.1561668}, {0.1254257, 0.0227393, -0.0857017}, {0.0328438, -0.0890397, -0.0815001}},{{0.032616, -0.0174155, -0.4351207}, {-0.4251671, -0.1145537, -0.1091398}, {-0.2489212, -0.1873232, -0.2580888}},{{0.0098094, 0.1126039, -0.1150306}, {-0.0885621, 0.0896119, -0.1806832}, {0.1301995, 0.0709267, 0.1714346}},{{0.1773681, 0.1269804, 0.2503995}, {0.0229684, 0.1271864, 0.0432737}, {0.0256356, 0.1238828, 0.1672827}},{{0.1588465, -0.2282211, -0.1636945}, {-0.3467393, -0.1776848, -0.267855}, {-0.0426477, -0.0437776, 0.2117368}},{{-0.3025863, -0.1105008, -0.1521392}, {-0.5010398, -0.0726885, 0.1689393}, {-0.0878668, 0.0061464, -0.0200135}},{{-0.1623137, -0.0644885, -0.1132832}, {-0.0803427, -0.0585344, -0.162855}, {-0.0706479, 0.0081385, 0.0363496}},{{0.0004181, -0.1677751, 0.1276935}, {-0.0208434, -0.1186479, -0.1078866}, {0.2326426, -0.149886, -0.3129774}},{{-0.0590228, 0.0181891, -0.0809132}, {-0.0334906, 0.0007347, 0.1088198}, {-0.0411454, -0.0362297, 0.0984562}},{{-0.1478608, 0.0347887, 0.036227}, {-0.1483856, -0.4204268, 0.0330323}, {-0.4387601, 0.0183934, 0.1417202}},{{-0.0375611, 0.0267318, -0.2108079}, {-0.0530727, -0.2405048, -0.1475096}, {-0.0881025, -0.1732752, -0.1209249}},{{-0.0131357, -0.0217946, 0.2107868}, {0.0850632, 0.1440224, 0.0093822}, {-0.1930372, -0.127314, -0.2487631}},{{-0.2285349, 0.1542152, 0.0309281}, {-0.0930816, -0.0052462, 0.1931555}, {0.1458536, 0.1244547, 0.0984155}},{{-0.1271987, -0.0358332, 0.0467068}, {-0.3239665, -0.0190635, -0.2782756}, {0.1443717, -0.0293052, -0.0412993}},{{0.1744669, -0.0880003, -0.0532284}, {-0.0566447, 0.0331279, -0.245005}, {0.1207008, 0.2092952, 0.2396397}},{{-0.1085996, -0.1095965, 0.2784425}, {0.2001726, -0.0436123, 0.2183118}, {0.0596312, -0.3257236, -0.2257867}},{{-0.2804874, -0.1699993, -0.1678364}, {0.0006373, -0.1169116, -0.3518966}, {0.0742528, -0.132523, 0.1322556}},{{-0.2423907, -0.1959604, -0.2995316}, {0.0761869, 0.0603842, 0.1042036}, {0.0634479, 0.0387499, -0.1967846}},{{-0.3587941, -0.0938944, -0.4157531}, {0.0136556, -0.3226073, -0.2068324}, {-0.1216624, 0.122565, -0.0712792}},{{0.0830042, -0.1407761, -0.2629762}, {-0.001018, -0.3058936, -0.3088087}, {0.1346587, 0.084227, -0.0575451}},{{-0.4312205, -0.4153498, -0.0011198}, {-0.2575918, -0.1641333, -0.0752229}, {0.0756146, -0.1719291, -0.0738177}},{{-0.0244472, 0.1466452, -0.0419644}, {0.4039501, 0.1740084, 0.000694}, {-0.095623, -0.4540404, -0.3135006}},{{0.0983037, -0.224307, -0.1600955}, {-0.0492216, 0.0758803, -0.0268585}, {-0.0275022, -0.0677884, -0.1586579}},{{0.0466688, 0.0888407, -0.1912253}, {0.0098787, -0.237627, -0.0246581}, {0.0040942, -0.042061, -0.2128392}},{{0.2434077, -0.1536146, 0.1217142}, {-0.0397361, -0.0844135, -0.0726223}, {-0.0281307, -0.0334277, -0.0135354}},{{0.0232392, -0.1532029, -0.1412918}, {0.0700196, -0.4041963, 0.0281114}, {-0.1373468, -0.1638297, -0.0803261}},{{0.1281253, -0.1040018, 0.0019645}, {-0.1059333, -0.1910032, -0.1858803}, {0.1340268, -0.0636, 0.2476097}},{{0.230607, -0.4308046, 0.1741608}, {-0.3691857, -0.3989176, -0.2427395}, {-0.1972232, -0.0495801, 0.0170543}},{{-0.1154082, -0.0800433, -0.0589482}, {-0.0072333, 0.1241906, 0.0504047}, {0.0452451, 0.1970284, 0.1547616}},{{0.1909681, 0.022198, -0.2849096}, {-0.1393706, -0.1018266, -0.0744478}, {-0.2248161, -0.0860671, 0.2100783}},{{-0.1128446, -0.1364796, -0.0288909}, {-0.0497821, -0.1769125, -0.0579074}, {-0.1930967, -0.1703151, -0.0933888}},{{-0.1129005, -0.2250832, -0.2231261}, {-0.284374, -0.1647881, 0.0271003}, {-0.1184802, -0.0546121, 0.2712999}},{{-0.0842961, 0.0189936, 0.3515779}, {0.1570935, 0.1754591, -0.2850908}, {-0.2958036, -0.0318633, -0.2818023}},{{0.0201587, 0.0499003, -0.0797139}, {0.0577156, -0.0137092, -0.1099967}, {-0.0987614, -0.0108051, 0.0458834}},{{-0.0129205, -0.0004806, -0.0384757}, {-0.0716748, 0.0538334, 0.0033332}, {-0.0143754, -0.0050541, -0.0674085}},{{0.2323957, 0.0575415, -0.0214202}, {-0.0704091, -0.1792077, -0.4151165}, {-0.0806987, -0.3801016, -0.1749104}},{{0.324136, 0.0199815, 0.0189841}, {-0.0611427, -0.3715503, -0.1605652}, {-0.1408708, 0.0608999, -0.080632}},{{-0.1768363, 0.0947414, -0.063655}, {-0.1030492, -0.0445201, 0.2025879}, {-0.0845728, 0.0132477, 0.4277617}},{{0.033738, -0.0814987, 0.034596}, {-0.0388392, -0.0104721, -0.0441687}, {0.1163473, -0.0072153, -0.0242534}},{{-0.1834877, -0.0451537, 0.0705258}, {-0.0107154, 0.0795441, 0.0752018}, {-0.2643775, 0.0984149, 0.0844481}},{{0.1401832, -0.0530624, -0.182855}, {-0.180241, -0.3623804, -0.0299197}, {-0.0155396, 0.0775986, -0.1719985}},{{-0.2311217, -0.2693549, -0.3521121}, {0.1629589, -0.0387713, -0.0175145}, {-0.1218771, 0.1405433, -0.2293825}}}
{{{-0.0621276, -0.1037566, 0.1000657}, {0.0507328, -0.063019, -0.1786102}, {0.1654852, -0.3239232, -0.1569783}},{{-0.0732809, -0.0510771, -0.2868093}, {0.0150102, 0.3197309, -0.3492334}, {-0.0311023, 0.2885506, -0.4952289}},{{0.0238867, -0.3694311, 0.1137603}, {0.1753354, -0.1321536, 0.0986355}, {0.1782531, -0.2031395, -0.1138558}},{{-0.2067327, -0.5042857, 0.1141273}, {-0.2510363, -0.3541378, -0.1202423}, {-0.0477346, -0.3973967, -0.042698}},{{0.1118765, 0.0197386, -0.0871786}, {-0.0338119, -0.0669006, -0.233744}, {0.0841397, -0.0833417, -0.2374816}},{{0.1967037, -0.4972441, 0.0577504}, {0.0553379, -0.1339428, -0.3355833}, {-0.0237895, -0.3354811, 0.0295758}},{{-0.1637413, 0.1813168, -0.0019193}, {-0.015238, -0.1258398, -0.2394272}, {-0.1234424, 0.0131319, -0.2066808}},{{-0.056731, -0.0873269, -0.0777095}, {-0.329841, 0.003063, -0.24406}, {-0.3188347, -0.1508034, -0.3336937}},{{-0.0345828, -0.0838228, -0.2055309}, {-0.0531196, -0.1406814, -0.1969498}, {0.4192912, -0.1526768, 0.0463232}},{{-0.1997477, 0.107408, -0.0158479}, {-0.185642, 0.1170659, 0.1661973}, {-0.2155069, 0.2138374, 0.130156}},{{0.0843091, -0.0263402, -0.158691}, {0.2467666, -0.1302308, -0.104509}, {0.1185854, -0.2623131, -0.25985}},{{-0.0508682, 0.0035903, 0.0655269}, {0.0707782, 0.0067746, 0.0199666}, {0.0729729, -0.0193972, -0.0536163}},{{-0.0792119, -0.098795, -0.0087917}, {0.0969456, -0.1362691, 0.0907306}, {-0.1208507, -0.0852222, 0.0352171}},{{0.0888988, 0.0448063, 0.0992321}, {-0.0006124, -0.0884824, -0.0802782}, {0.2344147, -0.088191, -0.0637739}},{{-0.1084049, -0.1657009, 0.1137971}, {-0.1288618, -0.0496465, -0.2848969}, {-0.0093951, 0.0205493, -0.4368074}},{{-0.3199964, -0.2888055, -0.2600658}, {-0.1300059, -0.3225919, -0.2873442}, {-0.0299415, -0.4912592, -0.2645596}},{{-0.099281, -0.1269122, 0.247067}, {0.0462336, -0.2286365, 0.1311499}, {0.1811774, -0.4076864, 0.0328816}},{{-0.1475169, 0.2178659, 0.0983685}, {-0.2195496, -0.0419832, -0.0347673}, {-0.1133173, -0.3369908, -0.1919861}},{{-0.2547182, 0.167746, -0.0084889}, {-0.3125194, 0.2059368, -0.0103949}, {-0.6144475, 0.0206328, -0.0710881}},{{-0.0248071, -0.0425733, 0.1948387}, {-0.0939804, -0.0304752, 0.0447817}, {-0.0187173, -0.2463034, -0.1309438}},{{-0.3269928, -0.1794485, 0.0563142}, {-0.2968989, -0.1642974, 0.2914593}, {-0.0762133, 0.1023073, -0.0813531}},{{-0.1934209, -0.0030369, 0.0312518}, {-0.0960516, 0.0006155, -0.3080611}, {-0.2564558, 0.0031381, -0.0811478}},{{0.041392, -0.0016257, 0.0384483}, {0.0151028, -0.0858816, -0.0773648}, {-0.0755397, 0.206437, -0.0897115}},{{-0.1638181, 0.2387935, -0.0067225}, {0.0350288, -0.2617106, -0.1080196}, {-0.514443, -0.2484758, -0.1333373}},{{-0.1172083, -0.0281378, -0.0042909}, {-0.1124491, -0.0002434, 0.2379727}, {-0.0543344, -0.2851979, 0.2237416}},{{-0.0615072, 0.1262887, 0.2323322}, {-0.029007, 0.0684731, 0.0490102}, {-0.1996847, 0.1853538, 0.1805768}},{{0.1024316, -0.1231885, 0.1319032}, {0.0884188, -0.2317347, -0.0609228}, {0.0738576, -0.3089159, 0.1836359}},{{-0.0153656, -0.1565625, -0.2132059}, {0.0439151, -0.0057368, -0.2034395}, {0.3716774, 0.2348764, 0.0182921}},{{0.1300155, 0.1008205, -0.340228}, {-0.1823417, -0.1158962, -0.272989}, {0.1048658, -0.1593473, -0.3474944}},{{-0.0393758, -0.6549469, -0.0819743}, {-0.0805179, -0.2291569, 0.1406291}, {-0.2547545, -0.2212494, 0.1485475}},{{0.0031009, 0.0701107, 0.0584659}, {0.0973896, 0.0032847, -0.0038253}, {0.027548, 0.1035499, -0.0176459}},{{0.2346354, 0.0052934, 0.3199561}, {-0.1233151, -0.0673383, -0.074669}, {0.232251, 0.0202836, -0.1452914}},{{0.0748798, 0.1196635, 0.1288476}, {-0.1108612, 0.0121418, 0.00249}, {-0.0625914, 0.1262645, 0.0412707}},{{-0.0471342, 0.1981751, -0.2266567}, {-0.2032708, -0.105159, -0.1250397}, {-0.2759184, -0.1270355, -0.144261}},{{0.1229378, -0.2533674, -0.136743}, {0.3648601, 0.035791, 0.003357}, {0.2265605, 0.0975733, -0.0668339}},{{0.0913635, 0.0085442, -0.3011551}, {0.3227758, -0.0952354, -0.0782994}, {0.0820993, 0.0610448, -0.2822175}},{{-0.0645334, -0.1189797, -0.1072001}, {0.0164684, -0.086687, -0.0233666}, {0.0623923, -0.0526409, 0.2096287}},{{0.2834282, 0.1169675, 0.0586025}, {0.1494441, -0.1588729, 0.2261096}, {0.1103654, -0.2533382, -0.1701439}},{{0.1623077, -0.0228801, 0.172839}, {0.0075837, -0.1908899, -0.1216996}, {-0.0154663, 0.0104077, -0.1499823}},{{0.1612062, -0.0921213, -0.1222223}, {-0.0433085, -0.0004472, -0.0202842}, {-0.0192832, -0.0675544, -0.0119848}},{{0.0300908, -0.0339937, -0.0083151}, {0.2042752, -0.1057594, -0.3026098}, {0.0508386, -0.4110861, -0.1257272}},{{0.0052328, -0.2623655, 0.0503366}, {-0.0602477, 0.0649174, -0.0971168}, {-0.2286097, -0.0390418, -0.0972962}},{{-0.2618841, -0.0527715, -0.1843823}, {-0.1972978, -0.2284208, 0.0985519}, {-0.1289115, -0.0054657, -0.2254772}},{{0.1278098, -0.2151106, -0.1547311}, {-0.2531692, -0.0924331, 0.1395193}, {-0.1562901, -0.0303473, 0.2082258}},{{0.1334672, -0.0299381, 0.1325879}, {0.0179355, -0.3182382, -0.2157102}, {0.1690043, -0.232128, -0.0084166}},{{0.4509383, -0.1259866, 0.122861}, {-0.0726289, 0.1315066, -0.2009061}, {-0.1186943, -0.2822597, -0.1891548}},{{0.0264838, 0.1573999, 0.1609496}, {-0.3268026, -0.2420776, -0.1565315}, {-0.2581806, -0.1383368, 0.0326749}},{{-0.010137, 0.0256641, 0.0946649}, {-0.0928337, -0.1320457, -0.0245175}, {-0.2377667, -0.2656212, -0.1756097}},{{0.0132761, -0.0359261, -0.0922037}, {0.1107449, -0.1929595, -0.1159239}, {-0.0329895, -0.0415684, -0.0496324}},{{0.1661889, -0.124096, 0.0014145}, {-0.0187184, -0.0073341, -0.5370209}, {-0.0444411, 0.3233212, -0.0878133}},{{-0.1340691, 0.2115617, -0.0248868}, {-0.3723792, -0.0110778, 0.014054}, {-0.0751004, -0.1171507, 0.1232256}},{{0.1171017, -0.0657532, -0.3944337}, {0.0890118, 0.031959, -0.1297333}, {0.1428204, -0.1558889, -0.0960493}},{{-0.2529939, -0.0985329, 0.0268771}, {-0.2171886, -0.0284395, -0.1819263}, {-0.0358379, -0.1405469, -0.1436774}},{{-0.3452976, -0.1232971, -0.1255966}, {-0.1123414, -0.2451559, -0.0903172}, {-0.0868197, -0.1327463, -0.1138087}},{{-0.0463493, -0.2896274, 0.0258387}, {-0.0352181, -0.3840664, -0.3176705}, {0.0022082, -0.2767834, -0.0870045}},{{-0.0198028, 0.0383269, 0.0521928}, {-0.0214662, -0.0613881, 0.0749118}, {0.0410342, 0.0219458, 0.0026453}},{{-0.0270073, 0.020013, -0.0092821}, {0.0099947, -0.0133468, 0.0441337}, {-0.0014817, -0.0019598, -0.0486901}},{{-0.1398425, -0.2057474, -0.1893401}, {-0.1910677, -0.3347453, 0.2716001}, {0.039614, -0.3613691, 0.3483057}},{{-0.1326222, -0.2383936, -0.2268067}, {0.0514139, -0.0297623, 0.061784}, {0.0570872, -0.1586551, 0.0112678}},{{-0.2147429, -0.1154637, -0.1053427}, {-0.3102541, -0.2278244, -0.1478993}, {-0.145904, -0.1106322, -0.2606295}},{{-0.059516, 0.0248174, -0.0699914}, {-0.0400804, 0.0282765, 0.1387168}, {0.0179882, -0.1445314, 0.1589162}},{{-0.3104976, -0.0787361, -0.2069846}, {-0.4120686, 0.0145416, -0.2832232}, {-0.2819402, -0.2708846, -0.1371009}},{{0.1793514, -0.1109103, 0.2480057}, {-0.2208248, -0.1346532, -0.4420543}, {-0.0660477, 0.1601758, -0.295289}},{{-0.1322598, 0.0287223, -0.2295122}, {-0.1595056, -0.1152957, -0.0939632}, {-0.1061989, -0.1435576, -0.0063112}}}
{{{0.2292828, -0.0714709, -0.1686063}, {-0.255568, -0.3657278, 0.1467935}, {-0.1456521, -0.0287136, -0.0468999}},{{-0.2908509, -0.0598616, -0.0792456}, {0.1324463, -0.1426947, 0.0841808}, {0.1190577, 0.0755133, -0.0725466}},{{0.1824343, -0.2469206, 0.1428838}, {0.185506, -0.1904633, -0.2885944}, {-0.0360808, -0.0787177, -0.1787096}},{{0.0208741, 0.1463523, -0.2146409}, {0.1666046, -0.0784134, -0.177483}, {-0.1900254, 0.0980375, 0.2236704}},{{-0.2606306, 0.1625592, -0.3739989}, {0.1440308, 0.1426104, -0.1194399}, {-0.1643947, -0.1526666, 0.0764704}},{{0.2580245, 0.095351, -0.3105299}, {0.0937021, -0.1416101, -0.0862468}, {-0.2191923, -0.1371856, -0.2491385}},{{-0.1337443, -0.3829907, -0.1282419}, {-0.0235783, -0.1094604, 0.0883869}, {0.2256495, -0.1137205, 0.0241151}},{{-0.0360202, -0.0790284, -0.395415}, {-0.0255401, 0.1305795, -0.0738374}, {-0.0837436, -0.1927262, -0.1894374}},{{-0.1148408, 0.1748704, 0.1231501}, {-0.1949418, -0.2222478, -0.0059914}, {-0.0799498, -0.0125596, 0.1257878}},{{-0.1400844, 0.1169728, -0.0508054}, {-0.1039809, -0.1142662, -0.379168}, {0.2681483, -0.0874992, -0.0882729}},{{0.265422, -0.4030159, 0.1482398}, {-0.2249316, -0.0025543, 0.1174945}, {-0.5435901, -0.1798487, -0.1470847}},{{0.0138873, -0.0126581, -0.0388542}, {0.0270517, -0.0175402, 0.0140176}, {0.0402272, -0.0741475, 0.0616274}},{{0.0596221, -0.1806038, -0.3133723}, {-0.5508144, -0.2992409, -0.1646728}, {-0.1922174, 0.1437142, -0.0910353}},{{-0.1252639, -0.1508981, -0.1353801}, {-0.1246351, 0.0140958, 0.146561}, {-0.0710386, -0.0681545, -0.0574991}},{{0.0052464, 0.1976285, 0.1073722}, {-0.0373318, 0.1732921, -0.1605883}, {-0.107585, -0.3530382, -0.3066043}},{{0.0181386, 0.0084347, -0.147679}, {0.1834383, 0.0647564, -0.0495161}, {0.1172295, 0.1312379, -0.1464553}},{{0.0074636, -0.3127783, 0.0828462}, {-0.286808, -0.053097, -0.0630313}, {0.1013368, 0.0943766, -0.2577879}},{{-0.0096931, -0.0490716, -0.2416015}, {-0.2310738, -0.1026067, -0.0747441}, {-0.0275189, 0.1507102, 0.0374779}},{{0.0566954, -0.012953, 0.1431518}, {-0.2255668, -0.2310841, -0.1048035}, {-0.277174, -0.0521817, -0.4575261}},{{-0.0855561, -0.2269173, -0.113043}, {-0.044965, -0.2334852, -0.3844739}, {0.1444525, -0.146212, -0.2939576}},{{-0.0730533, -0.3522483, 0.0920096}, {0.1656592, -0.3201877, -0.0712965}, {-0.1037927, -0.3050114, -0.3556159}},{{-0.0104295, 0.0439802, -0.2909711}, {-0.090849, -0.4085259, -0.0986901}, {0.009271, -0.0916464, 0.0371758}},{{0.1173805, 0.0427132, 0.1594173}, {0.0551322, -0.1221073, 0.0416743}, {-0.0644141, 0.0123849, 0.0709648}},{{-0.1205829, 0.2859601, -0.1854292}, {-0.0200577, -0.1524261, -0.1326462}, {-0.0965405, -0.0108777, 0.0315411}},{{-0.1200143, -0.0803256, 0.1114195}, {-0.1498102, -0.2678686, -0.0763474}, {-0.0075031, -0.2453855, 0.1444348}},{{0.060519, 0.0140749, 0.4249516}, {-0.3391592, -0.0912194, -0.1409096}, {0.0205105, 0.1177667, 0.2657018}},{{-0.0559924, 0.0058174, 0.2053968}, {-0.177212, -0.432099, -0.0192063}, {-0.1154341, -0.017096, -0.184062}},{{-0.2152279, 0.1684077, -0.1014847}, {0.3076523, -0.0564276, -0.1184005}, {0.1480073, 0.0581708, 0.2026034}},{{0.0067786, 0.0533167, -0.0387941}, {0.2757793, 0.0507053, -0.0250584}, {-0.2349353, -0.0557226, -0.2479178}},{{-0.0132658, -0.1238008, -0.3152861}, {-0.041354, -0.1343168, 0.1602894}, {-0.4231822, -0.0115495, -0.1177967}},{{-0.099195, 0.1256373, 0.033857}, {0.0440238, 0.0124734, 0.032727}, {0.001042, 0.1084236, 0.0379245}},{{-0.2027799, 0.1788207, -0.0719394}, {-0.3140012, -0.4378707, -0.2958311}, {0.1301813, -0.0205808, 0.292719}},{{0.0386468, -0.1746475, -0.0899813}, {-0.1586503, -0.1048986, -0.0781908}, {-0.040439, 0.1152824, 0.0883945}},{{-0.0979521, -0.3724791, -0.0011946}, {0.1696601, -0.0840042, -0.0094208}, {-0.207269, -0.0678154, 0.0377267}},{{-0.3560646, 0.0476118, 0.1824913}, {-0.1330651, 0.2615874, 0.0266098}, {0.2424949, 0.1691516, 0.1553228}},{{-0.2300962, 0.0447444, 0.1210322}, {-0.2357839, -0.0620596, -0.3059763}, {0.0734162, -0.0574153, 0.0896532}},{{-0.0032339, -0.0891716, 0.1802085}, {-0.3269973, -0.2669724, 0.0348002}, {-0.0630509, -0.2478823, 0.1960686}},{{0.2942673, -0.2834898, -0.1210222}, {-0.1383963, 0.0611327, 0.1522047}, {-0.1844541, 0.1125328, -0.1771922}},{{-0.1582481, -0.0476963, -0.1390772}, {0.073702, -0.1667805, 0.1806632}, {0.1024068, 0.0875383, 0.2147805}},{{-0.3067568, -0.5158892, -0.1831688}, {-0.1155108, -0.0643861, 0.20377}, {-0.0992943, 0.2207086, 0.0460603}},{{-0.4490008, 0.13411, 0.1162892}, {-0.1594867, -0.2381434, -0.1549556}, {-0.4986777, -0.4129516, 0.1140452}},{{0.2609424, -0.056031, 0.1056046}, {-0.2488217, -0.1419609, -0.0171882}, {-0.5259898, -0.2277664, -0.3014256}},{{0.1033503, -0.2512051, 0.1447565}, {0.1876442, 0.2097221, 0.5135558}, {-0.0168118, -0.1023303, 0.1589932}},{{0.0095415, -0.1255481, -0.2757232}, {0.3939761, 0.0874988, -0.1772293}, {0.088384, -0.5340574, -0.3820836}},{{0.1149468, -0.1032649, -0.2695521}, {0.168083, -0.1929147, -0.0004615}, {0.0631765, 0.0003537, 0.2792437}},{{-0.2792908, -0.0746608, 0.057179}, {0.1653892, -0.280847, -0.3224067}, {0.1169125, 0.4286531, 0.1602563}},{{0.1155756, 0.2034452, -0.1173633}, {-0.010685, 0.0094489, -0.0918645}, {-0.1589036, -0.0646942, -0.2379347}},{{0.0494251, -0.0738156, -0.2656584}, {-0.0590191, -0.3696273, -0.1534823}, {-0.1581647, -0.0922652, 0.2052449}},{{0.2158577, 0.1152107, 0.2072471}, {-0.1330871, 0.1157883, -0.0018775}, {-0.2199959, 0.3466903, -0.1711942}},{{0.1729632, 0.0642295, 0.2033523}, {-0.3203883, -0.2960341, 0.1179911}, {-0.0357954, -0.0156591, -0.1333514}},{{-0.0858258, -0.0715546, -0.1694162}, {0.0332569, -0.4061199, -0.0374537}, {0.3034434, 0.2005645, -0.3141417}},{{0.0876176, -0.0572024, -0.2588778}, {-0.1127032, -0.0326699, -0.2736022}, {-0.058862, -0.258817, 0.119291}},{{-0.03182, 0.0859672, -0.022955}, {-0.1637604, -0.1583744, 0.0601065}, {-0.0777242, 0.1096626, 0.0416678}},{{-0.1869777, -0.172702, -0.4178841}, {-0.2273447, -0.1017389, -0.1837542}, {0.1402908, 0.3540823, -0.336815}},{{-0.1735137, -0.1629523, -0.3044039}, {0.241926, 0.2224239, 0.1842687}, {-0.3634528, 0.2553559, -0.1882775}},{{0.13857, 0.0473156, -0.0006199}, {0.0796703, -0.0325318, 0.0445457}, {-0.0211915, -0.0298868, -0.0318126}},{{0.0225609, -0.0162421, 0.0199323}, {-0.0298349, -0.0010646, -0.0162694}, {-0.0290129, -0.0690067, 0.033441}},{{0.128432, -0.1439124, -0.2810938}, {-0.1660713, -0.3337193, 0.0749422}, {0.0557688, 0.0521125, 0.1300381}},{{-0.1076162, 0.046427, 0.2097882}, {-0.035314, 0.2190548, -0.1730996}, {-0.065963, -0.1219647, -0.1299126}},{{-0.0936035, 0.0218236, -0.2244364}, {-0.286107, 0.0207938, 0.0043787}, {-0.0648174, -0.0233465, 0.0066196}},{{-0.1528216, -0.0304236, 0.0098963}, {-0.0450768, 0.107581, -0.0296712}, {0.0704219, 0.0236772, -0.1714306}},{{-0.2225328, -0.0555828, -0.2571623}, {-0.1070787, -0.3777195, 0.0563456}, {0.0955061, -0.0556801, -0.1654966}},{{0.0130248, -0.0187394, -0.048252}, {-0.1675679, -0.6595438, -0.1175897}, {-0.1699768, -0.133285, -0.0554902}},{{0.0215991, -0.3300864, -0.2942662}, {-0.3434824, -0.0543996, -0.2108695}, {-0.0657402, -0.180552, 0.2109238}}}
{{{-0.280797, 0.1978071, 0.0024758}, {-0.30608, 0.0055939, 0.078523}, {-0.2615101, -0.2788031, -0.2224629}},{{-0.1062765, -0.1461138, 0.0198983}, {-0.0889466, -0.2090047, 0.2905947}, {-0.0902751, 0.0456733, 0.1767837}},{{0.0787931, 0.1096339, -0.3278777}, {-0.1469789, 0.0221807, -0.2157052}, {-0.1870866, -0.2863818, -0.259019}},{{-0.2462499, -0.1896833, -0.3134265}, {-0.4007954, -0.02702, -0.1131331}, {-0.4172724, -0.2940384, -0.3226018}},{{-0.0185593, -0.1964977, -0.1270973}, {-0.2535136, 0.0756357, -0.0084013}, {-0.2380433, -0.3044072, 0.0958857}},{{-0.1441446, -0.1483146, -0.1290485}, {0.0097274, -0.1126262, -0.2586745}, {-0.0946799, -0.2102896, -0.2308304}},{{-0.2311386, 0.1826826, -0.0542359}, {-0.1371434, -0.113628, -0.0295164}, {-0.0589843, -0.1504143, 0.1134049}},{{0.0156779, -0.3355509, -0.1867649}, {0.1977009, 0.0233196, -0.0257938}, {-0.1720386, -0.1995437, 0.0530686}},{{-0.1317797, -0.0553268, -0.0822645}, {-0.0514635, 0.0738393, 0.1402612}, {-0.0219567, -0.1846983, -0.1038526}},{{0.0061736, -0.4862306, -0.1255848}, {-0.0183107, -0.1753007, -0.0662904}, {0.1812752, -0.1515406, 0.0597964}},{{0.079439, 0.3824149, 0.1596369}, {-0.1937448, -0.0996774, -0.1867128}, {-0.1938431, -0.1315893, -0.3326415}},{{-0.0169334, -0.0299018, -0.0139103}, {-0.0753642, -0.0204437, -0.0410571}, {-0.03567, 0.0333749, 0.0246012}},{{-0.402729, -0.1774377, -0.0114718}, {-0.1945131, -0.3735203, -0.2135962}, {-0.6476013, -0.123679, -0.1141445}},{{0.0764066, 0.02266, -0.0381388}, {0.0252713, -0.1368799, 0.1312118}, {0.1323214, 0.0703658, 0.0607454}},{{0.1662615, 0.0313317, -0.4320422}, {-0.314835, -0.1568618, -0.0583997}, {-0.0529086, -0.2172638, -0.1634887}},{{-0.2294067, -0.0443441, -0.1548264}, {-0.2507735, -0.452594, -0.1288709}, {0.0669905, -0.4100877, 0.0892896}},{{0.1089326, 0.2481933, -0.1691914}, {0.0871151, -0.0327344, -0.4541745}, {0.256938, -0.0022983, -0.196531}},{{0.237064, -0.0045686, 0.1469362}, {-0.0527568, 0.0017587, -0.0502032}, {-0.2594173, -0.1189861, -0.0005516}},{{0.0437258, 0.0663595, 0.1384219}, {-0.0991967, -0.2817878, 0.3623529}, {0.0567412, -0.2188874, 0.1264058}},{{-0.0211574, -0.2954282, 0.2862841}, {-0.1875402, 0.0672831, 0.2756194}, {-0.0820113, 0.1320262, 0.0610835}},{{-0.0530162, -0.3034449, -0.1391897}, {-0.2547891, -0.105335, -0.0258412}, {-0.0341339, 0.033982, 0.0953572}},{{-0.2624946, 0.1081801, -0.0775903}, {-0.1750838, 0.0652662, -0.2961012}, {0.2145159, 0.0635543, -0.2028682}},{{0.1992808, 0.2417774, 0.0805952}, {0.2070261, 0.0278124, 0.1659874}, {0.1342244, 0.0431801, 0.1102755}},{{-0.351798, 0.0617872, -0.1591295}, {-0.1919897, 0.104583, -0.2108658}, {0.0610514, 0.1252304, -0.0397843}},{{-0.134321, -0.0676276, 0.3673576}, {-0.0664916, -0.1512113, 0.2045161}, {0.1400371, 0.1900947, -0.0279972}},{{0.0328427, 0.0260797, -0.2738513}, {-0.1586661, -0.445359, 0.0733468}, {-0.3215415, -0.1505805, 0.1583083}},{{-0.1009343, 0.1006432, 0.0520342}, {-0.0837027, -0.0838071, -0.0616943}, {0.114078, -0.1898375, -0.0040961}},{{-0.1667715, -0.1561695, -0.426468}, {-0.1934854, 0.2354916, -0.0556744}, {-0.341157, 0.0020155, 0.1814335}},{{0.0762512, 0.1611058, 0.0664372}, {-0.0715782, -0.0589839, -0.182464}, {-0.300625, -0.1246929, -0.1328126}},{{0.1659442, -0.2730823, 0.1532436}, {-0.1165963, -0.4775561, -0.0529029}, {0.1477889, 0.0894475, -0.0619011}},{{-0.0676686, -0.034056, 0.0628786}, {0.0661036, 0.0287919, 0.0824255}, {-0.0016024, 0.0965815, -0.0106249}},{{-0.3232821, -0.0085717, -0.0108588}, {0.0928046, -0.3793382, -0.2047891}, {-0.0009749, -0.0981761, -0.2664745}},{{0.0419707, -0.0835806, 0.0117502}, {-0.0506671, 0.108991, -0.0016326}, {0.0133466, -0.0757593, -0.1748163}},{{0.0708672, 0.0165664, -0.2947203}, {-0.1060746, -0.3403469, -0.4565825}, {-0.3600975, -0.3449658, 0.0684292}},{{0.1507188, -0.0836918, -0.1586922}, {0.0267326, 0.1713659, -0.2280037}, {0.0421397, 0.1892144, 0.0772211}},{{-0.0752401, 0.0372042, 0.1012993}, {-0.2460456, -0.1720939, -0.1528403}, {-0.1296884, -0.0702688, 0.0715339}},{{0.0891885, 0.0136506, 0.1513635}, {-0.3694495, 0.2756793, 0.1634225}, {0.0790674, 0.063434, 0.0062139}},{{-9.96e-05, 0.4185104, -0.1406916}, {-0.0075761, 0.0585941, -0.2148231}, {-0.509047, 0.0158132, -0.3432215}},{{0.3387852, -0.1345359, 0.1156974}, {0.1693924, -0.5477291, -0.2253999}, {-0.1335084, -0.1211528, -0.0783828}},{{-0.2074375, -0.3140708, -0.2622277}, {-0.052095, -0.0450883, -0.2012156}, {-0.2139692, 0.2369163, 0.0753824}},{{-0.1415202, 0.0250119, 0.1739196}, {-0.2856153, 0.1976801, 0.1562413}, {-0.2816246, 0.0031697, -0.1926953}},{{-0.2503441, 0.2735356, 0.1852174}, {-0.2491832, -0.0614011, -0.1371819}, {-0.1560506, -0.1525287, -0.2559789}},{{-0.0156762, -0.4613158, -0.0350542}, {0.1063287, -0.231137, -0.0649943}, {0.1710367, -0.4557375, -0.0881454}},{{-0.1102637, -0.2725314, 0.2459371}, {0.0067296, -0.0980425, -0.2575901}, {-0.0984755, 0.1287023, 0.1071965}},{{-0.1404613, 0.2199253, -0.3087358}, {-0.3169321, -0.2398304, -0.2884253}, {0.0531335, -0.0334887, -0.0076945}},{{0.0356352, -0.1616782, 0.1846206}, {-0.0362359, 0.0675609, -0.2640015}, {-0.2094992, -0.3890999, -0.0647352}},{{0.1932191, -0.2778436, -0.0427506}, {-0.2296499, 0.0130865, 0.3412551}, {-0.0549234, -0.3732098, 0.128703}},{{0.0143901, 0.335739, 0.0227831}, {0.0922868, 0.1864429, -0.2337031}, {0.0855524, -0.0117869, -0.1221555}},{{0.0762131, -0.0569849, -0.1133401}, {0.0736616, -0.1227186, -0.0123867}, {-0.1718527, 0.0220463, -0.1112474}},{{-0.3132219, 0.1333164, 0.0801608}, {-0.4488625, 0.119412, 0.0332722}, {-0.1053751, 0.0271031, -0.0940936}},{{0.13392, 0.2546759, -0.1851081}, {-0.1050489, -0.3350981, -0.1051176}, {0.0520047, -0.4530239, 0.2934196}},{{-0.0946656, 0.0691695, 0.2949741}, {-0.2380648, 0.2464953, -0.2116902}, {0.025516, 0.2980358, -0.3150671}},{{0.0227584, -0.1160001, 0.1685379}, {-0.2269286, -0.0060633, -0.0791023}, {-0.2465083, -0.0251345, -0.194078}},{{-0.2334629, -0.2925475, -0.2605035}, {-0.0889146, -0.4009751, -0.2479088}, {0.3186812, -0.1672064, 0.0924758}},{{0.0637401, -0.0622934, -0.2589822}, {-0.3806745, -0.0788714, -0.2300091}, {-0.4302915, 0.0165563, -0.2523237}},{{0.0693595, -0.0290147, 0.0326681}, {0.0022279, -0.0231897, 0.0498625}, {0.0477476, 0.0235006, -0.0189337}},{{0.0534409, 0.0054118, -0.0445048}, {-0.0358559, 0.0660653, -0.0203907}, {0.0526314, -0.0034756, -0.0335164}},{{-0.4070891, -0.194466, -0.3980169}, {-0.094243, 0.0203035, -0.4351754}, {-0.1284673, 0.412372, -0.1215076}},{{-0.1116275, -0.0150716, -0.163947}, {-0.0788835, -0.1280658, -0.0778799}, {-0.1200123, -0.2065295, -0.204092}},{{0.0086529, -0.0293902, 0.0686372}, {-0.0969505, -0.1615092, -0.382105}, {-0.1759155, -0.1856886, -0.1096081}},{{-0.0148288, 0.0724119, -0.1116701}, {-0.0398269, 0.0056797, 0.134085}, {0.0235487, -0.0033262, 0.0921171}},{{-0.163738, -0.4627662, -0.3978023}, {0.1926667, 0.0370714, -0.2320616}, {-0.0679868, -0.267606, 0.0350701}},{{0.1144168, 0.1728289, 0.1096183}, {-0.1467059, -0.2921901, -0.2056176}, {-0.1512579, -0.0061704, -0.1503358}},{{-0.1561424, -0.4300026, 0.0383346}, {0.0585644, -0.1223909, -0.3124878}, {-0.047042, 0.0207676, -0.0378707}}}
{{{-0.1021848, -0.0843937, -0.0068017}, {-0.1426432, -0.0520646, -0.1150931}, {-0.0667133, -0.0161782, -0.0740219}},{{0.0630695, 0.0805422, -0.0135474}, {-0.0559261, -0.0047566, -0.043593}, {-0.0938793, -0.0102254, 0.0793126}},{{-0.077051, -0.0529095, -0.1360681}, {-0.1059639, -0.1878785, 0.0256683}, {-0.0922025, -0.0985954, -0.0354906}},{{-0.0758234, -0.0603552, -0.0406577}, {-0.104686, -0.1046118, -0.0228103}, {-0.0866912, -0.0125261, -0.0755657}},{{-0.0041939, 0.032452, -0.003925}, {-0.1410838, -0.1454859, -0.0656161}, {-0.0120639, -0.0521187, -0.0607723}},{{0.0058008, 0.0054397, 0.0781218}, {0.00337, -0.1346497, -0.0382581}, {-0.0023655, -0.133325, -0.0707229}},{{0.0488272, 0.0201085, -0.0699146}, {0.0117092, 0.0338751, 0.0036462}, {-0.0687669, -0.074753, 0.0404077}},{{-0.011636, 0.050933, -0.0518523}, {-0.0946024, -0.0443673, -0.0956206}, {-0.0233827, -0.0698836, 0.0336639}},{{0.034345, -0.0792434, 0.0411208}, {-0.0742054, -0.010981, -0.0434366}, {-0.0042172, -0.0860168, 0.0100315}},{{-0.0138369, -0.0254749, -0.0031331}, {-0.0345691, -0.0844146, 0.0592795}, {0.1066868, -0.0669253, 0.0637425}},{{-0.0986322, -0.0975546, -0.0004387}, {-0.0965327, -0.0452335, -0.090602}, {-0.0819813, -0.074813, -0.151553}},{{0.0078803, 0.0376386, 0.0785005}, {0.0747674, 0.0411681, -0.0447556}, {0.0389194, -0.0141179, 0.0631231}},{{-0.1413011, -0.0917116, 0.0533966}, {-0.0842809, 0.0137989, -0.0514797}, {0.0603701, -0.0437389, -0.0683943}},{{-0.0819536, -0.0819004, -0.0031586}, {0.0211923, 0.0362437, -0.0640698}, {-0.0166591, -0.0322352, -0.0300982}},{{-0.1057992, -0.1443637, -0.0331613}, {-0.1574237, -0.0695189, -0.0972201}, {-0.0607541, -0.0783757, -0.035637}},{{-0.0372294, -0.079882, -0.0747855}, {0.0606004, -0.007646, -0.0399841}, {0.0927276, -0.0907583, -0.0315074}},{{-0.0582969, 0.0189079, -0.096101}, {-0.0491448, -0.0549284, -0.0377578}, {-0.0732578, -0.1055273, -0.0873599}},{{0.0386584, -0.1136273, -0.0121706}, {0.058181, -0.1644321, -0.0365628}, {-0.0704324, -0.0816459, -0.0981287}},{{-0.0430777, -0.1703655, -0.070797}, {-0.1364514, -0.0590045, -0.0519274}, {-0.1114026, 0.0493369, -0.1096196}},{{0.0349382, -0.0158029, -0.0550215}, {-0.0005314, 0.0022455, -0.055721}, {-0.1114346, -0.0207146, -0.0377258}},{{-0.1481503, -0.0623677, -0.1261621}, {-0.1627578, -0.1727603, -0.1705309}, {-0.0914199, -0.0859005, -0.1192896}},{{-0.0383315, -0.069273, 0.0513385}, {-0.1125158, -0.1791429, 0.0051342}, {-0.0805205, -0.0892372, -0.01165}},{{-0.0251361, 0.0134061, -0.0495886}, {-0.0575827, 0.0376106, -0.0572701}, {-0.079501, 0.0282219, 0.0411929}},{{0.0071478, -0.0572569, -0.0512327}, {-0.0443931, -0.1286855, 0.0158769}, {0.1272453, 0.0141174, 0.0078229}},{{-0.0625396, -0.0283568, -0.0268089}, {-0.0438968, 0.0066494, -0.0282134}, {-0.0045119, 0.0600266, -0.0504595}},{{0.0228252, 0.0336416, -0.0357712}, {-0.1151114, 0.0361471, -0.0932602}, {0.0236055, -0.0614441, -0.0870307}},{{-0.0351359, -0.0549729, -0.1212746}, {0.0425491, 0.016023, -0.0563209}, {0.036888, -0.0296135, -0.102199}},{{-0.0294058, -0.0665038, -0.0612661}, {-0.1005328, -0.0228387, -0.0501343}, {-0.0105322, -0.0262864, -0.0422752}},{{-0.0517217, -0.0196163, 0.0301223}, {0.0180368, -0.1710425, 0.0469184}, {-0.1169505, -0.0252784, 0.0218798}},{{0.0091777, 0.1124513, -0.1653831}, {-0.0514356, 0.0563731, -0.0224753}, {-0.0006372, -0.093353, -0.068202}},{{0.0337031, 0.034677, -0.0190276}, {-0.015831, -0.0099757, -0.0150204}, {0.0236471, 0.0422727, -0.0413793}},{{-0.0004922, -0.0516951, 0.0567644}, {-0.0039293, -0.0437837, 0.0563788}, {-0.0110044, -0.0548602, 0.0155914}},{{0.0820897, 0.0289993, -0.0088579}, {-0.0172846, -0.0114209, 0.04007}, {-0.0337227, 0.0152462, -0.0962894}},{{-0.1410974, 0.0040173, -0.1008364}, {-0.1449908, -0.1256689, -0.1203983}, {-0.0056195, -0.0922917, -0.0996679}},{{-0.019117, -0.0722906, 0.021851}, {-0.0278498, 0.0298825, 0.0104265}, {-0.0045169, 9.33e-05, 0.0093467}},{{-0.0489016, 0.0688492, 0.1228029}, {-0.0761499, 0.0019802, -0.0667858}, {-0.034198, -0.060704, 0.0046594}},{{0.0209174, 0.0206467, -0.1381107}, {0.0881674, -0.0031314, -0.0598482}, {-0.1147506, -0.0851541, -0.068391}},{{-0.0106165, -0.0599664, 0.0435685}, {-0.0370928, -0.0566812, -0.174263}, {-0.0627589, -0.1504505, -0.0270218}},{{0.0560676, 0.1394056, 0.0387065}, {-0.0587736, 0.0188905, -0.0566854}, {-0.076639, 0.0486193, 0.0302005}},{{0.0148108, -0.028364, -0.1213659}, {-0.1473493, -0.0947061, -0.0449255}, {-0.1230957, -0.1005736, -0.0449935}},{{-0.0831818, 0.0692052, -0.0729428}, {-0.054572, -0.0890684, 0.0023636}, {-0.2302563, 0.053141, -0.0263562}},{{-0.0317032, -0.0503398, -0.1200834}, {-0.0817585, -0.1209483, -0.0246902}, {-0.1019382, -0.0843652, -0.1238184}},{{0.0093097, -0.0253862, -0.0050137}, {0.0468846, 0.0189786, 0.0092625}, {-0.0726351, -0.0323471, -0.0465467}},{{0.035698, -0.044982, 0.017422}, {-0.0704937, -0.0060575, -0.0631387}, {-0.067938, -0.064951, -0.0200169}},{{0.042592, -0.0071783, 0.017384}, {-0.0724928, 0.022276, 0.1011098}, {-0.0168777, -0.0356871, -0.0110272}},{{0.009285, 0.0574723, 0.0737506}, {0.0427459, 0.1094785, -0.0974485}, {-0.0237325, -0.0305695, 0.0212622}},{{-0.0046293, 0.0324854, -0.0590691}, {-0.0778826, -0.1280174, -0.090976}, {0.0751785, -0.1333163, -0.0828167}},{{-0.1355627, 0.0418793, 0.0334006}, {-0.001866, 0.0824151, -0.0461028}, {-0.0836589, -0.0245212, -0.092507}},{{0.0831222, -0.0805179, -0.0332831}, {-0.0502126, 0.0073828, -0.0352099}, {0.011932, 0.0309023, 0.0313319}},{{-0.1563729, -0.0776857, -0.1138593}, {0.0061112, -0.0689322, -0.089992}, {0.0273307, -0.0706082, -0.031345}},{{0.0669782, -0.1349232, -0.0546797}, {0.010019, -0.1195931, -0.0670144}, {-0.0401472, -0.1296753, -0.2174193}},{{0.0716418, -0.1247223, -0.04011}, {0.0732332, -0.0414418, -0.0373398}, {-0.0911593, -0.0136519, -0.0401038}},{{-0.0084763, 0.0433788, 0.0502608}, {-0.0346635, -0.039198, -0.0126152}, {0.0531549, 0.0153568, -0.0523774}},{{-0.0095287, 0.0233952, 0.0147512}, {-0.104655, -0.1414763, -0.1580788}, {0.0050969, -0.0654274, -0.0500471}},{{0.0851088, -0.0230808, -0.0830162}, {-0.0225099, -0.0463112, 0.0041924}, {-0.0060243, -0.0601972, -0.1015905}},{{0.0566671, -0.0558984, -0.0957562}, {0.0429167, 0.0323438, -0.0701133}, {0.0746359, 0.0109506, -0.0637942}},{{0.0148163, 0.0180014, -0.0350962}, {-0.0192513, 0.0632031, -0.0186019}, {0.0077888, 0.005922, -0.0468413}},{{-0.0420799, 0.0340602, -0.150817}, {0.0161822, 0.0116233, -0.0772029}, {-0.1274402, -0.057392, -0.0018094}},{{-0.0384401, 0.0240387, -0.0327049}, {0.0606569, -0.0494571, -0.0294339}, {0.0303264, 0.0401608, -0.0919854}},{{-0.020193, 0.0096659, -0.064436}, {-0.0376683, -0.0372695, -0.064828}, {-0.0491216, 0.0319148, 0.0296959}},{{-0.037561, 0.0200622, -0.038637}, {-0.0006622, -0.0774779, -0.0342779}, {-0.0113454, 0.0007492, -0.0015779}},{{0.0700578, -0.0669314, 0.0243775}, {-0.0642869, -0.028129, -0.1276169}, {-0.1834853, 0.014168, -0.0189201}},{{0.0805391, 0.060342, -0.0428831}, {-0.123457, -0.0002938, -0.0237723}, {-0.1340204, -0.0498886, -0.1030904}},{{0.0836471, 0.035259, 0.0018303}, {-0.0566324, -0.0187746, -0.1192402}, {-0.145533, -0.0669847, -0.0166388}}}
{{{-0.076201, -0.0790302, 0.1159434}, {0.0510336, -0.1169755, 0.0292249}, {-0.2187228, 0.0040526, -0.0231016}},{{0.0124049, 0.1638271, -0.0164026}, {-0.2605908, 0.0364515, -0.2006356}, {-0.2126989, 0.0134617, 0.0137447}},{{-0.2109699, -0.0122783, 0.1005693}, {-0.0311883, 0.1097293, -0.0004291}, {-0.44234, -0.2104294, -0.2396921}},{{-0.2824168, -0.1549352, 0.1290365}, {-0.189091, -0.2161694, -0.1431404}, {-0.1647684, -0.063884, -0.10913}},{{-0.0280593, -0.2735561, -0.523442}, {-0.2761765, -0.2634549, -0.1361158}, {0.0183928, 0.1349295, -0.1868761}},{{-0.3340049, 0.0831804, 0.1306627}, {-0.5876876, -0.1967344, 0.2040176}, {0.0657429, 0.1200672, 0.1150935}},{{-0.0194637, 0.0271737, 0.0026887}, {0.050305, -0.0239195, 0.1234255}, {-0.072607, 0.2518625, 0.0600574}},{{0.1964895, -0.2548434, 0.0239802}, {-0.2474813, -0.02852, 0.0226265}, {0.1705447, 0.0351135, -0.131887}},{{0.1694503, -0.0054757, -0.1741149}, {-0.1088871, -0.4867037, 0.0136307}, {-0.2859917, -0.1964459, -0.1441358}},{{-0.1341932, 0.1663726, 0.0069589}, {0.1141242, -0.2897565, -0.0157489}, {-0.0520205, -0.2660852, 0.1583943}},{{-0.5002423, 0.0587137, 0.1949642}, {-0.1327404, 0.0211224, 0.0897584}, {-0.1751748, -0.0269147, -0.0679307}},{{-0.0564558, -0.0380386, 0.0147836}, {-0.0758048, -0.052713, 0.0487428}, {-0.0282703, 0.0327588, -0.0748879}},{{-0.2249148, -0.1748476, -0.2293539}, {-0.2453931, 0.0571651, 0.3189701}, {-0.2737769, 0.0062773, 0.111441}},{{-0.0956918, 0.0092294, 0.0481603}, {0.0220628, 0.0075278, -0.0418202}, {-0.064538, 0.1616531, 0.0220414}},{{0.0639293, -0.1256508, 0.1132291}, {0.3046507, -0.1252078, -0.1863871}, {0.0393189, -0.3183077, 0.1102937}},{{0.0369092, 0.0565402, -0.3022599}, {0.1731325, -0.3836696, 0.1930177}, {-0.0349382, -0.0148203, 0.0641875}},{{-0.0107948, 0.064284, -0.0708733}, {0.0163492, -0.10249, -0.0318017}, {-0.1409994, -0.3389193, -0.0417393}},{{-0.1440333, 0.1591066, -0.0706665}, {-0.2441881, -0.0474606, 0.1997957}, {-0.2352429, 0.0548842, -0.1098456}},{{-0.2310498, 0.0482071, -0.0869078}, {-0.1047534, 0.0176441, -0.1512087}, {0.14513, 0.0242213, 0.1303094}},{{0.0739748, 0.1581125, 0.241268}, {-0.0405158, -0.001351, 0.2882702}, {-0.4200301, 0.0481846, 0.1047656}},{{-0.0089791, -0.2420578, -0.1463818}, {0.1646923, 0.2493034, -0.0378064}, {-0.247079, -0.0959456, -0.159167}},{{-0.0336832, -0.0645704, -0.1372108}, {-0.1567109, -0.0833328, -0.1041685}, {-0.1150414, 0.0177089, -0.1113496}},{{-0.1429647, 0.1014417, 0.1807471}, {0.0747606, -0.0038524, -0.1224196}, {0.0363052, 0.0568933, -0.0750686}},{{-0.040485, -0.2635705, -0.2341925}, {0.0648908, -0.221608, -0.2265763}, {-0.3144296, 0.2979759, -0.3415695}},{{0.1460987, 0.1751872, 0.1183435}, {0.0244032, -0.1989339, 0.0402143}, {-0.2005707, 0.0330294, 0.0724821}},{{0.2609296, 0.0114113, 0.1803133}, {0.0095299, -0.2189759, -0.2828857}, {-0.2016147, 0.244505, 0.2563874}},{{0.0954672, 0.1521909, -0.0216392}, {-0.108389, 0.040044, -0.2771264}, {-0.2161134, -0.3756439, 0.0551246}},{{-0.0362844, -0.124924, -0.3904361}, {0.1528013, -0.1213019, -0.1548923}, {-0.0341163, 0.0780061, 0.0041567}},{{0.170798, -0.2294354, 0.0377845}, {-0.3969841, -0.325501, -0.1700436}, {0.0456997, -0.2227408, 0.1156558}},{{0.1380591, -0.1288658, -0.1946104}, {-0.1006713, 0.0082071, -0.0158826}, {0.2072875, -0.0796948, -0.1923964}},{{0.0814173, -0.0657936, -0.0962871}, {-0.0187753, 0.0239197, -0.0827665}, {-0.1417922, 0.0354947, -0.1012549}},{{0.0227922, 0.1245296, -0.0104865}, {-0.2314314, 0.0085895, -0.4567907}, {-0.1277755, -0.0317409, 0.0695386}},{{-0.044757, -0.0290413, -0.0291212}, {-0.0693266, -0.0744697, -0.1098899}, {-0.2056564, 0.0148424, 0.1276651}},{{0.0894815, -0.0745266, -0.14186}, {-0.0652149, 0.2968854, 0.1854201}, {0.0389346, 0.0172434, -0.2030135}},{{0.0968251, -0.0143333, -0.178585}, {0.2612462, -0.0095985, -0.0201733}, {0.0756192, -0.0531906, 0.2028971}},{{-0.0455877, -0.0031733, 0.1183233}, {-0.1561725, -0.0749211, -0.0831748}, {-0.0488768, -0.056151, 0.1515824}},{{0.1291523, -0.0341094, 0.1609096}, {-0.0173948, -0.1445464, -0.2838991}, {-0.1570483, -0.141949, -0.1744341}},{{-0.252156, 0.0158982, -0.1762415}, {-0.2088187, 0.0013838, 0.0644813}, {0.2370291, 0.1509739, -0.0278189}},{{-0.2930977, -0.1461804, 0.0308388}, {-0.0404179, 0.0950187, -0.1250112}, {0.0496398, -0.1160883, 0.0855886}},{{-0.4619427, -0.3004816, -0.1229236}, {-0.2976877, 0.0252481, -0.0720414}, {0.2935735, -0.2106302, 0.0016881}},{{0.188145, -0.06627, -0.0348704}, {-0.0210782, -0.333928, -0.0634075}, {-0.2152755, 0.0488432, 0.0038126}},{{-0.1322889, 0.2852776, 0.1171757}, {-0.1434334, 0.0668755, -0.1868467}, {-0.0463832, -0.3689736, -0.2823411}},{{-0.4212658, -0.3351567, -0.0178046}, {-0.0869388, -0.3852584, 0.0665012}, {-0.3300017, -0.0324971, 0.2919697}},{{-0.1039008, -0.2574441, -0.1649947}, {0.0176957, 0.0722184, 0.1978569}, {-0.0731132, 0.1080529, -0.4050727}},{{-0.107819, -0.2185855, -0.2249781}, {-0.2567534, -0.0510682, -0.4181587}, {0.1847061, 0.2525147, -0.2140215}},{{-0.0083995, 0.0315672, -0.4058555}, {-0.0657777, 0.0007951, -0.3445943}, {-0.1026013, 0.0055691, 0.3078675}},{{-0.1137372, 0.2163299, -0.0673502}, {0.1260694, -0.1375697, 0.1755607}, {-0.3924282, -0.2741194, -0.2925799}},{{0.0971079, 0.0388816, -0.0419513}, {-0.0759817, 0.0553706, -0.1003462}, {-0.2733187, -0.1182836, -0.1350967}},{{0.0181055, 0.1107466, 0.169879}, {-0.2033138, -0.3768165, -0.2191145}, {-0.4008536, -0.2685499, -0.1465871}},{{-0.1379807, 0.2425382, 0.0382754}, {-0.1261833, -0.1137838, -0.1602135}, {-0.0468228, -0.1804342, 0.0053105}},{{-0.2232849, -0.1135754, -0.0840684}, {-0.0506401, -0.2809763, -0.0382957}, {-0.1527119, 0.2218375, 0.1569963}},{{-0.0236643, 0.0401196, -0.0264166}, {0.2304365, -0.1284443, 0.1130311}, {-0.1424667, 0.2531956, -0.1796841}},{{-0.0337699, 0.0270145, -0.103221}, {-0.0817484, -0.0529956, 0.041025}, {-0.1062729, 0.0370855, 0.009931}},{{-0.1104073, -0.004218, -0.427755}, {-0.400981, -0.4054672, -0.063887}, {-0.3363703, 0.1575124, 0.1630887}},{{-0.1344775, -0.1290864, 0.1137955}, {0.2193069, 0.1071073, 0.067559}, {-0.1719724, 0.161381, -0.2761103}},{{-0.0939365, 0.1002276, -0.0363358}, {0.0658565, 0.0204544, -0.0676969}, {0.0868691, -0.0478515, -0.0794895}},{{0.0033242, 0.0051017, 0.0058129}, {-0.0491721, 0.0205752, 0.0541613}, {0.0419648, 0.0426478, 0.0394551}},{{0.0712848, -0.3489391, 0.3370059}, {-0.2398835, 0.0197284, -0.2384952}, {-0.1089156, 0.0359314, -0.2507249}},{{-0.0167764, -0.0603294, 0.1721711}, {0.0797803, 0.0435381, -0.1584523}, {-0.3250577, -0.3754187, -0.1264773}},{{-0.1397039, -0.2558402, 0.2450032}, {0.0148886, -0.4047657, 0.0238352}, {0.2261536, -0.1725692, 0.1173192}},{{-0.1414376, -0.1954302, 0.0867175}, {-0.1399434, -0.0387759, -0.00234}, {0.0676029, -0.009213, -0.0632253}},{{-0.1271848, -0.2640271, -0.1054911}, {0.0190066, -0.2401179, 0.0463503}, {0.1838414, 0.1018476, -0.0393771}},{{-0.1242645, 0.186608, -0.0219082}, {-0.2349702, -0.3328716, -0.2090652}, {-0.3296767, 0.043023, 0.1240124}},{{0.0290901, -0.1209083, -0.2689378}, {-0.3147139, -0.3512621, 0.1701547}, {0.0226913, 0.0972417, 0.0013459}}}
{{{0.0689005, -0.1452343, 0.1029301}, {0.1068148, -0.1452929, 0.2001372}, {-0.0361703, -0.1361517, 0.0373313}},{{-0.156606, 0.0651223, -0.0299154}, {0.0554249, 0.0950973, -0.0896779}, {-0.0350558, 0.1802732, 0.2912095}},{{-0.1843147, -0.0724021, -0.0467397}, {0.0251249, -0.1360153, -0.2799928}, {0.2091907, -0.0675135, -0.1935314}},{{0.0562809, -0.2270525, 0.0109085}, {0.0416625, 0.0157436, 0.1271827}, {-0.1112354, 0.1270194, -0.058578}},{{-0.2090055, 0.0172082, -0.1191884}, {-0.2619471, -0.2893102, -0.0529101}, {-0.4271415, 0.024654, -0.2424112}},{{-0.0642661, -0.1952402, -0.125241}, {-0.2194061, -0.0454726, 0.2100812}, {0.0474536, 0.2535222, -0.0103384}},{{0.0155554, -0.013274, -0.2370405}, {-0.2521792, -0.1500777, -0.1102003}, {0.0722985, 0.0611321, -0.1415112}},{{0.0582004, 0.1661167, -0.1382217}, {0.0229476, 0.0896273, 0.0547489}, {-0.006467, -0.5986896, -0.1698171}},{{-0.040694, -0.0937262, 0.2532553}, {-0.2608638, 0.0049098, -0.0617708}, {-0.0906492, -0.2540143, 0.2417819}},{{-0.2193448, -0.3873409, -0.2787599}, {0.0178223, -0.242741, -0.1624981}, {0.2085063, 0.0331088, -0.1319323}},{{0.431575, 0.1061081, -0.0964882}, {0.0938727, -0.048033, -0.2753791}, {-0.1016653, -0.023155, -0.0536392}},{{0.0459813, -0.0443956, -0.0491631}, {-0.0072189, -0.0301082, -0.0017225}, {0.0316502, -0.0431541, 0.0042867}},{{-0.2473244, -0.1417041, -0.0296302}, {-0.0348276, -0.035679, 0.0494563}, {-0.0401999, -0.2389907, -0.2492214}},{{-0.0235248, -0.1295464, -0.0218777}, {-0.0292716, -0.1037266, 0.081202}, {0.0390598, -0.0803267, 0.0058587}},{{-0.0681995, 0.1448735, -0.0611822}, {-0.166796, -0.0466892, -0.2038807}, {-0.0540458, -0.4538775, 0.2843372}},{{-0.3873995, 0.0665633, -0.2518024}, {-0.0877585, -0.1402949, -0.1412271}, {0.0294923, -0.2506767, -0.1623345}},{{0.2265868, -0.0266532, -0.1023751}, {-0.1219829, 0.0604222, -0.1007967}, {0.0985219, -0.2153854, -0.0754896}},{{0.3220707, -0.1170575, -0.1244189}, {0.2921618, -0.1267778, -0.3983025}, {-0.0505697, 0.1231583, 0.0780255}},{{-0.4016716, -0.1491566, 0.251363}, {0.0758172, -0.2933233, -0.1080714}, {0.3545738, -0.1679253, -0.3914038}},{{-0.0952987, -0.1361622, 0.0040014}, {-0.0775879, -0.2385376, 0.0085661}, {0.1221339, -0.1437154, 0.1347859}},{{-0.2563772, -0.3252529, -0.1648466}, {0.0818759, -0.1372646, -0.220411}, {0.0337615, -0.2166362, -0.0421344}},{{0.0329045, 0.095935, 0.0008605}, {-0.3392789, -0.0915943, 0.1882315}, {-0.2399865, -0.4002484, -0.0878531}},{{-0.1100519, -0.0676575, 0.0667042}, {-0.0284504, -0.0466829, -0.0997699}, {0.094623, 0.0349992, -0.0296297}},{{-0.1329864, -0.2820043, -0.0255469}, {0.0502311, -0.4013833, 0.1733692}, {-0.1063479, 0.0834073, -0.3685703}},{{-0.2181673, -0.3428282, -0.0307125}, {0.0052339, -0.2384821, -0.0251494}, {-0.1260565, -0.2981646, -0.0622216}},{{-0.261678, 0.0478005, -0.0900906}, {-0.1015178, 0.075113, -0.1406214}, {0.0206249, -0.1408817, -0.1847286}},{{0.0036515, 0.0631661, -0.2547676}, {-0.0296781, -0.0888957, -0.5684056}, {-0.071698, 0.1245867, -0.160832}},{{0.0220627, -0.0258863, -0.1502164}, {-0.2167795, -0.1099435, -0.1440042}, {-0.1430187, -0.1692024, 0.0422393}},{{0.2019353, -0.0095981, -0.0379923}, {0.1091946, -0.1149978, 0.0228656}, {-0.0961535, -0.1591139, -0.1446075}},{{-0.1939236, -0.2191631, -0.3330854}, {-0.2478729, 0.1117383, -0.1080733}, {0.1276625, 0.052707, -0.2907713}},{{0.0595265, 0.0601765, 0.0173118}, {0.0166999, -0.0363306, -0.1066883}, {-0.0378631, 0.0321706, -0.0549603}},{{-0.0170117, -0.1619336, 0.0549128}, {-0.0785616, -0.1328449, -0.1196003}, {-0.0536005, -0.0760152, 0.2646876}},{{0.0076213, 0.0711575, 0.0576789}, {-0.0582149, -0.2623839, 0.0507533}, {-0.0257372, -0.2682751, 0.0299276}},{{-0.1334413, 0.0592205, 0.176597}, {-0.1010006, -0.0543469, 0.0257749}, {-0.1590822, -0.3658233, 0.2495878}},{{-0.1097582, 0.26076, 0.0904728}, {-0.2172099, 0.0646191, 0.025471}, {-0.0631807, -0.0073328, -0.0118125}},{{-0.0303586, 0.0717169, -0.1190493}, {-0.1706402, -0.2351136, -0.3069643}, {-0.1720396, -0.199368, 0.1824098}},{{-0.1519655, -0.2339164, 0.175472}, {-0.3168344, 0.0334804, 0.0236561}, {-0.0781122, -0.1284262, 0.1482245}},{{-0.2112578, -0.0541088, 0.0884361}, {-0.2784542, -0.0242775, 0.246735}, {-0.13113, -0.0237586, 0.0171266}},{{0.0683849, -0.2711924, -0.2369234}, {-0.233855, -0.1960233, -0.1104429}, {-0.035117, -0.0148394, -0.3105323}},{{-0.1305833, 0.0016483, -0.1723062}, {-0.2755243, 0.2496485, -0.2278093}, {-0.2535503, -0.1465756, -0.4469929}},{{-0.3000135, -0.1360404, 0.0262769}, {-0.3448353, 0.00506, 0.0546691}, {-0.1779448, -0.2003487, 0.1157058}},{{0.1128271, 0.0603343, 0.2498731}, {-0.1490765, -0.087331, -0.0436972}, {0.1450888, -0.1944248, -0.0819492}},{{0.0092169, 0.2264135, -0.0996709}, {-0.5107787, -0.0980663, 0.0310468}, {-0.1698097, -0.1872697, 0.0258994}},{{-0.0606308, -0.3117292, -0.3161049}, {-0.1827925, -0.1314592, -0.013654}, {-0.4027383, -0.1553785, -0.0463657}},{{-0.2376164, -0.1255787, -0.1898821}, {0.0108179, -0.3597643, 0.1383783}, {0.133132, 0.1238468, -0.1105463}},{{-0.1400308, -0.1301057, -0.4361036}, {-0.1929547, 0.2522847, -0.1303636}, {-0.2225576, -0.0566192, 0.0770995}},{{-0.1148396, -0.2676097, -0.1050115}, {0.0806491, -0.1992363, -0.2772617}, {-0.0708955, -0.182898, -0.438657}},{{-0.2449671, -0.2259664, 0.186839}, {-0.2789286, -0.3413606, 0.2424069}, {-0.0860499, -0.1477881, -0.0487506}},{{-0.0421572, -0.0438342, -0.3084104}, {-0.1601634, -0.1935514, -0.0592443}, {-0.0149427, -0.3573019, 0.0777382}},{{-0.2125212, -0.030096, 0.0857433}, {-0.1854151, -0.251458, 0.0243508}, {0.1823682, -0.1035296, -0.2945136}},{{0.0872546, -0.2671381, 0.0991094}, {-0.1005625, -0.1945788, -0.2503503}, {0.0947385, 0.2175759, -0.3038872}},{{-0.0107598, -0.2039535, 0.2889023}, {-0.127341, -0.1584695, 0.2179864}, {0.0085168, 0.0108527, 0.0730754}},{{-0.0057316, -0.1747078, -0.1670765}, {0.0214857, 0.0151149, -0.0686541}, {0.0335755, -0.1098332, 0.0799366}},{{0.0658804, -0.1674339, -0.2289611}, {0.3676037, -0.0213218, -0.5353549}, {0.1981155, -0.1412555, 0.2119208}},{{-0.0039326, 0.0791286, -0.1223501}, {-0.0059487, 0.0277578, -0.0806812}, {-0.0878719, -0.0733029, -0.2235791}},{{-0.0689555, -0.0232752, -0.0495992}, {-0.0234927, -0.0038274, 0.1099587}, {-0.0830835, 0.0474041, 0.0200949}},{{0.0506927, 0.0373755, -0.0493703}, {-0.0350679, -0.0458722, 0.0754045}, {-0.0388419, 0.0271701, 0.0526845}},{{-0.2723496, 0.0516109, -0.0905889}, {-0.1057454, 0.1286586, 0.0611139}, {-0.1931054, 0.0868956, -0.1907585}},{{-0.3680789, -0.0700316, -0.2391523}, {0.0325247, -0.0925336, -0.0326202}, {-0.1492186, 0.0269375, -0.2045579}},{{-0.232853, -0.1733809, -0.1499416}, {-0.0344262, 0.0211753, -0.1146431}, {0.0102384, -0.0380007, -0.2892353}},{{-0.1369947, -0.0094163, 0.0124828}, {-0.1204883, 0.0082171, -0.0526274}, {0.1073145, 0.004845, -0.1864963}},{{0.3022493, -0.2211957, -0.1386913}, {0.0518364, 0.1704827, -0.1278259}, {-0.1531636, -0.0066131, 0.0669415}},{{0.1752402, -0.0699043, -0.4360162}, {-0.2272249, 0.0149675, 0.2265647}, {-0.0715665, -0.1577353, -0.0473351}},{{0.0949074, -0.2032622, -0.342705}, {-0.1821605, -0.0285544, 0.0992103}, {-0.3602302, 0.0130469, 0.0478323}}}
{{{-0.1310244, 0.0344158, -0.1063588}, {-0.1762707, -0.1342314, -0.1907654}, {-0.0051431, -0.16288, -0.0342134}},{{0.0455756, 0.1251048, -0.2885861}, {-0.0533389, -0.0391332, -0.3133097}, {-0.0036056, 0.397499, 0.117204}},{{-0.0176221, -0.5213702, -0.0724913}, {-0.0306446, -0.1765533, 0.0659113}, {0.157495, -0.2378949, 0.2204219}},{{0.0256426, -0.3460945, -0.0374031}, {-0.499011, 0.0105748, -0.0096966}, {-0.3314626, 0.2203439, 0.032682}},{{-0.0247928, -0.2566709, 0.031446}, {0.0464398, -0.2263637, -0.1378804}, {0.3161915, -0.0924178, -0.1390298}},{{0.0574911, 0.1064801, -0.2511383}, {-0.2008396, -0.3187791, -0.2870601}, {-0.1696333, -0.086865, 0.0250526}},{{0.016907, 0.1155376, 0.1960593}, {0.0312921, -0.3519607, -0.0191641}, {-0.013202, 0.0953556, 0.0367672}},{{-0.3033974, 0.2244602, -0.048064}, {0.033723, -0.3352632, 0.0161425}, {0.1423795, -0.188805, 0.0042102}},{{0.1765316, -0.0419771, -0.0470549}, {-0.1619979, -0.213065, -0.3370985}, {0.0344238, -0.1679792, -0.3845017}},{{0.0059992, -0.5516662, -0.0672601}, {-0.2360857, 0.024912, 0.0488696}, {-0.1832328, -0.0205852, 0.0614845}},{{-0.244296, -0.2886392, -0.4314442}, {-0.0883511, -0.0476701, -0.2304276}, {0.0133634, -0.2214419, -0.2420508}},{{-0.0647742, -0.0533767, -0.0137245}, {-0.0088695, 0.0477805, 0.0116862}, {-0.0047558, 0.0153584, -0.0099024}},{{-0.2969445, -0.1146523, -0.0199972}, {-0.2538717, 0.005486, -0.1571797}, {-0.1893106, -0.0794872, -0.1743396}},{{0.0183258, 0.1079857, 0.026899}, {0.1036697, 0.0818388, -0.0404902}, {-0.0897719, 0.0806929, -0.0932757}},{{-0.1685304, -0.3922109, -0.3508528}, {0.1111669, -0.0486221, 0.0768131}, {-0.0476257, -0.078551, -0.1547689}},{{0.1654147, -0.1217851, 0.2193803}, {-0.0310121, 0.0295381, -0.0518056}, {0.0660535, -0.1887902, -0.2078713}},{{-0.0253402, -0.419718, -0.1301494}, {0.1182946, -0.2017718, -0.0549895}, {-0.121039, -0.5264132, -0.2591061}},{{0.0454763, -0.1003251, 0.0296893}, {0.0982056, -0.1022208, -0.1160149}, {0.0938859, -0.1073613, -0.1816161}},{{-0.1524253, -0.086855, 0.1143103}, {-0.0698323, -0.1108459, 0.1365142}, {-0.0357879, 0.0602961, 0.0362785}},{{-0.3692212, 0.1360695, 0.0012256}, {-0.0132762, 0.297565, 0.115014}, {-0.4071865, -0.0476529, -0.1522047}},{{-0.1115458, -0.2797334, -0.1735811}, {-0.2964911, -0.1372579, -0.0077484}, {0.1225617, -0.2892356, 0.1675998}},{{0.022646, 0.3275084, -0.1071024}, {-0.0944864, -0.1656161, -0.215524}, {-0.1860972, -0.1154268, -0.3923535}},{{-0.2112931, -0.0362019, -0.033198}, {-0.0165133, 0.0495875, 0.1116188}, {0.092723, 0.0872926, 0.0564318}},{{0.0431496, -0.0477762, 0.1935754}, {0.199986, -0.2049195, -0.3094808}, {0.0361566, -0.0126895, -0.361462}},{{-0.557173, -0.3431785, 0.065493}, {-0.2302311, -0.0626053, 0.1438402}, {-0.4414096, -0.020702, 0.1263885}},{{0.0687874, 0.0523233, -0.0189905}, {-0.0838614, -0.3006644, 0.0767379}, {-0.0700053, 0.0199054, 0.1137225}},{{-0.2748372, -0.3979341, -0.0650127}, {-0.4829029, -0.2372923, -0.0642551}, {-0.2986765, -0.3323054, -0.0303623}},{{0.1451946, -0.1628221, 0.0958452}, {-0.1515398, -0.2137687, -0.141081}, {0.0954485, 0.1925701, -0.2780915}},{{0.1771447, -0.1289717, -0.1821501}, {-0.2400981, -0.1042977, -0.177452}, {0.0418683, 0.0120128, -0.2564203}},{{0.188771, -0.0568017, -0.2269591}, {-0.1178983, 0.0638575, -0.229371}, {-0.0483287, -0.1889343, -0.0817433}},{{-0.0334871, -0.0254085, -0.0001221}, {-0.0617018, -0.0469221, -0.0051359}, {-0.087196, 0.0654496, -0.0090951}},{{0.2272853, 0.0492934, 0.2511561}, {-0.0423969, 0.135617, -0.3003936}, {0.0098941, -0.1148098, -0.1975717}},{{-0.2325002, -0.0505702, -0.0266665}, {-0.0173025, 0.0093307, 0.135838}, {-0.1035111, -0.0875718, -0.098329}},{{-0.0397411, 0.0768491, -0.0524988}, {-0.3162051, 0.0385099, 0.0972585}, {-0.0970835, -0.2734993, 0.02063}},{{0.0065568, -0.1282789, -0.0486302}, {0.2553147, -0.1189017, -0.3467252}, {0.3372771, -0.3641982, -0.347786}},{{-0.1536845, -0.1910622, -0.0086011}, {0.014449, -0.1864743, 0.0110137}, {-0.1710444, -0.1127027, 0.0317168}},{{-0.5519923, 0.0105439, -0.1671932}, {-0.2261591, 0.0374143, 0.0342395}, {-0.0854316, 0.0663691, -0.0968843}},{{-0.0923929, -0.0136285, -0.0908166}, {0.0351179, -0.2352165, -0.2894847}, {0.0428702, -0.1114112, 0.0645585}},{{0.1192466, -0.0888981, -0.156706}, {-0.1146473, -0.2756096, 0.0519937}, {-0.1467377, 0.0024315, 0.019037}},{{-0.1456322, -0.0176074, -0.3608734}, {-0.5220263, -0.1385925, -0.3378289}, {0.0049645, -0.025269, 0.024225}},{{-0.2157644, 0.0263965, 0.1141498}, {-0.1254185, 0.1132786, 0.1190745}, {0.065429, 0.1639457, -0.334043}},{{-0.0326764, -0.1472116, -0.155527}, {-0.2960455, -0.2082337, -0.1040461}, {-0.0865807, -0.2923046, -0.0928199}},{{0.0844579, 0.1421535, 0.0295718}, {-0.1491413, -0.1146612, -0.0605596}, {-0.1695782, -0.4124802, -0.0487131}},{{0.0504925, -0.0451446, -0.1097717}, {0.0081287, -0.1165714, -0.1409118}, {0.0115848, -0.15047, -0.0290657}},{{-0.0323539, 0.0578099, 0.176125}, {-0.0029373, 0.1513331, -0.3745231}, {-0.0405486, -0.1370606, -0.3613393}},{{0.0734377, 0.0036996, -0.0181826}, {0.3170971, -0.0086991, -0.1116002}, {0.0455264, -0.1590522, -0.0591535}},{{-0.5167788, -0.5182124, 0.0397489}, {-0.1430257, -0.0159995, 0.2263228}, {-0.1597734, -0.271359, 0.1622408}},{{-0.1860808, 0.0588224, 0.248825}, {0.0264953, 0.0136393, -0.1457734}, {-0.3064451, 0.0014213, -0.1556851}},{{0.3314396, 0.0037679, -0.3151362}, {-0.0799925, 0.0214368, -0.1387798}, {-0.2455208, 0.0635419, -0.0446147}},{{-0.0709037, 0.2490182, 0.0670519}, {-0.0341845, 0.0354948, -0.1724229}, {-0.0551847, -0.0107191, -0.2801563}},{{-0.122262, 0.1606676, -0.0132061}, {-0.2805732, -0.0665824, -0.0120676}, {-0.3166595, -0.2390434, 0.1627753}},{{0.0200218, -0.0853671, -0.0395961}, {-0.0288599, -0.110487, -0.0912061}, {0.1311972, 0.2052147, -0.4197613}},{{0.050184, 0.0514387, 0.0452121}, {-0.0857287, 0.0239806, -0.0343911}, {-0.1250204, 0.1263944, -0.3169278}},{{0.3319801, 0.0108115, 0.0999809}, {0.0842849, 0.0437272, -0.1286062}, {0.0056687, -0.3566078, -0.1555533}},{{-0.157598, -0.5184104, -0.2725332}, {-0.0757999, -0.1806937, -0.4218549}, {0.1337683, -0.1329983, -0.047523}},{{0.0460588, 0.02853, 0.0392491}, {0.0107947, 0.0041699, -0.0804733}, {-0.0232184, 0.0209809, 0.0028566}},{{0.0369831, 0.0576052, 0.0059044}, {-0.0104838, -0.0045295, 0.0047234}, {0.0663845, 0.036959, -0.0369061}},{{0.0798677, -0.0278763, 0.0615472}, {-0.156545, -0.2846421, -0.3164795}, {-0.1275875, -0.2303884, -0.3814442}},{{-0.1889176, -0.12959, -0.2042291}, {-0.1557654, -0.3120256, -0.0606207}, {-0.040649, 0.0689787, -0.1710153}},{{0.0521023, -0.1350704, -0.0585456}, {-0.2616307, 0.3896916, -0.2050234}, {-0.035748, 0.1247999, -0.2131501}},{{-0.1376385, 0.0544547, -0.1222681}, {0.0686418, 0.1430364, -0.1242424}, {-0.0569079, -0.1280947, -0.0240256}},{{0.0167562, -0.0494628, -0.2143779}, {-0.1264057, -0.1028772, 0.1214712}, {-0.1436675, -0.0947185, 0.1177287}},{{0.3812987, -0.0562074, 0.1203917}, {0.0464462, 0.0743849, -0.295627}, {-0.1906945, -0.2548762, -0.1668791}},{{0.3257784, 0.1269021, 0.0602878}, {-0.4631674, -0.1495872, -0.2798251}, {-0.1575254, -0.2265759, -0.2805377}}}
