float weights5 [64][64][3][3]=
{{{{-0.2642491, -0.0968385, 0.0801587}, {-0.0928674, -0.0303271, -0.0413549}, {0.1860947, -0.1395735, 0.0157289}},{{-0.2884771, -0.2334975, -0.0584501}, {-0.1831218, -0.004084, -0.1732923}, {-0.1034194, -0.2153805, 0.0373399}},{{0.0641879, -0.1741391, 0.1367798}, {0.0408586, -0.0294156, -0.0544072}, {-0.0989413, -0.0660602, -0.1945976}},{{-0.2114065, -0.4284575, 0.1257727}, {-0.0842555, -0.2038349, 0.0567332}, {-0.4435008, -0.1979553, -0.0438883}},{{-0.1147295, 0.013379, -0.005553}, {-0.0107782, -0.0132214, -0.1016607}, {-0.2485883, -0.285038, 0.0451452}},{{-0.4224079, -0.267571, 0.0561434}, {-0.1596821, -0.1182823, 0.0550482}, {0.0196907, 0.0261746, 0.1914062}},{{-0.3060936, -0.3328293, -0.0198304}, {-0.1087721, -0.3199323, -0.1044048}, {0.0309275, -0.0718471, -0.1002941}},{{0.026796, 0.0121124, 0.077841}, {-0.0179204, -0.0636755, 0.0131704}, {-0.0154678, -0.0157104, 0.0585045}},{{-0.116667, -0.155623, -0.0263085}, {-0.1245429, -0.0009947, 0.2506163}, {0.2086926, -0.0236696, 0.2570613}},{{-0.0853254, 0.1458247, 0.0273801}, {0.0874366, 0.2658118, -0.0147255}, {0.0843773, -0.141457, -0.1336685}},{{-0.0258356, 0.0084823, -0.0447699}, {0.1426954, 0.0914416, 0.0054731}, {0.1668396, 0.1380735, 0.0438918}},{{-0.0754554, -0.0986009, 0.0687025}, {0.0286254, -0.0596988, 0.0571888}, {0.0674415, 0.096597, 0.0106167}},{{-0.0765158, 0.0257671, 0.007047}, {-0.0278308, -0.0193506, 0.059189}, {-0.020802, -0.0199719, -0.0118054}},{{-0.0564674, -0.0163563, -0.0857481}, {-0.098916, -0.0825735, 0.0146657}, {-0.0182155, 0.1359854, -0.0380562}},{{-0.0032482, -0.0323117, -0.0631853}, {-0.0451772, -0.0460338, 0.0275396}, {-0.0384721, 0.0442733, -0.0522835}},{{0.1706512, 0.0912422, -0.1498952}, {0.0245234, 0.042319, -0.2714941}, {-0.0041628, 0.1053942, -0.3472709}},{{0.1261527, -0.4489817, 0.1927321}, {-0.0987321, -0.8008199, 0.1026874}, {-0.3248185, -0.4298342, -0.0620711}},{{-0.4342898, -0.0146883, 0.1222969}, {-0.231903, 0.1485523, 0.0232485}, {-0.3199807, -0.0310673, -0.1987378}},{{-0.0228816, 0.0110645, -0.0444522}, {-0.005416, -0.0415015, 0.0426698}, {-0.0164045, -0.0547844, -0.0322443}},{{0.1748263, 0.0287243, 0.005201}, {-0.0386805, 0.0034795, 0.1559722}, {0.093706, -0.0001178, 0.0283357}},{{-0.2325281, -0.103147, 0.1561396}, {0.0284945, -0.4273129, -0.0755269}, {-0.0134734, -0.2220743, 0.0551649}},{{-0.1936492, -0.0069179, -0.0980165}, {-0.0567563, -0.0422642, -0.1333743}, {-0.0202624, 0.1304592, 0.061102}},{{-0.0907132, 0.1321145, 0.037654}, {0.0085109, -0.1210122, -0.1339961}, {-0.1036637, -0.0653878, -0.1119973}},{{-0.1022059, -0.2076907, 0.0600699}, {-0.3726833, 0.0089466, -0.0104362}, {-0.0282812, -0.0106274, -0.2217751}},{{0.1185638, 0.0522512, -0.0705404}, {-0.019196, -0.1804521, 0.1005719}, {-0.0325426, 0.0432191, 0.2888696}},{{-0.2966254, -0.3366073, 0.2483745}, {-0.081275, -0.6608171, 0.0341927}, {-0.3945219, -0.4535801, -0.0637586}},{{-0.2473802, -0.0953721, 0.0080231}, {-0.1240987, 0.1711029, 0.1641015}, {0.0997196, 0.0102193, -0.0753327}},{{-0.1179113, 0.2700489, 0.2116696}, {0.0497396, -0.0859257, 0.0517288}, {-0.1464471, -0.2126031, -0.0881593}},{{-0.0075329, 0.188574, 0.0814582}, {-0.0061708, 0.0463056, -0.0081562}, {0.1646581, -0.0521159, -0.1328718}},{{-0.1462075, -0.0790082, -0.1339119}, {-0.002598, 0.1566983, -0.0360989}, {-0.0924198, -0.080421, -0.1167521}},{{-0.0514938, -0.015016, -0.1704078}, {0.0881762, 0.0500982, -0.1044668}, {-0.1281568, 0.0813952, -0.070892}},{{-0.048276, 0.1486903, -0.009287}, {-0.0863612, -0.0001389, -0.0296697}, {0.0320683, 0.0298034, 0.2349008}},{{-0.0413939, -0.4024622, 0.2334678}, {-0.2453401, -0.0985959, -0.0541374}, {-0.1115752, 0.0997633, -0.3776025}},{{-0.3335181, -0.0804794, 0.0739239}, {-0.1764699, -0.0224369, -0.0749495}, {0.0715287, 0.088315, 0.0708515}},{{-0.0365287, -0.064505, -0.0823079}, {-0.0127118, 0.0486685, -0.0261074}, {0.0211851, -0.0310616, 0.0434079}},{{-0.2465907, 0.0292108, 0.1232649}, {-0.1780365, -0.0437431, -0.0538907}, {-0.449546, -0.0062349, -0.0494541}},{{-0.0373918, -0.0399469, 0.0725013}, {0.078897, -0.2010579, -0.0711113}, {0.1815216, 0.0514164, 0.0420327}},{{-0.0724339, -0.0013388, 0.0442437}, {0.0413803, -0.0167441, -0.0588997}, {-0.0405149, -0.0517717, -0.0444835}},{{-0.3861981, -0.2279045, -0.0772522}, {-0.1724234, 0.0703515, -0.134542}, {-0.1751864, -0.1690792, -0.1668715}},{{-0.054102, 0.2098389, 0.0087253}, {0.0458138, -0.082196, 0.1074145}, {-0.0483919, -0.0441968, 0.0565409}},{{-0.1843528, 0.1902006, 0.0591802}, {0.231732, 0.0731409, -0.0798291}, {0.0785572, -0.2187292, -0.0417244}},{{0.0563849, 0.1327586, -0.1360178}, {-0.1465202, 0.343943, -0.0565503}, {-0.2316835, -0.1418659, -0.2045498}},{{0.1590539, 0.2009826, 0.0357086}, {0.2116023, -0.038534, 0.0376204}, {-0.0894939, 0.0006168, -0.0398245}},{{-0.0027564, -0.6059514, -0.3355297}, {0.0324086, -0.0385964, 0.1157084}, {-0.0920649, -0.2719122, -0.1576771}},{{0.0869529, -0.0018503, -0.0769494}, {0.063055, -0.0167928, -0.0811139}, {-0.019768, 0.0442876, 0.0180669}},{{-0.112808, -0.1053419, -0.0970341}, {-0.0748084, -0.173152, 0.0532693}, {0.0639399, -0.1760885, 0.1240919}},{{-0.3658782, -0.0532302, 0.2148202}, {-0.3110873, -0.0974632, 0.1045629}, {-0.1976535, -0.1082747, -0.1688191}},{{-0.2695217, 0.2585895, 0.2309587}, {0.068206, 0.0182647, 0.1580217}, {0.0564861, 0.230223, 0.0238099}},{{-0.0795012, 0.0073665, 0.0248538}, {-0.1179035, -0.2554314, 0.0555835}, {0.0579741, 0.0954503, -0.0585662}},{{0.035797, 0.004846, -0.0040588}, {0.0659649, -0.0692619, -0.0573904}, {-0.005972, -0.0406961, 0.0477603}},{{0.0445947, -0.2641423, -0.3377562}, {0.0076273, -0.165711, 0.0027638}, {-0.0331197, -0.052332, -0.2709611}},{{0.305115, -0.1937108, -0.0587979}, {0.1758809, -0.0235625, -0.0520105}, {0.0195399, -0.2546008, 0.1005491}},{{-0.0381181, -0.1747744, 0.0107991}, {-0.1050971, -0.1234528, 0.3016547}, {-0.2597549, -0.1959741, -0.0837845}},{{-0.0674463, 0.0341607, 0.0092097}, {-0.0712366, 0.0366508, -0.1012605}, {-0.0348188, -0.0054207, 0.0435898}},{{-0.1642933, -0.0942054, -0.1024525}, {-0.0330264, 0.3096979, 0.1276954}, {-0.1516087, -0.1537316, -0.0563542}},{{-0.144297, -0.3861971, -0.1820648}, {-0.08191, 0.0175712, -0.0479895}, {0.1161187, 0.1684264, 0.1947839}},{{0.1981621, 0.1741499, -0.063821}, {0.1276909, -0.0058051, 0.0557479}, {-0.0654708, -0.0436582, -0.0557554}},{{-0.0185045, 0.0232334, 0.1099286}, {0.1220134, 0.1388198, -0.0590367}, {-0.2280556, -0.1774931, 0.0652132}},{{-0.0717107, -0.0241797, -0.1206082}, {-0.0676692, -0.0450325, 0.0193859}, {-0.1698348, -0.0227586, -0.0461693}},{{-0.0828849, 0.1125333, -0.3494217}, {-0.1911202, 0.2837622, 0.1660965}, {0.1668739, 0.0260579, -0.2948035}},{{-0.1305993, -0.2996463, 0.1356623}, {0.0481873, -0.1560431, -0.0053228}, {0.0830781, -0.3617377, 0.2801751}},{{-0.1015361, -0.1364473, -0.1618499}, {-0.1580954, -0.1233008, -0.1175211}, {-0.0858205, -0.0002625, 0.1016811}},{{-0.0150985, -0.0242213, 0.0307032}, {-0.0467336, 0.024796, -0.0031643}, {0.0696565, -0.008004, -0.0475977}},{{-0.443877, 0.0394993, 0.2330178}, {-0.1705828, 0.100304, -0.1715408}, {-0.1884502, -0.2824622, -0.2409027}}},
{{{0.0628738, 0.0372902, 0.2007645}, {0.1851448, 0.1305604, -0.0759092}, {-0.1690291, -0.1654918, -0.0993129}},{{0.1011479, -0.2026052, 0.0697893}, {-0.2139636, -0.1831217, 0.169503}, {-0.139779, -0.094218, -0.1053834}},{{0.0199698, -0.1333559, 0.2121246}, {0.1594283, 0.0031494, -0.169455}, {-0.1411632, -0.1077967, -0.0396837}},{{-0.0404172, -0.0207175, 0.1711395}, {-0.0847615, -0.3434797, 0.0150862}, {-0.2843525, -0.0238616, 0.0592068}},{{0.1575696, -0.1072167, 0.0689422}, {-0.0472318, -0.1947339, -0.0241396}, {-0.3720375, 0.0148952, 0.0172405}},{{-0.1988481, 0.0949278, -0.1905856}, {-0.0259659, 0.0632872, 0.0689221}, {-0.118888, 0.0829712, -0.208763}},{{-0.2315162, -0.0940671, 0.1298171}, {-0.0712637, -0.0421389, 0.0663258}, {-0.0583884, -0.000555, -0.1703698}},{{0.0706614, -0.081143, -0.0320032}, {0.0643315, -0.1123561, -0.0162289}, {-0.0128094, -0.0472598, -0.0804491}},{{0.0515091, -0.1284407, 0.1450816}, {0.0686194, 0.1670232, 0.3166446}, {0.0474609, -0.0172736, 0.2722494}},{{-0.0647007, 0.1583591, 0.0700767}, {-0.0198245, 0.1869627, 0.0249912}, {-0.1350278, 0.1110618, -0.0003268}},{{0.041964, -0.024539, 0.0844234}, {-0.0139435, -0.0574978, -0.0553933}, {0.0776052, -0.0554942, 0.0604752}},{{0.0178727, -0.0601713, -0.047127}, {0.0418824, -0.0272639, 0.0522529}, {0.0007506, -0.0542314, -0.0367587}},{{0.056197, -0.0438187, -0.0621573}, {0.0109836, 0.0286551, -0.0117397}, {-0.0511299, -0.0722488, 0.0452205}},{{-0.1643923, -0.0763229, 0.0193769}, {-0.1462637, 0.0317962, 0.0125008}, {-0.130779, 0.1219099, 0.0936291}},{{0.0386577, 0.0271993, -0.0270752}, {0.0164792, -0.0322712, -0.0253559}, {-0.0535372, 0.0047289, -0.0613867}},{{0.2511351, 0.018774, 0.1083448}, {0.0468995, -0.4290884, 0.0555739}, {-0.1404146, -0.2194548, 0.3268355}},{{-0.2568046, -0.326381, -0.2057946}, {-0.2115722, -0.3536423, -0.0080953}, {0.0941094, 0.05487, -0.1808057}},{{-0.1886084, 0.0862379, -0.1306401}, {-0.4389375, -0.1221293, -0.2155741}, {-0.098813, -0.2845827, -0.2808006}},{{-0.0313558, -0.0666408, 0.0081534}, {0.0392642, 0.0079165, -0.0008073}, {0.0869204, 0.0457078, -0.0356495}},{{0.0123029, 0.1098379, 0.0334741}, {0.0408404, -6.5e-06, 0.0739881}, {0.0151916, -0.0003321, 0.0460223}},{{-0.3495783, -0.3518734, 0.0012077}, {0.0290611, -0.2561731, -0.1505946}, {0.1695592, 0.1157513, -0.1982688}},{{-0.038698, 0.1155118, -0.1060906}, {0.0637138, -0.0073649, -0.0905365}, {0.0643242, 0.1191364, 0.0125128}},{{0.0567949, 0.0562952, -0.2818677}, {-0.2622145, -0.1966609, -0.4358386}, {-0.2267883, -0.3691477, -0.0201542}},{{-0.3266815, -0.2188368, -0.1621948}, {0.2733324, 0.1293476, -0.0354183}, {-0.2250962, -0.1211285, -0.0857503}},{{0.1016443, 0.1521524, 0.1997319}, {-0.0046486, 0.1257456, -0.1140898}, {0.0603797, 0.2283138, 0.1692806}},{{-0.1221885, -0.0067653, -0.3625733}, {-0.2793151, -0.2927581, -0.1549861}, {-0.4141287, 0.0137177, -0.390435}},{{-0.1177478, -0.2743009, 0.0368779}, {-0.2648433, 0.0788484, -0.0764677}, {-0.2315677, -0.3297517, -0.3044212}},{{-0.2739994, 0.0405263, -0.047948}, {-0.2197935, -0.0400282, -0.1408515}, {-0.3895799, -0.0044527, -0.1548945}},{{-0.1147123, -0.0958036, -0.142015}, {-0.0360405, 0.1379767, -0.1047663}, {-0.1318981, 0.0212443, 0.0060368}},{{0.0684628, -0.0989969, -0.0631945}, {0.0049988, 0.0087693, 0.0378613}, {-0.0707337, 0.0585305, -0.0684071}},{{0.264041, 0.1237635, 0.1388204}, {-0.0870237, 0.0295441, 0.114557}, {-0.3421324, -0.1313202, -0.1333514}},{{-0.2816889, -0.3014759, 0.2336748}, {0.1007088, -0.0442906, 0.1224087}, {-0.1524202, -0.156399, -0.1004302}},{{0.0753198, -0.2098736, -0.1233421}, {-0.1023354, 0.0295044, -0.349893}, {-0.2997727, 0.0446363, 0.1872198}},{{-0.0517674, -0.0870757, -0.0551138}, {-0.0960382, -0.0128432, -0.1390294}, {-0.2071237, 0.0233414, -0.2789304}},{{0.0045609, 0.0601965, -0.0315286}, {0.0190562, 0.0707318, -0.0608671}, {-0.0368376, -0.0642746, -0.0467354}},{{-0.5211009, 0.163359, -0.1325422}, {-0.4344465, 0.0176832, -0.2586915}, {-0.3345313, 0.0292035, -0.3276447}},{{-0.39942, -0.185473, 0.0519011}, {0.0956913, -0.0852069, -0.1878658}, {-0.0885884, 0.0346692, -0.0473131}},{{-0.0755119, -0.0425903, -0.0455059}, {-0.0133428, -0.0144979, 0.0415818}, {-0.0592043, 0.0179305, -0.0260709}},{{-0.1459605, -0.2227965, 0.0610204}, {-0.0350754, -0.2590024, -0.0616283}, {-0.2655093, 0.0241224, -0.2216013}},{{0.0256753, 0.0999594, -1.46e-05}, {-0.1622887, 0.0615637, 0.1114471}, {-0.018727, 0.1997047, -0.0243106}},{{-0.2208107, -0.1596912, 0.0369454}, {-0.0670786, -0.0318077, 0.1607632}, {0.0720509, 0.029935, 0.1173787}},{{-0.2776697, 0.1630407, 0.0881686}, {0.159665, 0.120704, 0.019619}, {0.0018634, -0.0479431, 0.1187397}},{{-0.1125309, 0.263463, -0.0090478}, {-0.2184928, 0.0148739, 0.1024337}, {-0.309697, -0.1488275, -0.0466483}},{{-0.1415374, 0.0326921, 0.0994967}, {0.1523089, 0.0233254, 0.0959576}, {-0.0588549, 0.0056804, 0.1414443}},{{-0.026675, 0.1227028, -0.0506655}, {0.0228216, 0.0259359, 0.1068514}, {-0.0189631, 0.0555852, 0.0383504}},{{-0.267456, 0.0014566, -0.1922843}, {-0.1105412, 0.2853857, -0.0769798}, {-0.2983803, -0.2150515, -0.2033863}},{{-0.0309231, -0.2854139, -0.093994}, {0.0203436, -0.1903568, 0.0815349}, {-0.0483106, -0.2688179, -0.1824585}},{{0.1450934, -0.061223, -0.4474829}, {-0.2025831, -0.1352735, -0.2354621}, {-0.3734784, -0.0661671, 0.0059216}},{{-0.0311867, 0.0406706, 0.0295594}, {-0.1778536, -0.0787152, 0.0931911}, {0.1391506, -0.0982189, -0.2726091}},{{0.0544662, 0.0352755, 0.0073552}, {0.0372828, -0.0375582, -0.0418871}, {-0.0107217, 0.0122418, 0.005456}},{{-0.0612774, -0.0726503, -0.0446206}, {-0.2775608, -0.0182701, -0.0499859}, {0.1568027, 0.1107474, 0.251268}},{{-0.3075199, -0.0913437, -0.0046053}, {-0.1055809, 0.256899, 0.1381646}, {-0.1720633, -0.0637686, 0.0332727}},{{-0.1908723, 0.0989931, -0.1326848}, {-0.2073438, 0.183999, 0.0923502}, {-0.0725498, 0.1026844, -0.0646092}},{{0.0404489, 0.0159485, -0.0190376}, {0.0330505, -0.047511, 0.0309758}, {-0.0624854, 0.0253042, 0.0303182}},{{-0.3919192, -0.3338332, 0.0453389}, {0.0992327, 0.1635978, 0.0135277}, {-0.3169046, -0.0441127, 0.0706429}},{{-0.0703149, 0.0574495, 0.0779653}, {-0.3288599, -0.114252, -0.1001567}, {0.0164341, 0.2506305, 0.1590739}},{{0.0587857, 0.2215682, 0.1890059}, {0.0867913, 0.0577215, 0.1824849}, {0.1849857, 0.3155282, 0.374015}},{{-0.1641843, 0.1551067, 0.1617662}, {-0.2344677, -0.009852, -0.335826}, {-0.4006565, -0.2411654, -0.242141}},{{-0.1143074, 0.0090777, -0.1590465}, {0.0093891, -0.0271412, 0.0705263}, {0.0053663, 0.0153724, 0.0594481}},{{-0.0586955, -0.0714561, 0.0944257}, {0.0782108, -0.1405798, -0.1808726}, {0.1361748, -0.0608706, -0.034392}},{{0.0069512, -0.165893, 0.0078485}, {-0.2474308, -0.2625163, -0.2441074}, {0.0316132, 0.0156197, -0.1036156}},{{0.079442, 0.0262889, -0.0396448}, {-0.1268744, 0.0369232, -0.2776515}, {0.106399, 0.0567702, -0.2119037}},{{-0.0539507, -0.0562631, 0.0531962}, {0.0576189, 0.0274827, -0.0639166}, {0.0002651, -0.0763113, 0.0511631}},{{-0.3822279, -0.0848272, 0.0746431}, {-0.4620754, 0.2096921, -0.1184941}, {-0.2158493, -0.2333234, -0.1981436}}},
{{{-0.0732423, -0.0898545, 0.1015049}, {-0.0498665, -0.0131782, -0.0182802}, {0.095212, 0.0727746, -0.3360205}},{{-0.5297815, -0.2682791, -0.2152481}, {0.2316907, 0.0798433, 0.0172725}, {0.0231969, -0.1102469, -0.1743975}},{{-0.2543919, -0.0829898, -0.0482817}, {-0.0504027, -0.0545681, -0.0521793}, {-0.0659762, 0.0631013, -0.0276896}},{{0.1647248, -0.0312741, 0.1011356}, {0.1591121, -0.2049995, -0.1245812}, {-0.1406487, -0.071764, -0.1276734}},{{-0.0137367, -0.0095019, 0.0368251}, {0.0427119, 0.0135349, -0.3041726}, {-0.1887814, 0.3673361, -0.1655249}},{{0.2005457, 0.2267161, 0.1949594}, {0.0231236, -0.0940003, -0.03479}, {-0.35327, -0.1811454, -0.4898038}},{{-9.33e-05, -0.1569186, -0.1105745}, {0.2628647, -0.0746982, 0.2022831}, {0.2394329, -0.136261, 0.2250125}},{{-0.0052493, 0.0336621, -0.0276394}, {-0.0544063, -0.1050494, 0.0381188}, {-0.0663604, -0.0339804, 0.0216538}},{{-0.1998449, 0.2225928, -0.167063}, {0.0457747, 0.014054, -0.1190103}, {0.0100485, -0.1516651, -0.1598921}},{{-0.0973383, 0.028409, 0.050139}, {0.0305227, 0.0103307, -0.0437831}, {-0.0214869, -0.1457, -0.0758937}},{{0.0704333, -0.0043467, -0.0493191}, {0.0475822, 0.1623159, -0.0613546}, {0.0160911, 0.0768511, -0.0214593}},{{0.0120157, 0.0189998, -0.058309}, {-0.0287797, -0.0251012, 0.0478036}, {0.0747799, 0.0674533, -0.0275648}},{{0.0726039, -0.0808228, 0.0178351}, {0.1139412, -0.0724612, 0.0084236}, {-0.0204495, -0.0071683, 0.0607539}},{{0.1197928, -0.0207625, -0.0116851}, {-0.0105665, 0.0213807, 0.1354712}, {-0.0931173, -0.1277347, 0.0161404}},{{0.0756967, 0.0221709, 0.0401468}, {0.0160246, -0.0078431, -0.0244129}, {0.0280548, 0.0538988, 0.02256}},{{-0.0161611, 0.2524485, 0.0750126}, {-0.0025249, -0.0925969, 0.0943586}, {-0.1121102, -0.2672683, 0.0594375}},{{0.023503, 0.1564158, 0.0501655}, {-0.0414959, -0.1494483, -0.0527243}, {-0.059144, -0.337706, -0.2631416}},{{-0.1355394, 0.184418, 0.035482}, {-0.1418404, 0.0552998, -0.3651085}, {-0.1946502, -0.0482768, -0.3565785}},{{-0.0365391, -0.1059345, -0.0395768}, {0.0621315, -0.026261, -0.0564957}, {-0.055407, -0.0628608, -0.0037689}},{{0.2609573, 0.0927779, 0.0642472}, {0.1244201, -0.0297779, 0.1365958}, {0.0370516, -0.0023014, -0.0381765}},{{-0.1805148, 0.0051398, 0.01386}, {-0.090526, -0.3284253, -0.1137086}, {0.0256221, 0.0146206, -0.2216007}},{{0.1059573, 0.0859986, 0.1750896}, {0.1588676, -0.0536095, 0.0517075}, {0.2050536, -0.1387402, 0.0358081}},{{-0.0561412, 0.0532419, -0.2457605}, {-0.1344867, 0.1549184, -0.0914104}, {-0.1457471, -0.2164578, -0.1146555}},{{0.0195023, -0.0081844, 0.1077168}, {0.0489282, -0.1781074, -0.0309777}, {0.0519288, 0.0641396, -0.0075461}},{{-0.0970735, -0.1934864, -0.2192229}, {0.1220859, -0.0639577, -0.0571284}, {-0.0222637, -0.1728006, -0.0896045}},{{0.0590686, 0.0839616, 0.1853303}, {0.1559545, -0.0707388, -0.0073474}, {0.0749482, 0.1147374, -0.2892931}},{{0.060787, -0.0186471, -0.1766203}, {-0.1628457, -0.1102469, 0.0035889}, {0.1787272, 0.2011925, 0.0490688}},{{0.0363827, -0.0980148, 0.0180454}, {0.2392997, -0.3312099, -0.504794}, {0.2638197, -0.2718055, 0.0479163}},{{-0.1732212, -0.0905999, 0.2271773}, {-0.2205691, 0.0438223, 0.1226269}, {0.059663, -0.2891871, 0.0509542}},{{-0.0797122, -0.0050294, -0.0072125}, {-0.1355827, -0.023904, -0.1669467}, {-0.0575343, 0.0210785, -0.0965539}},{{0.1417957, -0.277603, 0.2719391}, {0.0752327, -0.0043509, 0.2330964}, {0.065145, -0.2951039, 0.0280123}},{{-0.0445485, -0.1227942, -0.021634}, {0.1843024, 0.0763803, -0.0591951}, {-0.0076699, -0.0775717, -0.1870872}},{{0.0106238, -0.2816617, 0.101931}, {0.1630266, -0.1526408, 0.2025939}, {-0.2619203, 0.3046027, -0.195305}},{{-0.0604594, 0.2116531, 0.2776469}, {0.3158812, -0.0349826, -0.2821393}, {-0.3036372, 0.0030047, -0.1329973}},{{-0.0472379, 0.0883811, 0.0222415}, {-0.070073, 0.0404374, -0.0197248}, {0.0119541, -0.0183588, 0.0673757}},{{-0.0233368, -0.3141062, 0.2356841}, {-0.0529218, -0.605831, -0.1135767}, {0.0552938, -0.2286521, -0.021009}},{{-0.0922106, -0.1394112, 0.1113568}, {0.1929409, -0.1103408, -0.0309491}, {-0.0811391, -0.0985239, 0.0553586}},{{0.0421826, 0.0904306, 0.0113891}, {0.0610124, -0.0614956, 0.0291608}, {-0.0040281, -0.0454724, -0.0344974}},{{0.0665353, -0.0019358, 0.0879853}, {-0.0617513, 0.0768528, 0.0934534}, {-0.1335605, 0.0200482, -0.0514937}},{{0.0535812, 0.0386104, 0.023248}, {-0.0236336, 0.118863, -0.0324362}, {-0.0757075, 0.0056745, -0.0936544}},{{-0.1429273, 0.251486, -0.0251734}, {0.1434732, 0.0600089, 0.0751127}, {-0.071369, -0.0666527, -0.0625656}},{{0.0983729, -0.0578298, -0.3106792}, {-0.0573777, -0.1578541, -0.0733722}, {-0.1792187, 0.1618631, 0.0609012}},{{0.02135, -0.1849809, -0.0122063}, {0.1001486, -0.2705465, -0.4513493}, {-0.0197385, -0.1084023, -0.1643806}},{{0.2759562, 0.1822268, -0.0941451}, {0.2870875, 0.0348572, 0.0616746}, {-0.2301309, 0.0160464, 0.2371602}},{{-0.1396018, -0.0549873, -0.08462}, {-0.0850155, 0.1139705, -0.0336879}, {-0.0712024, -0.0465531, 0.0605692}},{{-0.3071529, -0.1507572, 0.1463504}, {-0.1822676, -0.0093447, -0.2698636}, {-0.248071, -0.2311959, 0.3097017}},{{-0.1135241, -0.0513323, 0.2288829}, {-0.2082699, -0.2856484, 0.0379301}, {-0.1372298, -0.0368766, -0.0639953}},{{0.180562, -0.0608787, 0.3231728}, {-0.0905849, -0.1495469, 0.0425634}, {-0.3869021, 0.0228981, 0.0152701}},{{-0.0004112, -0.1464309, -0.0169694}, {-0.047663, -0.1438653, -0.1034519}, {0.1515006, -0.0097129, -0.0186584}},{{0.0562535, -0.0392826, 0.0319128}, {0.0347822, 0.0007374, 0.032311}, {0.0217396, -0.036551, -0.0859169}},{{0.0487095, -0.079967, -0.1364573}, {0.1571646, 0.1368496, 0.0794626}, {-0.0891562, -0.0877226, -0.0375132}},{{-0.0760949, 0.0759146, 0.1695706}, {-0.0211027, -0.265136, 0.0784557}, {-0.0470311, -0.2238256, -0.2027389}},{{0.2297125, -0.0976868, -0.1222733}, {0.1548612, 0.0024845, -0.177775}, {-0.0435761, -0.3478981, -0.1477}},{{-0.0506266, -0.0003587, -0.0251621}, {-0.0713657, -0.0906126, -0.088956}, {0.0027671, 0.0286273, -0.0290635}},{{0.0200412, 0.0808676, 0.1086035}, {-0.1109836, 0.0049497, 0.2318821}, {-0.1642824, 0.051774, 0.1655481}},{{0.139331, 0.0620723, -0.1493812}, {0.143811, 0.0793811, -0.236156}, {0.0059915, -0.1006771, 0.3370767}},{{0.0385983, 0.025844, -0.049238}, {0.0234804, 0.0459378, 0.0635902}, {-0.1057642, -0.0877715, 0.0039918}},{{-0.2649506, 0.0781047, -0.118192}, {0.2430532, 0.1180192, -0.0259575}, {-0.0037751, -0.3561156, -0.0778772}},{{0.2313234, 0.1414046, -0.1736197}, {0.2038959, 0.1115578, 0.1141437}, {0.1057911, 0.3657296, -0.0232662}},{{-0.123924, 0.027832, -0.4459894}, {0.0026763, 0.3133672, -0.310287}, {0.0571904, -0.327063, -0.1172333}},{{0.0821397, 0.0210866, -0.4435184}, {-0.0610993, 0.0416534, -0.1681666}, {-0.0348948, 0.0609494, 0.1947474}},{{0.1615632, 0.0223832, -0.0849119}, {-0.0016873, 0.1127465, 0.0624532}, {-0.1118367, 0.1074478, 0.2964618}},{{0.0462145, -0.0384334, 0.0584158}, {-0.0639009, 0.0254077, 0.029159}, {-0.0187677, -0.0717012, -0.033167}},{{-0.2705069, 0.1142654, -0.1043657}, {0.1579866, 0.1357445, -0.1346093}, {-0.0182846, -0.1236534, -0.3214606}}},
{{{-0.0633016, 0.0216705, -0.1721708}, {-0.1796161, -0.4079683, -0.1006455}, {-0.0065904, 0.2922122, 0.0013336}},{{0.266644, -0.0835719, -0.2122274}, {-0.0550251, -0.0659593, -0.0893}, {-0.168023, -0.0511653, -0.0726707}},{{-0.3522361, 0.0529031, 0.1607648}, {-0.4398581, -0.0436305, 0.112856}, {-0.1461193, 0.1066602, -0.0358281}},{{-0.107113, 0.0426513, 0.1546111}, {-0.6079602, -0.0157899, 0.1346774}, {-0.3946157, 0.1474795, -0.1035482}},{{0.1451798, 0.1010466, -0.1128957}, {-0.0479401, -0.2512747, 0.0986634}, {-0.0440196, -0.2125346, 0.1398927}},{{-0.2136929, -0.2962065, -0.0420138}, {-0.088105, -0.0467102, 0.1813075}, {0.2629338, -0.0830253, 0.2993442}},{{0.0557856, 0.1188892, 0.2190541}, {0.0900298, -0.1374716, 0.1041175}, {0.0501778, 0.0124731, 0.0643959}},{{-0.035031, 0.0162668, 0.0350228}, {-0.0998244, 0.0191257, 0.0919814}, {-0.0090651, 0.0671607, -0.0054322}},{{0.1345555, 0.1740428, -0.1401743}, {0.0242573, 0.1600783, 0.1455178}, {-0.0659025, -0.2240501, 0.0541023}},{{-0.1163677, 0.1201507, 0.0604105}, {-0.1114157, -0.0854583, 0.0506906}, {0.0873145, 0.0026427, 0.2331432}},{{0.0255817, 0.0668019, -0.0021325}, {0.1089818, 0.107954, 0.0570756}, {0.0432566, -0.0761751, -0.0068243}},{{-0.0013968, -0.0271278, 0.0212622}, {0.068789, 0.0158492, -0.0114357}, {0.0042629, 0.0678341, -0.0366421}},{{-0.0185088, -0.0379504, -0.011255}, {0.0994302, 0.0084861, -0.0496863}, {0.0302813, -0.0993134, -0.0483367}},{{-0.0427094, -0.0991784, 0.0648616}, {-0.1193425, -0.140138, 0.1039872}, {-0.1548087, -0.1037105, -0.0468318}},{{0.0222135, 0.0491309, -0.0097366}, {0.0773438, -0.0407856, 0.0084251}, {-0.009193, 0.052949, -0.0247481}},{{0.2546306, -0.1688232, -0.0254419}, {-0.0714408, -0.1000534, -0.242391}, {0.0616304, -0.143237, -0.068269}},{{-0.2914716, -0.5303883, -0.0250105}, {-0.5225061, 0.0614094, 0.1843408}, {-0.3706012, 0.0169956, 0.0585552}},{{-0.1873734, 0.2459522, -0.0528906}, {-0.1494558, 0.1529393, -0.053257}, {0.2613307, 0.0718381, 0.1171035}},{{0.0685732, 0.0788266, 0.0055455}, {-0.0054474, -0.0709672, -0.0483301}, {-0.02962, 0.015385, -0.0554914}},{{-0.000317, 0.0396393, -0.0812323}, {0.0980106, 0.0373766, -0.0300648}, {0.0843019, 0.0352787, -0.0315546}},{{-0.0634834, -0.0121531, -0.0078337}, {-0.4467531, 0.0327292, 0.0989017}, {-0.1867365, -0.0511016, -0.0187991}},{{-0.036494, -0.1600439, 0.0694435}, {-0.1432918, -0.0825417, 0.1196738}, {-0.0287266, 0.0117087, -0.0265097}},{{-0.0749949, 0.2492646, 0.1755575}, {0.0024629, -0.0823047, 0.0930459}, {0.143595, 0.077856, 0.2572816}},{{-0.3361699, -0.1882804, -0.035822}, {-0.0699325, 0.1615372, -0.137246}, {0.1197927, 0.0687094, 0.106442}},{{0.0699711, 0.0904817, -0.1435926}, {0.1072885, -0.0051231, -0.0947724}, {-0.1963281, 0.0202554, 0.0382362}},{{-0.336394, -0.0539137, 0.1442174}, {-0.6298785, 0.0494843, 0.0746725}, {-0.3490909, 0.162457, 0.0695857}},{{-0.0218613, 0.0946389, -0.0267793}, {-0.1334251, 0.142021, 0.064065}, {0.1431213, -0.1096816, -0.069185}},{{-0.5673538, -0.0362691, 0.192347}, {-0.3886952, -0.0939283, 0.2615494}, {0.0285067, 0.166946, 0.065569}},{{-0.173009, -0.2358355, 0.0881455}, {0.0401205, -0.0379029, 0.2123947}, {-0.1216611, 0.2070165, 0.0664462}},{{-0.020542, 0.0292788, -0.063003}, {0.0396645, 0.1200505, 0.1063577}, {-0.0720231, 0.0899191, 0.0112138}},{{-0.0417606, 0.1245754, -0.1889906}, {-0.1310596, -0.0474016, 0.0831469}, {-0.0150406, 0.2705154, 0.1506079}},{{-0.1481448, -0.0850447, -0.2558918}, {0.0950984, -0.0925621, -0.0258768}, {0.163269, 0.1261425, 0.0997865}},{{-0.2228203, -0.2773182, 0.2167082}, {-0.2376478, 0.4246363, 0.0994597}, {0.1010494, 0.1702658, -0.2121636}},{{-0.1905159, 0.1005908, -0.0086192}, {-0.0068508, 0.0518223, -0.151041}, {0.3128897, -0.0008892, 0.0770513}},{{-0.0207769, 0.0208769, -0.0454043}, {-0.0227977, -0.0808202, -0.0132478}, {-0.0351721, 0.063001, 0.106654}},{{-0.4703149, -0.1349479, 0.122043}, {-0.6502684, 0.0001786, 0.0069021}, {-0.468985, 0.0802828, -0.0657994}},{{-0.1753809, -0.1149417, -0.0129185}, {-0.3857667, -0.1597503, -0.0883444}, {-0.3179705, -0.0022323, 0.0771505}},{{-0.0030726, 0.0576923, 0.0363369}, {0.0744385, -0.0569845, -0.0584177}, {-0.0420661, 0.0059952, -0.0458498}},{{0.1656374, 0.1702079, 0.0430776}, {-0.1054885, -0.1755805, 0.0168122}, {0.0789553, -0.3554491, -0.1672833}},{{-0.0214867, -0.0139984, -0.0001465}, {-0.0690052, -0.1071641, 0.1232479}, {-0.1006607, -0.0358174, 0.0431832}},{{0.0307902, 0.1795114, 0.0729652}, {-0.1364538, -0.1446083, -0.0340655}, {0.0413322, 0.0887992, -0.0891803}},{{-0.3006919, 0.1292009, -0.3652534}, {-0.4331259, 0.0563591, -0.1395784}, {-0.0180104, -0.1844957, 0.0878968}},{{-0.1649329, -0.0940102, 0.1550473}, {-0.2664982, -0.2591957, -0.0395596}, {-0.125376, 0.0439919, -0.2971143}},{{-0.1452986, -0.303508, -0.0182087}, {0.041635, 0.096428, -0.2517643}, {0.0787433, 0.1548941, -0.1196591}},{{-0.0564206, 0.0375199, 0.0747268}, {0.1223772, 0.0234608, 0.0267292}, {-0.008169, 0.0164214, 0.0838368}},{{-0.3099758, -0.2800192, 0.0270204}, {-0.0013276, -0.0165673, 0.0818325}, {-0.1070356, -0.0395513, 0.2037438}},{{-0.3663091, -0.0098979, 0.0251197}, {-0.2438329, -0.010288, 0.0730354}, {-0.1096602, -0.0468377, 0.1052422}},{{-0.4663424, 0.1953156, -0.130346}, {-0.1829335, -0.0241275, 0.2126467}, {0.0295614, 0.0348493, 0.2363821}},{{0.1555385, -0.0703173, -0.0659103}, {-0.0567928, -0.1556996, 0.1479723}, {0.102917, -0.070894, -0.2047824}},{{-0.0246254, -0.0446659, 0.0347247}, {-0.0168083, 0.0232669, -0.0331992}, {-0.0404376, 0.0265144, -0.046404}},{{0.0615273, -0.3506726, -0.1529491}, {-0.0856421, -0.2134803, 0.0411755}, {0.0542989, 0.0117599, -0.3856701}},{{-0.3406054, 0.0907172, 0.1841488}, {0.0110658, 0.0209399, -0.1719283}, {0.0781519, -0.0541338, 0.0680953}},{{0.1064859, 0.0082775, -0.0236214}, {-0.3597619, 0.0153735, 0.2995012}, {-0.2548335, 0.0244211, -0.0415962}},{{0.0625909, 0.0719185, -0.05129}, {0.0697315, -0.0378809, -0.0427427}, {0.084335, -0.0390957, 0.0330176}},{{-0.2255559, 0.0860549, -0.2693958}, {-0.13312, -0.0375735, -0.0906849}, {0.206767, 0.2029559, 0.1056748}},{{-0.2350868, -0.0356988, 0.0746149}, {-0.1207799, -0.0663534, 0.0559819}, {0.0217543, 0.0512595, -0.3873328}},{{0.1543548, -0.062103, 0.0555954}, {-0.0123911, 0.0441259, -0.1423914}, {-0.0346945, 0.1371247, -0.0300702}},{{0.0474933, 0.1113746, 0.0777301}, {-0.1786551, 0.0274779, 0.1957544}, {-0.172162, 0.0018921, 0.0228048}},{{-0.1107958, 0.2529285, 0.0824217}, {-0.0796635, 0.1091618, 0.0559843}, {-0.0916783, 0.099099, -0.0338007}},{{0.1709763, 0.0470705, 0.3354035}, {-0.0454567, 0.2324438, 0.2090265}, {0.0380134, 0.0514872, 0.4249488}},{{-0.0808607, -0.0637703, -0.0422892}, {0.1612292, 0.1836089, 0.1495796}, {0.0305907, 0.0121742, 0.3181402}},{{-0.1584287, -0.1252579, -0.0537147}, {-0.1064542, 0.1085468, 0.0250403}, {0.0606498, -0.006741, 0.0736405}},{{0.0217686, 0.032011, 0.0034741}, {-0.0129701, -0.0226883, -0.0073287}, {-0.0243307, 0.0082388, 0.0194397}},{{0.0738984, 0.0887253, 0.1082403}, {-0.2057181, -0.0988309, 0.2734169}, {-0.0249838, -0.0715006, 0.2803933}}},
{{{-0.2422778, 0.0854882, -0.19001}, {0.2243616, 0.2472612, -0.201075}, {0.3152542, -0.0048585, 0.1259716}},{{0.0373693, -0.0298419, -0.2128759}, {0.306525, -0.0278408, -0.2353707}, {-0.0123072, -0.077218, -0.0808997}},{{0.0628462, 0.1760738, 0.2171905}, {-0.0440509, -0.1150227, 0.01358}, {0.1339417, -0.101103, 0.0068219}},{{0.1606143, 0.0320404, 0.2057287}, {0.0769662, -0.0043655, 0.016951}, {0.0807994, -0.40597, -0.0104302}},{{0.2216385, 0.1475634, 0.2175025}, {0.0335545, -0.2809636, 0.0258949}, {0.1240238, -0.1363772, 0.1764343}},{{0.0271699, 0.1649719, 0.0990107}, {0.0045831, -0.0104015, 0.0654449}, {-0.0631081, 0.0459491, -0.1400879}},{{-0.0328381, -0.0407866, 0.2888035}, {-0.0292374, 0.1642963, 0.1245244}, {-0.0905854, -0.2434238, 0.0036807}},{{0.0127834, 0.0344983, 0.0843583}, {-0.0218476, -0.0489489, -0.0298377}, {0.0689857, 0.0462715, 0.010485}},{{0.1146537, 0.2073943, -0.0581371}, {0.0048582, 0.1467388, 0.0895805}, {-0.3753123, -0.0420016, -0.3624794}},{{-0.0241932, 0.0231887, 0.0907284}, {0.1218185, -0.0906075, 0.091859}, {0.0314094, 0.2444953, 0.060532}},{{-0.0254354, 0.0915431, -0.030368}, {0.0120884, 0.0780203, 0.0507908}, {0.0479957, 0.0114094, -0.1039113}},{{-0.0360155, 0.0086897, 0.0166506}, {0.0444963, -0.0179811, -0.0321752}, {-0.0272862, -0.0359678, 0.020604}},{{0.0520951, -0.0345724, 0.002287}, {-0.0290874, -0.046416, 0.0090097}, {-0.0454189, -0.0073259, -0.0075258}},{{-0.0746941, -0.0295138, -0.0294066}, {-0.1373214, -0.0012485, -0.0458924}, {-0.0869513, 0.1193697, 0.038355}},{{-0.0476308, -0.0377139, 0.0078159}, {0.0240209, 0.0355721, -0.0531797}, {0.0325005, -0.0418687, -0.0056317}},{{-0.1812139, -0.2521345, 0.2206604}, {-0.1734222, 0.1034547, 0.0420129}, {-0.1159824, 0.1237409, -0.19878}},{{0.1248251, -0.1332297, 0.0865989}, {-0.0408789, 0.1509336, -0.1262742}, {0.1345664, -0.0560138, -0.3101869}},{{0.0522332, -0.0337714, -0.0221868}, {0.3763884, -0.0817583, -0.2429522}, {0.3100235, -0.334783, -0.0368432}},{{-0.0434274, 0.0529004, -0.0427383}, {0.0379379, -0.0282153, -0.0606061}, {0.0534273, 0.0809891, 0.0923934}},{{0.0054815, 0.012351, 0.1190818}, {-0.1010559, 0.0333793, 0.1004208}, {0.1315533, -0.2171991, -0.01727}},{{-0.2960016, -0.2583356, 0.2053711}, {0.0845702, 0.1920319, 0.0160596}, {0.2246424, -0.0687064, -0.3963595}},{{-0.2309123, 0.1467112, -0.0149704}, {-0.0371861, -0.1629139, -0.0939128}, {-0.2676418, -0.1214089, 0.0316542}},{{0.01688, -0.2019691, -0.1250038}, {-0.0138048, -0.051602, -0.0883229}, {-0.0426534, -0.0023599, 0.0085876}},{{-0.3631059, -0.1020069, -0.0842597}, {-0.0917272, -0.0682887, -0.3400732}, {0.0094798, -0.0038198, -0.4144438}},{{-0.1759746, -0.2903171, -0.2779397}, {-0.1519685, -0.3311716, 0.0443862}, {-0.0626937, -0.1274509, 0.0131847}},{{0.0547759, -0.1946752, 0.2652295}, {-0.0592634, 0.029696, 0.1153635}, {0.2246326, -0.2222026, -0.1641488}},{{-0.414145, 0.246474, -0.2928591}, {0.0559891, 0.0840255, -0.0954732}, {-0.186126, -0.1728185, -0.4379478}},{{0.1155506, 0.0647025, -0.0236832}, {-0.2425067, -0.1645456, 0.069164}, {-0.3327387, -0.0669514, -0.0569633}},{{-0.0813206, -0.1261758, 0.0620693}, {-0.0086292, -0.0191292, -0.0055891}, {0.0758531, -0.0547223, -0.0726837}},{{-0.1225392, 0.0080177, 0.1170269}, {0.0586419, 0.0555467, -0.0033828}, {-0.0072298, -0.1103272, -0.0827308}},{{-0.2994113, -0.1566217, 0.0149102}, {-0.3447177, -0.1828946, 0.0598621}, {-0.5301987, -0.208781, 0.0811304}},{{-0.1761332, 0.1816391, 0.0140373}, {0.0945029, 0.0238731, -0.0444079}, {-0.0762768, -0.079291, 0.1009168}},{{0.0057665, -0.3219838, 0.1136067}, {0.0310208, 0.0017241, 0.2801959}, {0.0088319, -0.0051211, -0.1148604}},{{-0.072533, -0.0890999, 0.2530077}, {0.3264982, 0.1422822, -0.1984807}, {0.0359807, 0.0477609, -0.3213516}},{{0.0115474, -0.0663693, -0.0546885}, {0.0177264, 0.0391036, -0.0062936}, {0.0352893, -0.0536995, 0.021155}},{{-0.1279352, 0.0297903, 0.3078562}, {-0.4237487, -0.0595735, 0.154576}, {-0.3527046, -0.1256338, 0.0939788}},{{-0.2383555, -0.2057958, 0.0565992}, {0.1734001, 0.1299069, -0.1481254}, {0.1232304, -0.0139151, -0.3358464}},{{-0.0176952, -0.0279429, 0.0532366}, {0.0573352, -0.0004112, -0.0292428}, {0.0008045, -0.0390531, -0.0358577}},{{-0.3805134, -0.1117351, -0.2638867}, {0.0027746, -0.0255369, 0.068533}, {-0.1914581, 0.0285011, -0.1895912}},{{-0.0424806, -0.1444431, -0.0150126}, {-0.1002935, -0.0142111, 0.0970911}, {-0.1215178, -0.0408413, -0.1792796}},{{0.1822737, -0.1008137, 0.1089143}, {0.1426185, -0.2318549, -0.231674}, {0.0125741, -0.0051059, -0.1366472}},{{-0.1597352, -0.2557357, -0.1283522}, {0.0803326, -0.0627089, -0.0134577}, {-0.1929554, -0.3047545, 0.0512025}},{{0.1225658, -0.1370443, 0.092566}, {-0.1807641, -0.2067185, 0.1637948}, {-0.188798, 0.0270985, 0.1150393}},{{0.0004144, -0.1864511, -0.0402816}, {-0.0311114, 0.1509529, -0.129762}, {-0.0255067, -0.0946465, -0.0843599}},{{-0.0495147, -0.0419105, 0.0722473}, {-0.0323175, 0.0180155, 0.0686895}, {0.0435402, -0.0437034, 0.0554925}},{{0.2525992, 0.1211722, -0.1637209}, {0.1276595, -0.0215775, -0.1797101}, {0.1937014, 0.0688395, -0.0374321}},{{-0.1190022, -0.0176321, 0.0255848}, {0.1680413, 0.1194633, -0.0995926}, {0.1967453, -0.2949283, -0.2015445}},{{0.1860488, 0.3113241, 0.0054371}, {-0.1263682, -0.0297551, 0.0561835}, {0.0016587, 0.0427458, -0.0954969}},{{0.0446618, 0.093306, -0.1128586}, {-0.0605824, -0.0360007, -0.0409494}, {0.2143105, -0.079816, -0.0272794}},{{-0.0638521, 0.0294133, 0.016625}, {-0.0100851, 0.0387295, -0.0540457}, {-0.0129576, 0.0177689, 0.0085875}},{{-0.0027602, -0.4090686, -0.1676603}, {0.0400644, 0.2066603, -0.0779769}, {-0.1447666, 0.0372745, -0.0612596}},{{-0.3196784, -0.0091974, -0.1744277}, {-0.0895084, 0.0230236, -0.4901609}, {-0.1085309, 0.1024611, -0.2010238}},{{0.0355003, -0.4420319, -0.2403263}, {0.1146893, 0.0326804, -0.0820819}, {-0.355358, -0.0300196, -0.0292188}},{{0.0082772, -0.0227129, -0.0155883}, {0.0174738, 0.0180146, -0.0744573}, {0.0553349, -0.0614792, 0.0921119}},{{-0.0855403, -0.0454704, -0.0656878}, {-0.0091056, -0.0826478, -0.0501265}, {-0.1217596, -0.2005501, -0.2454998}},{{-0.1451579, -0.2961311, -0.0242179}, {-0.2754668, -0.0886683, 0.1709535}, {-0.1542527, -0.1513647, -0.0417858}},{{-0.0309657, -0.076749, 0.0266377}, {-0.2396219, 0.1629524, 0.0218865}, {-0.0708589, -0.0751329, -0.0017629}},{{0.3427607, -0.0081534, -0.1057496}, {0.1374474, -0.2827229, -0.1558387}, {-0.1711005, 0.0731507, -0.0804157}},{{0.0033739, -0.3486826, -0.0862532}, {0.0831157, 0.074461, 0.0756444}, {0.2700879, 0.1946744, 0.033454}},{{-0.0607101, -0.340479, -0.0494642}, {-0.1260848, 0.1915974, -0.1031433}, {-0.1390492, -0.1620876, -0.0387921}},{{0.3859186, 0.0018234, -0.3818003}, {-0.3727942, -0.1769313, -0.4752099}, {-0.0568045, 0.2553254, 0.0584116}},{{-0.5209926, -0.5672221, 0.0771729}, {-0.3330284, 0.0696079, -0.2339922}, {-0.1658033, 0.1466918, 0.189211}},{{0.0408688, 0.1045033, 0.0003664}, {-0.0247596, 0.0865515, -0.0375739}, {-0.0587922, 0.061221, -0.0457173}},{{0.0853493, 0.0900591, -0.1124867}, {0.0744175, -0.2852331, -0.1264034}, {-0.1247126, 0.0056627, -0.1075417}}},
{{{-0.0108056, -0.1102606, -0.1734878}, {0.0091862, 0.1657489, 0.0724328}, {0.028575, 0.156939, -0.1771979}},{{-0.1275977, -0.0906722, 0.1203448}, {-0.0610195, -0.0356401, -0.0277205}, {0.11256, -0.2448684, -0.0970984}},{{0.0762648, -0.1393157, 0.2440907}, {0.0568107, 0.0089965, -0.0597723}, {-0.1457468, -0.0193448, -0.1430108}},{{-0.0744637, -0.0495805, 0.1856201}, {-0.076474, -0.2888006, 0.0517515}, {-0.1448802, -0.3077003, -0.4202839}},{{-0.2432277, -0.1648086, 0.3389253}, {0.1810756, 0.0922128, 0.0588638}, {0.219101, -0.0822573, 0.0212147}},{{0.0641803, 0.1346467, -0.1035087}, {0.114207, 0.0021089, -0.1507368}, {0.0973762, -0.0601256, -0.2509312}},{{0.1393652, -0.2586223, 0.0220912}, {-0.0224111, 0.108234, 0.194243}, {-0.1298708, -0.0184312, 0.057114}},{{0.0286406, 0.0535975, 0.0214948}, {-0.0055639, 0.0708676, -0.029744}, {0.061653, 0.0312325, -0.002735}},{{-0.0647767, -0.0679785, 0.0001771}, {-0.1172604, -0.1263551, -0.1024097}, {-0.2579837, -0.0247689, 0.1091566}},{{0.2035749, -0.1359758, 0.1187244}, {0.0011212, 0.090637, -0.0467475}, {-0.0282176, 0.1646457, -0.0275564}},{{0.0132197, 0.0713408, 0.1021231}, {0.04039, -0.025812, 0.1317612}, {-0.1282818, -0.0827978, -0.0173501}},{{0.0312019, 0.0281648, -0.0633618}, {0.0013275, 0.0052439, -0.0235056}, {-0.0710199, -0.1002035, 0.0058988}},{{0.1035962, -0.0159632, 0.0059469}, {0.0036519, -0.0193794, -0.0134148}, {0.0256882, -0.0661857, -0.0145253}},{{-0.0191653, 0.0720638, -0.0349457}, {0.047298, 0.0646347, -0.0615754}, {-0.0382944, -0.0208723, -0.0919479}},{{-0.0205048, -0.0322234, 0.0478403}, {0.0892117, 0.0146359, 0.0192756}, {0.021241, -0.0831148, -0.0399271}},{{-0.2664376, 0.1146664, 0.146034}, {-0.1408971, -0.163873, 0.2677788}, {0.0139128, -0.0476813, 0.00427}},{{0.003992, 0.3747863, -0.0325184}, {-0.2310229, -0.1106987, 0.3446742}, {-0.0725751, -0.1014032, -0.3009754}},{{0.2359554, -0.2218054, -0.215415}, {0.2270659, -0.4023639, -0.3196366}, {-0.2349332, -0.0906197, -0.0815661}},{{0.0466736, 0.0215272, -0.0452492}, {0.058429, 0.0557741, 0.0162971}, {-0.0728135, 0.0728182, 0.0407031}},{{-0.0652216, 0.0172082, -0.0834095}, {0.0876351, 0.0456982, -0.0984904}, {0.0563058, 0.0340078, 0.1821302}},{{-0.0831682, -0.1140545, 0.2793574}, {-0.1625724, 0.0289534, 0.1169486}, {0.010215, 0.0443962, -0.2838247}},{{0.0539771, -0.2413401, 0.175907}, {-0.0061225, -0.2415123, 0.0099656}, {-0.1489682, 0.0172489, -0.145141}},{{-0.0045506, 0.171365, -0.0115357}, {0.1578903, 0.2441512, 0.2127722}, {-0.0185644, 0.0979875, 0.1169785}},{{-0.3118404, -0.0679034, 0.2712973}, {0.0641129, 0.0157633, 0.1296312}, {-0.218621, -0.1608406, -0.2272902}},{{-0.1036125, 0.0364456, -0.0479032}, {-0.0250273, 0.1846195, -0.1564127}, {-0.2165376, 0.0606553, -0.1065537}},{{-0.3296059, -0.3446285, 0.1022118}, {-0.0619611, -0.2647304, 0.0752371}, {-0.1602334, -0.1906486, -0.6051591}},{{0.0680603, 0.0847901, 0.1731832}, {0.0917851, 0.0179283, -0.427792}, {0.0932776, 0.0477721, 0.0394817}},{{0.1817706, -0.4491229, -0.1621874}, {-0.0623239, -0.3798983, 0.0473176}, {-0.136627, -0.1234973, -0.3640341}},{{0.1172265, -0.1328097, -0.1376171}, {0.0812678, -0.0983942, 0.0361017}, {-0.0923842, -0.0298539, -0.2874851}},{{0.0407979, 0.063025, -0.1189457}, {-0.0654342, 0.0604197, -0.1143051}, {-0.1028973, -0.0021182, 0.1464742}},{{0.1543988, -0.1010403, 0.2127014}, {0.1915151, -0.2324261, 0.1474612}, {0.21839, 0.1825435, -0.0858483}},{{-0.0525756, 0.1147915, 0.1198037}, {0.0589544, 0.0691777, -0.0906643}, {-0.1017209, -0.1458609, -0.190487}},{{-0.0536641, 0.0433829, 0.2055946}, {-0.0321338, 0.2162937, 0.323887}, {-0.3745076, -0.0622904, -0.3127881}},{{0.0642449, -0.2135133, -0.1099685}, {0.1583253, 0.0742698, -0.0635142}, {0.0229608, -0.0764961, -0.2964819}},{{-0.0117235, 0.0299544, 0.0442387}, {-0.0850593, -0.0575131, -0.0930889}, {0.0159808, -0.0613009, -0.0841033}},{{-0.0637012, -0.4156286, 0.0159565}, {-0.0180518, -0.8041254, -0.2009687}, {-0.0416127, -0.5456394, -0.4698672}},{{0.0321213, 0.0333357, 0.1445805}, {-0.0172125, 0.1019488, 0.0562496}, {-0.0504708, -0.1379962, -0.210427}},{{-0.0092835, 0.0066163, 0.0390618}, {-0.0083681, 0.0353711, 0.0036441}, {-0.0563397, 0.0048785, -0.0080367}},{{0.005958, -0.2180667, 0.1668672}, {0.2337881, -0.0168563, 0.3567046}, {-0.0939175, -0.1752559, 0.0778592}},{{0.1016546, 0.1977991, -0.0298883}, {-0.0783794, -0.0030987, 0.0715779}, {0.1353944, 0.0480667, 0.062049}},{{0.259177, -0.0946976, 0.1545186}, {0.0385797, -0.1295869, 0.1093618}, {0.1453546, 0.1679793, -0.0845831}},{{0.0989848, -0.2372081, -0.0166533}, {0.0698075, -0.1486886, -0.3581956}, {0.2229624, -0.0907154, -0.0550914}},{{0.0945877, -0.1379621, -0.1121197}, {0.1095861, -0.2777589, -0.0272408}, {0.3083829, -0.0515175, 0.0139675}},{{-0.0640738, 0.0557421, 0.0286494}, {0.0917773, 0.2956052, 0.1716288}, {0.1499459, 0.0903706, -0.3106664}},{{-0.1196603, 0.0204721, 0.0771674}, {-0.0349706, 0.0572921, 0.1656322}, {0.0194464, -0.0335659, 0.1255005}},{{0.0089222, -0.1552717, -0.1946686}, {-0.3829034, -0.1727045, -0.0510377}, {-0.2893535, 0.0875117, -0.0171196}},{{-0.4678257, -0.0099976, 0.2774651}, {-0.0807057, -0.0125376, 0.1423149}, {-0.1826606, -0.1326431, -0.1801486}},{{0.018215, -0.338802, 0.1650657}, {0.1425015, -0.2366193, -0.1558049}, {-0.1248573, -0.334092, -0.0746897}},{{-0.0152614, -0.0070124, -0.04904}, {-0.1120282, -0.0325332, -0.2349013}, {-0.1872599, -0.0081049, -0.0413836}},{{0.0121399, -0.0654867, 0.0249149}, {-0.0082903, -0.0602513, 0.0098024}, {0.0002772, 0.0719083, 0.0437222}},{{-0.0560631, 0.0693148, -0.1808932}, {0.0074506, 0.1368866, 0.1601494}, {0.2162574, 0.0895324, -0.2814343}},{{-0.0254556, 0.1073783, 0.0769146}, {-0.1085773, 0.0325187, -0.2413209}, {0.1452926, 0.0086442, 0.0332441}},{{0.0629461, 0.2358657, -0.1311533}, {-0.0524859, 0.1046248, 0.3111366}, {-0.084521, -0.0684162, 0.0743974}},{{0.0513416, 0.0679746, 0.0153304}, {-0.0418277, -0.0454322, 0.0181346}, {0.028566, 0.0145482, 0.056066}},{{0.0147101, -0.0344389, 0.1068262}, {0.2096446, 0.0260364, -0.0747742}, {-0.2244255, -0.2057191, -0.3765003}},{{0.0524164, -0.2618087, -0.3540005}, {-0.0402815, 0.2697414, 0.0638306}, {0.0230413, 0.2168491, 0.0402769}},{{0.0152261, -0.0570736, 0.0802341}, {-0.0516734, 0.0871285, 0.3423146}, {0.1039214, 0.0802973, -0.0454165}},{{0.1463281, -0.0420983, 0.0170603}, {-0.0949164, -0.1256854, 0.0534973}, {-0.0262877, 0.2577759, 0.1249295}},{{-0.1130207, -0.0332715, 0.1186521}, {-0.0823822, -0.1671422, -0.0693129}, {-0.1788622, -0.1054074, -0.0714338}},{{0.0298524, 0.0189258, -0.1914277}, {0.1186952, 0.2291472, -0.0031407}, {-0.075581, 0.2551979, 0.214691}},{{0.282947, -0.2197325, -0.0412608}, {0.1122077, -0.1835957, 0.2763709}, {-0.2087558, 0.4141641, 0.1707172}},{{0.0037516, -0.1772457, -0.1587338}, {0.0474671, 0.31222, -0.0184025}, {0.1644419, -0.1156028, 0.0513246}},{{0.0527407, -0.0859091, 0.0404919}, {0.0066073, 0.046209, 0.0356758}, {-0.05955, -0.0505978, -0.0527048}},{{0.2444007, 0.1298161, -0.1693207}, {0.0780867, 0.0083597, -0.3117332}, {-0.1548556, 0.1011618, 0.2595181}}},
{{{-0.1582519, -0.1146442, 0.001945}, {0.1316494, -0.0099151, 0.0330178}, {-0.0824248, 0.029531, -0.0665662}},{{-0.1212964, -0.2565642, -0.0322462}, {-0.1512326, -0.0737818, -0.2171563}, {-0.0672424, -0.1472156, -0.0626319}},{{0.0230134, -0.0682494, 0.0472768}, {-0.1189228, 0.0097645, -0.126168}, {-0.1454734, 0.0008138, -0.1681611}},{{0.0846608, -0.1337921, -0.1052092}, {0.0213738, -0.0025457, 0.0999152}, {-0.0597864, 0.0527401, -0.2950617}},{{-0.0609281, -0.1996909, -0.132461}, {-0.14651, -0.2042225, -0.0073264}, {0.225422, -0.0820577, -0.2441004}},{{-0.0529884, 0.0571824, -0.1864306}, {0.004688, -0.0804683, -0.2184492}, {0.013287, -0.2631705, 0.0043226}},{{0.0640934, -0.0439421, 0.0141679}, {-0.1607544, 0.0351791, -0.0807865}, {0.0073073, 0.0455236, -0.0619203}},{{0.0174786, -0.0916167, -0.0022373}, {-0.0332723, 0.0083915, -0.0561731}, {-0.0471766, -0.0184339, -0.0686534}},{{-0.052305, -0.0210794, 0.142685}, {0.0784226, 0.0301952, 0.0611999}, {-0.072969, -0.1228665, -0.0599151}},{{-0.0762024, -0.0732278, -0.0817133}, {-0.1389702, 0.0933334, 0.010968}, {-0.1830877, -0.0325409, -0.1808802}},{{-0.1029697, 0.1650002, 0.1463025}, {-0.0077697, 0.0926503, 0.1604211}, {-0.1097391, 0.0804389, 0.2846916}},{{-0.0587474, -0.0342027, -0.0661722}, {-0.0342603, 0.0870627, 0.0213126}, {-0.0476701, -0.0049991, 0.0077555}},{{0.0160053, 0.0701764, -0.0105906}, {0.040034, 0.077355, 0.0659925}, {-0.0575431, 0.0304315, 0.067108}},{{-0.006385, 0.0621301, -0.0505452}, {0.0957994, -0.0377324, -0.0290843}, {0.0736249, -0.0280792, 0.0698926}},{{0.0161662, -0.0148922, -0.0055484}, {-0.0496829, -0.0517591, -0.0541479}, {0.0141597, 0.0530144, -0.0161593}},{{0.0137037, 0.0910841, 0.0239908}, {-0.1226546, 0.0367612, 0.0658875}, {-0.0188325, 0.0641774, -0.0108284}},{{-0.0236303, -0.2343494, 0.1252835}, {0.1349982, -0.0715365, -0.0090458}, {-0.0279775, -0.2698435, 0.0887454}},{{-0.1811956, -0.1361838, -0.1603902}, {-0.1341991, -0.1877257, 0.0884611}, {0.0439858, -0.172618, 0.0556578}},{{0.0160273, -0.0542673, -0.0707159}, {-0.0547073, -0.032357, 0.0077773}, {0.0594542, -0.0275963, -0.016261}},{{-0.1029051, 0.0362896, -0.0305253}, {-0.0874532, 0.0220421, -0.0723836}, {0.038409, 0.0764695, -0.0218033}},{{0.0528446, -0.0969826, -0.0791629}, {0.1021538, -0.2973272, 0.1566343}, {-0.2907903, -0.097643, 0.0666698}},{{-0.028187, -0.0765091, 0.0422069}, {-0.2400834, -0.096373, 0.1036695}, {-0.1683833, -0.0104609, -0.0528614}},{{0.136122, -0.0493473, -0.2670378}, {-0.1256295, 0.0691445, -0.1520403}, {-0.0302767, 0.2176749, 0.1493881}},{{-0.1374705, -0.360952, 0.0751666}, {0.0591525, -0.1754398, 0.1165085}, {-0.1016997, -0.2864235, -0.0475491}},{{0.0836301, -0.0155095, -0.1172866}, {0.0225638, -0.0678514, 0.0026286}, {-0.0266192, 0.0043295, -0.0375869}},{{-0.0521421, -0.1037091, -0.2310523}, {0.0366041, -0.2703479, -0.0026115}, {-0.1729327, -0.1191285, -0.0919951}},{{-0.0399772, -0.2922241, -0.0559408}, {0.0265731, -0.0205892, -0.1303369}, {0.0267283, -0.1511216, -0.138601}},{{-0.1015821, -0.184445, -0.0848944}, {-0.0614211, -0.1811128, -0.0087964}, {0.0108698, -0.1801534, -0.1659663}},{{-0.0976648, -0.1257865, -0.0656271}, {0.0772198, -0.1107015, -0.0671046}, {-0.2359684, 0.0982618, -0.0294883}},{{0.052488, -0.0999528, 0.0044062}, {-0.0144032, -0.1088322, -0.1003321}, {0.0111501, -0.0614259, -0.0454703}},{{-0.0856122, -0.0009033, -0.1128354}, {-0.2025983, -0.0656905, -0.1345167}, {-0.0566648, 0.0157495, -0.1805172}},{{-0.0748239, 0.0722021, 0.126785}, {0.0240114, 0.0698128, -0.004571}, {-0.0115173, -0.1356066, -0.0816447}},{{0.1121041, -0.0235432, -0.0213458}, {0.1147471, 0.0038128, 0.1720228}, {0.1149549, -0.2761348, 0.0892515}},{{-0.0131823, -0.2591574, -0.1205673}, {0.2468743, -0.1871212, 0.0777432}, {-0.0176094, -0.0407153, 0.1716702}},{{-0.0354959, -0.0136366, 0.0156577}, {-0.0218129, 0.0810858, 0.0185296}, {-0.0222983, -0.0235513, -0.0354187}},{{-0.1245206, -0.186915, -0.1413243}, {-0.0638487, -0.0198823, 0.0052141}, {0.0003682, -0.0353932, -0.1724464}},{{0.3048998, 0.0363433, -0.0618751}, {0.1835184, -0.019982, -0.0245028}, {-0.0316848, -0.0171434, -0.0149821}},{{-0.0644468, -0.0659857, -0.0646272}, {0.0265053, 0.0288204, -0.0028674}, {0.0481714, -0.028313, -0.0207806}},{{0.0349022, -0.1055548, -0.004514}, {-0.0784379, 0.0232982, -0.2150637}, {-0.0238419, -0.3112442, -0.2053962}},{{0.0568326, -0.0494532, 0.0144307}, {0.052858, -0.0619612, -0.001904}, {0.0379018, -0.0124699, 0.0449895}},{{0.0925675, -0.1193553, -0.128364}, {-0.128283, 0.0242383, 0.0581815}, {-0.012482, -0.1784079, 0.1963724}},{{0.0669677, 0.0023096, -0.0204394}, {-0.0638234, -0.2965247, -0.032569}, {0.1569742, -0.1497129, 0.0225931}},{{-0.3511237, -0.2858459, -0.1252098}, {-0.1408605, -0.1388163, -0.0919422}, {-0.1368845, -0.0543068, -0.1314}},{{-0.0227786, -0.0153335, 0.2030463}, {0.0914957, -0.0574193, -0.0042984}, {0.0112061, -0.1148953, -0.0058443}},{{-0.0775463, -0.0400054, 0.0528962}, {0.0228828, -0.0488569, 0.0105306}, {-0.0631471, 0.077564, -0.0665886}},{{-0.2423692, -0.18784, -0.0193242}, {-0.0700884, -0.2147633, -0.2101412}, {0.1143311, -0.2236246, -0.0646791}},{{-0.0266076, -0.3037575, -0.2191763}, {0.1155797, -0.370027, 0.1020337}, {-0.2442007, -0.0847546, -0.1208107}},{{-0.1139967, -0.1661102, -0.0874502}, {0.0013913, -0.0266885, 0.0864888}, {0.0716562, -0.0058973, -0.0941882}},{{-0.0521904, -0.0970734, -0.028024}, {0.0208539, -0.028714, -0.0698232}, {-0.0303939, -0.1479599, -0.0975509}},{{0.0152747, 0.0373453, -0.0387519}, {0.0045371, -0.0430967, -0.0230019}, {-0.0099237, -0.0538432, -0.0588903}},{{-0.0140897, 0.1586891, 0.0402855}, {-0.0005866, 0.0505355, -0.1138391}, {0.0189188, 0.1130354, 0.2308621}},{{-0.0986822, -0.1575262, -0.1661019}, {-0.0407116, -0.2107785, -0.2086332}, {-0.1468312, -0.2541611, -0.0933515}},{{0.0826916, -0.0997169, -0.2208231}, {-0.0466436, 0.1195315, -0.3950106}, {-0.0297061, 0.1566759, -0.0588687}},{{-0.0381525, -0.0205498, 0.040908}, {-0.0719536, -0.0211094, 0.0658478}, {-0.0351235, -0.0787819, 0.0419428}},{{0.0137062, -0.2060173, -0.1723527}, {-0.1156731, -0.2108223, 0.0581315}, {-0.1917435, -0.126029, -0.2190937}},{{-0.0330178, -0.0544328, -0.0160002}, {0.0032217, 0.1348785, -0.0925471}, {-0.2613946, -0.0020893, -0.2075627}},{{-0.066756, 0.126547, 0.110693}, {-0.1318815, -0.150777, -0.1568537}, {-0.001418, -0.0267453, 0.0473327}},{{-0.18806, -0.4017618, -0.1369743}, {-0.0930386, -0.2045353, -0.1345249}, {-0.0355201, -0.2108321, -0.2870303}},{{-0.0124304, -0.0598822, -0.0766312}, {-0.1139907, -0.2113444, -0.0974472}, {0.0566369, -0.1890922, 0.0092564}},{{0.0130578, -0.1381753, -0.1369754}, {-0.0275681, 0.0630685, -0.0820329}, {-0.0222815, 0.2326421, 0.0176057}},{{-0.0279633, -0.1338882, -0.0145148}, {-0.3342797, -0.2322768, -0.093508}, {-0.0038306, -0.1893231, -0.0571163}},{{0.0333451, -0.2099688, -0.0751028}, {0.3117862, -0.0055084, 0.250862}, {-0.2777728, 0.1398705, -0.006021}},{{-0.0107415, -0.0674458, 0.0184399}, {0.0336428, -0.0377025, 0.0886445}, {0.0283708, -0.0579014, 0.0381853}},{{-0.0352441, -0.1574807, -0.1865955}, {-0.275708, -0.2223775, 0.0263794}, {0.1850408, -0.2466088, -0.2091303}}},
{{{0.3696928, 0.1362232, -0.0126024}, {-0.2892211, -0.2016071, -0.028864}, {0.131748, -0.1178018, 0.238354}},{{0.0504552, 0.0150601, 0.1894348}, {-0.0586346, -0.0521124, 0.0596291}, {-0.4812169, -0.4021028, -0.0738747}},{{7.8e-05, 0.034335, -0.091219}, {-0.0422605, 0.0254619, -0.0733996}, {-0.0628227, -0.019488, 0.0469138}},{{-0.0212737, 0.1082265, 0.1636617}, {0.0542322, -0.1408152, 0.0172951}, {-0.0386848, -0.1208498, -0.2479333}},{{0.1543173, 0.0264819, 0.0792945}, {-0.1014387, -0.0331021, -0.2947193}, {-0.0574492, -0.0921122, -0.476233}},{{-0.0343577, -0.1829475, -0.1385073}, {0.1421082, 0.0083084, -0.0707958}, {0.2123204, -0.0056785, -0.184441}},{{0.058941, -0.0385329, 0.0314464}, {0.1752933, -0.1863052, 0.0064721}, {0.3675134, -0.2020637, -0.4075226}},{{0.0429976, -0.1981361, -0.0675026}, {-0.0817722, -0.1254804, -0.1116749}, {-0.0679639, -0.0026848, 0.002023}},{{-0.0671354, 0.2169326, 0.0155486}, {0.0865813, 0.0266215, -0.1204482}, {0.0275997, -0.2158209, -0.6212609}},{{0.0473826, 0.0293839, 0.0160723}, {-0.0073623, -0.0476263, -0.1445117}, {0.0551901, -0.1030855, -0.009551}},{{0.0259722, -0.0645611, -0.05371}, {0.1354973, 0.0879454, -0.0342507}, {0.0294682, 0.1502908, 0.0239144}},{{-0.0308655, 0.0742758, -0.0163291}, {0.0285093, 0.0528294, 0.0149744}, {-0.0176301, -0.0201371, 0.0444494}},{{-0.0189552, 0.0173621, 0.0004375}, {-0.0152635, -0.0199568, 0.0347946}, {-0.0061052, -0.0300729, -0.0141812}},{{0.0449646, -0.0813489, -0.1720476}, {0.0845533, 0.0335967, 0.0349658}, {-0.0365474, -0.0690878, 0.0924931}},{{0.016809, 0.0239403, 0.0139292}, {0.0697645, 0.0021238, 0.0053458}, {-0.0587994, 0.0363857, -0.0317469}},{{0.0514847, 0.1998427, -0.1004752}, {-0.1704061, 0.016536, -0.118166}, {0.1628854, 0.1409702, 0.0104269}},{{-0.1675145, 0.2356627, -0.0357177}, {0.1302277, 0.1387645, -0.0906829}, {0.1726345, -0.3236329, -0.3629219}},{{-0.2112757, -0.058744, 0.0887918}, {0.0300741, -0.0867937, -0.2208379}, {0.1082789, -0.0577128, 0.0048951}},{{0.0231709, -0.098563, 0.0181102}, {-0.0980309, -0.0742873, -0.0590466}, {0.0154447, -0.106213, -0.0306603}},{{-0.0181294, -0.1319921, -0.0588904}, {0.0497342, -0.0635299, 0.0265101}, {-0.0644522, -0.1223846, -0.1670123}},{{0.0520078, -0.0238094, 0.1475248}, {0.1399297, 0.0376729, -0.0784766}, {-0.2579738, -0.1829567, 0.0075886}},{{-0.0815067, -0.1106759, -0.0047825}, {-0.1282897, -0.0934857, -0.1592979}, {0.1870383, -0.1506275, -0.1017151}},{{-0.0809674, 0.1352666, -0.3238621}, {-0.2551122, -0.1007331, -0.4037906}, {-0.1302193, -0.0591313, 0.0072351}},{{0.2327099, -0.2164045, -0.2284946}, {0.1997756, -0.0430762, 0.1111979}, {-0.0866008, 0.0807481, 0.0987093}},{{0.1302335, 0.1157895, -0.1773299}, {0.0515401, -0.1514005, -0.3358393}, {0.3642897, -0.1941724, 0.0372676}},{{0.0137373, -0.1430254, 0.0925034}, {0.1523609, -0.2231612, -0.0976254}, {-0.0683127, -0.2358354, 0.0245179}},{{-0.0429417, -0.1840307, -0.1174079}, {-0.1995661, 0.258001, 0.0950335}, {-0.006384, 0.059612, -0.0515666}},{{0.0877141, -0.0142286, -0.1631056}, {-0.0300644, 0.0851869, -0.3986454}, {-0.0505119, -0.165214, -0.2122602}},{{-0.1988485, -0.0792543, -0.0219307}, {-0.0452387, -0.0465631, -0.1486146}, {-0.159151, -0.3204236, 0.0195842}},{{0.0467118, 0.1432808, 0.1228466}, {-0.0355508, -0.0782998, -0.0609297}, {-0.0725324, 0.1187095, 0.041297}},{{-0.314246, 0.030347, -0.1221436}, {0.0462776, 0.162604, -0.190941}, {-0.1927941, 0.0698889, -0.4320625}},{{0.280203, 0.0475885, -0.4318305}, {0.3517935, 0.0321643, 0.0750563}, {0.0164961, 0.0655458, 0.3813928}},{{0.2763238, 0.0440286, -0.1872036}, {0.1138161, -0.2370611, 0.1641904}, {-0.0174392, -0.1887907, 0.302019}},{{0.169607, 0.2638475, -0.0712058}, {0.130826, -0.1151425, 0.1011598}, {0.2341845, 0.1630954, 0.1709238}},{{-0.0425854, 0.0637752, -0.0588192}, {-0.0974805, 0.0055801, -0.0394026}, {0.0384959, 0.0415218, 0.0588199}},{{-0.046959, 0.1268291, -0.2658803}, {0.056392, -0.0902045, -0.4775405}, {0.2541242, -0.0572301, -0.2535704}},{{-0.1238085, -0.0506787, -0.3120617}, {0.0924877, -0.0432923, -0.013913}, {-0.2045417, 0.0643215, -0.1278265}},{{-0.0535179, 0.0011643, 0.0509819}, {0.0594147, 0.0504592, 0.0540077}, {0.0110996, 0.0730211, 0.0520398}},{{0.0033311, -0.1166108, 0.0411626}, {-0.0539381, -0.3731458, 0.0531202}, {0.2213712, -0.1625907, -0.1369595}},{{0.0982276, 0.1473064, 0.0935417}, {0.166377, 0.1045341, 0.031694}, {0.0046191, 0.1670437, 0.0555221}},{{-0.0149863, -0.0621837, -0.2022458}, {-0.2567098, -0.2495365, -0.191029}, {-0.1615225, 0.0811795, 0.0849934}},{{-0.0610311, -0.0421917, -0.1530711}, {-0.2663302, 0.1073327, -0.0419729}, {-0.2974886, -0.0453578, -0.1224849}},{{0.0182642, 0.186614, -0.0488972}, {-0.211866, -0.1639557, -0.1170307}, {0.3489947, -0.1136474, -0.1923671}},{{0.1807833, 0.0467199, -0.2888748}, {-0.103346, -0.0653774, -0.1342876}, {0.0884029, 0.0224431, 0.1546853}},{{0.0225669, 0.0537553, 0.0672879}, {-0.0584799, -0.0947279, -0.0202218}, {-0.1298224, -0.0724099, -0.0101632}},{{-0.0633407, 0.1255072, 0.1211755}, {0.2849326, 0.0767062, -0.1990103}, {0.0364406, 0.0425634, 0.3263835}},{{0.1934671, -0.0846439, 0.0219122}, {0.1231796, -0.297805, -0.0007556}, {-0.0243908, -0.0363904, -0.1335727}},{{-0.119282, -0.0324271, 0.0012452}, {-0.0160239, -0.2069571, -0.107877}, {0.090539, -0.1187166, -0.2947231}},{{0.0999586, -0.1384098, -0.1358458}, {-0.0083941, -0.1014016, -0.170021}, {0.0152187, -0.1021031, 0.000744}},{{0.0656605, -0.0338756, -0.0155202}, {-0.0503799, -0.0028163, -0.0600202}, {-0.0294208, -0.0568935, 0.006914}},{{0.1671153, 0.2029548, -0.3403698}, {0.0369414, -0.0270342, -0.0623378}, {0.2416276, -0.0310258, -0.019997}},{{0.0545493, 0.1406325, -0.0631372}, {0.1966484, -0.1441804, 0.0140062}, {0.2023328, 0.0981392, -0.0280122}},{{0.0792222, 0.1004069, 0.138645}, {0.0557936, 0.0044885, -0.8145053}, {0.0408003, -0.0777136, -0.4338946}},{{0.0196712, 0.0435597, 0.0285702}, {0.0071851, 0.0085184, 0.0092009}, {0.0199078, 0.0215733, 0.0089897}},{{-0.0744967, -0.0730022, -0.4621418}, {0.0909613, 0.0127666, -0.0164046}, {-0.0360462, 0.2024556, 0.1869566}},{{0.0664627, -0.0308149, -0.3708171}, {-0.1406864, 0.1641702, -0.0884126}, {-0.0279222, 0.1371461, 0.3330241}},{{0.0456723, -0.1195359, -0.1490008}, {-0.4504308, -0.0188067, -0.1567642}, {0.1274289, -0.0646539, 0.1648586}},{{0.0823046, 0.3352898, 0.0168223}, {-0.1172173, -0.3925648, -0.192905}, {-0.16363, -0.4576076, -0.2528935}},{{0.1262958, 0.2014688, -0.3269956}, {-0.0059874, 0.1222079, -0.0491622}, {0.1901635, 0.0177061, 0.0525508}},{{-0.0718627, 0.0559783, -0.1818934}, {0.0505264, 0.1066682, -0.1141118}, {0.4425341, -0.124406, 0.0180799}},{{0.0953241, 0.0366959, -0.2630733}, {-0.0987811, -0.1293326, -0.06715}, {-0.12731, 0.0939995, 0.195498}},{{-0.0827827, 0.2331455, -0.012212}, {0.2615688, 0.1851851, 0.2484507}, {0.1383938, 0.0040856, 0.0213232}},{{-0.0636476, 0.0186627, 0.0448958}, {0.0741988, -0.0519201, -0.0132294}, {0.0633683, -0.0123282, 0.026635}},{{-0.1442651, 0.2571511, -0.0001815}, {-0.07634, -0.0032514, -0.3371146}, {0.183997, -0.1235548, -0.2111386}}},
{{{0.0905578, 0.0034334, 0.0521493}, {-0.2361892, 0.1051753, 0.2296398}, {0.0465964, -0.3629253, -0.2815707}},{{-0.2613964, -0.1850919, 0.0732658}, {-0.3264013, -0.1962546, 0.033933}, {-0.1425685, -0.2263317, 0.1957647}},{{0.0408983, 0.2083563, 0.1198756}, {-0.0464729, 0.0023307, -0.0083962}, {-0.2279439, -0.1168139, -0.0342993}},{{0.3040439, -0.0234048, -0.0236052}, {-0.1210699, 0.0946677, 0.0166258}, {-0.2231336, -0.0659322, 0.1070767}},{{-0.2976943, -0.0475121, -0.1642708}, {-0.2323151, -0.2402442, -0.0264951}, {0.1712376, 0.0314022, 0.0929063}},{{0.0135979, 0.0691968, 0.1047811}, {-0.0576676, -0.0271096, -0.0629537}, {-0.2579071, -0.4676729, 0.0603151}},{{-0.3460765, 0.045398, 0.0652796}, {-0.1378163, -0.2219283, -0.1438442}, {0.0173697, -0.181701, 0.0842035}},{{-0.0140325, 0.03197, 0.0451668}, {0.045005, 0.0722876, -0.050075}, {-0.0292803, -0.0245598, 0.0053066}},{{0.0444827, 0.0011185, -0.0664014}, {0.0657602, -0.1239727, -0.236833}, {-0.113576, -0.0168807, 0.1712691}},{{0.1235938, 0.0801457, -0.0875778}, {0.2050623, -0.0144743, 0.0854517}, {0.0686109, 0.0309478, -0.0662447}},{{-0.0822901, -0.1127526, -0.0041434}, {-0.1081545, -0.0399856, 0.044983}, {-0.1085534, -0.0463191, 0.0311974}},{{0.0150694, -0.0323279, 0.060534}, {-0.000171, 0.0114143, -0.0348003}, {-0.0796733, 0.0290995, 0.0217402}},{{0.0148755, -0.1055275, -0.0186729}, {0.0817023, -0.1062694, -0.0347396}, {0.0112514, -0.0428604, -0.0220843}},{{0.0514538, 0.0873015, 0.1030209}, {0.0732544, -0.1610771, -0.0182593}, {0.0781471, 0.1335297, 0.0207801}},{{-0.0504117, -0.041906, 0.0461539}, {0.0975289, -0.000923, 0.0788244}, {-0.0136938, 0.0574471, 0.0420111}},{{0.0058954, 0.0303442, 0.0141382}, {-0.0480297, 0.110231, 0.2560095}, {-0.2163833, 0.0307269, -0.0003461}},{{0.1221611, -0.1207187, 0.1565305}, {0.1092214, 0.4511233, 0.0558286}, {-0.0788607, -0.1691824, -0.4175198}},{{0.1301744, 0.3197423, 0.1730229}, {-0.1470677, -0.011562, 0.0719105}, {-0.3870855, -0.0471753, -0.080894}},{{0.0138395, 0.0084802, 0.012978}, {0.0251643, 0.0078505, 0.0868153}, {0.001497, -0.0207652, 0.0750792}},{{0.045597, 0.0859294, 0.0577994}, {-0.0114361, -0.0190731, 0.0105853}, {0.0477418, -0.0649814, -0.0130544}},{{0.0072939, -0.1417875, 0.0469764}, {0.0884077, -0.0495256, -0.4070177}, {0.009791, -0.1804579, -0.0839865}},{{-0.0786181, -0.0794417, -0.042819}, {-0.0986091, 0.0403892, 0.1884396}, {0.0879348, 0.0341397, 0.228602}},{{0.0284033, -0.3657104, 0.3742627}, {0.0164621, 0.1633063, 0.1942251}, {-0.0390048, 0.3357394, -0.1365524}},{{0.043356, -0.0449441, -0.0643423}, {0.2622364, -0.0660461, -0.2910387}, {-0.1874129, -0.2864937, 0.0615163}},{{0.1520239, -0.0836223, 0.1455308}, {0.1624892, -0.0144496, 0.1865032}, {-0.1003886, -0.0625802, 0.3729627}},{{0.1820112, -0.119882, 0.077576}, {0.0081988, 0.2017034, 0.0322313}, {-0.2369704, -0.4833743, -0.3441889}},{{0.0220106, -0.0097723, -0.091676}, {0.0337749, -0.3704133, -0.0350419}, {-0.0734017, -0.064873, 0.0655503}},{{-0.2559836, 0.0038154, -0.1750144}, {-0.3780234, -0.0418885, 0.2082638}, {-0.2626374, -0.0939863, 0.1562974}},{{0.0364616, -0.0505451, -0.270655}, {-0.0640475, -0.0740646, 0.0621832}, {-0.2299121, 0.0597351, -0.1488707}},{{-0.0992529, -0.0017163, 0.0831112}, {-0.1175089, -0.1080639, -0.0055249}, {-0.1670716, 0.0271032, 0.0718681}},{{0.1719577, -0.0122422, 0.0335894}, {-0.0579489, 0.1948518, -0.0062094}, {-0.1256261, 0.0116372, -0.095014}},{{0.0778581, -0.0331093, 0.042518}, {0.0400191, 0.2013266, 0.1017395}, {-0.0518301, -0.1948885, 0.0658129}},{{-0.2561477, -0.0271116, 0.0734002}, {0.132583, 0.0021011, -0.2490029}, {0.0298874, -0.271043, -0.1801148}},{{0.1309699, -0.1387491, 0.0956851}, {0.0462668, 0.0368656, 0.0646123}, {0.1444465, -0.2124001, -0.0623683}},{{-0.0689194, -0.0003315, 0.1278132}, {0.0732136, 0.0222462, -0.0159862}, {-0.0034616, 0.0089627, -0.0126175}},{{-0.0909033, 0.0745162, 0.0344488}, {-0.3000492, 0.0274094, 0.1463294}, {-0.4335845, -0.4214049, 0.0853814}},{{-0.1321634, -0.2493892, -0.0481591}, {0.1219064, -0.0015616, -0.1617985}, {0.033778, -0.1326637, -0.1928153}},{{0.0056734, 0.0552949, 0.0388221}, {-0.0342981, 0.079194, 0.0010384}, {-0.0425663, 0.0541994, 0.008768}},{{0.1082648, 0.0311645, -0.1516027}, {0.0319804, -0.0065785, 0.3658303}, {-0.0257673, -0.1124545, 0.1200369}},{{0.1892527, 0.0971169, 0.097062}, {-0.1002561, 0.0314705, 0.0464529}, {0.0010291, 0.0287483, 0.0339782}},{{-0.1910984, -0.1351709, -0.0836635}, {-0.2455512, -0.0097365, 0.0996176}, {0.1091397, -0.0310314, 0.0303819}},{{0.1100852, 0.1576303, 0.2269575}, {0.0728578, -0.1613653, -0.036445}, {0.3079028, -0.040782, 0.1163674}},{{-0.372098, -0.1903104, -0.0137752}, {-0.2258472, -0.0738299, 0.3044818}, {-0.0687839, 0.0410724, 0.0451706}},{{0.135191, 0.1605486, 0.2611023}, {0.2577036, -0.0360054, -0.210159}, {0.30099, -0.05284, -0.1121918}},{{0.0650975, 0.1491939, 0.0364365}, {-0.0140867, 0.1098461, -0.1060939}, {0.1038563, 0.0078387, 0.1183287}},{{-0.3276407, -0.2196661, -0.0261686}, {0.0028385, -0.0572272, 0.1501304}, {-0.2443637, -0.1087724, 0.2354117}},{{0.2218247, -0.1702981, -0.148728}, {0.1214282, 0.0384073, -0.3149252}, {-0.2967288, -0.2893613, -0.0586369}},{{-0.0843958, 0.1143674, -0.1013251}, {-0.125086, 0.0509748, 0.1341462}, {-0.2742098, -0.3022304, -0.0743287}},{{-0.0847038, 0.0590868, 0.0262109}, {0.1809402, -0.0968599, -0.2238055}, {-0.2072068, -0.2167812, 0.0506487}},{{-0.0346582, -0.013881, 0.0109208}, {-0.0267698, 0.0027311, -0.0258839}, {0.0254953, -0.0434654, -0.0087937}},{{-0.063463, -0.1430102, -0.1506085}, {0.0829902, -0.0926192, -0.0499435}, {-0.0299449, 0.2857236, -0.152187}},{{-0.2794838, 0.1431374, -0.0667455}, {-0.3136217, 0.2177511, 0.0737644}, {-0.0941733, 0.1803771, 0.0523479}},{{0.1186177, -0.1168155, -0.1855114}, {0.0983064, 0.0960427, -0.0729858}, {-0.2230056, 0.0405437, -0.1134691}},{{-0.071585, 0.0499394, -0.0169079}, {0.0009446, 0.0831197, 0.0097554}, {0.0028956, 0.0011196, 0.0581694}},{{-0.2341295, -0.320984, -0.0235005}, {0.1095327, -0.1014213, 0.0555355}, {-0.3327271, -0.0468341, -0.1431506}},{{-0.1330006, 0.1833591, -0.0155641}, {0.1161239, 0.2327157, 0.178315}, {-0.0934601, 0.0018528, 0.0912397}},{{-0.1678914, -0.3112626, 0.0167962}, {0.0612694, 0.2773652, 0.0325871}, {-0.0917725, 0.0008102, 0.0626344}},{{-0.180919, -0.1924267, -0.1691835}, {-0.2287481, -0.1176414, 0.0210339}, {0.1145961, 0.1917591, 0.111573}},{{0.006474, -0.019139, -0.0842895}, {0.0904651, -0.146337, -0.1594797}, {-0.0027229, -0.058772, -0.2460134}},{{-0.0858291, -0.2461928, 0.3451597}, {-0.0949562, 0.105028, 0.4138858}, {0.3274026, 0.2406274, 0.071462}},{{-0.1278501, -0.0152635, 0.2417778}, {-0.0363479, -0.0454878, 0.1363641}, {0.0392753, 0.2713825, 0.0706843}},{{0.4175329, -0.061949, 0.2753429}, {0.0983005, -0.1238089, -0.0226676}, {-0.0136849, 0.0455291, -0.0885976}},{{0.0603975, -0.0600461, -0.0034573}, {0.0406812, 0.0139228, -0.0672326}, {0.0563171, -0.0084602, 0.0006484}},{{-0.1233998, -0.0344522, 0.0587926}, {-0.1187838, -0.2110835, -0.0413266}, {-0.1388533, 0.0693015, 0.0006903}}},
{{{-0.067793, 0.0489831, -0.0819789}, {-0.1496751, 0.1137634, -0.1921243}, {-0.0500112, 0.3031946, -0.2126872}},{{-0.3419319, -0.2930902, -0.3100018}, {0.1446619, -0.2477951, -0.3000388}, {-0.1524102, -0.2371466, -0.1108319}},{{0.1605338, 0.0653996, 0.069542}, {0.204686, -0.2119895, -0.0123699}, {-0.1934387, -0.0559218, -0.0901795}},{{0.1389984, -0.2152058, 0.0507065}, {0.107495, 0.0400861, -0.2109965}, {0.0044373, 0.1178006, -0.1491537}},{{-0.006193, 0.1801262, -0.1252875}, {-0.0854462, -0.12917, -0.1672503}, {-0.2916561, 0.1082185, -0.103049}},{{0.1212353, -0.0123661, 0.1724421}, {-0.0322668, 0.0687361, -0.1622271}, {-0.3870457, 0.0936642, -0.0411523}},{{-0.0535512, -0.290384, -0.0280175}, {0.0684419, 0.2106571, -0.1855604}, {-0.2581071, 0.2716444, 0.186068}},{{-0.0595717, -0.0333184, -0.0250125}, {-0.022651, -0.0888247, -0.0009784}, {0.0309716, 0.0875898, -0.0126952}},{{-0.4367803, -0.4717506, -0.1110659}, {-0.1387484, -0.2218401, -0.1002749}, {-0.1673943, -0.0820727, -0.1068284}},{{-0.1080402, -0.0742927, -0.1215395}, {0.1044277, -0.0893925, -0.0605128}, {-0.0111442, 0.0088994, 0.0584976}},{{-0.0269985, 0.0501523, -0.046329}, {-0.0512791, -0.084224, 0.1086477}, {-0.0708236, -0.0376047, 0.0271146}},{{-0.0109839, 0.0493609, 0.0142874}, {0.0228989, -0.0087372, -0.0186555}, {0.0366332, -0.0671835, -0.0214065}},{{-0.0170738, 0.0079039, 0.0034649}, {0.0583686, 0.0122002, 0.0464519}, {0.0413927, 0.0069396, -0.0163514}},{{0.0365175, -0.0560081, 0.0575959}, {-0.0343574, 0.0366205, -0.1050239}, {-0.0171103, -0.1451668, -0.084615}},{{-0.0767611, 0.0388795, -0.0423709}, {-0.0469464, -0.0630568, 0.0567579}, {0.0331487, 0.0405085, 0.0111345}},{{-0.0876125, -0.2374537, 0.0124222}, {0.1050425, -0.3232467, -0.0426686}, {-0.0339685, -0.163031, 0.0742673}},{{0.0857154, -0.0402161, -0.096687}, {-0.0840489, -0.0198278, -0.0633359}, {-0.274364, 0.3614996, -0.4788975}},{{0.0299108, 0.062736, -0.1456034}, {-0.1831516, 0.108876, -0.3001101}, {0.2202759, 0.0195624, -0.2178728}},{{-0.0798741, -0.0174524, -0.0881521}, {0.0535606, -0.0976075, -0.0081914}, {-0.0034654, 0.0447728, -0.0261468}},{{-0.0829326, 0.0664703, 0.0038042}, {-0.1820831, -0.0408202, 0.0881093}, {0.0905398, -0.0252835, 0.0043637}},{{0.1403516, -0.306766, -0.1576002}, {-0.306729, 0.095253, -0.0554867}, {-0.2912337, -0.2480134, 0.0262951}},{{0.0098851, 0.2187662, -0.0177406}, {-0.0294721, 0.0085832, -0.1902296}, {0.0242182, -0.1004153, 0.073401}},{{-0.0909216, 0.0859034, -0.2923439}, {0.2244434, 0.2115866, -0.0751966}, {-0.2658697, -0.1566755, -0.3831827}},{{-0.1673452, -0.044609, -0.0195163}, {-0.222839, -0.2447803, -0.090918}, {-0.1671789, -0.2504543, -0.3126534}},{{0.1009146, 0.0265653, -0.1986004}, {-0.0692713, -0.0229525, -0.1480035}, {-0.0038314, 0.0240248, -0.0925176}},{{0.1173611, -0.117184, -0.4500214}, {0.0675055, -0.0484294, -0.3785816}, {-0.0082465, 0.1907779, -0.2745078}},{{-0.0636253, 0.0239629, -0.0862539}, {-0.3901409, -0.0362425, -0.0941442}, {-0.1650143, -0.1579178, -0.0590343}},{{-0.2150521, 0.1041198, -0.2459825}, {0.0113781, 0.0658652, -0.2794136}, {0.2121661, -0.1361609, 0.0085981}},{{-0.0165674, -0.1147955, 0.0139884}, {0.1085504, -0.0967899, -0.28167}, {-0.307432, -0.1202914, -0.0104356}},{{-0.0525063, 0.0167083, -0.0601557}, {-0.1620125, -0.1786006, -0.0456515}, {-0.2698828, -0.16221, -0.1674857}},{{-0.0833392, 0.1325468, -0.1303106}, {-0.0252878, 0.198506, -0.2874045}, {-0.1739844, -0.0634051, 0.1614012}},{{0.1426654, -0.2815696, -0.25103}, {-0.1586742, -0.2492146, 0.0497628}, {-0.1452002, -0.1445434, -0.1562101}},{{-0.1779901, -0.0174951, -0.1913318}, {-0.2274617, 0.2137011, 0.1630634}, {-0.0858264, 0.1138046, -0.4279767}},{{-0.0131205, 0.0184314, 0.1735158}, {-0.1000614, -0.112804, -0.0999524}, {-0.1822578, 0.126359, -0.3807581}},{{-0.0372183, -0.0110788, 0.0095773}, {0.0012466, 0.0256003, -0.0217446}, {-0.0966409, -0.0729034, 0.0265102}},{{0.0720987, -0.0247128, -0.8459986}, {0.1154264, -0.1293097, -0.535131}, {0.1632226, -9.83e-05, -0.1932455}},{{-0.0376836, -0.1317604, 0.0974562}, {-0.1488886, -0.0755036, -0.1792684}, {-0.2475473, -0.0042333, -0.0889521}},{{-0.0608115, 0.0409312, -0.0818734}, {0.0278053, -0.0257572, -0.0132207}, {-0.0433508, -0.0538352, -0.045951}},{{-0.0552141, -0.1597667, -0.1299951}, {-0.0483438, 0.1698654, 0.1066457}, {0.0103159, -0.0598865, -0.2114015}},{{0.0130073, -0.2345073, -0.0122035}, {-0.0842946, 0.036099, -0.0898352}, {0.0012906, 0.114602, -0.1309337}},{{-0.1017585, -0.0174223, 0.0197303}, {-0.0581704, 0.029624, -0.0614177}, {0.122065, -0.0509663, -0.1935867}},{{0.0405575, -0.0932903, 0.0394311}, {-0.1132807, -0.055191, -0.0001515}, {0.1098518, -0.064825, -0.0423755}},{{-0.1470654, 0.2062159, -0.3508092}, {-0.0419362, 0.2685064, -0.3082236}, {0.0589099, 0.140425, 0.0496553}},{{-0.0646786, -0.2165725, 0.0131958}, {-0.0566755, 0.0437218, 0.327233}, {-0.2358634, -0.130459, -0.1255258}},{{-0.0779644, -0.0876892, -0.2113438}, {-0.0055302, -0.2435109, -0.1059983}, {-0.1060679, -0.0454635, 0.0387405}},{{-0.0787825, -0.1431598, -0.4714042}, {0.1615451, -0.1594778, -0.3700418}, {-0.0574941, -0.0973844, -0.1857884}},{{0.1003187, -0.1397236, 0.04304}, {-0.1240442, -0.2350237, -0.2311579}, {-0.3203218, -0.0159458, -0.0260241}},{{-0.0276415, 0.0021601, -0.1593017}, {-0.0822055, 0.092266, -0.2243546}, {-0.2482086, 0.3463277, -0.1256794}},{{-0.19157, 0.069723, 0.0653845}, {-0.1857584, -0.0837463, -0.1232266}, {-0.1284495, -0.1513332, -0.248101}},{{0.0858854, -0.0021061, -0.0398948}, {0.038452, -0.0062137, -0.0095471}, {0.0532693, 0.0447555, 0.0418056}},{{-0.0784364, 0.1630681, -0.0740625}, {0.0466643, 0.1888899, -0.0705973}, {-0.0202881, 0.069282, 0.0870338}},{{0.030599, -0.2344009, 0.0577921}, {0.1449667, -0.0920995, -0.0907685}, {-0.1342835, 0.0062471, -0.0894394}},{{0.0911054, -0.0104681, 0.2885907}, {-0.0522757, 0.1155809, -0.0689264}, {0.0889341, -0.0504216, -0.177635}},{{-0.0515596, 0.0427528, 0.0145234}, {0.0100316, -0.011546, -0.0108622}, {-0.1282676, -0.0775882, -0.009707}},{{0.0669772, -0.1061587, -0.0742251}, {-0.3752359, -0.181789, -0.1395705}, {0.0617374, -0.3363114, -0.3533295}},{{0.029714, 0.0791831, 0.0662553}, {0.1970967, 0.2389513, 0.2335706}, {-0.0805532, -0.177379, -0.0941724}},{{0.0282067, -0.2110713, -0.1275247}, {0.2327844, 0.0491099, 0.2615185}, {0.1830621, -0.0503671, 0.1256131}},{{-0.4040392, -0.3476741, -0.1794138}, {0.0098238, -0.1965648, -0.1717873}, {0.0895884, 0.1411798, 0.2664703}},{{-0.0302734, -0.0514446, 0.0275343}, {-0.0653589, 0.0614465, -0.104517}, {0.0056571, 0.1780634, 0.0829098}},{{0.1334714, 0.1849052, -0.2615032}, {0.3123017, 0.2326284, -0.1296115}, {0.1099461, 0.0350976, -0.5496735}},{{0.0714712, 0.1831004, -0.1196004}, {-0.1352303, -0.0684151, -0.1342016}, {-0.0264832, -0.195923, -0.2563374}},{{0.1466471, -0.148293, -0.0720325}, {0.0639552, 0.0618808, 0.0642961}, {-0.0875827, 0.1707575, -0.1241791}},{{0.0341661, 0.027889, -0.0733794}, {-0.0348195, 0.0237105, -0.0080372}, {-0.0515813, -0.0189926, 0.0234292}},{{-0.2763433, -0.1725729, -0.2360948}, {-0.7652297, -0.2415254, -0.2096332}, {-0.3358328, -0.1211953, -0.1333038}}},
{{{0.0365782, 0.1342287, 0.0896454}, {-0.1044817, 0.0248405, 0.0238747}, {-0.0808836, -0.0411197, 0.1195154}},{{-0.0931598, 0.2081532, -0.3457455}, {-0.1797351, -0.066123, -0.0826227}, {-0.0056787, 0.0134404, -0.0073444}},{{0.1708761, -0.0938746, -0.1844402}, {-0.0137904, 0.1237023, -0.0484548}, {0.0430278, -0.2229583, 0.0295326}},{{-0.0415298, 0.1889081, 0.1939231}, {-0.1999663, -0.1283178, 0.223522}, {-0.3900453, 0.1392631, 0.0247429}},{{-0.0050784, 0.2266918, -0.1638131}, {-0.031358, 0.0858366, 0.0277907}, {-0.0722673, 0.0139247, -0.0299989}},{{0.1727446, 0.3114019, 0.0606186}, {-0.20945, -0.0928647, 0.0059785}, {-0.1712697, 0.0818607, -0.1817066}},{{-0.1103462, -0.0115593, -0.0692978}, {-0.2716723, 0.1613861, -0.1124795}, {-0.0970658, -0.0067404, -0.3558107}},{{-0.0310875, -0.0809942, -0.075007}, {0.0040703, -0.0531452, 0.0578879}, {-0.1476833, -0.0104938, -0.0728581}},{{0.2915809, -0.1524679, -0.3042822}, {0.0412461, 0.0087979, -0.3075314}, {0.1050085, -0.0715743, -0.4688465}},{{-0.0053175, 0.0128634, -0.0114231}, {-0.2172045, 0.0560952, 0.0541535}, {-0.0945446, -0.0283625, -0.0354318}},{{-0.0907035, 0.0508484, 0.1506101}, {0.0131809, 0.0177565, 0.0647818}, {-0.0140143, 0.0030495, -0.0097991}},{{-0.0345861, -0.0065859, 0.0346104}, {-0.0835291, -0.1017286, -0.0496909}, {0.0092199, -0.0369794, -0.1003255}},{{-0.1809471, -0.0820624, 0.1007196}, {0.0167844, -0.0847435, -0.0348077}, {0.0922918, 0.0266839, 0.0336727}},{{-0.1326346, 0.0804317, -0.0228609}, {0.1561482, -0.1168386, -0.0919474}, {-0.0707925, -0.1014355, -0.0912826}},{{0.0824606, 0.0537974, 0.0601095}, {0.0676825, -0.013999, -0.0355639}, {-0.0299766, -0.0221597, -0.0568847}},{{0.0418502, 0.2185461, -0.1587583}, {0.2562427, 0.0096853, -0.0321407}, {-0.1402927, -0.1064225, 0.0065855}},{{0.2541744, 0.1253244, -0.0605815}, {-0.0766123, -0.2495304, 0.1083025}, {-0.0196609, -0.1989555, -0.1446996}},{{0.0285008, -0.0554204, 0.1939886}, {-0.2184175, -0.0495897, 0.0327716}, {-0.0907969, -0.0896498, 0.1054004}},{{0.0268582, 0.0623827, -0.0503351}, {0.074098, -0.0449228, -0.0490926}, {-0.0006556, -0.011698, -0.0680254}},{{0.1929961, 0.0777995, -0.0820319}, {0.0128141, -0.049279, 0.0885425}, {-0.0303824, -0.0943576, -0.0626458}},{{-0.0639022, 0.1719076, -0.2116954}, {-0.2811189, -0.1400373, -0.3181975}, {0.004155, 0.036176, -0.1538654}},{{0.0511039, 0.187278, 0.1237996}, {-0.0206472, 0.1384128, 0.0626414}, {-0.2802148, -0.072151, 0.1025143}},{{-0.0640496, 0.0828893, -0.2099997}, {-0.0611592, -0.0081189, -0.3580139}, {-0.1134948, -0.054731, -0.1877094}},{{-0.0800958, -0.2636414, -0.0927078}, {-0.4935895, -0.2619576, -0.1674012}, {-0.3460935, -0.2587324, 0.0202778}},{{-0.0514539, -0.4675211, -0.0847035}, {-0.0512711, -0.1216151, -0.1712289}, {-0.0735741, -0.2525463, -0.1646957}},{{0.082953, 0.3263229, 0.0862666}, {0.0068968, -0.455166, 0.1807349}, {-0.4443405, -0.2605162, -0.0489199}},{{-0.1498411, -0.4707509, -0.0710556}, {-0.2867275, -0.1049536, -0.0150383}, {-0.2016817, 0.0990213, 0.096082}},{{0.035046, 0.4613503, -0.0446265}, {-0.2985961, 0.1382442, 0.1036431}, {-0.1092415, -0.5387303, 0.3045379}},{{0.0284433, -0.0179758, -0.0056467}, {-0.0949981, -0.1084121, 0.0058349}, {0.1023975, 0.0258099, -0.252647}},{{-0.0775738, 0.0414992, -0.1245957}, {0.0533255, -0.0175998, -0.0643384}, {0.0535014, 0.0186527, 0.0008251}},{{0.1565312, 0.0742934, 0.05065}, {0.005787, 0.1524736, -0.0101392}, {-0.2333891, -0.2527237, 0.2368575}},{{-0.0952391, 0.2329041, 0.0691148}, {-0.1870032, 0.1390392, 0.1014219}, {0.053683, -0.2208338, -0.1083237}},{{-0.0653453, -0.0799796, -0.22463}, {-0.176497, -0.2924595, 0.0987711}, {-0.0790491, -0.0309034, -0.0537394}},{{0.0979991, 0.2732122, -0.2462445}, {-0.1576742, 0.1322628, -0.1773221}, {-0.1681396, 0.2353148, 0.2766922}},{{-0.0103697, -0.0844251, 0.0444347}, {-0.0066741, 0.0121479, 0.0457757}, {0.0369912, 0.0085039, 0.0437535}},{{0.1680587, 0.2612242, 0.0529225}, {-0.2539053, -0.2425555, 0.0245489}, {-0.5409213, -0.2709447, 0.1781565}},{{-0.0041293, -0.0605813, -0.1710983}, {-0.0819239, -0.141793, -0.1922975}, {0.2173573, 0.0697668, -0.0786371}},{{0.1274371, 0.1078001, -0.0425925}, {-0.0050779, 0.008583, -0.068916}, {0.0267101, -0.0080042, -0.0325848}},{{-0.0599636, 0.0779857, -0.2750648}, {-0.217717, 0.1094838, 0.0158862}, {-0.1749036, -0.0705553, -0.020414}},{{-0.1312497, 0.0111496, 0.1457746}, {0.0105079, 0.0560118, 0.0756711}, {-0.0222413, -0.0249684, -0.0463243}},{{-0.0268863, 0.3269486, 0.0182334}, {-0.0419536, 0.0633867, 0.0644913}, {-0.0136298, -0.2580725, -0.0344247}},{{0.2736518, 0.4462074, 0.3951653}, {0.0130189, 0.0307707, 0.1347355}, {-0.0199034, -0.0286827, -0.1356524}},{{0.0542555, 0.0698122, 0.1070491}, {0.2008547, 0.0929188, -0.02721}, {-0.1809339, -0.3448995, 0.2485975}},{{0.1018832, 0.0428979, -0.2506997}, {0.0989504, 0.0785159, -0.0151127}, {0.1344181, -0.2454412, -0.2645411}},{{0.1054821, -0.0027124, 0.0363879}, {-0.0437532, -0.0428058, -0.0298334}, {-0.0471441, -0.006773, 0.021973}},{{-0.0370225, 0.3105673, -0.303987}, {-0.2824752, -0.1392556, -0.0086711}, {0.1091283, -0.1281352, -0.0752071}},{{-0.0260304, 0.042743, -0.0181254}, {-0.4090205, -0.0419266, 0.0709243}, {-0.3618703, 0.063336, -0.1398621}},{{-0.0075009, 0.2042772, 0.3688623}, {-0.2242299, -0.0621213, -0.0928461}, {-0.4885748, 0.045122, -0.2387211}},{{-0.0026666, 0.0606609, -0.0140165}, {0.0424544, 0.0555672, -0.1195351}, {-0.0006124, -0.0637646, -0.0782143}},{{-0.0536892, 0.0535387, -0.0643641}, {0.0551893, -0.0337877, -0.0625785}, {-0.1161881, -0.0384411, 0.0027709}},{{0.2808994, 0.1085178, -0.128862}, {0.3305506, 0.0293277, -0.1929145}, {-0.0163955, -0.1900631, -0.1276849}},{{-0.0831103, -0.1460335, -0.3033094}, {-0.0094176, -0.2360754, 0.051158}, {0.0119754, 0.1074503, 0.1753146}},{{-0.1612462, -0.0753734, 0.1483391}, {-0.0236682, 0.0162214, 0.0285012}, {-0.0424134, 0.0165596, 0.2169084}},{{0.0505215, 0.0029419, 0.0672783}, {-0.04545, -0.106944, 0.0018345}, {0.0316192, -0.0041685, -0.0767105}},{{-0.0721204, -0.0902589, 9.37e-05}, {-0.1795049, -0.0881519, -0.0091835}, {-0.1358922, -0.1538325, 0.1465653}},{{0.1328032, 0.1329783, 0.205238}, {0.207347, 0.0310266, -0.161763}, {0.0403943, -0.1677101, 0.2994157}},{{0.2309153, 0.3734133, -0.1278516}, {0.1306943, 0.1736135, -0.1418833}, {-0.0170939, 0.0941515, 0.036196}},{{0.0847759, 0.1339241, -0.2651567}, {-0.0080406, 0.2770611, -0.1457196}, {0.1785284, 0.0037893, -0.0961611}},{{0.0435342, -0.0407114, -0.1651306}, {-0.0572357, 0.0600837, -0.0665138}, {-0.2497364, -0.1201601, -0.0726351}},{{-0.3411534, -0.0336878, -0.2060952}, {-0.1436078, -0.0976379, -0.099403}, {0.1268909, -0.1176361, -0.2716395}},{{-0.1347501, -0.0707913, 0.1491}, {-0.1140964, -0.1620886, -0.087294}, {0.1923461, -0.2461173, 0.1367507}},{{-0.2007154, 0.349783, -0.1852563}, {-0.0691397, -0.0516585, -0.0368568}, {0.2595677, 0.0442414, 0.0092561}},{{-0.0426896, 0.0548279, -0.0877846}, {0.0119291, 0.0504852, 0.0513378}, {-0.0017408, 0.0128969, -0.0692868}},{{-0.1265786, -0.0502124, 0.0816668}, {-0.2864393, 0.0617656, 0.1635064}, {-0.018487, -0.0216131, -0.0605595}}},
{{{0.0515641, -0.0750183, 0.0266094}, {-0.0254318, -0.003942, 0.0051529}, {-0.0039553, -0.0245599, -0.0189599}},{{-0.0361736, 0.0263842, 0.0482222}, {-0.0013932, -0.0293654, -0.0919631}, {-0.0195972, 0.0236848, 0.0046176}},{{0.0075882, -0.0009338, -0.067718}, {-0.077409, 0.0186174, -0.0851077}, {-0.0222608, -0.0110087, 0.0392216}},{{-0.0279221, -0.0204352, 0.0200065}, {-0.0655757, 0.0040142, -0.0467114}, {-0.0443142, -0.0726656, -0.0031709}},{{0.013004, -0.035824, -0.0947234}, {-0.0676626, 0.0231481, 0.0368045}, {-0.0361516, 0.0053298, -0.0556418}},{{0.0055253, -0.0653666, 0.0277551}, {0.0435372, 0.0048045, -0.0074439}, {-0.0376571, 0.0419458, -0.0194943}},{{0.0581574, -0.0401717, -0.0284503}, {0.0409374, 0.0114335, 0.0129073}, {-0.0617245, 0.0053592, -0.0118156}},{{0.0520441, 0.0578252, 0.0660106}, {-0.0490583, -0.0136971, 0.0068423}, {-0.0222857, -0.0711004, -0.0260428}},{{-0.0120945, 0.0008769, -0.003953}, {0.0524462, -0.0353611, -0.0032942}, {-0.0630885, -0.0705217, -0.0407432}},{{-0.0629021, -0.049244, 0.0022428}, {0.0427169, -0.0007095, -0.0799089}, {-0.0031706, 0.0342372, -0.0331107}},{{-0.0210934, -0.0464726, -0.0093265}, {-0.0519079, 0.0227893, -0.0532159}, {-0.0634906, -0.0689555, 0.0473498}},{{-0.0674728, 0.0037608, 0.0577105}, {-0.0259788, 0.0349227, -0.0383436}, {-0.0417053, 0.0092793, 0.0319566}},{{-0.0447617, -0.0755729, -0.0223851}, {0.0548469, 0.0548958, 0.060467}, {0.0248007, 0.0382886, -0.0238174}},{{-0.0311549, 0.0617389, 0.0350765}, {-0.0481879, -0.0733214, -0.0570384}, {-0.0496797, -0.1010492, -0.0081984}},{{0.0466152, -0.0547583, 0.0381787}, {-0.0771214, -0.0586508, -0.0357582}, {-0.0246059, -0.0122189, 0.0328411}},{{-0.0347045, -0.0774699, -0.080644}, {0.0533252, -0.0491942, 0.0371196}, {0.0040061, 0.0490027, -0.0105782}},{{-0.021879, -0.0254878, -0.0800098}, {-0.0382288, 0.0204527, -0.0537949}, {0.0166352, -0.0665504, 0.0379116}},{{-0.0154776, -0.0608173, -0.0478719}, {-0.0613111, -0.0367579, -0.0780283}, {-0.0455829, -0.0252619, -0.1035034}},{{-0.0070646, 0.0480875, 0.0341856}, {-0.0806279, -0.0044033, 0.0302762}, {-0.0143666, -0.0688652, 0.0218899}},{{-0.0397436, -0.0571612, 0.0107746}, {0.0275934, 0.0026629, 0.0533892}, {0.0048285, 0.0202229, -0.067931}},{{0.0190694, -0.0534105, -0.0732942}, {-0.0078188, -0.0518005, -0.0226761}, {0.0194599, -0.0597408, -0.0909163}},{{0.0072017, -0.0325165, -0.0731762}, {-0.0447118, -0.0056749, 0.0345566}, {0.0160275, 0.0527005, 0.0182037}},{{0.0609427, 0.0423239, -0.0417145}, {-0.0237672, -0.0723089, 0.0173523}, {0.0325265, 0.0394978, 0.0386491}},{{-0.0811414, -0.0926919, -0.0745244}, {0.0275143, 0.008424, -0.0426626}, {-0.0420822, -0.0939941, 0.0100006}},{{-0.0599508, 0.0032572, 0.0223291}, {-0.032225, 0.0352482, -0.0196483}, {-0.0361027, 0.0232273, 0.045926}},{{-0.078682, -0.0520632, -0.0108477}, {0.0464441, -0.0704282, -0.0563474}, {-0.0137721, 0.011219, -0.0097989}},{{-0.0574218, 0.018088, -0.0774783}, {-0.0871178, -0.0735943, -0.0445561}, {-0.0039966, 0.0280404, 0.0024154}},{{-0.0407143, 0.0154195, 0.0251272}, {0.003149, 0.0502934, -0.0106965}, {0.0082303, -0.0460148, -0.0309608}},{{-0.0074897, -0.0390852, 0.0409987}, {-0.0607988, 0.0376557, 0.0026397}, {0.0361683, -0.0771399, -0.0338316}},{{0.0156635, -0.035691, 0.0087557}, {0.0522903, 0.0036862, -0.0197516}, {-0.0682616, -0.0251027, -0.0576638}},{{0.0438023, 0.0215972, 0.0606632}, {-0.0283944, -0.027506, -0.0326828}, {0.035752, 0.0391638, 0.0378955}},{{-0.0407353, -0.0295301, -0.0140484}, {0.0343306, -0.0398772, -0.0111669}, {0.0010379, -0.0134404, 0.0069375}},{{-0.0162296, -0.0397203, -0.0205976}, {0.0453299, -0.0780155, 0.0245144}, {0.0188531, 0.0592912, 0.0405543}},{{-0.0599899, 0.0034445, -0.084213}, {-0.0611547, 0.0417124, 0.0257634}, {-0.079378, -0.0455609, -0.0442832}},{{-0.0624451, 0.0486348, 0.0416641}, {-0.0451403, -0.0144804, -0.0566105}, {-0.041801, 0.0654069, -0.0587543}},{{-0.0613912, 0.024412, -0.0064164}, {0.0319845, -0.066963, 0.01743}, {-0.0284511, 0.0117792, -0.0398348}},{{-0.0799148, 0.0312635, -0.0289913}, {0.0057875, -0.0495142, -0.0805269}, {0.0483701, 0.0293603, -0.0611092}},{{0.003982, 0.0625254, -0.0269957}, {-0.0506005, 0.0259786, -0.02863}, {-0.0130213, -0.001939, 0.0410275}},{{0.0203076, -0.0475405, -0.0501443}, {-0.0685455, -0.0507281, -0.0130738}, {-0.0667818, -0.0500407, -0.0712417}},{{0.0588893, -0.0772035, 0.0022786}, {0.0333548, 0.0334143, -0.029522}, {-0.0519765, -0.0375009, 0.0686162}},{{-0.0215545, -0.0298235, 0.0051074}, {0.0305753, 0.0076796, -0.042932}, {0.0248188, -0.0310432, -0.0384327}},{{0.0582047, 0.024449, -0.0080834}, {-0.0722783, -0.0200906, -0.0260684}, {-0.0442463, 0.0404436, -0.0197902}},{{-0.054909, -0.0460092, -0.0122931}, {-0.0539796, 0.0401398, 0.0248734}, {-0.0541873, -0.0746519, -0.0366276}},{{-0.0576442, 0.0177496, 0.0389153}, {-0.076877, -0.050552, -0.0522398}, {0.0131912, 0.0175726, -0.004352}},{{0.0600661, -0.0117766, -0.0285398}, {-0.0711502, -0.052882, 0.0055023}, {-0.0403143, -0.0586251, -0.050882}},{{0.0010642, -0.0429107, -0.0377308}, {-0.0007999, -0.0609106, -0.0955345}, {-0.0052057, 0.0006971, -0.0306517}},{{-0.0685032, -0.003256, -0.0549232}, {-0.05457, -0.0008041, -0.064874}, {0.0155924, -0.0160005, -0.0039265}},{{0.0264289, 0.0047341, -0.0616061}, {-0.0522665, -0.0740185, -0.0048429}, {0.0254074, -0.1077793, -0.0408015}},{{0.0092077, -0.0126752, -0.0275496}, {-0.0098767, -0.0841654, -0.0174806}, {0.0236552, -0.0923853, -0.0930606}},{{0.0129226, 0.0573477, -0.0426186}, {-0.0425474, -0.0796678, -0.0355077}, {0.0419171, 0.0407297, -0.0152856}},{{-0.0465275, 0.0576957, -0.0142438}, {-0.0648835, -0.0031093, -0.0140177}, {-0.0509457, 0.0061936, 0.0103705}},{{-0.0602337, 0.0592889, -0.0189267}, {-0.0139588, 0.0003675, -0.0569508}, {-0.0164092, 0.0478979, -0.0408457}},{{-0.0273367, 0.0154551, -0.002245}, {0.0144131, 0.0317931, -0.0488167}, {-0.0596156, 0.0106236, 0.000711}},{{-0.0266486, 0.0581784, 0.0169586}, {-0.0825987, -0.0479312, 0.0534824}, {0.0058484, -0.0851053, -0.0806468}},{{0.0318744, 0.0026288, -0.0586886}, {0.001854, 0.0408753, -0.0532661}, {-0.0840175, -0.0577281, 0.0115777}},{{-0.0777661, -0.0161352, 0.015751}, {0.0209499, -0.0098218, 0.0419003}, {-0.0946342, -0.1003564, -0.0376742}},{{-0.049496, 0.0244376, -0.0044691}, {-0.037256, 0.027967, 0.0163901}, {-0.07122, 0.0275465, 0.0060249}},{{0.0207418, -0.0445775, 0.000862}, {-0.0179692, -0.0706497, -0.013635}, {-0.0654568, -0.0686591, -0.0807016}},{{0.0010343, -0.0560872, 0.0458218}, {0.0596128, -0.049662, 0.0023035}, {-0.0098142, 0.0501562, -0.0188057}},{{-0.0097009, -0.0213556, -0.0477129}, {-0.0019181, -0.012498, 0.0296608}, {-0.0420355, -0.0655701, 0.0616191}},{{0.0141481, -0.0398021, -0.0504761}, {0.012726, 0.0018079, -0.0446235}, {0.0046524, 0.0365009, 0.0276863}},{{0.0244724, 0.0540244, 0.0416918}, {-0.020945, -0.0372868, -0.0007981}, {-0.0422615, -0.0733835, 0.0167595}},{{-0.0021734, 0.0057642, -0.046733}, {-0.0379339, 0.0227309, 0.0018104}, {0.060933, 0.0539512, 0.0077862}},{{-0.0935678, -0.0303744, 0.0116956}, {-0.0361044, -0.0442218, -0.0524696}, {-0.082604, -0.0604854, -0.0178777}}},
{{{-0.1302487, 0.1965957, 0.2258116}, {0.0354652, 0.1492204, 0.1753974}, {-0.0119614, -0.110998, -0.1222738}},{{-0.1889852, 0.1673583, 0.0145849}, {0.0781778, 0.1305384, 0.1546788}, {-0.1785, -0.1810232, -0.3970052}},{{-0.3696762, -0.0584875, -0.0768708}, {-0.1889192, 0.0450267, 0.0860027}, {-0.1304027, -0.0082006, -0.0626186}},{{-0.0873213, -0.5340242, -0.1842871}, {-0.234899, -0.5683035, -0.011895}, {0.0902089, -0.4309646, 0.230161}},{{-0.089223, 0.1640809, -0.0831174}, {0.0132013, -0.1755059, 0.0229394}, {0.251954, 0.0617988, -0.035428}},{{-0.0070065, -0.0963385, 0.2007472}, {-0.1686115, 0.1250536, -0.0519921}, {0.00058, -0.2637058, 0.1283385}},{{-0.0282344, -0.1240391, 0.0991595}, {-0.2757324, -0.1441027, 0.0268208}, {-0.2044773, -0.3274287, 0.0176908}},{{-0.0739262, -0.0638722, -0.0150033}, {-0.1258263, 0.0675201, 0.1043284}, {0.0316814, -0.020168, -0.0403081}},{{-0.0029122, 0.1066552, -0.1187813}, {0.1968965, 0.1089592, 0.0297619}, {-0.2675968, -0.1401696, -0.4648643}},{{-0.0962242, 0.0593141, -0.0794954}, {-0.0756582, -0.2033342, -0.2028042}, {-0.0536643, 0.0181869, 0.0512634}},{{0.0798877, 0.0619291, 0.1255544}, {0.0634285, -0.0825503, -0.0553015}, {0.0851548, 0.0680509, 0.0561496}},{{0.015338, -0.0145937, -0.0142783}, {0.0570031, 0.0004442, 0.0118986}, {-0.0422535, 0.0220092, -0.0458361}},{{-0.0642057, 0.013479, -0.0499696}, {-0.1313719, -0.0732405, 0.0223176}, {-0.0209783, -0.0154744, -0.0069588}},{{0.1404906, 0.1764829, 0.1536413}, {0.0231167, -0.0330447, -0.0023925}, {0.030218, 0.132466, 0.0113964}},{{0.0303433, -0.0446519, -0.0581426}, {0.0369326, 0.0345797, -0.0177153}, {0.0778302, -0.0123753, 0.1070285}},{{-0.0878666, 0.0812479, -0.2708668}, {-0.4178005, -0.2738296, -0.1497966}, {-0.3853515, 0.1210374, 0.2686638}},{{0.1402733, -0.5167246, -0.4624282}, {0.1007256, -0.1694831, 0.0315041}, {-0.3652912, -0.1882707, 0.2045355}},{{0.0224072, 0.0633335, -0.3631485}, {0.3260444, -0.1732512, -0.1435107}, {0.2882112, -0.3262754, -0.2887719}},{{-0.0326429, -0.0267471, -0.0261988}, {-0.000478, -0.0586, 0.039491}, {0.0729089, 0.0795618, 0.0825744}},{{-0.0188563, -0.0450198, 0.0804092}, {0.0251788, 0.0357958, -0.033877}, {0.1238347, -0.044099, -0.0431303}},{{-0.281035, -0.0602975, 0.0096329}, {-0.1345394, -0.2378077, 0.1294131}, {0.1723491, -0.2267796, 0.110728}},{{0.0539142, -0.0591736, 0.1486888}, {-0.2306584, -0.239401, -0.0719879}, {-0.3029155, -0.2419478, -0.0811171}},{{-0.1917556, -0.1689912, 0.0043004}, {0.2557472, -0.00876, -0.1737572}, {-0.0031775, 0.024769, 0.3510115}},{{-0.1285155, -0.1832867, -0.0355459}, {-0.074016, 0.1282867, 0.2350223}, {0.0193182, 0.1057552, -0.0526046}},{{0.2201464, 0.0670741, -0.0917289}, {0.0541866, -0.0040076, 0.1022179}, {0.0887751, 0.018325, -0.0803748}},{{-0.0699971, -0.7319074, -0.0291363}, {-0.2236349, -0.4509671, 0.2379078}, {-0.082078, -0.280157, 0.0427078}},{{0.0386611, -0.0952062, 0.2094394}, {-0.0581532, 0.2183807, 0.073743}, {0.1442883, 0.0042449, -0.1743087}},{{-0.0555037, -0.3028299, -0.4317031}, {-0.2421343, -0.4374442, -0.1653168}, {-0.4292543, -0.2903781, -0.1069678}},{{-0.1514654, 0.0348224, -0.0802019}, {-0.2005223, 0.1460401, -0.1764345}, {-0.0114001, -0.1821825, -0.0544983}},{{-0.1807898, -0.0578834, -0.0179303}, {-0.0952189, -0.0766663, -0.0519367}, {0.0247215, -0.0696618, 0.0490776}},{{-0.2812497, -0.0026604, -0.1097151}, {-0.3513013, -0.1948134, 0.1254164}, {-0.3046558, -0.3819576, 0.0490617}},{{0.0839802, 0.3521757, 0.1668955}, {0.026106, 0.0258525, 0.2081943}, {-0.2830053, -0.0372503, -0.1517484}},{{-0.0136719, -0.3579466, -0.0345171}, {0.1051022, 0.0466281, 0.0435709}, {0.1056059, -0.0842521, 0.0986918}},{{-0.2867993, -0.1402295, -0.0638139}, {-0.286845, 0.0071136, 0.1224511}, {-0.0535882, 0.239525, 0.1301271}},{{-0.007938, 0.0491674, 0.0416248}, {0.0639211, -0.0684535, 0.0766566}, {-0.0018587, -0.0295495, -0.0372813}},{{-0.0493983, -0.6911318, -0.2526499}, {-0.4004064, -0.5245367, -0.0106677}, {-0.2316512, -0.3199019, 0.0139995}},{{-0.1174493, -0.0823506, -0.0647342}, {-0.0203655, -0.2924962, 0.0965232}, {0.0923983, -0.1132702, -0.1173668}},{{-0.0072264, -0.030973, 0.0410323}, {-0.0657217, 0.0773888, 0.0476777}, {0.0614552, -0.0262108, -0.0497439}},{{-0.0980719, 0.1920494, 0.0115952}, {0.0525491, -0.0290536, 0.1052735}, {-0.036366, -0.2154462, -0.0704303}},{{-0.1292693, 0.0371294, 0.1180572}, {-0.0596188, -0.0010629, 0.0167808}, {-0.1580923, -0.1920887, 0.1085155}},{{-0.0346283, 0.0479267, 0.1191181}, {-0.341992, -0.1889327, -0.1380984}, {-0.1937567, -0.3901376, -0.2336915}},{{0.0254618, 0.1090991, 0.0067317}, {-0.3766894, -0.2925949, -0.154642}, {0.2932073, -0.5081924, 0.0028375}},{{0.0250491, 0.0406645, -0.4439872}, {-0.4768966, -0.3221672, -0.4812579}, {-0.4419353, 0.020886, -0.1488044}},{{0.3815184, 0.2316625, -0.0084284}, {-0.180134, 0.0629717, 0.1238542}, {-0.1990446, 0.0674369, -0.0434676}},{{0.021547, 0.0893333, -0.0827228}, {-0.0255903, -0.0285994, 0.0132591}, {-0.0941594, 0.028757, 0.0188646}},{{-0.2031744, -0.0804279, -0.1188621}, {0.2168141, -0.0440368, 0.0683924}, {0.0789047, -0.1384117, -0.0841073}},{{-0.0509226, -0.3405869, -0.0455105}, {-0.2840529, -0.2443432, 0.033599}, {-0.0201436, -0.0337177, 0.0804864}},{{-0.3946473, 0.0105339, 0.1928661}, {-0.3748486, -0.1767161, 0.1397506}, {0.046752, 0.159086, -0.0069028}},{{-0.201086, 0.0723447, -0.0072187}, {0.0331667, 0.0070386, 0.0297813}, {0.0979828, -0.1217267, -0.1432995}},{{0.0530255, 0.0221491, 0.0323553}, {-0.0187502, 0.0970782, 0.0415072}, {0.017807, -0.0657534, -0.0094111}},{{0.1563263, -0.2643213, -0.1533581}, {0.0823799, -0.1711542, -0.100496}, {-0.3688876, -0.2420121, -0.230276}},{{-0.1273232, 0.1435683, -0.1001011}, {0.0416019, 0.0154396, -0.4386433}, {-0.2390932, 0.1304532, -0.193323}},{{0.2184324, -0.0084924, -0.3615574}, {0.271149, 0.0556205, 0.1378416}, {-0.3975821, -0.0845855, -0.0192276}},{{-0.000966, 0.0937852, -0.0415765}, {-0.0417714, 0.1066373, -0.0284771}, {0.0091249, 0.0736237, -0.0337727}},{{-0.1711351, -0.0900605, 0.2006482}, {-0.20721, -0.0859006, -0.00346}, {0.0172447, -0.0329489, -0.1624527}},{{0.0640504, -0.0085806, -0.2557746}, {-0.1536208, 0.204542, 0.1324001}, {-0.0049905, -0.0172293, -0.0825237}},{{0.1099231, -0.0719337, -0.2252955}, {-0.3430138, -0.2473764, -0.0643637}, {-0.3051199, 0.0329242, 0.1668272}},{{0.1997171, 0.3524095, 0.0136376}, {0.1359023, 0.0191741, -0.0596535}, {-0.3621231, -0.2167286, -0.0506336}},{{0.0346294, -0.3653889, 0.117673}, {-0.048104, -0.0844184, 0.195394}, {-0.2550203, 0.0558443, 0.1920192}},{{0.0191698, 0.2480403, -0.1581073}, {0.0788068, 0.0077701, -0.3864533}, {0.2311647, -0.1330186, 0.25234}},{{0.1856757, -0.1827723, -0.0671719}, {0.0413308, 0.2418618, 0.0764709}, {-0.0086645, -0.3742501, 0.1791912}},{{-0.3781172, -0.4525899, -0.1472469}, {0.1091905, -0.0061617, 0.2654718}, {-0.0535608, -0.0513327, 0.0205636}},{{-0.0400265, 1.01e-05, -0.0698069}, {-0.0686175, 0.0195779, 0.031699}, {-0.0228341, 0.0183139, -0.0061749}},{{-0.1409523, -0.0702849, 0.1328549}, {-0.0112998, -0.0434509, -0.0509354}, {0.1367995, -0.0218508, -0.0493466}}},
{{{-0.0443928, -0.1782441, 0.0407994}, {-0.0060873, -0.0468124, -0.0500563}, {0.1383999, 0.0150581, 0.0280241}},{{-0.1427958, -0.0597904, -0.0717897}, {0.0135898, -0.0802131, -0.2374471}, {-0.085693, -0.0017891, -0.0006177}},{{0.0520064, 0.0873843, -0.0541683}, {-0.0840619, -0.0624641, 0.0196853}, {-0.0529463, 0.0199218, 0.004666}},{{-0.0649244, -0.1871708, -0.1398963}, {-0.1485166, -0.1765652, -0.1709621}, {-0.1943852, -0.0429021, -0.1370603}},{{-0.0507336, -0.1551748, -0.10069}, {-0.105258, -0.0961124, 0.0288388}, {-0.0010912, 0.085748, -0.1261554}},{{-0.2464023, -0.01621, 0.0036917}, {-0.0710471, -0.1405459, -0.1697448}, {-0.2114827, 0.0653701, -0.1435372}},{{0.0914165, -0.0273959, -0.0897383}, {-0.1182139, -0.081562, -0.2334073}, {0.1138706, 0.0588626, 0.0163485}},{{-0.0189892, -0.0691401, 0.0305107}, {-0.0526023, -0.0384664, 0.0639754}, {0.0625329, 0.035745, 0.015897}},{{-0.0248086, -0.0829471, -0.074134}, {-0.1317002, -0.0567237, -0.045088}, {0.2035476, -0.1321475, -0.2146653}},{{-0.0988613, -0.0622559, -0.1102875}, {-0.0465289, -0.1040859, -0.1019357}, {0.0117998, 0.0682375, -0.0776122}},{{0.0404033, 0.1277526, 0.1155318}, {0.0605717, -0.0172179, 0.0273775}, {0.0326214, -0.0802976, -0.0292816}},{{-0.0364029, -0.0368282, 0.0629848}, {0.0275711, -0.0663696, -0.0396212}, {0.0329371, 0.0515764, 0.0077454}},{{-0.0170436, 0.0519128, -0.0362519}, {-0.0481396, -0.0028912, -0.0481428}, {-0.0478186, 0.0460686, 0.0284584}},{{-0.1104522, 0.0967099, 0.0296294}, {0.0168495, -0.0054309, 0.0377278}, {-0.0350875, -0.1104937, 0.0389555}},{{0.0435601, 0.0373552, -0.0044934}, {0.0190746, -0.0652993, -0.0088625}, {-0.0266512, 0.0197167, -0.0370971}},{{-0.1237604, 0.1361627, 0.0340657}, {-0.0771803, 0.1169322, 0.0156442}, {-0.2539869, -0.0408474, 0.0185513}},{{-0.0210991, -0.1194949, -0.0368826}, {0.0565604, -0.1611904, -0.0967778}, {-0.0314666, -0.0123407, -0.1158767}},{{0.0312647, 0.2231762, -0.0157255}, {-0.1355419, 0.0261497, -0.0066401}, {0.092261, -0.2803152, 0.1048688}},{{-0.0422639, -0.0684973, -0.0705116}, {0.0392129, -0.0118454, 0.0368532}, {-0.014538, -0.0582677, -0.0051445}},{{0.0468773, 0.0700996, -0.0374784}, {0.0709648, 0.0933691, -0.005468}, {0.0354855, 0.0275805, -0.0373025}},{{0.0738912, -0.0278228, -0.0585702}, {0.0619905, -0.123544, -0.2406958}, {0.0415447, -0.1826543, 0.0233089}},{{-0.0954198, 0.0766878, 0.0889681}, {-0.1176303, -0.0703297, -0.08226}, {-0.0958235, -0.0143941, -0.0749398}},{{0.0658731, 0.0074491, 0.0908878}, {0.0352327, 0.0101931, 0.0561409}, {-0.0078293, -0.075871, -0.0548955}},{{-0.082623, -0.0010178, -0.1968371}, {-0.2952145, -0.2242381, -0.2838596}, {-0.0928965, -0.2542881, -0.2477571}},{{-0.0377842, 0.1102034, -0.1378227}, {-0.0951299, 0.0039049, -0.1022591}, {-0.1122385, -0.0326159, -0.1389696}},{{-0.1157275, -0.1570216, -0.1386734}, {-0.0261212, -0.0380268, -0.1473633}, {-0.3146034, 0.0465853, -0.0963732}},{{0.0375426, -0.0323987, -0.0066341}, {-0.2480524, -0.0438553, -0.1505413}, {0.0824746, -0.0308955, 0.1166798}},{{-0.0770146, -0.0634062, 0.0455431}, {-0.0419281, -0.181686, -0.0612086}, {0.0072794, -0.1830982, 0.0303647}},{{-0.142435, -0.1783595, 0.007627}, {0.1021068, -0.0827795, 0.0091402}, {-0.1133969, -0.0710342, -0.0511296}},{{-0.0948542, -0.122345, 0.0943712}, {-0.0330676, -0.059385, -0.0409865}, {0.0254871, 0.0875162, 0.0492095}},{{-0.0832765, -0.0811137, -0.0378779}, {-0.0260593, 0.0344175, -0.2559599}, {0.0103718, -0.0047312, -0.0212439}},{{-0.0671432, -0.0938266, 0.1082854}, {-0.275957, -0.0606599, -0.0457112}, {-0.1217686, -0.1176737, -0.1557195}},{{-0.0836505, 0.1698166, -0.0568464}, {-0.0457032, -0.0228527, 0.115927}, {-0.1781148, 0.0162135, 0.0825943}},{{0.0079505, -0.1934073, 0.0542375}, {-0.0848211, -0.1863094, -0.1341199}, {-0.0013377, 0.1862449, 0.0076867}},{{-0.0233639, 0.0234122, 0.0193115}, {-0.051535, -0.0557746, -0.0492235}, {-0.0552112, 0.0099999, -0.0317404}},{{0.0168085, -0.0582231, -0.160647}, {-0.0526174, -0.1490534, -0.0707124}, {-0.028444, 0.0186777, -0.1252725}},{{0.2168912, -0.0811171, -0.0161405}, {-0.0105083, -0.1177993, -0.1007784}, {-0.2057204, -0.0686404, 0.0107626}},{{0.0599027, -0.0123332, 0.0680846}, {-0.0519852, -0.0137031, -0.049941}, {-0.0211205, -0.0377009, -0.0681763}},{{-0.0771366, 0.0867542, -0.2407435}, {-0.0440041, -0.1213942, -0.1098523}, {-0.1123826, 0.1384155, -0.1752419}},{{-0.0666733, 0.0310878, -0.0061541}, {-0.0427253, 0.0022851, 0.0155801}, {-0.037695, 0.0213511, -0.0683836}},{{-0.0110553, 0.0498837, 0.0405432}, {0.1349312, 0.0345497, 0.1609408}, {-0.0028631, -0.0097121, -0.0080629}},{{-0.0969767, 0.0872874, -0.0991918}, {-0.2091405, 0.0888673, -0.0625374}, {0.0369954, -0.0493213, -0.0634593}},{{-0.2198349, -0.0839041, 0.0264934}, {-0.1181414, -0.0529885, 0.0161695}, {-0.2353176, -0.1180962, 0.0688489}},{{0.0725059, -0.0740913, -0.081511}, {-0.1807649, -0.1088553, -0.0666893}, {-0.28099, -0.2635013, -0.2819239}},{{-0.0288785, 0.0055232, 0.0536029}, {-0.0297456, -0.0026876, 0.0489582}, {-0.0317407, 0.0121962, 0.0204272}},{{-0.0821155, -0.1238502, -0.0777623}, {-0.0890568, -0.2288992, 0.0962231}, {0.0459149, -0.1430738, 0.0543173}},{{-0.0190236, -0.0793955, -0.0613598}, {-0.0694857, -0.2378907, -0.3233555}, {-0.0864076, 0.0964945, -0.2545906}},{{-0.2494341, -0.0225529, -0.0593624}, {-0.1401094, 0.0065698, 0.0653026}, {-0.0468766, 0.0778705, -0.1947605}},{{-0.1141549, 0.0092268, -0.1293375}, {0.0464166, 0.0596063, -0.1247398}, {-0.0505877, 0.0722094, -0.0322979}},{{-0.0259293, 0.0543327, 0.011837}, {-0.0509398, 0.055953, -0.0005721}, {0.0134389, 0.039749, -0.0147664}},{{0.0263321, 0.2726212, 0.0340679}, {0.1873213, 0.0443549, -0.0105654}, {-0.001293, -0.2989881, -0.1094411}},{{0.0457406, 0.0374136, 0.0248876}, {0.0886936, 0.1364388, -0.0819698}, {0.0714816, -0.0237652, -0.1398187}},{{-0.2149517, -0.0667895, -0.2498533}, {-0.2194229, -0.0268616, -0.1316488}, {-0.0115474, -0.2909006, -0.1816326}},{{-0.0454132, 0.01164, 0.0214114}, {0.0206125, -0.0175821, -0.0774478}, {-0.0539408, 0.0018526, 0.0245822}},{{-0.1966605, -0.1189485, -0.0358909}, {-0.3218539, -0.1083282, 0.1941894}, {-0.0410527, -0.0803667, 0.0326644}},{{-0.2245349, -0.022523, -0.0624655}, {-0.0844991, -0.1724986, -0.1155097}, {-0.1278914, -0.296525, -0.4090551}},{{-0.0100145, 0.1571212, -0.0189164}, {-0.0688246, 0.0459679, 0.0749447}, {-0.1966272, -0.1505195, -0.1136293}},{{-0.2565896, -0.0187568, -0.0834463}, {-0.1117637, -0.0138838, -0.0898495}, {-0.0296098, 0.0172277, 0.0315146}},{{-0.0612536, 0.0274588, -0.0584013}, {-0.1148256, -0.1197656, -0.162187}, {-0.2130827, -0.0901882, -0.3130556}},{{-0.2052838, -0.0036345, 0.0618759}, {-0.1254438, -0.0536323, 0.0278786}, {-0.1237134, 0.0139751, -0.2381163}},{{0.1341153, -0.0793639, 0.1924883}, {-0.0109687, -0.1231814, 0.1036424}, {-0.0516255, -0.1307573, 0.1684549}},{{-0.0773145, -0.0213242, -0.005644}, {0.0025973, 0.1011679, -0.1463116}, {-0.0974958, 0.1244992, -0.138072}},{{0.034895, 0.0243555, -0.0101394}, {-0.0384081, 0.0322177, 0.0392888}, {-0.0492934, -0.0505087, -0.0151481}},{{-0.3245272, -0.253605, 0.1051479}, {-0.2102446, -0.2062748, -0.0664039}, {0.0286281, -0.0052468, -0.134041}}},
